#include "nn_params.h"

const unsigned short LAYER_DIMS[] = {
    6, 100, 100, 100, 100, 100, 2
};

const Layer LAYER_TYPES[] = {
    DENSE, SOFTPLUS, DENSE, SOFTPLUS, DENSE, SOFTPLUS, DENSE, SOFTPLUS, DENSE, SOFTPLUS, 
    DENSE, TANH
};

const float STATE_BIAS[NUM_STATE_VARS] = {
    5.983143760e-04, 0.000000000e+00, 1.572384208e-05, 
        0.000000000e+00, 0.000000000e+00, 0.000000000e+00  
};

const float INPUT_SCALER_PARAMS[2][NUM_STATE_VARS] = {
    {2.874883943e-01, -7.365871110e-02, -3.311603858e-01, 
        -5.882771159e-02, 1.376140474e-02, 1.738572135e-02},
    {4.012997102e+00, 2.687155765e+00, 3.916096493e+00, 
        2.164041132e+00, 4.929053099e-01, 1.745957682e+00}
};

const float OUTPUT_SCALER_PARAMS[4][NUM_CONTROL_VARS] = {
    {1.972899011e-01, 1.986860848e-01},
    {7.742377751e-01, 7.735088870e-01},
    {3.871191959e-01, 3.867547799e-01},
    {5.986451188e-01, 5.993430495e-01}
};

const float BIASES[NUM_DENSE_LAYERS][MAX_LAYER_DIMS] = {
    {-1.876649618e+00, -8.137787580e-01, -1.954174161e+00, 
        -2.040558338e+00, -2.618715048e+00, -3.183658838e+00, 
        -1.798387289e+00, -1.543643475e+00, -2.122594118e+00, 
        -3.304884195e+00, -1.150048614e+00, -2.255956650e+00, 
        -1.851513624e+00, -1.200155139e+00, -1.519384742e+00, 
        -4.278038740e-01, -1.652996182e+00, -1.085674167e+00, 
        -1.906329632e+00, -6.967010498e-01, -6.058789492e-01, 
        -1.386837244e+00, 3.096767366e-01, -1.291067004e+00, 
        -2.417063236e+00, 7.312306762e-01, -2.008164406e+00, 
        -1.531807899e+00, -1.545639873e+00, -2.055142164e+00, 
        6.401668787e-01, -1.962276459e+00, -5.290602446e-01, 
        -1.896639228e+00, -9.706663489e-01, -3.122174978e+00, 
        -1.633135080e+00, -1.134015322e+00, -1.471674800e+00, 
        -3.699618280e-01, -1.299232244e+00, -1.782103181e-01, 
        -1.150042176e+00, -1.610802531e+00, -1.639244199e+00, 
        -1.340407848e+00, 9.756250381e-01, -1.594820857e+00, 
        -6.676671505e-01, -1.857285261e+00, -1.252255797e+00, 
        -6.702798605e-01, -7.349827290e-01, -1.570729136e+00, 
        -8.109329343e-01, -1.387152076e+00, -1.948316455e+00, 
        -1.999071360e+00, -2.192088366e+00, -7.093650699e-01, 
        -9.234285951e-01, 3.636815548e-01, -1.365329623e+00, 
        2.934364974e-01, -3.820734918e-01, -9.470725656e-01, 
        -1.475162148e+00, -2.465699911e+00, -1.152508140e+00, 
        -2.995850086e+00, -1.052093506e+00, -8.658339977e-01, 
        -9.110249281e-01, -2.255953550e+00, -1.153059363e+00, 
        -1.402791500e+00, -1.080303907e+00, -1.013018608e+00, 
        -1.097989798e+00, -2.357820272e+00, -1.248453856e+00, 
        -1.080234408e+00, -2.242951870e+00, -1.815548778e+00, 
        -2.037949800e+00, -1.497772574e+00, -9.806053042e-01, 
        -2.337297440e+00, -1.781821609e+00, -2.724145412e+00, 
        -2.091492891e+00, -9.085654616e-01, -1.277161479e+00, 
        -6.940584183e-01, -5.787662268e-01, -6.663187146e-01, 
        -1.759369731e+00, 4.146559238e-01, -2.056541681e+00, 
        -8.711459041e-01},
    {3.649366498e-01, -9.141690284e-02, -2.128013611e+00, 
        -3.575589657e-01, -1.710765958e+00, -2.589624226e-01, 
        -2.334157228e+00, 4.481931683e-03, 5.107680559e-01, 
        8.618618250e-01, 4.998120964e-01, 5.614040494e-01, 
        -1.721341729e+00, -4.372180402e-01, 5.990368128e-01, 
        -2.700175345e-01, 6.000618935e-01, -3.412528709e-02, 
        2.957001328e-01, 8.354141116e-01, -1.505119324e+00, 
        -7.677383721e-03, -1.661362052e+00, 4.677149355e-01, 
        -3.425904736e-02, 2.939189672e-01, 4.024938345e-01, 
        6.257644892e-01, 2.945549488e-01, -5.959397554e-01, 
        -2.936518192e+00, -2.485110760e+00, 2.124908566e-02, 
        2.623924911e-01, 3.732890487e-01, -2.179435492e+00, 
        7.307509780e-01, 7.837113142e-01, -2.245594747e-02, 
        5.112619400e-01, -8.559616208e-01, -9.872176647e-01, 
        -4.248131812e-01, 1.504574567e-01, -3.432672098e-02, 
        9.987925887e-01, -3.034604073e+00, -3.591826260e-01, 
        -6.289361119e-01, -1.265852094e+00, -4.345177114e-01, 
        3.456859589e-01, -4.596178830e-01, -2.140785456e+00, 
        1.287625313e+00, 4.657635391e-01, 1.125753224e-01, 
        7.656418681e-01, 1.446428001e-01, -5.522684008e-02, 
        1.069193363e+00, -1.653477699e-01, 1.206982732e+00, 
        -1.290145814e-01, -1.801561832e+00, -1.198289037e+00, 
        7.510934472e-01, 5.854140520e-01, 4.850312471e-01, 
        2.526088357e-01, -2.855226696e-01, -1.001044512e+00, 
        1.437206626e+00, 9.029434994e-03, 3.633248508e-01, 
        -4.337812662e-01, -6.193104386e-01, -8.852158785e-01, 
        -1.436380029e+00, -1.139267564e+00, 3.721212447e-01, 
        7.757894993e-01, -3.590278387e+00, 9.344963431e-01, 
        -1.201267004e+00, 8.967933655e-01, 2.803902626e-01, 
        -7.251488566e-01, -9.525340796e-01, 1.084702555e-02, 
        -9.636929631e-01, -2.462844849e+00, 8.728729934e-02, 
        7.289048433e-01, 1.091531277e+00, -7.468498349e-01, 
        -1.318255663e+00, 9.894593358e-01, -2.585416138e-01, 
        -1.587788463e+00},
    {5.583861470e-01, 1.474464059e+00, 8.459252715e-01, 
        2.709658444e-01, -3.798269987e+00, 7.621568441e-01, 
        -7.168243825e-02, 3.358346820e-01, -1.625176072e-01, 
        4.154174030e-01, -3.163243532e-01, 1.962766409e+00, 
        5.238851905e-01, -2.441142797e+00, 1.582205743e-01, 
        3.137764931e-01, -4.413291931e+00, -1.224184036e+00, 
        -1.377206087e+00, 1.744117141e+00, -3.772636652e-01, 
        1.508314252e+00, -1.025399685e+00, -7.942783833e-01, 
        -2.335355043e+00, -7.650736570e-01, 3.168660998e-01, 
        1.346703768e-01, 3.715277910e-01, 2.727336884e-01, 
        -6.696056128e-01, -1.331264377e+00, 1.070902467e+00, 
        9.374033809e-01, -2.108288527e+00, 3.873912692e-01, 
        1.467011809e+00, 1.308097363e+00, -9.524533749e-01, 
        5.406398773e-01, 7.311165929e-01, -1.133566976e+00, 
        6.433385015e-01, -4.422076046e-01, 1.420556009e-01, 
        -3.917450666e+00, -1.129193902e+00, 1.257803679e+00, 
        -9.773823619e-02, -8.774118870e-02, -2.159139961e-01, 
        7.061704397e-01, 1.956534237e-01, -3.024272434e-02, 
        3.110934496e-01, 6.976660490e-01, -6.299539804e-01, 
        -3.213320971e-01, -1.951701045e-01, -2.522287369e+00, 
        9.681397676e-01, 1.023119036e-02, -4.978377223e-01, 
        1.787289977e+00, 7.118408680e-01, -6.947609186e-01, 
        -2.312486887e+00, 1.685843706e+00, 7.165796161e-01, 
        4.334266782e-01, -1.425676465e+00, 1.853041530e+00, 
        8.752148598e-02, -1.077799439e+00, -3.039274693e+00, 
        4.921316206e-01, -7.157112956e-01, 1.981688619e+00, 
        -1.460188746e+00, 7.299646735e-01, 1.668943644e+00, 
        1.360082388e+00, -9.075431228e-01, 1.062032461e+00, 
        1.384631395e+00, -6.373116970e-01, 2.731326818e-01, 
        -2.445376873e+00, -1.111940622e+00, 1.282593966e+00, 
        -9.517189264e-01, 9.925554395e-01, 5.018124729e-02, 
        1.134487033e+00, -1.073455572e+00, -2.199706078e+00, 
        -1.738713831e-01, -3.879886270e-01, -4.876593590e+00, 
        -6.723120809e-01},
    {-4.338689804e+00, 8.687368631e-01, -1.785519361e+00, 
        -5.624945760e-01, 3.890646398e-01, 1.633117557e+00, 
        -2.281251431e+00, -1.634788156e+00, 1.180884600e+00, 
        -1.245721817e+00, -4.344925582e-01, -1.100386381e+00, 
        -2.261855155e-01, -5.600781441e-01, -2.026688337e+00, 
        -1.986361861e+00, -1.846877813e+00, -5.622470856e+00, 
        -3.579468250e+00, 2.460341752e-01, -2.994858503e+00, 
        5.369066000e-01, 8.687823415e-01, -9.423518181e-01, 
        -1.327145547e-01, 2.786341012e-01, 1.358404309e-01, 
        -6.672084928e-01, -4.749443531e+00, 1.871745437e-01, 
        -7.587739825e-01, 1.323740244e+00, -3.191697598e+00, 
        1.009477496e+00, 2.986321226e-02, 2.051824331e+00, 
        5.522166491e-01, 4.726741314e-01, 1.316999942e-01, 
        9.898532629e-01, 2.606965303e-01, 2.206800699e+00, 
        4.755082726e-01, -8.260606974e-02, -1.189167261e+00, 
        -4.769416809e+00, -7.301619649e-01, -5.168991089e-01, 
        1.259839177e+00, -4.715767503e-01, 7.889747024e-01, 
        3.960184157e-01, 2.988439202e-01, -2.401750535e-01, 
        -4.290040016e+00, -3.104566634e-01, -5.087957382e-01, 
        -1.703117609e+00, -5.052762628e-01, 1.723589063e+00, 
        1.690680534e-01, 9.241954088e-01, 8.394105434e-01, 
        -2.895519733e+00, 1.287848502e-01, -6.124362946e-01, 
        2.563847899e-01, -7.233997434e-02, 3.003226757e+00, 
        1.339620471e+00, 6.143017411e-01, 1.236466840e-01, 
        -1.447752595e+00, 8.420164585e-01, -1.263984442e-01, 
        -3.431683064e+00, -8.651685119e-01, -8.564062715e-01, 
        1.615270376e-01, 1.228590012e+00, 2.053396106e-01, 
        -1.622827888e+00, -3.471941352e-01, -3.963602483e-01, 
        3.127439618e-01, -1.026058674e+00, 6.668094397e-01, 
        1.194744259e-01, -3.917143941e-01, 2.023213863e+00, 
        -5.573620796e-01, -1.424832463e+00, 1.169008732e+00, 
        -1.081484556e+00, 5.373567343e-01, -4.649760425e-01, 
        2.548578262e+00, 8.511221409e-01, 4.533056915e-02, 
        1.495279312e+00},
    {-2.496250868e+00, -2.368211985e+00, 5.320379138e-01, 
        -2.399784327e+00, -1.805350542e+00, -8.598262668e-01, 
        -7.369384766e-01, 8.906746656e-02, -7.965078950e-01, 
        8.535152674e-01, 1.205654025e+00, 2.049278617e-01, 
        -6.456745863e-01, -2.863378048e+00, -3.196796894e+00, 
        5.670782328e-01, 4.957739115e-01, 2.308437973e-01, 
        5.994225740e-01, -1.114482760e+00, 4.667605460e-01, 
        3.107362509e+00, -7.169945836e-01, -8.391117454e-01, 
        1.292295933e+00, 6.125270128e-01, -7.721573710e-01, 
        -2.871164083e+00, -1.353179336e+00, 1.132738888e-01, 
        -5.182612538e-01, -3.866830170e-01, -1.145660877e-03, 
        -7.287281007e-02, 1.957694769e+00, -1.280601859e+00, 
        1.099277854e+00, -7.578795552e-01, -1.530361176e+00, 
        -3.267888784e+00, -2.624317110e-01, -6.842197180e-01, 
        -8.741146922e-01, -2.095043182e+00, -1.882504344e+00, 
        -4.750422835e-01, 1.518328786e+00, 1.700133562e+00, 
        8.153963685e-01, 8.406913280e-02, 7.940195501e-02, 
        -8.476657867e-01, 2.002189159e+00, -8.513261676e-01, 
        -4.073974133e+00, -1.698970556e+00, 3.996549845e-01, 
        -1.118080735e+00, -7.924997807e-01, -1.868318677e+00, 
        3.515763208e-02, -4.279396057e+00, 1.704365253e+00, 
        -2.965108454e-01, -2.155579031e-01, -2.619484186e+00, 
        -2.386583805e+00, 9.630758315e-02, -4.988008142e-01, 
        -4.053428471e-01, -9.142240286e-01, 3.665867448e-01, 
        1.233607769e+00, -4.977453947e-01, -1.073016644e+00, 
        1.501469873e-02, -1.186054111e+00, 1.326267004e+00, 
        -2.375923634e+00, -7.265883088e-01, 3.477039933e-01, 
        9.200537205e-01, -7.936084270e-02, -2.196613550e+00, 
        -1.183480024e-01, -2.961541176e+00, 1.435824513e+00, 
        -1.856759906e+00, 7.916889191e-01, 1.543155551e+00, 
        -4.443539083e-01, -1.702065349e+00, -2.200322390e+00, 
        -1.914258480e+00, 2.048115015e+00, 7.881611586e-01, 
        6.645973325e-01, -4.182681084e+00, -1.022602916e-01, 
        1.833693236e-01},
    {9.909387678e-02, 1.138710752e-01}
};

const float WEIGHTS[NUM_DENSE_LAYERS][MAX_LAYER_DIMS][MAX_LAYER_DIMS] = {
    {
        {8.655429818e-03, 1.483870149e-01, -8.607587218e-01, 
            -1.059898436e-01, -1.838791251e+00, -1.012336731e+00},
        {1.154457211e+00, 9.547643065e-01, -1.377105117e+00, 
            -1.225427508e+00, -6.820115447e-01, -2.073338777e-01},
        {-8.717771620e-02, -2.022039890e-02, -5.420067310e-01, 
            -2.717325687e-01, 2.327972464e-02, 8.295564353e-02},
        {1.892890483e-01, 1.654179394e-01, -1.214439273e+00, 
            -6.201668382e-01, 2.346009731e+00, 4.673912525e-01},
        {4.495897889e-01, 3.018644452e-01, -7.177970409e-01, 
            -5.834573507e-01, -1.353227533e-02, 2.851204202e-02},
        {2.524867952e-01, -2.592937648e-01, -2.492793322e+00, 
            -4.902857915e-02, 3.627129197e-01, 4.622892439e-01},
        {-1.656896919e-01, -6.647855043e-02, -3.118307889e-01, 
            -1.104862988e-01, 1.751954854e-01, 4.612699524e-02},
        {1.494793743e-01, 1.507622153e-01, -3.875496089e-01, 
            5.222490430e-01, 2.162863761e-01, -7.303624749e-01},
        {2.333865315e-01, 2.701668441e-01, -8.516306281e-01, 
            -7.548148036e-01, 1.010722071e-01, -5.005962402e-02},
        {2.822480351e-02, 4.943424836e-02, 7.032107562e-02, 
            2.764399350e-01, -1.027334183e-01, -4.625912383e-02},
        {-3.865045607e-01, -3.654769957e-01, -1.002426386e+00, 
            -5.901985765e-01, 1.775760293e+00, -3.978637457e-01},
        {5.873966496e-03, -8.587283492e-01, 6.600547433e-01, 
            8.521027565e-01, -5.165260434e-01, 7.040335983e-02},
        {1.268219948e-01, 1.099277139e-01, 1.215996295e-01, 
            3.192136884e-01, -2.951662242e-01, -6.868214160e-02},
        {-5.490742922e-01, -1.661825031e-01, 2.903204858e-01, 
            6.326369047e-01, -9.573962539e-02, -2.569237351e-01},
        {1.804829538e-01, 1.986856461e-01, -5.321663022e-01, 
            -1.350692660e-01, -2.092246264e-01, -1.595037133e-01},
        {7.083449163e-04, 8.771628141e-02, 4.805814475e-02, 
            5.951521546e-02, -1.908450276e-01, 1.292193651e+00},
        {-1.245169938e-01, -9.410893545e-03, -2.992412150e-01, 
            9.977876395e-02, 4.882520810e-02, 8.212441206e-02},
        {-1.088173389e+00, -4.603894949e-01, -1.479809880e+00, 
            -7.412872314e-01, 4.874969423e-01, 1.781170517e-01},
        {7.303088903e-02, -1.542488858e-02, -5.111422539e-01, 
            -1.375288367e-01, -2.023551911e-01, 1.821282320e-02},
        {-9.304433465e-01, -2.383734286e-01, -2.436460972e+00, 
            -1.463455677e+00, 3.247331679e-01, 1.151645929e-01},
        {-9.871351719e-01, -1.242252350e+00, -2.916706085e+00, 
            -1.130409360e+00, -4.630452767e-02, -1.580210179e-01},
        {-8.775714785e-02, -4.889878258e-02, -3.884585202e-01, 
            -1.272100359e-01, 3.425150737e-02, 7.985778153e-02},
        {1.632318139e+00, -4.656848609e-01, -1.649090528e+00, 
            -1.453506947e+00, -1.955103725e-01, 9.678575397e-02},
        {-1.527016610e-01, -2.269661576e-01, -9.326143265e-01, 
            -4.949010313e-01, 1.454968214e+00, 1.793635845e+00},
        {-6.864207238e-02, -5.129874498e-02, -6.156392097e-01, 
            -2.411950082e-01, -6.716471910e-02, 9.941451252e-02},
        {-6.484338045e-01, 1.133993044e-01, -7.197977066e+00, 
            -1.065374136e+00, -2.751704305e-02, 1.752679981e-02},
        {2.521210611e-01, 2.362214960e-02, 5.923855305e-01, 
            3.638184369e-01, -5.182798505e-01, 2.103344351e-01},
        {-2.295462787e-01, -2.680095136e-01, -5.452099442e-01, 
            -6.480368227e-02, 2.340594679e-01, 1.688606739e-01},
        {1.201313376e+00, 1.082344651e+00, -9.137380719e-01, 
            -4.684898555e-01, 1.491516829e-01, 2.311126441e-01},
        {-2.966850102e-01, -1.955635995e-01, -8.363883495e-01, 
            -6.080752611e-01, -2.118654728e+00, 1.158863977e-01},
        {-3.431903422e-01, 1.059336305e+00, -9.454561472e-01, 
            5.478707790e+00, -1.178158522e-01, 5.901427567e-02},
        {3.298830688e-01, 1.428175718e-01, -5.722441673e-01, 
            7.230928540e-02, -2.954962850e-01, -1.044122279e-01},
        {1.624785185e+00, 2.285332203e+00, -1.109598160e+00, 
            -1.307139039e+00, -3.249073923e-01, -2.107863128e-01},
        {1.753078997e-01, 5.735804141e-02, -5.123551488e-01, 
            6.061946973e-03, -1.204611436e-01, -3.402190655e-02},
        {1.986585110e-01, 3.529810533e-02, -1.298280358e-01, 
            2.083255649e-01, -4.284568131e-01, -1.349977851e-01},
        {-1.884961687e-02, -3.751577437e-02, -4.907777607e-01, 
            -8.699072152e-02, -1.122269258e-01, 3.109765425e-02},
        {-4.456436634e-01, -3.394870460e-01, -4.931198955e-01, 
            4.706928134e-02, 3.806572258e-01, 2.244302481e-01},
        {1.530013919e+00, 1.279078126e+00, -1.145523429e+00, 
            -8.160642982e-01, -1.203267813e+00, -8.532168865e-01},
        {-4.467541277e-01, -3.507824540e-01, 1.147894263e-01, 
            -9.126073867e-02, 1.185816452e-01, 4.459311068e-01},
        {-1.321015477e+00, -1.404844403e+00, -2.520414591e+00, 
            -1.405257940e+00, 1.254604459e+00, 4.182119370e-01},
        {-1.635927409e-01, 6.082304195e-02, -2.152979970e-01, 
            -5.440561473e-02, 2.538506389e-01, 8.588231355e-02},
        {-2.136416435e+00, -1.979939640e-02, -1.843626976e+00, 
            -9.028761387e-01, -1.223235503e-01, -5.686727911e-02},
        {-2.837819159e-01, -1.585209519e-01, -2.045427561e-01, 
            -9.107163176e-03, 3.212946951e-01, 1.912944168e-01},
        {-1.898836195e-01, -4.118989706e-01, 6.053010225e-01, 
            2.988327146e-01, 6.302254796e-01, 4.844253063e-01},
        {-1.411650330e-01, -3.157785535e-01, 4.378433824e-01, 
            8.516364098e-01, -5.990805477e-02, 6.722116470e-01},
        {-1.002242193e-01, 1.209861264e-01, -4.586201310e-01, 
            -1.716131717e-01, 1.012502238e-01, -1.688863039e-01},
        {1.771869540e+00, 1.343368739e-01, -6.552494526e+00, 
            -1.113898635e+00, 9.662695229e-02, 7.832409441e-02},
        {1.053647876e+00, 5.449165106e-01, -2.038281918e+00, 
            -2.231061459e+00, 5.079669356e-01, 4.408906996e-01},
        {-2.510652691e-02, -1.384812146e-01, -4.646657109e-01, 
            -1.015870333e+00, -6.772724539e-02, -3.719423115e-01},
        {-3.674860345e-03, 9.010764770e-03, -6.134277582e-01, 
            -2.273346931e-01, -1.036722586e-01, -6.316506118e-02},
        {3.807368279e-01, -3.212470710e-01, 2.111466676e-01, 
            1.135773063e+00, 3.905012012e-01, -1.293973997e-02},
        {-1.598836780e+00, -9.200327992e-01, -3.960767508e+00, 
            -1.359750390e+00, -5.001828671e-01, -2.673352659e-01},
        {-6.571284533e-01, -3.575215638e-01, 7.962200642e-01, 
            5.560441017e-01, 5.606310368e-01, -4.013257921e-01},
        {5.021162797e-03, 6.495921314e-02, -6.502436996e-01, 
            -2.821163237e-01, 2.653999627e-02, 3.231603652e-03},
        {6.836648583e-01, 2.988676429e-01, -9.407378733e-02, 
            -1.446292996e-01, -7.812161446e-01, -3.506287932e-01},
        {-8.518269658e-01, -6.560013164e-03, -3.285696208e-01, 
            -1.597277075e-01, 8.493695855e-01, 2.694582939e-01},
        {2.988071740e-01, 4.078924656e-02, -2.909838259e-01, 
            3.616497219e-01, 2.677605487e-02, 7.748647034e-02},
        {2.858121879e-03, -1.158764213e-01, -7.123332620e-01, 
            -3.666133285e-01, -1.807599813e-01, 7.484416664e-02},
        {-1.250681002e-02, 2.444289252e-02, -1.905714571e-01, 
            1.040738076e-01, -6.269084290e-03, 5.304657388e-03},
        {1.562661409e+00, 1.096199393e+00, -3.558214903e+00, 
            -1.447443724e+00, 8.504239321e-01, 1.799703538e-01},
        {1.230752319e-01, 2.827998102e-01, 4.022162557e-01, 
            3.508526385e-01, -6.293320060e-01, -1.451928541e-02},
        {8.105699420e-01, -1.075330973e-01, -2.877795219e+00, 
            1.263549924e+00, 1.435651034e-01, 2.889033593e-02},
        {1.719420850e-01, 1.832136214e-01, -1.491589844e-01, 
            1.022409648e-01, -2.336250097e-01, -1.441919059e-01},
        {2.461254358e+00, 1.738940120e+00, -2.722627640e+00, 
            -1.062272310e+00, -5.494400859e-01, 7.970009744e-02},
        {-1.750887394e+00, -1.490019917e+00, -1.757537246e+00, 
            -1.981641650e+00, 6.372299790e-01, 4.039322734e-01},
        {-5.092027783e-01, -3.896704689e-02, -3.361350775e+00, 
            -2.189071417e+00, -2.697559297e-01, -1.617320031e-01},
        {5.481523871e-01, 6.287522316e-01, -2.414037466e+00, 
            -1.124930739e+00, -5.275760889e-01, -6.554456353e-01},
        {3.281745315e-01, -4.432643950e-01, -1.431544185e+00, 
            -4.354939759e-01, 1.097731441e-01, -3.554988801e-01},
        {1.606425196e-01, 9.641263634e-02, 3.934520185e-01, 
            3.808414042e-01, -5.487226844e-01, -3.917164505e-01},
        {-2.278679907e-01, -5.215541720e-01, -1.101527452e+00, 
            -6.851655841e-01, 6.047555059e-02, 4.567103386e-01},
        {1.391076446e-01, 2.125270218e-01, -4.380240142e-01, 
            -6.812577695e-02, -2.239242941e-01, -1.058805585e-01},
        {1.799645305e+00, 1.030877471e+00, -3.348286152e+00, 
            -7.098958492e-01, -7.598084807e-01, -5.094975829e-01},
        {-3.452131748e-01, -1.955933720e-01, -3.776356578e-01, 
            -1.591153741e-01, 2.255775481e-01, 8.780329674e-02},
        {-1.066923857e+00, 4.612203240e-01, -9.798108935e-01, 
            7.458049059e-01, -1.852639318e-01, 5.849058181e-02},
        {-6.222556531e-02, -1.650550589e-02, -5.462413430e-01, 
            -2.442174107e-01, 1.079763845e-02, -1.904689148e-02},
        {1.055165902e-01, 7.564304024e-02, -3.605736792e-01, 
            -1.077370159e-02, -1.580101997e-01, -7.395766675e-02},
        {-2.804645598e-01, -1.616042405e-01, -4.051567614e-01, 
            -6.454187632e-02, 3.010123074e-01, 1.145978495e-01},
        {1.463710189e+00, 1.043208003e+00, -1.619867206e+00, 
            -9.006269574e-01, -1.662752032e+00, 5.682492047e-04},
        {1.696246386e+00, 1.361093163e+00, -1.600592852e+00, 
            -9.503848553e-01, 4.128153324e-01, -1.166528389e-01},
        {-1.287411600e-01, 1.181517765e-01, 6.474434137e-01, 
            9.174358249e-01, 1.186810493e+00, 4.160692692e-01},
        {9.899625927e-02, 1.937175989e-01, -7.637395710e-02, 
            1.636030972e-01, -2.090256810e-01, -1.566914469e-01},
        {2.247034758e-01, 2.834602259e-02, -9.442891926e-02, 
            1.331014186e-01, -4.836312234e-01, -6.275425851e-02},
        {-6.471580267e-01, -6.903906167e-02, 8.264948130e-01, 
            4.107487798e-01, -1.547044277e+00, -6.807051897e-01},
        {8.907124996e-01, 4.239965081e-01, -5.354793072e-01, 
            5.222152472e-01, -1.426513940e-01, 1.078781337e-01},
        {-1.055927753e+00, -8.002303243e-01, -2.133212328e+00, 
            -1.685391545e+00, -9.076483846e-01, -6.535332203e-01},
        {-6.946520209e-01, -2.495593578e-01, -4.146061242e-01, 
            3.078418970e-01, 1.501152515e-01, 7.752061635e-02},
        {-6.747918129e-01, -8.636977077e-01, -2.679632902e+00, 
            -1.448622823e+00, -1.171502590e+00, -6.393130124e-02},
        {8.438720554e-02, 2.492913455e-01, -5.924501419e-01, 
            -2.712437212e-01, -1.322157383e-01, -1.381339580e-01},
        {1.257653236e+00, 6.198102236e-01, 5.517359376e-01, 
            3.663053811e-01, 1.157624245e+00, 2.432670444e-01},
        {-3.352274895e-01, -7.887705564e-01, -8.381792307e-01, 
            -7.343355417e-01, -4.281533062e-01, -2.969825268e-01},
        {-1.279382706e-01, -8.893662691e-02, -4.463712275e-01, 
            -1.029392853e-01, 1.323241442e-01, 1.054534689e-01},
        {8.282683492e-01, -1.375788152e-01, -1.737989783e+00, 
            -8.849595189e-01, 1.377541125e-01, -6.474087387e-02},
        {-2.187087238e-01, 7.538608462e-02, 2.658606768e-01, 
            4.956736565e-01, -1.208130196e-01, 7.280694693e-02},
        {2.105009109e-01, 3.058969378e-01, -3.791168451e+00, 
            -1.510981202e+00, 1.737162620e-01, 2.237831354e-01},
        {-2.741591036e-01, 5.132955313e-01, 5.959332585e-01, 
            -4.034923911e-01, 2.976569831e-01, 7.654751092e-02},
        {-2.563204288e+00, -2.171532631e+00, -1.475498080e+00, 
            -7.342739701e-01, 4.128367305e-01, 1.856387258e-01},
        {-2.251820564e-01, -7.763586938e-02, -5.135204643e-02, 
            6.260074675e-02, 1.220161021e-01, -6.900415570e-02},
        {-3.260194778e+00, -9.444434047e-01, -4.365451813e+00, 
            -3.749951422e-01, 2.158329636e-01, 5.029921979e-02},
        {3.394323587e-02, 2.036228962e-02, -4.325328469e-01, 
            -5.756482109e-02, -1.687645465e-01, -4.856236279e-02},
        {-1.479312778e+00, -1.056314230e+00, -3.050138235e+00, 
            -8.445984721e-01, 6.787435412e-01, 4.606199265e-01}
    },
    {
        {5.148213506e-01, -8.892094493e-01, 2.360790819e-01, 
            -9.152030349e-01, -2.202871144e-01, -9.322507381e-01, 
            4.595663249e-01, -1.544372737e-01, -1.467399579e-02, 
            -9.505978972e-02, 9.739096761e-01, -4.496232867e-01, 
            -3.728713095e-01, 8.868773282e-02, 1.060494315e-02, 
            -7.281884551e-01, 1.108504310e-01, -1.414150596e-01, 
            6.353417039e-02, 9.487460554e-02, 4.797623158e-01, 
            2.243560255e-01, 2.337031513e-01, -7.170060277e-01, 
            -2.762070624e-03, -5.588859320e-01, -8.545858264e-01, 
            3.469289243e-01, 2.029547095e-01, -1.473521352e+00, 
            8.963145316e-02, 2.016404122e-01, 1.348415852e+00, 
            1.199601442e-01, -7.127848268e-02, -1.031651571e-01, 
            2.739619017e-01, 7.072444558e-01, 4.104179144e-01, 
            -4.689731598e-01, 5.006313324e-01, 4.666881859e-01, 
            8.593009710e-01, 7.895632982e-01, -1.110666633e+00, 
            3.781066239e-01, -2.605104923e+00, -1.946078300e+00, 
            -1.638672233e+00, 2.830764651e-02, 1.236053333e-01, 
            4.370908067e-02, -1.173923165e-01, 1.693026125e-01, 
            -5.104188323e-01, 4.412268698e-01, 2.446132004e-01, 
            -1.814671010e-01, 6.779857725e-02, -1.203995347e+00, 
            -1.476641148e-01, 2.948723137e-01, -8.260292560e-02, 
            -8.206263781e-01, -1.005807161e+00, -4.494777918e-01, 
            -3.887945116e-01, 7.893235087e-01, -5.503528118e-01, 
            2.824504115e-02, -1.384336501e-01, -1.441640258e+00, 
            6.706809998e-01, -4.809842706e-01, 2.438441217e-01, 
            1.216149926e-01, 7.402716875e-01, 1.580731571e-01, 
            -3.606844842e-01, -1.054693818e+00, -3.265607655e-01, 
            -2.560623884e-01, -1.875752956e-01, 2.329526544e-01, 
            -4.732319415e-01, -2.361643761e-01, -1.883792758e+00, 
            1.917202324e-01, 4.101402685e-02, 8.904803544e-02, 
            1.506745219e-01, -8.495071530e-01, -6.745209098e-01, 
            -2.025606394e+00, -1.367803812e+00, -2.099616379e-01, 
            2.858916521e-01, 2.953054011e-01, 1.393934432e-02, 
            -3.598729074e-01},
        {3.794231713e-01, 6.516228318e-01, -8.675795794e-01, 
            -1.252745032e+00, -2.692914903e-01, 9.865971208e-01, 
            -9.690442085e-01, 2.104714215e-01, -2.030435562e+00, 
            -7.325304747e-01, 9.612175226e-01, -2.923084736e+00, 
            4.099344462e-02, -7.907643914e-01, -1.033305842e-02, 
            -1.874257475e-01, -4.768582582e-01, -6.120789051e+00, 
            -2.851161957e-01, -4.480858803e+00, -7.950193882e-01, 
            -3.188325763e-01, 9.660679698e-01, -7.347502708e-01, 
            -1.136971936e-01, -3.914901316e-01, -2.563979924e-01, 
            -1.538219601e-01, -8.180167675e-01, -1.172246099e+00, 
            9.108998626e-02, -4.112805128e-01, 1.306165576e+00, 
            -5.389438868e-01, -3.463759422e-01, -3.158516884e-01, 
            2.203916311e-01, 5.696296096e-01, -9.347514510e-01, 
            -3.182027102e+00, -2.707460225e-01, -8.777487278e-01, 
            3.236340284e-01, 1.250207186e+00, -4.046376050e-01, 
            -4.045460522e-01, -1.920835525e-01, -7.168135643e-01, 
            -3.370896876e-01, -2.058787048e-01, -4.200135767e-01, 
            -9.956759214e-01, 3.681313396e-01, -4.119273126e-01, 
            3.043223321e-01, -3.109828711e+00, -3.348246515e-01, 
            4.404717088e-01, -3.042099178e-01, -1.507171869e+00, 
            2.503852248e-01, 2.059210092e-01, -1.262481045e-02, 
            8.156096339e-01, -6.683046818e+00, -3.386055231e+00, 
            1.023639679e+00, 6.307906508e-01, -2.757220864e-01, 
            -1.482744336e+00, 1.148565486e-01, 6.170263290e-01, 
            -7.449428439e-01, 9.235857129e-01, -5.050143600e-01, 
            -1.314873691e-03, 1.686449647e-01, 1.003750205e+00, 
            -2.168261290e+00, 4.904823303e-01, 2.097659707e-01, 
            -3.614943624e-01, -4.461311698e-01, -4.163163304e-01, 
            1.079574823e+00, -3.724042475e-01, 6.080091596e-01, 
            2.082994282e-01, -3.132442534e-01, 1.014300942e+00, 
            -2.861059010e-01, 9.187054038e-01, -1.050610244e-01, 
            -1.277167797e+00, 1.506839544e-01, -7.349536419e+00, 
            -2.517957091e-01, -7.709743977e-01, -4.637102783e-01, 
            -2.232887268e+00},
        {6.268190742e-01, -2.784639299e-01, -1.420104980e+00, 
            -1.322152615e+00, -3.980830908e-01, 7.894445211e-02, 
            -1.800247550e+00, -2.084631443e+00, -7.487952709e-01, 
            -7.201377749e-01, -7.816060066e+00, 1.451436520e+00, 
            -2.175389603e-02, -1.154256344e+00, -1.626736283e+00, 
            1.462814808e+00, -6.290382743e-01, -4.034292698e-01, 
            -4.622226655e-01, 3.538766503e-01, 1.185647175e-01, 
            -9.625062346e-01, -2.319565713e-01, 4.998985529e-01, 
            -6.629722118e-01, 2.869740725e-01, 4.256545305e-01, 
            -1.640130520e+00, 7.841522992e-02, 1.857221127e+00, 
            1.036670804e-02, -5.563337207e-01, -1.309019234e-02, 
            -1.378142476e+00, -1.827043593e-01, -8.465005159e-01, 
            -2.452044725e+00, -1.917830110e-01, -2.600432634e-01, 
            -2.175176293e-01, -2.066915512e+00, 2.208429277e-01, 
            -1.842579484e+00, -3.035353899e+00, 8.374174237e-01, 
            -4.481170654e+00, 6.511904001e-01, 1.446284056e-01, 
            -1.241771102e+00, -1.691783071e+00, -2.129861593e+00, 
            4.054979682e-01, -4.559834480e+00, -1.807018518e+00, 
            4.602185916e-03, -1.112119015e-02, -1.440544486e+00, 
            -2.207993567e-01, -1.094100595e+00, 2.200890183e-01, 
            3.810182810e-01, -3.833482265e-01, -1.297930241e+00, 
            1.153704375e-01, 6.862374544e-01, 5.846290588e-01, 
            -5.796886086e-01, -1.660685301e+00, -3.653973341e-01, 
            -1.057574987e+00, -1.251825690e+00, -9.588868171e-02, 
            -1.785662532e+00, 5.497153997e-01, -2.250603676e+00, 
            -1.354593039e+00, -2.945578575e+00, 9.563533664e-01, 
            9.005383402e-02, -2.950722277e-01, -5.282664895e-01, 
            5.400973558e-01, 1.382737279e+00, 2.750732005e-01, 
            -1.095581412e+00, -1.486167669e+00, 6.443885565e-01, 
            -1.232066512e+00, -4.552551210e-01, -9.455806613e-01, 
            -1.523857474e+00, -2.860184014e-01, 2.234657407e-01, 
            5.467238426e-01, -1.390440762e-01, -2.413413972e-01, 
            -3.217347145e+00, -1.437740922e-01, -1.367195725e+00, 
            3.991354704e-01},
        {-4.764279127e-01, 5.996012092e-01, -7.688058615e-01, 
            1.125515625e-02, -1.030057430e+00, -7.724744081e-01, 
            -6.078729033e-01, -1.598627716e-01, 3.762785494e-01, 
            -3.573853672e-01, -7.665540576e-01, 4.210987091e-01, 
            -5.350834727e-01, -1.377212107e-01, -3.038319051e-01, 
            -5.856682062e-01, -2.992191911e-01, -8.158041537e-02, 
            -3.098478317e-01, 7.299091816e-01, -1.094721556e+00, 
            -6.596191525e-01, -3.941039443e-01, 1.084511042e+00, 
            -8.116858006e-01, -4.566378146e-02, -3.157616258e-01, 
            8.742460981e-03, -7.946557999e-01, 4.990649521e-01, 
            5.499113202e-01, 4.409128055e-02, 4.207512438e-01, 
            -1.083473563e-01, -3.171280622e-01, -6.563150287e-01, 
            -1.472068727e-01, -4.463009164e-02, -8.945560455e-01, 
            -4.454929531e-01, -6.295300126e-01, 1.537131965e-01, 
            -4.291252792e-01, -2.585488558e-01, 6.133223176e-01, 
            -6.235427856e-01, -1.185384989e+00, -1.846671402e-01, 
            2.252617359e+00, -4.915378392e-01, -2.912572324e-01, 
            -5.956985950e-01, -1.001801372e+00, -4.233704805e-01, 
            -4.142904282e-01, -2.078512758e-01, 1.081126779e-01, 
            -8.372789025e-01, -2.942898273e-01, -5.835911036e-01, 
            -9.837342054e-02, 8.609263897e-01, -4.474824369e-01, 
            -6.178801060e-01, 1.171706438e+00, 9.758628607e-01, 
            4.181368947e-01, -1.917680979e+00, -3.400896490e-01, 
            -1.005636930e+00, -3.457818925e-01, -4.334274232e-01, 
            -5.717569590e-01, -1.604349911e-01, -5.325706601e-01, 
            -6.221411228e-01, -1.733588576e-01, -1.113108873e+00, 
            -7.632444501e-01, -3.724543154e-01, -2.451532483e-01, 
            -2.329601496e-01, -1.828817010e+00, -1.499767154e-01, 
            4.936652482e-01, 6.641680747e-02, 7.117334604e-01, 
            -4.927040040e-01, -2.044063091e+00, -8.089522719e-01, 
            -3.168371022e-01, -1.928174734e+00, -2.975951433e-01, 
            -1.556471348e+00, -1.049255729e+00, -5.434646606e-01, 
            -6.036292911e-01, -5.775177479e-01, -3.624104261e-01, 
            -1.291663289e+00},
        {2.102092505e+00, 3.769619763e-01, -5.302762389e-01, 
            -2.250633240e+00, 8.475554734e-02, -1.923320256e-02, 
            -1.532076716e+00, 2.184457302e+00, 1.215699986e-01, 
            -1.085204110e-01, -4.436314583e+00, 1.807949662e+00, 
            -1.351377249e+00, 1.008096218e+00, -1.666845202e+00, 
            4.835292101e-01, -3.351967812e+00, 1.343759894e-01, 
            -2.124836922e+00, 4.343621433e-01, 4.109406471e-01, 
            -1.016121626e+00, 1.190354005e-01, -6.006639600e-01, 
            3.578096628e-02, 2.813817859e-01, -5.696840286e+00, 
            -3.105919600e+00, -3.948917240e-02, 1.478572726e+00, 
            2.418027371e-01, -2.666541338e-01, 3.968253136e-01, 
            -1.155756950e+00, -1.328283906e+00, -4.434975609e-02, 
            -4.255424500e+00, 8.797266334e-02, -1.239834189e+00, 
            -1.730448902e-01, -1.597661018e+00, 3.647155762e-01, 
            -1.086549163e+00, -5.297618389e+00, -3.998759747e+00, 
            -1.689698100e+00, 5.294073746e-02, 4.405360222e-01, 
            -7.352307439e-01, -8.932771683e-01, 2.030025005e+00, 
            3.878809214e-01, -1.716901213e-01, -1.036700964e+00, 
            3.567919135e-01, 1.625120193e-01, -3.158390045e+00, 
            8.169200420e-01, -2.610691786e+00, -5.929669738e-01, 
            -4.417293072e+00, 3.085574694e-02, -8.199303746e-01, 
            2.386779934e-01, 2.396607399e-01, 4.113182425e-01, 
            3.246391425e-03, -7.387710810e-01, -6.423963904e-01, 
            4.333204329e-01, -1.743452907e+00, 3.605159000e-03, 
            -1.058001399e+00, 1.106736064e-01, -1.016583800e+00, 
            -1.663662434e+00, -3.553122997e+00, 1.209908128e+00, 
            -6.297268271e-01, -3.966795206e+00, -1.694483161e+00, 
            -4.196438789e-01, -1.098768786e-01, -2.405060291e+00, 
            7.693765163e-01, -1.331703782e+00, 7.227465510e-01, 
            -2.441430986e-01, 1.926333427e+00, 1.015919209e+00, 
            -1.630992532e+00, 1.452632695e-01, -6.560742378e+00, 
            3.713231683e-01, 2.529318035e-01, -1.154187135e-02, 
            -1.580383539e+00, -5.836056545e-02, -9.341817498e-01, 
            2.439230680e-01},
        {4.475906491e-01, 1.140314639e-01, -5.924246311e-01, 
            -1.433038116e+00, -8.007039875e-02, 1.863958538e-01, 
            -1.056571841e+00, 1.043213844e+00, -3.860165179e-01, 
            -3.503491580e-01, -1.263533086e-01, -9.779015779e-01, 
            -4.932292359e-05, -8.725474477e-01, 1.383799016e-01, 
            5.767582357e-02, -7.557135224e-01, -7.091065049e-01, 
            -2.384401113e-01, -5.519583821e-01, -8.065325618e-01, 
            -5.799140930e-01, 3.024290502e-01, -1.676925719e-01, 
            -1.629467010e-01, 1.306314617e-01, 1.039715856e-01, 
            -1.236042976e+00, 7.396712154e-02, -1.909645647e-01, 
            -2.676197141e-02, 1.660200357e-01, 6.862990260e-01, 
            7.288881391e-02, -1.572299004e-02, -8.122374117e-02, 
            -1.291623473e+00, 1.073218107e+00, -1.272019863e+00, 
            -1.567932248e+00, -5.036237836e-01, -1.957908273e-01, 
            -1.041990161e+00, 1.052405313e-01, -7.842391133e-01, 
            2.570505142e-01, 5.064602494e-01, -1.313071012e+00, 
            6.611213684e-01, 2.189643234e-01, -6.836892366e-01, 
            -3.096861541e-01, -1.227754131e-01, -5.538583919e-02, 
            9.735825062e-01, -1.269647598e+00, -3.931761384e-01, 
            -7.302616537e-02, -4.231006801e-01, 3.621820509e-01, 
            5.408139527e-02, -1.183374133e-02, 3.268131614e-01, 
            6.415891051e-01, 1.842193156e-01, -2.915416062e-01, 
            6.088714004e-01, -1.286603860e-03, -9.161967784e-03, 
            -8.733194470e-01, 3.997111619e-01, 6.871257424e-01, 
            -1.122913480e+00, -5.655794404e-03, -1.876575053e-01, 
            1.698822379e-01, -6.426973939e-01, 6.690667868e-01, 
            -1.410382092e-01, 1.156424165e+00, 7.369524240e-02, 
            2.196681127e-02, -2.639079094e-01, -5.986770391e-01, 
            6.080996394e-01, -1.139933705e+00, -2.209827490e-02, 
            3.204055429e-01, -1.075405955e+00, 2.087261714e-02, 
            -7.974025607e-01, -1.322774142e-01, -3.780878186e-01, 
            3.194480538e-01, 3.918460608e-01, -2.110104799e+00, 
            6.329081208e-02, -9.106049538e-01, -9.681877494e-02, 
            -9.541335106e-01},
        {2.024770379e-01, 3.186053634e-01, -8.609164953e-01, 
            8.838285804e-01, 9.298694134e-01, 4.344777465e-01, 
            -1.508229256e+00, 8.810930252e-01, 6.552944183e-01, 
            -1.466534138e+00, 9.358065724e-01, 4.994140148e+00, 
            -2.448347330e+00, 1.303529501e+00, -1.576247692e+00, 
            6.120131016e-01, -3.400512457e+00, 2.107522935e-01, 
            -2.418097258e+00, 7.258237898e-02, -2.245982289e-01, 
            -1.852007270e+00, -3.170702159e-01, 5.021202564e-01, 
            7.138337940e-02, 1.244551875e-02, -9.259346128e-01, 
            -2.405516148e+00, 4.524133205e-01, -4.588731229e-01, 
            2.075277120e-01, -8.380129337e-01, 2.565842308e-02, 
            -1.743054152e+00, -2.707593918e+00, -2.527568042e-01, 
            -1.467962146e+00, 3.052897751e-01, -2.194316387e+00, 
            3.439577520e-01, -1.184909701e+00, 5.621582270e-02, 
            -1.681504369e+00, -1.434187651e+00, -6.032943130e-01, 
            -3.656178713e-01, 1.897785813e-01, 3.389461339e-01, 
            4.175583720e-01, -3.160019815e-01, -1.985863149e-01, 
            -1.931501478e-01, -4.560924530e+00, -7.508584261e-01, 
            1.665871441e-01, 2.251581192e+00, -1.339267373e+00, 
            4.541639686e-01, -2.913277149e+00, 2.948416471e-01, 
            -2.844887257e+00, -7.318200171e-02, -2.256977797e+00, 
            2.179938257e-01, 2.673093975e-01, 3.805686235e-01, 
            4.843461812e-01, -2.364299893e-01, -4.073397160e+00, 
            1.594683975e-01, -1.730218530e+00, 3.880086541e-01, 
            -1.632649183e+00, 2.548528194e+00, -1.249385715e+00, 
            -1.314663529e+00, -2.267160416e+00, 7.727844786e-05, 
            8.635594696e-02, 1.802814960e+00, -3.639652491e+00, 
            -1.403078318e+00, 1.086472645e-01, -3.015140891e-01, 
            1.425175071e-01, -2.089548409e-01, 1.050746888e-01, 
            9.468063712e-01, 7.500312924e-01, 4.000019729e-01, 
            -1.657820463e+00, 3.840378523e-01, -3.807548285e+00, 
            3.003913164e-01, 7.463930249e-01, 8.158281446e-01, 
            -2.119526386e+00, -6.015443206e-01, -1.528277755e+00, 
            -6.613197923e-01},
        {-1.932241023e-02, 1.317273974e-01, 4.618315101e-01, 
            4.078074098e-01, 1.179145202e-01, -1.402161241e+00, 
            4.013562202e-01, 1.877950728e-01, 2.671713829e-01, 
            3.462949097e-01, 1.810344458e-01, -2.171825767e-01, 
            -1.241125166e-01, 1.717125475e-01, 2.786115408e-01, 
            -1.201687157e-01, 1.712370515e-01, -6.316328794e-02, 
            2.140659988e-01, 2.773344815e-01, 5.316520929e-01, 
            2.942658961e-01, -1.605022907e+00, 2.975721061e-01, 
            1.858842522e-01, 7.560758591e-01, -4.962056279e-01, 
            -8.880031854e-02, -3.404442370e-01, 1.668192595e-01, 
            -2.038321346e-01, 2.957646549e-01, -4.246658832e-02, 
            2.068773657e-01, 8.090311661e-03, 3.783015609e-01, 
            1.569775492e-01, -4.727364779e-01, -6.375899166e-02, 
            3.710094094e-02, 1.946651191e-01, 6.921868771e-02, 
            -3.284601867e-01, -1.228682876e+00, -5.080838799e-01, 
            3.121727109e-01, 6.794914007e-01, -6.560619175e-02, 
            -7.063223720e-01, 3.992565572e-01, -1.260104299e+00, 
            7.446505427e-01, -2.158187181e-01, 2.493623644e-01, 
            -4.234776199e-01, 5.833146572e-01, -8.527271450e-02, 
            2.955086827e-01, 2.255363166e-01, -3.721527755e-01, 
            -3.397124410e-01, 3.376887143e-01, 3.722620308e-01, 
            7.658119500e-02, -8.447112516e-03, 1.052869037e-01, 
            2.559296228e-02, 6.115487814e-01, -9.283019602e-02, 
            -5.784173682e-02, 2.817189991e-01, -7.205952406e-01, 
            -2.246596515e-01, -7.085355520e-01, 1.516021341e-01, 
            1.197280213e-01, 1.665307283e-01, 9.168587625e-03, 
            -7.819796801e-01, 9.428536519e-03, -1.184829324e-01, 
            1.301959008e-01, -7.059741616e-01, -2.515540123e-01, 
            9.879256785e-02, -2.382212579e-01, 7.934080362e-01, 
            1.894213855e-01, -1.359869361e+00, 5.246450305e-01, 
            4.283024669e-01, 4.950329661e-01, -2.868255675e-01, 
            -4.775400758e-01, -2.919020355e-01, -1.402717680e-01, 
            -1.795345545e-02, 9.366728663e-01, 5.057182908e-01, 
            -2.799851596e-01},
        {-2.578903675e+00, -1.502252221e+00, -7.211581469e-01, 
            -1.948409677e+00, -8.612134457e-01, 7.989733219e-01, 
            -1.119549751e+00, -3.334333897e-01, -5.671549439e-01, 
            -1.188955680e-01, -1.965984464e+00, 8.842903376e-01, 
            -1.205274090e-01, -7.625077367e-01, -4.919053316e-01, 
            -1.381614923e+00, -4.593060315e-01, 2.053809613e-01, 
            -3.278584406e-02, 3.614991009e-01, 2.033140808e-01, 
            -2.005311847e-01, 1.386965990e+00, -1.633332968e+00, 
            -5.832410455e-01, 2.209744453e-01, -1.355932057e-01, 
            3.982225358e-01, 4.668231606e-01, -1.032501221e+00, 
            -3.729615510e-01, -5.507974029e-01, -1.296827793e+00, 
            1.457108855e-01, -5.756090954e-02, -6.345636845e-01, 
            -4.718541726e-02, -2.025888443e+00, 8.607105911e-02, 
            5.276306719e-02, -5.313406587e-01, 3.912138939e-01, 
            2.219215631e-01, 8.514479399e-01, -9.820372611e-02, 
            -1.172571659e+00, -9.017947316e-02, -1.511013865e+00, 
            -1.534803629e+00, -3.757857978e-01, 8.453695774e-01, 
            2.356700450e-01, 1.012023836e-01, -3.495075107e-01, 
            -8.919023871e-01, -1.888852954e+00, 5.400710106e-01, 
            -8.309575319e-01, 1.103055570e-02, 8.703321218e-02, 
            -3.752035499e-01, -7.250822186e-01, -4.758275449e-01, 
            -1.272424221e+00, 1.610324830e-01, 4.364076257e-01, 
            -1.837419719e-02, -1.080103397e+00, -1.649013311e-01, 
            -3.823350370e-02, -3.273851275e-01, -1.473095059e+00, 
            -2.287730873e-01, -8.119104505e-01, -3.093008697e-01, 
            -2.689177096e-01, 1.383491457e-01, -2.670101404e+00, 
            9.946367741e-01, -2.570501566e-01, -6.788654625e-02, 
            -2.856906131e-02, -1.464567065e+00, -4.202729464e-01, 
            1.395418495e-01, 4.926727116e-01, 2.483910024e-01, 
            -1.065144897e+00, 3.782200813e-01, -1.115132809e+00, 
            -1.061633462e-03, -8.773053885e-01, 3.684081137e-01, 
            4.638656080e-01, -1.743888855e+00, 2.944013774e-01, 
            1.408539247e-03, 4.748929143e-01, -1.791207790e-01, 
            4.001081586e-01},
        {-3.716326132e-02, -4.222738743e-02, 8.708063364e-01, 
            6.650515199e-01, 2.812918425e-01, 1.534400880e-01, 
            2.547294199e-01, -3.213192821e-01, 8.001603484e-01, 
            5.267153382e-01, -6.577048898e-01, 3.013173640e-01, 
            -1.377810389e-01, 3.941797912e-01, 1.535046287e-02, 
            -1.770756483e+00, 1.009879187e-01, 3.527569175e-01, 
            3.247539699e-01, 3.299043179e-01, -1.479008049e-01, 
            1.680189818e-01, 3.247842789e-01, -1.056578398e+00, 
            8.656608462e-01, -6.709066033e-01, -2.765505612e-01, 
            6.252187490e-01, -3.394859135e-01, -5.548414961e-02, 
            -9.039510041e-02, -2.891766727e-01, 7.910223603e-01, 
            2.126732469e-02, -9.817721695e-02, 5.926088095e-01, 
            4.277535379e-01, -1.419801831e+00, -7.697179914e-02, 
            -4.984602705e-02, 4.822946191e-01, -1.231696340e-03, 
            2.226879597e-01, 1.280077994e-01, -1.098988205e-01, 
            3.140094876e-01, -1.299385905e+00, -1.170616746e+00, 
            -1.123888850e+00, 6.144003272e-01, 2.790199816e-01, 
            -1.122034550e+00, 5.105562974e-03, 7.306827307e-01, 
            -1.241311908e+00, 3.836240768e-01, 2.170936465e-01, 
            2.706637084e-01, 2.870635688e-01, -1.358036548e-01, 
            -7.006519437e-01, -8.669792414e-01, -1.967441477e-02, 
            -5.378555059e-01, -6.849967837e-01, -1.624454409e-01, 
            5.375152230e-01, 5.938577652e-01, -4.403034747e-01, 
            1.088397145e+00, -3.766169399e-02, -1.260057837e-01, 
            4.643553123e-02, -1.286250591e+00, 4.003027678e-01, 
            9.442211688e-02, 5.709708929e-01, -1.970927358e+00, 
            -4.765813947e-01, -9.631332755e-02, -2.278415859e-01, 
            -4.992237687e-02, -1.386779733e-02, -1.141901016e+00, 
            -7.517231107e-01, 1.290627718e-01, -5.249682069e-01, 
            1.165787727e-01, -8.253756166e-01, 9.647997469e-02, 
            7.936555147e-01, 8.227582276e-02, -3.504172862e-01, 
            6.847372055e-01, -3.384499252e-01, -2.678860426e-01, 
            -8.094665594e-03, 5.011793971e-01, 5.480483174e-01, 
            5.519284606e-01},
        {2.946395576e-01, -9.846208990e-02, 7.850912809e-01, 
            2.506267428e-01, 5.868545771e-01, -4.380969107e-01, 
            6.122811437e-01, 2.801320516e-02, 7.425796390e-01, 
            3.231099546e-01, -3.558444083e-01, -1.586719632e+00, 
            -4.118841141e-02, -1.209230125e-01, 4.401479363e-01, 
            -3.066211939e-02, 3.141153455e-01, -7.181234956e-01, 
            4.564760327e-01, -1.651972979e-01, -2.437615097e-01, 
            4.064177573e-01, 6.672993302e-01, 3.550432622e-01, 
            7.877329588e-01, -1.938752890e+00, 1.883499324e-02, 
            4.885252416e-01, -5.089789033e-01, -8.794935346e-01, 
            -1.438490953e-02, 7.758316994e-01, -2.034049854e-02, 
            4.182808399e-01, 2.266297638e-01, 8.853034377e-01, 
            4.699619114e-01, -5.171911120e-01, 5.790210366e-01, 
            -1.492322385e-01, 3.061887920e-01, 5.977916298e-04, 
            3.788643181e-01, 2.262564451e-01, -8.416849375e-01, 
            7.305632234e-01, -1.697850466e+00, -7.534635663e-01, 
            -1.203079820e+00, 9.055953026e-01, -3.360354900e-01, 
            -3.269598782e-01, -5.177689195e-01, 8.969827294e-01, 
            -6.768015027e-01, 9.396588802e-01, 1.487403363e-01, 
            5.619552732e-01, 1.449678242e-01, 8.067107797e-01, 
            1.301934719e-01, -9.459967017e-01, 7.927357219e-03, 
            -2.031324059e-01, -2.674658775e+00, 6.553487182e-01, 
            1.106798053e+00, 9.500145316e-01, -3.246954381e-01, 
            -2.230860591e-01, 2.423397750e-01, 7.669622302e-01, 
            3.649456501e-01, 7.559587955e-01, 7.367646098e-01, 
            4.335394800e-01, 4.607939720e-01, -2.122990936e-01, 
            -2.869740427e-01, 2.707477808e-01, -3.468692601e-01, 
            3.230799437e-01, -2.325000912e-01, 9.375105798e-02, 
            -2.230169535e+00, -1.499080211e-01, -1.534947634e+00, 
            4.457166791e-01, -6.511986256e-01, 2.940857708e-01, 
            4.764937758e-01, 9.411274791e-01, -6.333633512e-02, 
            4.580252767e-01, 1.530674398e-01, -1.334456325e+00, 
            -1.892315000e-01, -1.108698368e+00, 4.419362545e-01, 
            -1.159589410e+00},
        {-4.633184969e-01, -1.751498342e+00, 1.820406914e-01, 
            2.755063474e-01, -4.399309456e-01, 7.784706354e-02, 
            1.305292640e-02, 3.290608525e-01, -3.643177450e-01, 
            1.270334572e-01, -1.478257030e-01, -2.766634524e-01, 
            -3.696826845e-02, -3.186891973e-02, -6.729615480e-02, 
            2.214855403e-01, -3.611391783e-01, -1.821638197e-01, 
            -1.694876514e-02, -1.599307358e-01, 1.821918488e-01, 
            2.001985162e-01, 2.219160050e-01, 2.959615290e-01, 
            1.518349648e-01, 7.964728475e-01, 1.688177586e-01, 
            -1.946091652e-01, -8.634727001e-01, -2.016769797e-01, 
            2.571001276e-02, -7.937064767e-02, -2.026153058e-01, 
            -2.309364825e-01, 6.843496859e-02, -7.827815413e-02, 
            -3.282349110e-01, -2.274708450e-01, 5.485755801e-01, 
            -5.433514714e-01, 3.983211219e-01, 3.735374808e-01, 
            4.671970904e-01, 1.733208746e-01, -2.286573499e-01, 
            1.549050957e-01, -2.176442146e+00, -1.914239168e+00, 
            1.127496243e+00, 2.262493595e-02, -4.947360978e-02, 
            2.761169076e-01, -4.580997825e-01, 1.680884361e-01, 
            3.203123510e-01, 2.648993433e-01, -2.632323503e-01, 
            -5.943869352e-01, -2.087512016e-01, -6.804968119e-01, 
            -5.262255073e-01, 3.572989404e-01, -1.297860034e-02, 
            -1.300253868e+00, -6.797817349e-01, -5.558420420e-01, 
            -3.092944324e-01, 3.765408993e-01, 1.385049075e-01, 
            9.572592564e-03, -2.478641272e-01, -8.549591899e-01, 
            5.214391351e-01, -3.065428436e-01, 2.966938913e-01, 
            1.005880758e-01, -8.949001133e-02, -4.944997728e-01, 
            -6.110762358e-01, -1.142572165e+00, -1.609503776e-01, 
            9.036510438e-02, -6.326525211e-01, -4.114678875e-02, 
            -1.653355241e+00, -7.344828844e-01, -9.272425771e-01, 
            -7.720439881e-02, 1.002913713e+00, -9.090321064e-01, 
            2.079444826e-01, -1.408478022e+00, -4.800601304e-01, 
            -1.521485448e-01, 4.989682510e-02, 7.625548840e-01, 
            -4.033251107e-02, 6.248896718e-01, -4.535121843e-02, 
            1.022018909e+00},
        {6.296762824e-01, 6.521264315e-01, 5.355116446e-03, 
            -1.802307367e+00, 2.087383717e-01, -5.361675024e-01, 
            -5.093995929e-01, 3.504208988e-03, 2.309174985e-01, 
            6.257703155e-02, -4.443599284e-01, 3.939037025e-01, 
            8.532503992e-02, 1.312149316e-01, -1.086395532e-01, 
            5.116438121e-02, -8.092427999e-02, -2.748357654e-01, 
            3.148533776e-02, -1.780152619e-01, 3.135052919e-01, 
            -2.640318573e-01, -3.548440933e-01, -1.652059913e+00, 
            8.147981763e-02, 5.535089374e-01, 5.616746098e-02, 
            -9.231240153e-01, 1.079750899e-02, 8.762869239e-01, 
            -4.868096486e-02, -4.170220345e-03, 4.057918191e-01, 
            -1.571869105e-01, 1.447704583e-01, 7.117307186e-02, 
            -1.052600265e+00, 3.843518198e-01, -1.274721324e-02, 
            -3.638737798e-01, -9.403244257e-01, 1.501104832e-01, 
            -9.464532733e-01, -1.413521886e+00, -2.226276547e-01, 
            -2.144487649e-01, 4.222444892e-01, 7.973544300e-02, 
            7.421990633e-01, 1.240144111e-02, -7.477099895e-01, 
            5.984984040e-01, -2.430061698e-01, -4.709423482e-01, 
            4.368011057e-01, -1.163295627e+00, -4.295719564e-01, 
            2.455210537e-01, -1.299176514e-01, -8.966773152e-01, 
            8.506328613e-02, 5.799141899e-02, 9.913056344e-02, 
            6.100013256e-01, 2.874936163e-01, 3.837918043e-01, 
            5.991927981e-01, 4.818007648e-01, 2.490397841e-01, 
            5.954355597e-01, -8.641533554e-02, 5.005353689e-01, 
            -3.775352836e-01, -2.816920280e-01, -3.240459561e-01, 
            1.999626169e-03, -1.442032456e+00, 3.638558984e-01, 
            -3.052695692e-01, -4.679453671e-01, -9.639941901e-02, 
            2.603078485e-01, 1.053729773e+00, -1.857785136e-01, 
            9.073578119e-01, -3.379645348e-01, 5.357201099e-01, 
            1.821293086e-01, -1.626227736e+00, 8.894427419e-01, 
            -6.621021032e-01, 1.399710774e-01, -2.131751627e-01, 
            -2.418197840e-01, -4.262633324e-01, -2.505747676e-01, 
            -2.929685116e-01, 2.834030092e-01, 1.270700097e-01, 
            -6.431619078e-02},
        {2.840021551e-01, -1.560950637e+00, -3.088588417e-01, 
            -2.600231469e-01, -1.136075020e+00, -2.577407658e-01, 
            1.617544591e-01, 4.224947989e-01, -1.265849471e+00, 
            1.893385351e-01, -7.823866010e-01, 4.294565320e-01, 
            9.409906715e-02, 2.623043060e-01, 1.152023375e-01, 
            -7.393954396e-01, -1.494078636e-01, -5.613228083e-01, 
            -1.015257612e-01, -1.642942309e+00, -8.834740520e-02, 
            -1.094991639e-01, 3.049358726e-01, -1.733563304e+00, 
            -4.204950631e-01, -1.296235919e+00, -2.938373089e-01, 
            -1.242854521e-01, -2.254683495e+00, -2.169680968e-02, 
            1.658942699e-01, 3.723765314e-01, -1.825394988e+00, 
            8.575383574e-02, 2.997934818e-01, -8.297926188e-02, 
            2.943383157e-01, 3.448726982e-02, 6.448423266e-01, 
            1.581993461e+00, -2.989651561e-01, -4.557341933e-01, 
            4.859427214e-01, 4.913738072e-01, 1.351792961e-01, 
            -3.548519611e-01, -2.335751206e-01, -2.411353588e+00, 
            2.966392934e-01, -9.257788211e-02, 2.597799301e-01, 
            -2.589587867e-02, 2.666734457e-01, -3.596664667e-01, 
            7.818099260e-01, 2.271557301e-01, -3.998334706e-01, 
            -4.560560882e-01, 4.882566258e-02, -2.654659748e+00, 
            -7.806812227e-02, 4.935486615e-01, 1.717197895e-01, 
            -7.599129081e-01, -3.953872323e-01, -1.888133526e+00, 
            -1.710639477e+00, -4.751390964e-02, 6.742709130e-02, 
            2.011791617e-02, 1.439210214e-02, -2.558730729e-02, 
            2.482935190e-01, 4.336966276e-01, -2.147342414e-01, 
            5.551066622e-02, 1.984252827e-03, -7.155237794e-01, 
            -2.553758383e+00, -1.320982695e+00, -2.239578217e-02, 
            3.342561424e-01, -2.900919020e-01, 3.825648874e-02, 
            -3.274223804e-01, 1.890446842e-01, -3.953949735e-02, 
            -4.207410812e-01, -9.515731931e-01, 4.272038490e-02, 
            -2.378557324e-01, -1.598444700e+00, -1.947641671e-01, 
            -2.620499134e+00, 3.330779970e-01, 3.014932871e-01, 
            2.012068331e-01, -5.339004397e-01, 1.025385559e-01, 
            -2.387931049e-01},
        {-9.734113514e-02, -1.215352789e-01, 9.520148039e-01, 
            6.154523492e-01, 2.395575941e-01, 4.559725821e-01, 
            2.202574462e-01, 5.791423917e-01, 8.380039930e-01, 
            2.444071472e-01, -2.047193199e-01, -4.335044026e-01, 
            6.092982739e-02, 1.294628739e+00, 8.815975189e-01, 
            6.256097555e-02, -7.846338302e-02, 6.918501258e-01, 
            5.493214726e-01, 5.766911507e-01, 1.493437052e+00, 
            2.127127200e-01, -7.742708921e-01, 2.896130979e-01, 
            3.783757687e-01, -1.250738025e+00, -4.775459170e-01, 
            1.874880344e-01, 5.272083879e-01, -1.582859278e+00, 
            -7.739009261e-01, 7.425184250e-01, -1.462034136e-01, 
            7.125391364e-01, 6.015723944e-01, 8.247515559e-01, 
            -4.438357055e-01, -1.609203100e+00, -3.173766136e-01, 
            4.460178912e-01, -4.988272116e-02, -2.073444605e+00, 
            -2.336531430e-01, -1.036727428e+00, -5.758255124e-01, 
            7.012372017e-01, 5.483249426e-01, 1.036181688e+00, 
            -4.420026541e-01, 8.159899116e-01, -5.225663185e-01, 
            5.210185647e-01, -6.508359313e-01, 8.767576814e-01, 
            -2.144261301e-01, 2.059826404e-01, -2.991557121e-03, 
            1.269342154e-01, 3.305262029e-01, 1.244211197e+00, 
            -7.455202341e-01, 8.229349256e-01, 5.271014571e-01, 
            -1.351467609e+00, -2.892490923e-01, -5.195049047e-01, 
            -9.093484282e-01, 3.839043081e-01, 8.417565823e-01, 
            7.271776795e-01, 5.666270852e-01, -1.556583047e+00, 
            -2.408033013e-01, -4.166784286e+00, 6.665992141e-01, 
            7.199925184e-01, 2.346577793e-01, -3.018247843e+00, 
            4.052271247e-01, -1.303062290e-01, 3.519637585e-01, 
            1.238951758e-01, -4.479211867e-01, -6.953988075e-01, 
            -6.068665981e-01, -2.349635772e-02, -8.978202343e-01, 
            5.098172426e-01, -5.654545426e-01, 2.290744185e-01, 
            8.272375464e-01, -2.260520011e-01, -5.969174504e-01, 
            3.241866827e-01, -1.434185863e+00, 2.413412482e-01, 
            2.758836448e-01, -1.547965288e+00, 1.109410286e+00, 
            1.902893901e+00},
        {-1.769464314e-01, -6.645843387e-01, -1.104652166e+00, 
            -2.187443018e+00, -1.137877107e+00, -9.288514256e-01, 
            -9.056541920e-01, 1.493870467e-01, -1.283695698e+00, 
            -1.044747353e+00, -2.371967077e+00, -3.227212131e-01, 
            -9.141294360e-01, -2.901803553e-01, -4.325759411e-01, 
            -8.227677941e-01, -5.217956305e-01, -1.348418355e+00, 
            -3.631932735e-01, -5.802521110e-01, -7.878643870e-01, 
            -1.191246629e+00, -1.063828707e+00, -2.081357718e+00, 
            -1.222554207e+00, 2.343137115e-01, -1.228384450e-01, 
            -7.733599544e-01, -1.329152703e+00, -2.093904018e-01, 
            6.069125533e-01, -1.753848940e-01, -1.795127392e+00, 
            -2.487728745e-01, -3.722152114e-01, -1.004381895e+00, 
            -9.426977634e-01, 1.085634157e-02, -9.144987464e-01, 
            -1.792987227e+00, -1.230874419e+00, -5.732496977e-01, 
            -9.919778705e-01, -6.756550074e-01, 3.715728223e-01, 
            -9.031949639e-01, 1.368411332e-01, -1.339173198e+00, 
            -1.511343956e+00, -9.663339853e-01, 3.210244700e-02, 
            4.425918311e-02, -4.126572609e-01, -1.018203139e+00, 
            -3.328913748e-01, -1.704171777e+00, -5.580530167e-01, 
            -1.112008095e+00, -6.997945309e-01, -7.681545019e-01, 
            2.911512852e-01, 6.091410518e-01, -6.956220865e-01, 
            -2.042851895e-01, -1.106309652e+00, -2.292553633e-01, 
            -1.756228507e-01, -1.487447143e+00, -1.009604055e-02, 
            -1.890098810e+00, -3.273233771e-01, 1.341513544e-01, 
            -1.121673584e+00, -6.721078753e-01, -7.363361716e-01, 
            -5.486279726e-01, -1.071151376e+00, -3.659400344e-02, 
            -1.477586389e+00, -4.617587328e-01, -1.596775651e-01, 
            -2.756342590e-01, -4.578410387e-01, 9.364824742e-03, 
            -1.995350718e-01, -6.283952594e-01, -2.506177425e-01, 
            -9.466370344e-01, -4.913382232e-01, -1.135372162e+00, 
            -9.424007535e-01, -1.366988540e+00, -2.124685347e-01, 
            -9.884207696e-02, -5.041841269e-01, -1.421050668e+00, 
            -6.537961364e-01, 3.723216057e-01, -6.984628439e-01, 
            -8.042189479e-01},
        {-8.548464179e-01, 1.274947170e-02, 3.013326824e-01, 
            -1.803229690e+00, 4.934435189e-01, 1.396667123e+00, 
            -2.778497040e-01, -1.639183611e-01, 8.228233457e-02, 
            -1.108202338e-01, -2.134106398e+00, 5.430587530e-01, 
            2.411509305e-01, -6.079436839e-02, 3.365003467e-01, 
            -1.471064687e-01, -2.683580220e-01, 2.095255107e-01, 
            2.251916230e-01, 1.256191283e-01, -1.651149392e-01, 
            -2.820701152e-02, -2.211648785e-02, -2.432590008e+00, 
            4.734406769e-01, 2.272595912e-01, 3.486531079e-01, 
            1.011678129e-01, -1.523654342e+00, -4.671930969e-01, 
            2.229415476e-01, 6.358590722e-01, -1.312526107e+00, 
            5.099241734e-01, 2.975472212e-01, 5.438399315e-01, 
            -2.001169175e-01, -3.151716888e-01, -2.101963013e-01, 
            -1.139935851e+00, -2.019430846e-01, 1.521362364e-01, 
            1.537088677e-02, -9.416107833e-02, 9.129652753e-03, 
            3.194350004e-02, -2.510270357e+00, -1.320158005e+00, 
            -8.311200142e-01, 5.899603963e-01, 1.476139277e-01, 
            7.075133920e-01, -3.107658029e-01, 3.382612765e-01, 
            7.709913701e-02, 1.625898927e-01, 8.710947633e-02, 
            4.349509180e-01, 1.174649820e-01, -5.157385468e-01, 
            -2.134094536e-01, -2.412177064e-02, 1.379496008e-01, 
            -1.080554485e+00, 2.700544596e-01, 4.849225283e-01, 
            1.445568085e+00, -1.398023367e+00, -1.421602666e-01, 
            -5.492092371e-01, 4.399928749e-01, -1.062427282e+00, 
            -1.293533593e-01, 1.674589962e-01, 3.069970608e-01, 
            3.893563747e-01, -1.253445297e-01, 2.901318967e-01, 
            -2.976328135e+00, -2.714593410e+00, -8.132245392e-02, 
            3.061509728e-01, -1.132681012e+00, 6.000382826e-02, 
            4.855416119e-01, 4.251173884e-02, 8.215401769e-01, 
            4.160262942e-01, -2.036105871e+00, -3.772479892e-01, 
            4.854860902e-02, -1.285512567e+00, 5.621985346e-02, 
            2.300680429e-01, -3.680103645e-02, 7.516180873e-01, 
            -2.974564433e-01, -5.794146061e-01, 3.930118382e-01, 
            -1.791465402e+00},
        {-1.025255844e-01, 2.915052176e-01, 1.304445118e-01, 
            3.035108149e-01, 3.049932718e-01, -1.463074088e+00, 
            -2.173271775e-01, 4.525555298e-02, 2.122721672e-01, 
            4.447397590e-01, 8.389154077e-02, -1.949964464e-01, 
            -1.704724282e-01, 1.370787472e-01, 3.665178418e-01, 
            -1.269453615e-01, -2.325213850e-01, -3.998181522e-01, 
            7.446034998e-02, -2.059538662e-01, 3.621764183e-01, 
            -5.952096730e-02, 5.089663863e-01, 2.678731084e-02, 
            1.768825948e-01, 6.850084066e-01, -2.451541424e-01, 
            -4.522429407e-02, 4.313952029e-01, -9.499856830e-02, 
            -1.445925534e-01, 5.888972282e-01, -3.188331425e-01, 
            2.611941695e-01, 3.246546388e-01, 1.755436212e-01, 
            -3.391852081e-01, 2.060060203e-01, -2.892642617e-01, 
            -1.635669470e-01, -5.093957111e-02, -1.361224413e+00, 
            2.332399786e-02, -2.987262905e-01, -2.651988268e-01, 
            1.308566928e-01, 1.338518023e+00, 6.659772992e-01, 
            -2.929951847e-01, 3.539179265e-01, -5.226114392e-01, 
            5.173983574e-01, -6.952990294e-01, 2.214145511e-01, 
            7.852186263e-02, -4.458895922e-01, 2.339450642e-02, 
            1.634238511e-01, 6.739707291e-02, 7.810211182e-01, 
            -3.283815980e-01, 7.104634047e-01, -6.466982514e-02, 
            8.957791328e-01, -5.246482491e-01, 2.874363363e-01, 
            5.286026001e-01, 1.825841963e-01, -3.740894794e-02, 
            4.854679108e-02, 1.052132174e-01, 3.977134824e-01, 
            -3.839133307e-02, -1.537959278e-01, 2.098013759e-01, 
            2.579618692e-01, 1.103603318e-01, 5.273136497e-01, 
            8.292505145e-01, -2.835642397e-01, 2.808749862e-02, 
            1.733462214e-01, -6.965347528e-01, -2.890192866e-01, 
            -2.922468781e-01, -3.377940357e-01, 1.440056115e-01, 
            3.431651294e-01, 9.673839062e-02, 2.551050186e-01, 
            3.657836318e-01, 4.706254601e-01, -2.603395283e-01, 
            4.174579680e-01, -1.861743569e+00, -1.028210759e+00, 
            1.794130951e-01, -2.291540951e-01, 4.278060198e-01, 
            -1.272731274e-01},
        {-6.801270694e-02, -1.975235045e-01, 4.677936435e-01, 
            3.620822132e-01, 6.408151239e-02, 6.235071421e-01, 
            4.734298214e-02, -4.884746671e-01, 3.970357180e-01, 
            2.640184462e-01, 6.532370299e-02, 1.156293601e-01, 
            2.981649339e-01, -4.878171161e-02, 1.862171590e-01, 
            -2.734664679e-01, 9.461334348e-02, 6.481248736e-01, 
            4.705979526e-01, 8.534967303e-01, 4.925407469e-01, 
            1.107894257e-01, -2.695309639e+00, -2.908327281e-01, 
            5.594680309e-01, 3.445719779e-01, -1.633684523e-02, 
            1.607974758e-03, -2.743132710e-01, 7.849798352e-02, 
            1.578812003e-01, 6.133129597e-01, 1.098091900e-01, 
            2.566678822e-01, 3.512549996e-01, 5.377823710e-01, 
            -1.146935020e-02, -8.652076125e-01, -3.484784160e-03, 
            7.076485157e-01, 2.332151532e-01, 2.486806959e-01, 
            -5.495305061e-01, -1.069633603e+00, 3.990992606e-01, 
            3.216774762e-01, -7.520981431e-01, -1.105619192e+00, 
            -5.834750533e-01, 4.461947381e-01, -8.106921315e-01, 
            3.359943330e-01, -2.465957552e-01, 3.948660493e-01, 
            -3.659186065e-01, 3.436645269e-01, -2.151920833e-02, 
            4.490793049e-01, 1.199442148e-01, 7.794390917e-01, 
            1.510722935e-01, 2.536383867e-01, 1.361709535e-01, 
            -4.290525615e-01, 5.610135198e-01, -7.588209584e-03, 
            -3.141627014e-01, -7.491579745e-03, 1.202629358e-01, 
            2.861540616e-01, 3.242610395e-01, -7.131679654e-01, 
            -2.587871552e-01, -1.055097699e+00, 1.356132030e-01, 
            2.855676413e-01, -5.847645923e-02, -2.125639655e-02, 
            -6.293091774e-01, -8.335233927e-01, 1.402259767e-01, 
            3.122372329e-01, -4.477342665e-01, -4.384522885e-02, 
            1.332356930e-01, -2.452711761e-01, 6.008626819e-01, 
            2.522428930e-01, -2.848815203e+00, 4.392672479e-01, 
            3.599246144e-01, -4.429774880e-01, -1.289288402e-01, 
            -2.361234426e-01, 1.466904581e-01, 8.556263447e-01, 
            -3.003616817e-03, 1.533127874e-01, 3.236840665e-01, 
            1.624767333e-01},
        {-1.430618763e+00, 1.219532639e-01, 5.430133268e-02, 
            4.344067276e-01, 5.475760698e-01, 3.602118194e-01, 
            5.339495093e-02, -6.299217343e-01, 1.037891865e+00, 
            -2.049635500e-01, -5.612432361e-01, 1.129394397e-01, 
            -8.974858560e-03, 1.504896879e-01, -1.957292110e-01, 
            -6.210521460e-01, 3.519958854e-01, 6.168765426e-01, 
            2.644850612e-01, 9.505881071e-01, 5.475997329e-01, 
            -1.089000050e-02, -3.342757225e-01, -1.216484785e+00, 
            2.683736384e-01, -1.040218472e+00, 3.559414446e-01, 
            2.684372365e-01, 1.665466875e-01, -2.125208080e-01, 
            6.158466265e-02, -3.695490062e-01, -6.006911024e-02, 
            -2.168275416e-01, 4.479048401e-02, 1.070292667e-01, 
            6.827786565e-02, -2.793502331e+00, -2.580034137e-01, 
            8.331571221e-01, 1.327609122e-01, 3.314334527e-02, 
            -6.425659359e-02, 2.116767019e-01, -5.707858875e-02, 
            -2.526717186e-01, -2.689821720e-01, 3.624000549e-01, 
            -4.785381556e-01, 1.481211185e-01, -3.976214528e-01, 
            -5.636842847e-01, -6.207438111e-01, 3.278641701e-01, 
            -4.605418444e-01, -2.748381793e-01, -1.432596743e-01, 
            -1.661676764e-01, 3.609647229e-02, 4.055067599e-01, 
            2.401666939e-01, -2.055320024e+00, -3.699132800e-02, 
            -6.234278679e-01, 4.055074751e-01, 1.591590345e-01, 
            4.086278975e-01, 2.478618920e-01, 2.685714066e-01, 
            2.749785781e-01, -2.568049431e-01, -2.628808320e-01, 
            -1.770338416e-01, 1.167190000e-01, 1.426024139e-01, 
            -1.231039912e-01, -9.281291626e-03, -3.245671749e+00, 
            7.416603565e-01, -1.514950275e+00, 3.999859467e-02, 
            -1.406232547e-02, 2.454511262e-02, -9.345582128e-02, 
            -1.239071250e+00, 2.892775834e-01, -5.691157579e-01, 
            -2.107190154e-02, -1.941511393e+00, -3.986276388e-01, 
            -9.389130026e-02, 3.863750994e-01, 2.843092084e-01, 
            -2.433298379e-01, -5.957564116e-01, -1.134501919e-01, 
            -3.183802664e-01, -2.549007237e-01, -8.042384684e-02, 
            3.260387480e-01},
        {-4.818860054e+00, -1.319646090e-01, -1.235553157e-02, 
            1.290170193e+00, 7.987305522e-01, 3.039405048e-01, 
            -1.097528815e+00, -5.347022414e-01, 1.073508143e+00, 
            -1.946845651e-01, 7.719070315e-01, 7.753627300e-01, 
            -1.138470411e+00, 5.260577202e-01, -1.091959000e+00, 
            1.653039157e-01, -1.002126217e+00, 2.615750432e-01, 
            -7.244137526e-01, 5.318123698e-01, 4.681062996e-01, 
            -6.605075002e-01, -2.823916972e-01, 5.546851754e-01, 
            1.112175956e-01, -9.779774398e-02, 7.440927029e-01, 
            -3.946049809e-01, 6.636015773e-01, -2.612471581e+00, 
            4.764907062e-02, -1.094357252e+00, 3.203462958e-01, 
            -8.164322376e-01, -2.034427881e+00, 1.023272201e-01, 
            -1.546249390e+00, -1.300048232e+00, -1.118375778e+00, 
            9.597471952e-01, -1.747965217e-01, 1.397720128e-01, 
            -6.403228641e-01, -7.110294104e-01, 1.242659688e+00, 
            2.117968351e-01, 5.183351040e-01, 8.745139837e-01, 
            2.623087168e-01, -1.986078173e-02, -9.268954396e-01, 
            -2.820886374e-01, -3.123228788e+00, 1.822218895e-01, 
            -1.776964426e+00, -6.956958771e-01, -2.521447241e-01, 
            1.728540063e-01, -7.053707838e-01, 8.719527125e-01, 
            -1.018145919e+00, -2.472264320e-02, -1.151904583e+00, 
            -1.001761109e-01, -2.698327415e-02, 1.895830929e-01, 
            -2.278376520e-01, 9.041460156e-01, -2.556399822e+00, 
            7.688884139e-01, -1.136664867e+00, -5.049505830e-01, 
            -1.131765366e+00, -5.189032555e-01, -2.105019242e-01, 
            -7.669399977e-01, -6.719902158e-01, -4.050541520e-01, 
            3.199698627e-01, -1.852877438e-01, -1.970411181e+00, 
            -1.518774152e+00, -3.085608959e+00, -4.040502906e-01, 
            -1.414682508e+00, -1.446121812e+00, -7.084411383e-01, 
            5.599136949e-01, 8.122174740e-01, -3.950397372e-01, 
            -2.563953698e-01, 3.647477031e-01, -5.491832495e-01, 
            3.854878545e-01, -5.342146158e-01, -1.632445306e-01, 
            -1.192051291e+00, 3.336671889e-01, -6.288504601e-01, 
            7.739696503e-01},
        {-1.826455832e+00, 9.740557522e-02, -1.485164762e-01, 
            -7.552207708e-01, -6.351279020e-01, -1.678566456e+00, 
            -3.593966961e-01, -6.248309091e-02, -1.027156591e+00, 
            -1.744615100e-02, 1.841463327e+00, 5.280590653e-01, 
            -1.104954630e-01, -1.084119320e+00, -7.028371096e-01, 
            9.263170362e-01, -3.644651771e-01, -2.700465322e-01, 
            -6.681051105e-02, 2.376680672e-01, 2.278885543e-01, 
            -1.946614981e-01, -1.462493651e-02, -3.735276870e-03, 
            -3.565139472e-01, -3.982865438e-02, 6.264821291e-01, 
            -2.456957400e-01, -4.095919132e-01, 4.157678783e-01, 
            3.968945891e-02, -6.658529043e-01, 3.716965616e-01, 
            -7.327373624e-01, -7.575398684e-02, -3.649072945e-01, 
            -7.764580846e-01, -1.279898882e+00, -1.240721941e-01, 
            2.801697254e-01, -6.112679243e-01, -1.574893713e+00, 
            -9.949493408e-02, -6.223834753e-01, 4.465495646e-01, 
            -8.984606266e-01, 3.294443190e-01, -1.344181895e-01, 
            -1.417257786e-01, -6.405720115e-01, 3.240177035e-01, 
            -4.716822803e-01, -5.600965023e-01, -4.812628627e-01, 
            5.371442065e-02, -2.138728648e-01, -2.976775169e-01, 
            -5.629978776e-01, -2.018517703e-01, 4.381389916e-01, 
            2.859867513e-01, 2.852019668e-01, -7.356733680e-01, 
            2.150483280e-01, 6.016949937e-02, -2.231592536e-01, 
            -1.457155585e+00, 2.642166913e-01, -5.870583653e-02, 
            -3.420863152e-01, -6.820582151e-01, -9.542090446e-02, 
            -1.499892473e-01, -3.960346282e-01, -1.921839267e-01, 
            -5.548987389e-01, -3.799753487e-01, 9.579395056e-01, 
            -7.342343330e-01, -2.072998285e-01, -6.256737113e-01, 
            5.301160812e-01, -1.194070935e+00, 2.263300270e-01, 
            -1.186902761e+00, -7.047492862e-01, -2.160342038e-02, 
            -1.241553545e+00, -7.406138182e-01, -8.167413473e-01, 
            -1.661361009e-01, -2.397835106e-01, -1.972363889e-01, 
            1.296321303e-01, 1.342200190e-01, -1.243432045e+00, 
            -4.082838595e-01, -1.097301364e+00, -2.142430693e-01, 
            6.343843341e-01},
        {-4.349736691e+00, -6.372699142e-01, -6.598300338e-01, 
            4.320607483e-01, 4.583012462e-01, 3.843302727e-01, 
            -1.264013290e+00, 8.190776408e-02, 1.479202658e-01, 
            1.758659631e-01, 8.177529573e-01, -2.979570627e-02, 
            -5.970225930e-01, 6.909066439e-01, -4.823509455e-01, 
            4.615966082e-01, -9.315795898e-01, -7.245770842e-02, 
            1.877118498e-01, 3.950593621e-02, 1.385456622e-01, 
            -7.263042927e-01, 4.617347717e-01, 3.315142393e-01, 
            -5.826801658e-01, -2.051618099e-01, 2.272578478e-01, 
            -1.207738817e-01, 7.550401688e-01, -7.356964350e-01, 
            -2.123693675e-01, -3.273602426e-01, 3.979041874e-01, 
            4.569607079e-01, -6.969358325e-01, -3.870746791e-01, 
            -9.976207614e-01, -9.128204584e-01, -1.537678242e+00, 
            4.582716227e-01, -8.887415528e-01, 2.904363871e-01, 
            -4.572274685e-01, -4.161722660e-01, 6.133181453e-01, 
            -7.383522987e-01, 1.125920653e+00, 4.241181016e-01, 
            3.546310067e-01, -2.891637385e-01, 8.058467507e-01, 
            7.538081706e-02, -4.498543143e-01, -7.670771480e-01, 
            -2.429364204e+00, -2.963749409e+00, 7.081638575e-01, 
            -6.545449495e-01, -1.150518376e-02, 5.620537996e-01, 
            5.846815109e-01, 2.613314092e-01, -1.192304254e+00, 
            1.179995164e-01, 2.198006064e-01, 4.356507063e-01, 
            -9.291958213e-01, 1.319013387e-01, -8.889659643e-01, 
            3.485789597e-01, -4.820753336e-01, -1.082666159e+00, 
            -2.188446969e-01, -2.855127752e-01, -4.883445203e-01, 
            -7.155063152e-01, -3.644141257e-01, 2.781742811e-01, 
            6.435628533e-01, -9.931950569e-01, -4.040778279e-01, 
            -1.131547093e+00, 9.587279558e-01, 1.018185139e+00, 
            -3.270165324e-01, 1.315902453e-02, -9.556546211e-01, 
            -8.556383103e-02, 1.046187997e+00, -1.663613319e+00, 
            -2.572933733e-01, 1.521025002e-01, -9.836310521e-03, 
            2.684861422e-01, -1.291688681e+00, 3.592828512e-01, 
            -1.467520148e-01, 3.184410557e-02, -4.327924550e-01, 
            5.371882915e-01},
        {3.643515408e-01, 3.351578414e-01, 7.890985012e-01, 
            7.431973219e-01, 5.276952982e-01, 4.645394087e-01, 
            5.886635780e-01, 1.413325313e-02, 2.076743245e-01, 
            -1.458069533e-01, -3.809705675e-01, -2.043396950e+00, 
            -1.245192960e-01, -3.806077838e-01, 5.625329018e-01, 
            2.950190604e-01, 3.294168711e-01, -2.956582606e-02, 
            3.056901395e-01, 1.621555388e-01, -1.754784584e+00, 
            3.024025857e-01, 1.047430113e-01, -1.877125055e-01, 
            5.380232930e-01, 5.629479885e-01, -6.099177003e-01, 
            1.701769382e-01, 3.519322276e-01, 5.192062352e-03, 
            -4.824628308e-02, 4.628747106e-01, 1.153218076e-01, 
            2.652199566e-01, -1.443446726e-01, 4.885785580e-01, 
            2.868457139e-01, 6.738480181e-02, 1.346540600e-01, 
            -1.248854637e+00, 5.226842761e-01, 1.175156757e-01, 
            -2.742795050e-01, -8.779062033e-01, -1.112920284e+00, 
            8.091452718e-01, -5.144263506e-01, -7.109262347e-01, 
            -7.012042999e-01, 5.058048368e-01, -1.198032022e+00, 
            -4.465550780e-01, -1.394252777e-01, 7.579529285e-01, 
            1.592076421e-01, 8.487141132e-01, 2.677585483e-01, 
            5.892452002e-01, 9.159397334e-02, 1.383456945e+00, 
            -4.257682264e-01, -8.943896294e-01, 4.563108385e-01, 
            1.893603086e+00, -4.831763208e-01, -1.693747640e-01, 
            1.191690415e-01, -9.293845296e-01, -2.940388620e-01, 
            -7.801455259e-02, 7.125947475e-01, 5.599301457e-01, 
            -1.739895940e-01, 6.571269035e-01, 4.246203303e-01, 
            3.701779544e-01, 6.948480010e-02, 7.503270507e-01, 
            3.840906918e-01, 2.016578615e-01, 2.501326501e-01, 
            2.644822299e-01, -6.192327142e-01, 2.526722252e-01, 
            3.395287395e-01, -6.693437099e-01, 5.516824722e-01, 
            3.093971610e-01, -3.949403167e-01, -2.194653898e-01, 
            4.182523787e-01, -3.492077589e-01, -4.745863378e-01, 
            3.333751559e-01, 3.428468481e-02, -2.350274563e+00, 
            1.030497253e-01, -5.540351272e-01, 3.860482275e-01, 
            -1.916000605e+00},
        {-2.980922759e-01, 1.563314199e-01, -1.333235055e-01, 
            -1.951982230e-01, 3.564712107e-01, 5.717326999e-01, 
            -3.024888933e-01, -1.116566896e+00, -3.962171972e-01, 
            3.316989401e-03, -2.552960873e+00, -2.003212720e-01, 
            -8.975873701e-03, -6.846576333e-01, 9.679805487e-02, 
            -1.258982122e-01, -1.097316816e-01, 5.643525124e-01, 
            8.416834474e-02, 3.839161396e-01, 3.927295208e-01, 
            -2.329399288e-01, 6.274287105e-01, -3.502459526e-01, 
            -1.597874612e-01, -5.225527287e-01, -5.843307376e-01, 
            -3.566578329e-01, -5.733849406e-01, 1.115100741e+00, 
            5.425939709e-02, 2.211063951e-01, 9.885785729e-02, 
            5.151051097e-03, -9.830195457e-03, 1.963946819e-01, 
            -3.119437993e-01, -1.219758093e-01, -1.581006885e+00, 
            4.639757574e-01, -7.851115465e-01, -1.339047909e+00, 
            -1.602615952e+00, -2.272221088e+00, -2.077249289e-01, 
            -3.788071573e-01, -4.970432818e-01, -3.198154271e-01, 
            -3.450805426e+00, 1.250610501e-01, -7.237403989e-01, 
            -8.484940529e-01, 3.257982433e-01, -2.246986181e-01, 
            -8.354688883e-01, -9.064323902e-01, -4.314929545e-01, 
            4.743995965e-01, -1.628966480e-01, 4.898566008e-01, 
            3.797619343e-01, -3.455854058e-01, 5.814676359e-02, 
            9.023134112e-01, -1.093138456e-01, -4.618735015e-01, 
            -2.152139246e-01, -1.315023661e+00, 2.993765175e-01, 
            9.877556004e-03, 4.735429212e-02, -3.885683417e-02, 
            -1.098646402e+00, 9.570666552e-01, -5.272269621e-02, 
            -2.194705186e-03, -6.168683171e-01, 7.965068817e-01, 
            -6.947833300e-01, 5.064469576e-01, 1.590037793e-01, 
            -1.739407331e-01, -4.825405478e-01, 3.778837621e-01, 
            -7.138649821e-01, -5.652018189e-01, -1.262877584e-01, 
            1.754089817e-02, -2.266309023e+00, 3.313714266e-01, 
            -2.107027769e-01, 6.266227961e-01, -2.681962550e-01, 
            5.963028669e-01, 3.645136356e-01, 1.127222180e+00, 
            -4.418948889e-01, -1.869104743e+00, -5.482893065e-02, 
            1.046947598e+00},
        {1.056908011e+00, 4.209589660e-01, -4.100425541e-01, 
            5.514481068e-01, -7.110667229e-02, -6.421418190e-01, 
            -1.157522574e-01, 4.019463956e-01, 4.579809681e-02, 
            -7.821304351e-02, 1.905220509e+00, 2.192180902e-01, 
            9.376484156e-02, 1.921528876e-01, 1.992956847e-01, 
            -4.708141327e+00, -5.063831806e-01, -3.955669329e-02, 
            -2.948828638e-01, 2.707581595e-02, 2.419220358e-01, 
            -3.672953546e-01, 6.348339468e-02, -3.737168550e+00, 
            -3.826640546e-01, 4.662094638e-02, -8.711702228e-01, 
            -4.000315964e-01, -7.163395882e-01, -6.783965826e-01, 
            3.156614304e-02, -1.412244737e-01, 3.717952175e-03, 
            -1.042196676e-01, 3.209342360e-01, -2.149015665e-01, 
            1.272833943e-01, 5.486550927e-01, -1.403696537e+00, 
            2.239632905e-01, -2.189397365e-01, 8.172758855e-03, 
            -4.259057641e-01, -3.573405445e-01, -9.659237266e-01, 
            5.709216595e-01, 1.220074221e-01, -1.855160296e-01, 
            5.060877204e-01, -7.931169122e-02, 3.835070729e-01, 
            2.670221925e-01, 8.459851146e-01, -2.289837450e-01, 
            1.009927988e+00, -5.599008799e-01, -2.733489275e-01, 
            -1.395516545e-01, -6.863801926e-02, 1.475667655e-01, 
            -5.809998512e-02, -1.599884331e-01, 5.051521063e-01, 
            -2.046800777e-02, -1.764953285e-01, 5.316427946e-01, 
            3.401440680e-01, 2.815539837e-01, 4.349870384e-01, 
            -5.772547126e-01, 5.690523982e-02, 1.515326947e-01, 
            -2.443536930e-02, -2.062352598e-01, 1.577007920e-01, 
            8.800413460e-02, 2.902579010e-01, -7.673461437e-01, 
            2.170381397e-01, 2.311838791e-02, 1.784148663e-01, 
            2.352169156e-01, 4.649933875e-01, -3.577496111e-01, 
            6.564264297e-01, 2.175170183e-01, -3.199494779e-01, 
            6.138709933e-02, 1.031407565e-01, 3.266125023e-01, 
            -3.114440441e-01, 7.385623455e-02, -2.170270681e-01, 
            2.203557342e-01, 1.357234865e-01, 9.604801238e-02, 
            5.651710033e-01, -4.411471263e-02, -3.764538094e-02, 
            -2.355869561e-01},
        {-1.530240893e+00, 1.235531792e-01, 2.748368382e-01, 
            -3.749305010e-02, -2.991233468e-01, -8.761178851e-01, 
            1.217972785e-01, -3.703612387e-01, -2.606311738e-01, 
            -3.378965259e-01, 7.507313490e-01, -2.829267263e+00, 
            -1.611799151e-01, -3.787009120e-01, 3.356937468e-01, 
            -4.726968706e-01, -2.206338644e-01, 2.832576931e-01, 
            1.924932450e-01, -3.837667704e-01, 2.660879195e-01, 
            6.424780190e-02, -9.116634727e-02, 1.106707007e-01, 
            2.742837928e-02, -1.840983510e+00, -3.216262162e-01, 
            -3.157887459e-01, -7.021800280e-01, -2.375538349e+00, 
            5.004169941e-01, 3.496019244e-01, -1.794421375e-01, 
            3.051071614e-02, 6.756339222e-02, 1.247380748e-01, 
            -1.240611151e-01, 1.436895579e-01, -7.989384234e-02, 
            2.409134805e-01, -2.400443330e-02, -1.074509859e+00, 
            -2.058879137e-01, -8.550558686e-01, -1.459382921e-01, 
            4.960149154e-02, 4.546587467e-01, 2.130580097e-01, 
            3.079888225e-01, 1.224500965e-02, -6.799208522e-01, 
            3.649252057e-01, -6.286075115e-01, 7.883065194e-02, 
            -2.816278338e-01, 1.733507365e-01, -1.949545294e-01, 
            -7.672422379e-02, -1.676274091e-01, -2.842662036e-01, 
            2.260958254e-01, -6.643998027e-01, 1.246034876e-01, 
            2.586526275e-01, -1.966193020e-01, -3.848151565e-01, 
            -2.363393307e-01, -3.673455715e-01, 3.913763165e-02, 
            5.424310267e-02, 1.392442286e-01, 1.768859625e-01, 
            -1.941125691e-01, 9.066038728e-01, -1.008214429e-01, 
            -1.505537331e-01, -2.131472975e-01, -5.262259245e-01, 
            -1.166799963e-01, -7.602670193e-01, 1.537534744e-01, 
            -2.395830899e-01, -3.341139793e+00, 5.209487677e-01, 
            -6.210944057e-01, -4.775738716e-01, 8.622058034e-01, 
            -1.049953923e-01, -5.916592479e-01, -1.399138927e+00, 
            -1.274526305e-02, 8.098217249e-01, -4.453484714e-01, 
            -1.279712915e+00, 3.945277929e-01, -2.695062160e-01, 
            -5.297867060e-01, 2.355326861e-01, -1.380493939e-01, 
            -1.092068434e+00},
        {-1.227171302e+00, -3.439205512e-02, 1.059836000e-01, 
            -1.492603272e-01, 7.500977069e-02, 1.243465781e+00, 
            -1.770429164e-01, -1.297773123e+00, -2.881066874e-02, 
            -5.712308288e-01, -2.055940390e+00, -3.655305386e+00, 
            -2.032597661e-01, -1.723536015e+00, 5.729147792e-02, 
            6.902683526e-02, 7.473006845e-03, -3.774804473e-01, 
            -9.649500251e-03, 7.314898819e-02, -1.339344382e-01, 
            7.502772659e-02, -1.609804273e+00, 5.281579494e-01, 
            9.467227012e-02, 6.266730279e-02, -6.019728184e-01, 
            3.122560680e-02, -5.933292508e-01, 9.554587007e-01, 
            -3.677133024e-01, -1.913885921e-01, -1.197954640e-01, 
            -1.027287692e-01, -3.316341639e-01, -2.593308389e-01, 
            4.779493809e-01, -3.488854766e-01, -3.657697141e-02, 
            5.420926213e-01, 5.366345868e-02, -1.501315087e-01, 
            5.598376319e-02, -2.947413921e-02, -5.430116057e-01, 
            2.080651224e-01, -3.741091192e-01, -8.577920198e-01, 
            9.033938497e-02, -4.637996107e-02, -7.513124943e-01, 
            -8.875029534e-02, 9.916698337e-01, 2.821909785e-01, 
            4.624193013e-01, -4.376923442e-01, -6.870670617e-02, 
            -1.303714365e-01, -5.188105628e-02, 7.837309837e-01, 
            -5.391523615e-02, -7.701500654e-01, -6.736323237e-02, 
            6.700235605e-01, -5.863030553e-01, 1.277311742e-01, 
            -4.534361959e-01, -1.369922876e+00, -3.163939342e-02, 
            -4.873327017e-01, 1.717158705e-01, -7.434348464e-01, 
            -2.920021713e-01, -6.026557088e-02, -4.803638905e-02, 
            1.977235675e-01, 3.905279934e-01, 3.076877594e-01, 
            -6.054538488e-01, -1.106696054e-01, -1.048935801e-01, 
            -3.397817910e-01, -2.007769108e+00, -6.145608425e-01, 
            -9.618186355e-01, -4.337637424e-01, 1.929744519e-02, 
            -2.205355465e-02, -4.093645513e-01, -1.017679811e+00, 
            7.064011693e-02, 1.503547840e-02, -2.397810370e-01, 
            7.314091176e-02, 8.017913699e-01, -1.373987556e+00, 
            -1.321363747e-01, 8.141716123e-01, -7.830500603e-02, 
            4.613171220e-01},
        {-2.250957966e+00, 1.018069744e+00, 4.278680310e-02, 
            -4.686470032e-01, -1.945205927e-01, 1.226572245e-01, 
            3.066615760e-01, -9.536976926e-03, -3.091084063e-01, 
            -5.605115555e-03, 2.218919098e-01, -1.503642678e+00, 
            2.555682361e-01, -4.050979018e-01, -5.039016157e-02, 
            2.420062870e-01, 2.356567532e-01, -6.723910570e-01, 
            1.356557161e-01, -1.112514019e+00, -1.974013001e-01, 
            4.394425154e-01, -8.417252898e-01, -2.538347840e-01, 
            1.084582880e-01, -7.348189354e-01, 1.262862235e-01, 
            5.184098482e-01, -2.411166877e-01, -1.305547357e+00, 
            2.880624831e-01, 1.702345461e-01, 1.438714415e-01, 
            2.667581737e-01, -6.709156185e-02, 1.092429683e-01, 
            4.966813922e-01, 8.506911397e-01, 1.311257631e-01, 
            -1.594141126e+00, 3.626156151e-01, -1.054888606e+00, 
            1.421886832e-01, -8.019171655e-02, 3.722665608e-01, 
            2.395962626e-01, 7.910867929e-01, 6.345067024e-01, 
            -3.092008829e-01, 2.810746133e-01, 1.718648076e-01, 
            2.814429402e-01, -2.604749501e-01, 1.349998415e-01, 
            5.437539220e-01, 2.322541177e-01, 5.256760120e-01, 
            2.287099957e-01, 2.651635110e-01, -6.308273077e-01, 
            -3.999970481e-02, 1.045011654e-01, -1.389437020e-01, 
            -9.243024141e-02, -1.316738009e+00, -8.097633719e-03, 
            -3.856734633e-01, 4.686743021e-01, -5.627208352e-01, 
            -3.226798028e-02, 2.239198387e-01, -1.903852820e-02, 
            1.618898511e-01, -8.404850960e-01, 1.505407244e-01, 
            1.201228350e-01, 4.452137351e-01, 6.564885974e-01, 
            -4.454222620e-01, 3.676534295e-01, 1.248691380e-01, 
            4.136209935e-02, -2.806859493e+00, 2.262469381e-01, 
            -2.075742245e+00, 2.391511649e-01, 1.050231099e+00, 
            1.795189381e-01, 6.103056073e-01, -1.376699924e+00, 
            4.116205573e-01, 5.752463937e-01, 3.547639251e-01, 
            3.785135448e-01, 2.935734987e-01, -1.963082790e+00, 
            1.389028877e-01, -4.883279502e-01, -1.716739535e-01, 
            -7.378950119e-01},
        {-2.132341146e+00, 2.819848061e-01, 8.799217641e-02, 
            6.802146435e-01, 1.617046893e-01, -7.948231101e-01, 
            -4.785569012e-01, -2.881993055e-01, 3.868172169e-01, 
            -1.301664114e-01, 6.239845753e-01, -1.632795855e-02, 
            -5.354951620e-01, -7.280832529e-01, -4.112115204e-01, 
            1.272349656e-01, -7.160400152e-01, 8.138982952e-02, 
            -5.253090262e-01, 5.219364762e-01, 1.844396293e-01, 
            -1.148338616e-01, 1.524773985e-01, 4.793615937e-01, 
            5.559075158e-03, 3.304326162e-02, -6.585715413e-01, 
            -2.749904394e-01, 2.669371963e-01, -6.621586531e-02, 
            -8.463060856e-02, -4.728223383e-01, 4.447438717e-01, 
            -3.291629255e-01, -7.359065413e-01, 5.271156505e-02, 
            -8.069656491e-01, -6.151328087e-01, -3.761075437e-01, 
            6.175382137e-01, -3.494352102e-01, 1.504711956e-01, 
            -6.271219254e-02, -9.503598809e-01, -1.437537074e-01, 
            -1.223279536e-01, 5.720685124e-01, 9.716083407e-01, 
            5.500631928e-01, 1.545213610e-01, -5.784282088e-01, 
            3.846822083e-01, -1.051094532e+00, -7.023076713e-02, 
            -4.857275784e-01, -6.513248682e-01, -2.836177647e-01, 
            3.253130987e-02, -2.101904154e-01, 1.165942669e+00, 
            -1.223659396e+00, 2.820051275e-02, -2.019007206e-01, 
            2.700049579e-01, 6.589552760e-01, 5.380833149e-01, 
            -6.659270078e-02, 1.510384083e-01, -8.991155028e-01, 
            -4.430845380e-03, -2.870604992e-01, -8.213685155e-01, 
            -1.996556669e-01, -2.183988690e-01, -1.108741909e-01, 
            -1.013991013e-01, -4.193766415e-01, -8.687654138e-02, 
            6.280325651e-01, -1.439605117e+00, -8.629494309e-01, 
            -6.763181090e-01, -1.259444714e+00, -1.226619601e+00, 
            -6.113908291e-01, -4.812833071e-01, 3.138590753e-01, 
            -4.821460322e-02, -6.420787573e-01, -3.020258248e-01, 
            -4.536935315e-02, 4.397684038e-01, -9.910173416e-01, 
            2.171292007e-01, -1.068286538e+00, 2.404837459e-01, 
            -2.811605036e-01, 1.133497991e-02, -8.411565423e-02, 
            3.510834277e-01},
        {1.060206413e+00, -1.656250715e+00, -1.907674551e+00, 
            -3.093157530e+00, -2.175112963e+00, 4.716404974e-01, 
            -1.307765841e+00, 6.413063407e-01, -2.394250393e+00, 
            -5.299329758e-01, 2.424780369e+00, 8.714895844e-01, 
            -1.115192100e-01, 4.482768476e-01, -2.739303410e-01, 
            5.251564085e-02, -4.964583218e-01, -2.053612173e-01, 
            -2.213886082e-01, 2.320278622e-02, 6.530721439e-04, 
            -1.527771950e+00, 7.117963582e-02, 1.104049206e+00, 
            -1.556896091e+00, -3.828377128e-01, 3.010653853e-01, 
            -1.831127405e+00, -3.332392454e+00, 1.635374784e+00, 
            3.794810921e-02, 2.026353478e-01, -5.073460937e-01, 
            -8.700252324e-02, 2.730328441e-01, -8.654262424e-01, 
            -1.333988070e+00, -4.528111592e-02, -1.148563862e+00, 
            2.272439003e+00, -3.672176600e+00, -6.298684329e-02, 
            -3.438424826e+00, -3.208466053e+00, -2.879655361e-02, 
            -1.599371791e+00, -5.590878129e-01, -8.095149994e+00, 
            -6.217515469e-01, -1.287640452e+00, 1.840554923e-01, 
            -7.142019272e-02, -2.188416757e-02, -2.221173286e+00, 
            6.557155252e-01, -2.343936443e+00, -4.185411036e-01, 
            -8.891361356e-01, -5.420196056e-01, -2.894415617e+00, 
            2.511926889e-01, 1.542124301e-01, -2.007066011e-01, 
            -5.839185715e-01, -2.632349133e-01, -3.376556635e-01, 
            -5.897587538e-01, -9.721626043e-01, 5.630633831e-01, 
            -1.379858494e+00, -4.088349044e-01, -7.016977668e-01, 
            -1.689435482e+00, 4.794635475e-01, -1.932235956e+00, 
            -5.367361903e-01, -2.547188520e+00, 5.015291572e-01, 
            -4.941702366e+00, -1.950487375e+00, 2.208104581e-01, 
            4.580207765e-01, 1.265609026e+00, 5.867246985e-01, 
            -5.824011564e-01, -3.882802278e-02, 4.072685540e-02, 
            -1.265637517e+00, -4.263146520e-01, -6.673768759e-01, 
            -1.886911273e+00, -2.709640026e+00, -7.279531658e-02, 
            9.280209541e-01, -2.612851188e-02, 1.757945567e-01, 
            -6.744142175e-01, -1.132759452e-01, -4.982652366e-01, 
            1.669811726e+00},
        {-1.749668241e+00, 4.787943661e-01, 4.136246815e-02, 
            2.128062397e-01, 4.012145400e-01, 1.580954909e+00, 
            -9.693070650e-01, -4.209054947e+00, 1.330778748e-01, 
            1.576627791e-01, -4.643119812e+00, 3.483443260e+00, 
            -1.853136420e+00, -2.565534830e+00, -2.701519489e+00, 
            5.696001649e-01, -1.605452061e+00, 4.466872513e-01, 
            -6.130226851e-01, 3.644276559e-01, -3.252472579e-01, 
            -7.708244324e-01, -4.412197769e-01, 1.495540500e+00, 
            3.807132244e-01, -3.902282715e-01, -2.369209051e+00, 
            -6.949520111e-01, 2.178697437e-01, 2.970655441e+00, 
            1.329883337e-01, -7.048689127e-01, 2.239859998e-01, 
            -1.147204518e+00, -1.887406588e+00, 1.471686214e-01, 
            -1.067109227e+00, -1.854927242e-01, -1.900900602e+00, 
            2.225319594e-01, -1.075766921e+00, 6.407071352e-01, 
            -1.118139505e+00, -2.442280293e+00, 2.017006129e-01, 
            -3.136201859e+00, 3.002663255e-01, 8.528933525e-01, 
            -2.528950930e+00, -9.167919159e-01, -6.938527822e-01, 
            -2.126931846e-01, -3.930801630e+00, -6.854442954e-01, 
            -2.036504984e+00, 9.398827553e-01, -4.944663644e-01, 
            8.114213347e-01, -1.524928570e+00, -3.403828293e-02, 
            -2.518372774e+00, -7.691679988e-03, -3.088671207e+00, 
            5.421395898e-01, 4.622876942e-01, 1.502672136e-01, 
            -7.689377666e-01, -1.459680319e+00, -3.926378965e+00, 
            2.124680042e+00, -1.692882061e+00, -1.340029985e-01, 
            -1.360690236e+00, 4.170701802e-01, -1.279406071e+00, 
            -1.593612194e+00, -1.455541253e+00, 1.186754227e+00, 
            -1.051132753e-01, 1.205213547e+00, -3.224534750e+00, 
            -6.487607360e-01, -2.972588062e+00, -3.344851732e-01, 
            -8.719298989e-02, -8.773205280e-01, 6.104515195e-01, 
            -9.836513400e-01, 2.106135190e-01, -2.102133930e-01, 
            -2.794102430e-01, 1.362899691e-01, -2.894519806e+00, 
            3.648163974e-01, -1.033518314e+00, 4.806717336e-01, 
            -3.629742384e+00, -1.399069279e-01, -1.308955073e+00, 
            2.898134589e-01},
        {-8.173036575e-02, 5.047714114e-01, 1.355547011e-01, 
            1.687287569e+00, 1.514095366e-01, 7.101149112e-02, 
            1.635739356e-01, -1.000082374e+00, 3.769266307e-01, 
            1.320584863e-01, 7.683281898e-01, 5.703232288e-01, 
            1.620830894e-01, -6.800295711e-01, -1.311415732e-01, 
            -4.176979512e-02, -1.987607032e-01, 6.849347353e-01, 
            -7.824117690e-02, 7.909808159e-01, 6.143358350e-01, 
            2.781571448e-01, 1.303167105e+00, -4.356918335e-01, 
            2.066320330e-01, -4.815791920e-02, 5.531813949e-02, 
            -3.522192314e-02, 1.954053044e-01, 9.519909620e-01, 
            -4.083975792e+00, -8.070055395e-02, 4.838789105e-01, 
            -2.044181228e-01, 4.575916007e-02, 1.431226730e-01, 
            -1.871021688e-01, -4.984722286e-02, 2.308946550e-01, 
            1.179415584e+00, 3.308683336e-01, 2.629362643e-01, 
            4.053014815e-01, 1.116717681e-01, -8.731590509e-01, 
            1.958943903e-01, 1.745785773e-01, 7.397879958e-01, 
            9.081345797e-01, 1.625680476e-01, -5.375137925e-01, 
            6.504394412e-01, -3.816357255e-01, 1.605640501e-01, 
            2.932111323e-01, 3.971405923e-01, -3.160647154e-01, 
            4.669010639e-01, 2.048246935e-02, 7.016906738e-01, 
            -5.344823599e-01, -1.344725251e+00, 1.876108050e-01, 
            1.016389057e-01, 1.377816439e+00, 7.459970117e-01, 
            2.198274434e-02, 6.857911497e-02, -2.818363011e-01, 
            2.882566154e-01, -9.610107541e-02, -1.162855625e-01, 
            5.060748458e-01, -4.186147153e-01, 3.102657497e-01, 
            1.574409753e-01, 9.834530950e-02, 5.069315434e-01, 
            6.814879179e-01, -6.142068505e-01, -3.694997132e-01, 
            3.453746140e-01, -2.268763930e-01, -7.908324003e-01, 
            6.644945741e-01, -5.467121005e-01, 1.303939342e+00, 
            1.449465603e-01, -2.636075914e-01, 4.614879191e-01, 
            2.764092386e-02, 3.704895079e-01, -2.481635809e-01, 
            3.668598831e-01, 3.364634812e-01, 5.481979847e-01, 
            2.293709200e-03, -3.356979787e-01, 9.792662412e-02, 
            3.365538716e-01},
        {2.388017625e-01, 2.861835659e-01, 5.517516732e-01, 
            -3.300133348e-02, -6.202214956e-01, -7.366985083e-01, 
            4.546864331e-01, 3.381738365e-01, -5.681161880e-01, 
            3.925982714e-01, 5.249431133e-01, 4.579589665e-01, 
            -2.553223372e-01, 1.048347205e-01, 3.303730190e-01, 
            3.346189260e-01, 1.421664506e-01, -1.382715583e+00, 
            1.891601384e-01, -8.756067753e-01, -3.969018459e-01, 
            2.367346436e-01, -6.160845160e-01, -2.307277769e-01, 
            3.153728247e-01, 1.442857534e-01, -6.581070423e-01, 
            3.566227555e-01, -4.064636827e-01, 2.759414911e-01, 
            1.431273017e-02, 3.400876522e-01, 6.367129833e-02, 
            -3.776572272e-02, 2.924638242e-02, 6.190992594e-01, 
            2.602258623e-01, 2.472916096e-01, 1.971404701e-01, 
            -1.671800733e+00, 2.434652746e-01, -2.163558722e+00, 
            5.355134010e-01, 7.530387044e-01, -2.909206748e-01, 
            5.370006561e-01, -1.565330476e-01, -3.845608830e-01, 
            1.331388834e-03, 5.741125941e-01, -1.300131381e-01, 
            2.071368694e-01, -5.326087475e-01, 4.024520218e-01, 
            -4.461097121e-01, -4.530158043e-01, -9.504864365e-02, 
            2.054671049e-01, 5.164942518e-02, -1.895494759e-02, 
            -6.907060742e-01, 8.398033977e-01, -1.356949285e-02, 
            5.743155479e-01, -1.349209785e+00, -3.808349669e-01, 
            1.192255020e+00, 2.772347033e-01, -6.754963994e-01, 
            -1.873740554e-01, 3.218883276e-01, 1.062527776e+00, 
            2.604439557e-01, 3.652709723e-01, 4.454448521e-01, 
            5.105242133e-02, 2.405609488e-01, -7.545207441e-02, 
            2.107369900e-01, 9.417846799e-02, -2.313326746e-01, 
            1.259528548e-01, -1.238377094e+00, -5.086675882e-01, 
            7.945740819e-01, -2.654851601e-02, 5.462999344e-01, 
            2.942978740e-01, -1.172013998e+00, 1.258426189e+00, 
            5.367463827e-01, -8.586449027e-01, -4.486548603e-01, 
            -4.905175567e-01, -3.127854586e+00, -1.382019758e+00, 
            2.587024868e-01, -2.643218040e-01, 5.248522162e-01, 
            -1.866050601e+00},
        {-5.426021814e-01, -1.005609155e+00, 4.136735573e-02, 
            -2.266093045e-01, -1.285955459e-01, 2.393458933e-01, 
            2.039041519e-01, 8.375159651e-02, -2.020974755e-01, 
            5.608242005e-02, -2.497718334e-01, 6.479030848e-02, 
            -4.257775843e-02, 2.436873168e-01, 1.975059211e-01, 
            3.022708893e-01, 5.972527340e-02, -4.755840600e-01, 
            -8.830854297e-02, -3.686055541e-01, -2.463992536e-01, 
            -1.911063641e-01, -6.453185081e-01, -9.882536530e-02, 
            3.550021350e-02, -1.494404674e-01, 3.717471659e-01, 
            4.032199085e-02, -5.645274520e-01, -3.779077232e-01, 
            3.513829708e-01, 3.596419692e-01, -1.233117819e+00, 
            1.209973991e-01, -6.045915931e-02, 2.254534811e-01, 
            7.800418139e-02, 2.425241470e-01, 3.815788329e-01, 
            -8.021440506e-01, -2.911143936e-03, 1.383512467e-01, 
            -4.120422527e-02, 3.964540362e-02, 2.546261251e-01, 
            2.576954961e-01, -1.781221330e-01, -7.520698905e-01, 
            -9.603721499e-01, 1.860136241e-01, 2.790454328e-01, 
