#include "nn_params.h"

const unsigned short LAYER_DIMS[] = {
    6, 100, 100, 100, 2
};

const Layer LAYER_TYPES[] = {
    DENSE, SOFTPLUS, DENSE, SOFTPLUS, DENSE, SOFTPLUS, DENSE, TANH
};

const float STATE_BIAS[NUM_STATE_VARS] = {
    -4.774359926e-05, 0.000000000e+00, -6.658236258e-05, 
        0.000000000e+00, 0.000000000e+00, 0.000000000e+00  
};

const float INPUT_SCALER_PARAMS[2][NUM_STATE_VARS] = {
    {-9.630059035e-03, 2.159727369e-03, -2.924314988e-01, 
        -2.695328941e-02, -3.245074642e-04, -3.733555797e-04},
    {4.001365479e+00, 1.454647473e+00, 4.115038958e+00, 
        1.195003989e+00, 1.628627160e-01, 4.535484227e-01}
};

const float OUTPUT_SCALER_PARAMS[4][NUM_CONTROL_VARS] = {
    {-4.518552078e-01, -4.519008672e-01},
    {3.443307042e-01, 3.442589610e-01},
    {1.721654356e-01, 1.721295662e-01},
    {2.740720442e-01, 2.740492048e-01}
};

const float BIASES[NUM_DENSE_LAYERS][MAX_LAYER_DIMS] = {
    {-6.306795478e-01, -4.160040617e-01, 7.855982333e-02, 
        -4.603977874e-02, -2.451404035e-01, 5.013267994e-01, 
        2.779507078e-02, -1.422245055e-01, -2.656305730e-01, 
        -6.025685742e-02, -2.894969583e-01, -1.741097420e-01, 
        2.074148133e-02, 2.189231068e-01, -7.234012336e-02, 
        -2.539008260e-01, -5.984080210e-02, -1.693312377e-01, 
        2.785800211e-02, -1.604141444e-01, 2.672189474e-01, 
        5.844211578e-02, -1.693963408e-01, -1.051480025e-01, 
        -1.791069843e-02, 3.593296111e-01, 1.101610065e-01, 
        -1.071857437e-01, -1.352090985e-01, -2.896402404e-02, 
        -4.322851002e-01, -3.447848931e-02, -3.747417629e-01, 
        -1.673944294e-01, -6.157464981e-01, -1.120798349e+00, 
        2.769958600e-02, -5.486049876e-02, -1.480133235e-01, 
        -1.233780608e-01, -3.713243902e-01, 6.936844587e-01, 
        4.745131359e-02, -1.387503296e-01, -8.839685917e-01, 
        -7.047459483e-02, 1.112667680e+00, 1.677981466e-01, 
        9.204895236e-03, -2.339234650e-01, -4.451223612e-01, 
        2.504247725e-01, -2.800785899e-01, -2.606516182e-01, 
        -2.696293890e-01, -3.900391757e-01, 9.956801310e-03, 
        -1.729956269e-01, -9.543883204e-01, 6.008747816e-01, 
        4.113408923e-02, -6.774011850e-01, -2.241534442e-01, 
        1.681177616e-01, -6.867240667e-01, -2.058887333e-01, 
        3.010039330e-01, -5.428262949e-01, 7.286748290e-01, 
        -1.175774708e-01, -3.556007519e-02, 1.787874103e-01, 
        1.914278604e-02, 2.638590336e-02, 4.481830820e-02, 
        1.591303349e-01, -1.858873963e-01, -2.598287165e-01, 
        1.081558466e+00, -2.438729703e-01, -1.621716283e-02, 
        7.553876936e-02, -4.429922998e-01, -3.324503899e-01, 
        6.680731177e-01, -5.999053717e-01, 7.542208582e-02, 
        -9.955868125e-01, -5.216337442e-01, 1.307417266e-02, 
        -1.293212295e+00, -3.182153404e-01, 2.713677660e-02, 
        4.940253496e-01, 7.978763431e-02, -3.001491725e-01, 
        4.147420824e-02, -1.145801902e+00, 3.691824526e-02, 
        4.506904781e-01},
    {1.256648600e-01, 9.595921040e-01, -3.742187619e-01, 
        2.475600541e-01, -1.192857742e+00, -1.366669178e+00, 
        4.269447327e-01, 4.841829240e-01, -3.291030228e-02, 
        6.966078877e-01, -2.194056101e-02, 4.936078787e-01, 
        -2.020318508e-01, 2.386104017e-01, -8.186020851e-01, 
        2.091071904e-01, 7.190749645e-01, 5.894179270e-02, 
        5.309680700e-01, 3.853017092e-01, -7.167297006e-01, 
        3.412417769e-01, 1.093805134e-01, -2.073942423e-01, 
        3.649445474e-01, 6.322025061e-01, 6.494483352e-01, 
        -9.453893453e-02, 3.272479475e-01, 2.865895033e-01, 
        -8.137019351e-03, 1.981505752e-01, -3.167972863e-01, 
        6.070864797e-01, -5.213292241e-01, 4.713109434e-01, 
        -6.453543305e-01, 4.790614843e-01, 1.044288874e-01, 
        -1.471949458e+00, 5.571606159e-01, -4.298543036e-01, 
        -3.894862831e-01, 6.370342374e-01, -6.413097978e-01, 
        2.732138932e-01, -4.183275998e-02, 6.815024465e-02, 
        2.098248750e-01, 2.819465101e-01, 5.778370500e-01, 
        -1.627722859e+00, -1.434866935e-01, 6.158357859e-01, 
        4.097446501e-01, -1.112785041e-01, 2.495040894e-01, 
        3.574192822e-01, 3.305765092e-01, 4.624165893e-01, 
        2.253317386e-01, 9.542779922e-01, 2.246515900e-01, 
        -2.741717100e-01, 8.770002723e-01, 6.892778873e-01, 
        5.887023807e-01, -2.500034571e-01, 3.223346770e-01, 
        -1.443208847e-02, -6.872361898e-01, -3.852280378e-01, 
        -1.224667504e-01, -6.421016455e-01, -1.488570809e+00, 
        4.674541056e-01, 5.411914587e-01, 3.779099286e-01, 
        -1.108398587e-01, 5.107810497e-01, 3.583708405e-01, 
        -4.429103062e-02, 2.166061401e-01, -3.403681517e-01, 
        -1.459319443e-01, 2.733543813e-01, 1.009682491e-01, 
        -8.949518800e-01, 4.046708643e-01, 3.997446597e-01, 
        -1.156663746e-01, -1.613320470e+00, 2.502852380e-01, 
        -1.194649264e-01, 6.237362027e-01, 3.162311316e-01, 
        -2.356981188e-01, 7.530182004e-01, 2.540030777e-01, 
        -1.544827104e+00},
    {1.778722256e-01, -5.846936107e-01, -1.913872510e-01, 
        -1.751709700e+00, -1.296850681e+00, 7.959799767e-01, 
        -1.294223219e-01, -4.504747316e-02, -3.083749115e-01, 
        1.011030316e+00, -4.009061456e-01, -3.041511476e-01, 
        -2.405355275e-01, 4.710516334e-01, -9.728785157e-01, 
        -1.530439258e-01, -1.098157525e+00, -1.179448962e+00, 
        -3.263643682e-01, -2.244937420e-01, -4.205256104e-01, 
        -1.277970791e+00, -7.024124861e-01, 9.921476841e-01, 
        -3.596681654e-01, -2.093981266e+00, 7.474232465e-02, 
        -1.311863184e+00, -1.602589846e+00, 2.194506824e-01, 
        8.272874355e-01, -1.037293971e-01, 5.954532623e-01, 
        -9.185412526e-01, 1.403699517e-01, 3.574439287e-01, 
        -4.824987948e-01, 8.382974267e-01, -1.202898979e+00, 
        5.352793932e-01, 7.719475627e-01, 3.511913121e-01, 
        6.942407042e-02, 1.244107187e-01, -2.802405834e+00, 
        -1.917137653e-01, -3.230437338e-01, 2.028553486e-01, 
        6.814441681e-01, -1.341420770e+00, -3.654192984e-01, 
        -8.579084277e-01, -1.530606896e-01, -3.489489853e-02, 
        3.340227902e-01, -6.361922622e-02, 7.368483543e-01, 
        -7.841232419e-01, -3.058420122e-02, 2.799985707e-01, 
        6.263295412e-01, -8.350855671e-03, 8.951479197e-01, 
        5.318500400e-01, 2.459862679e-01, 1.308553517e-01, 
        1.753606498e-01, -6.321898103e-02, -1.653249413e-01, 
        6.069830060e-01, 8.139759302e-02, 3.934666216e-01, 
        -1.339678288e+00, -2.548979223e-01, -1.211360544e-01, 
        1.161385536e+00, 8.524014801e-02, -3.951504230e-01, 
        -8.050847650e-01, 3.278799355e-01, 6.263195872e-01, 
        -1.495143056e+00, -2.633267045e-01, 6.702547669e-01, 
        7.217566669e-02, -6.154595613e-01, 1.452151835e-01, 
        -1.439650774e+00, 1.398627758e-01, 3.151963651e-01, 
        1.032990217e+00, -3.234935179e-02, -7.622052729e-02, 
        4.215832353e-01, 1.041518331e+00, 2.336506993e-01, 
        3.990202397e-02, -1.298833013e+00, -6.957427263e-01, 
        -8.919156790e-01},
    {-5.374761298e-02, -7.228840888e-02}
};

const float WEIGHTS[NUM_DENSE_LAYERS][MAX_LAYER_DIMS][MAX_LAYER_DIMS] = {
    {
        {-9.601120353e-01, -1.971474290e-01, -1.148196578e+00, 
            -1.193926215e+00, -9.520878792e-01, -3.251381218e-01},
        {-2.417672127e-01, 2.926965803e-02, -4.719675779e-01, 
            -9.456968307e-02, -3.400822356e-02, 2.585507557e-02},
        {-1.189727932e-01, 2.968561137e-03, -3.033367395e-01, 
            6.905706972e-02, 2.446481772e-02, 3.310129419e-02},
        {2.411883324e-01, 1.006938238e-02, -2.036871672e+00, 
            -3.528246880e-01, -4.732891023e-01, -3.728123903e-01},
        {7.973794937e-01, 2.518955767e-01, -2.589258194e+00, 
            -6.614196897e-01, 5.168808699e-01, 2.831646800e-01},
        {1.472744823e+00, 2.822169960e-01, -4.619493961e+00, 
            8.624249101e-01, -1.798403263e-01, -1.318603605e-01},
        {-1.029430151e+00, -3.583782166e-02, 9.003266692e-01, 
            2.543079555e-01, 4.532602802e-02, 5.267923325e-02},
        {3.055482507e-01, 1.568440795e-01, 1.138428807e+00, 
            9.169813395e-01, -1.008153334e-01, -4.634644687e-01},
        {5.405911207e-01, 2.004294246e-01, -1.103216767e+00, 
            -6.474419236e-01, -9.929057360e-01, 6.567515433e-02},
        {-6.905794144e-02, 9.611462057e-02, 2.745530903e-01, 
            1.641627550e-01, 1.157537475e-02, 5.942980200e-02},
        {-7.015437633e-02, -6.622163951e-02, -3.623015285e-01, 
            3.941182792e-02, 4.211225361e-02, 1.021693461e-02},
        {-1.426286697e+00, -9.872035384e-01, -1.839872360e+00, 
            -8.885787129e-01, 5.595835447e-01, 1.605096310e-01},
        {-1.226967052e-01, -3.557083383e-02, 1.551051140e-01, 
            1.500997692e-01, 4.476151615e-02, 8.247109503e-02},
        {-2.483281344e-01, -3.227825463e-01, 2.397380114e+00, 
            3.684387505e-01, 8.504946530e-02, 7.501552254e-02},
        {3.738958761e-02, -1.408549249e-01, 2.222334623e+00, 
            1.606033444e+00, 5.611086637e-02, 1.248160726e-03},
        {-9.002287388e-01, -5.110436678e-01, 6.681943536e-01, 
            -1.023053154e-01, 8.724980354e-01, 4.204609096e-01},
        {-3.088573739e-02, -1.981286146e-02, -1.049283221e-01, 
            5.863454938e-02, 1.487321686e-02, 7.694470696e-03},
        {-7.148162723e-01, -2.685611248e-01, -2.010439634e+00, 
            -5.144467950e-01, 9.435563684e-01, 3.682595193e-01},
        {-2.951501906e-01, -5.443390459e-03, 5.219289064e-01, 
            2.848880291e-01, -1.662108861e-02, 3.815026581e-02},
        {-4.515349865e-01, -3.180917203e-01, -1.820651174e+00, 
            -8.987454176e-01, 6.245208383e-01, 4.840226769e-01},
        {-9.030801654e-01, -4.537320137e-01, -4.379290581e+00, 
            -4.403825402e-01, -2.420309000e-02, -1.219207570e-01},
        {-2.833022363e-02, 1.136629283e-01, 8.409397602e-01, 
            3.286514282e-01, 1.167552546e-02, 9.703511000e-02},
        {8.845428824e-01, -9.922531992e-02, -2.863042355e-01, 
            5.843334645e-02, -6.969186664e-02, -1.154082343e-01},
        {3.194136322e-01, -1.356841810e-02, -3.813491166e-01, 
            6.445609331e-01, -3.370842934e-01, 1.441410650e-02},
        {-5.575660989e-02, 3.058361411e-01, 3.967037439e+00, 
            6.734474897e-01, -7.101479769e-01, -2.569877803e-01},
        {-1.036604786e+01, -2.152372122e+00, -4.854062557e+00, 
            -8.296257257e-01, 2.282487750e-01, -5.425144918e-03},
        {2.662497461e-01, 1.659621447e-01, 6.186427474e-01, 
            3.139438033e-01, -2.814592049e-02, 5.744239688e-02},
        {-5.415492505e-02, -1.363042444e-01, 9.137287140e-01, 
            8.129773140e-01, 4.919746425e-03, 2.843904495e-01},
        {2.020404488e-01, 1.220653765e-02, 7.421076298e-01, 
            6.127629280e-01, 9.309110790e-02, 3.871425688e-01},
        {4.529662803e-02, 3.739558160e-02, 1.884967983e-01, 
            1.708987355e-01, -3.346229345e-02, 5.244425964e-03},
        {-9.773976803e-01, -1.730330139e-01, -7.593191862e-01, 
            8.398350477e-01, 3.492456377e-01, 4.115297198e-01},
        {-3.935235552e-03, 7.769968826e-03, -8.565691113e-02, 
            5.837115645e-02, 2.667093091e-02, -9.504668415e-04},
        {-9.431745410e-01, 2.865206636e-02, -2.139175415e+00, 
            -6.576558948e-01, -5.511688590e-01, -3.597286046e-01},
        {-1.145946980e-01, -5.011675954e-01, 9.892373681e-01, 
            8.722720742e-01, -7.573139668e-02, -1.717133969e-01},
        {-3.137610257e-01, -3.346956372e-01, -1.274549007e+00, 
            -5.651080608e-01, -5.970079303e-01, -9.006027132e-02},
        {-1.900588721e-01, -9.841348045e-03, -9.290332794e-01, 
            4.059035331e-02, -1.397860646e+00, -2.133503854e-01},
        {4.913394339e-03, -4.612563178e-03, -8.208879083e-02, 
            6.055729836e-02, 3.231431544e-02, -6.240381394e-03},
        {7.464854240e+00, 2.310357571e+00, -2.630234003e+00, 
            -6.651713848e-01, -2.756105661e-01, -2.352337539e-02},
        {-2.078690678e-01, -3.219971061e-02, 7.819063663e-01, 
            2.106987834e-01, 7.381677032e-01, 5.631441474e-01},
        {-1.101329684e+00, -1.046524525e+00, -8.407739401e-01, 
            -1.260246754e+00, 1.266661286e+00, 1.647769660e-01},
        {1.327932596e+00, 5.445213318e-01, 2.170726299e+00, 
            -2.447670884e-02, -9.643548131e-01, -3.660779893e-01},
        {1.233717561e+00, 5.214864016e-01, 2.965454161e-01, 
            -9.705981612e-01, -6.621953845e-01, -2.257553637e-01},
        {-3.252362609e-01, -1.846722066e-01, 1.873826981e+00, 
            9.633010626e-01, -1.323006600e-01, 2.904795706e-01},
        {8.694436401e-03, 1.855592616e-02, -3.092762828e-02, 
            6.428439170e-02, 1.307226904e-02, 2.318737283e-02},
        {-9.629613720e-03, -1.002419088e-02, -8.461579084e-01, 
            -2.694416940e-01, 1.203457713e-01, 2.220387697e+00},
        {9.189814329e-02, 2.549051121e-02, -1.404135972e-01, 
            2.416758388e-01, -2.756876126e-02, -2.743918076e-02},
        {-1.792411804e+00, 1.305362940e+00, -4.844966412e+00, 
            1.161318207e+01, -3.718260527e-01, -2.767633460e-02},
        {1.434507251e+00, 9.450132847e-01, -3.118008614e+00, 
            -9.364846349e-01, -2.008159459e-01, 1.500895768e-01},
        {-4.862296581e-01, -2.696451843e-01, -3.230331421e+00, 
            -9.433941841e-01, 5.623763800e-01, -1.041530371e-01},
        {-2.142237686e-02, -2.911805734e-02, -2.184267938e-01, 
            5.765346438e-02, 2.542814799e-02, 1.728794724e-02},
        {-1.311700791e-01, -1.542835683e-01, 4.719986022e-01, 
            1.771485955e-01, 1.448081732e-01, 1.876984388e-01},
        {-2.442822695e+00, -1.138431072e+00, -4.271281242e+00, 
            -1.138497591e+00, 6.998503953e-02, 3.409976885e-02},
        {-4.641504586e-01, -3.151037693e-01, 2.861377001e+00, 
            1.278394461e+00, 5.235294700e-01, -2.739996314e-01},
        {3.395339489e+00, -1.034986138e+00, -2.704438686e+00, 
            -8.717386723e-01, 1.472817183e+00, 5.609708428e-01},
        {7.388615012e-01, 8.764335513e-01, -1.001053095e+00, 
            -9.137833118e-01, -8.258077502e-01, -4.183600843e-01},
        {-9.922515154e-01, -2.226492465e-01, -1.054804444e+00, 
            -2.018424422e-01, 1.179307476e-01, 1.443771273e-01},
        {-9.593197107e-01, -2.333366871e-01, 1.276472211e+00, 
            7.367382050e-01, -5.708540976e-02, -6.114588305e-02},
        {1.365286827e+00, 2.925882638e-01, -2.724785209e-01, 
            -7.771797776e-01, 7.757947445e-01, 3.475148082e-01},
        {-1.357632428e-01, 4.028220773e-01, -3.183011711e-01, 
            -5.106096268e-01, 6.732431650e-01, 1.311717033e-01},
        {-1.599006295e+00, 6.322263479e-01, -6.202513218e+00, 
            6.225412488e-01, -3.364797831e-01, -3.098806739e-01},
        {-1.641551971e+00, 3.456639051e-01, 2.281752110e+00, 
            1.011718750e+00, -1.416472644e-01, -1.262830198e-01},
        {5.121741891e-01, 3.029547632e-01, -1.384007812e+00, 
            1.133510917e-01, 1.168533266e-01, 2.605251372e-01},
        {7.450392842e-02, 6.516578794e-01, 6.724644303e-01, 
            4.738201499e-01, 9.266237170e-02, -1.027929932e-01},
        {1.597409129e+00, 9.348415136e-01, -2.379016399e+00, 
            -1.316603780e+00, -5.629455447e-01, -1.821261793e-01},
        {4.316388607e+00, 5.518515110e+00, 7.325060964e-01, 
            -1.996694565e+00, -1.361896992e+00, 1.538163126e-01},
        {-5.696419477e-01, -2.494377196e-01, -2.579053402e+00, 
            -9.754782319e-01, -6.308912635e-01, -1.652200520e-01},
        {3.109518886e-01, 8.887202144e-01, -4.824149132e+00, 
            2.761415206e-02, -7.391205430e-01, -2.830563486e-01},
        {5.529053807e-01, 1.789548099e-01, -1.562056303e+00, 
            1.525786519e-02, 5.857070684e-01, 2.225109190e-01},
        {-3.889036179e+00, -1.363986254e+00, 3.700537920e+00, 
            -3.401760101e+00, 6.107703447e-01, 1.102435738e-01},
        {-2.451217175e+00, -1.400166869e+00, -1.397331953e+00, 
            9.195840359e-01, 4.849261343e-01, 2.682263851e-01},
        {8.832365274e-02, -6.605768204e-02, 5.005335212e-01, 
            3.202047348e-01, -7.712139934e-02, -8.593243361e-02},
        {2.356083870e+00, 1.163249373e+00, -3.611562490e+00, 
            -7.201783061e-01, -6.045328081e-02, -1.894809753e-01},
        {3.212668180e+00, -3.751525581e-01, 2.536904335e+00, 
            7.342798710e-01, 1.593616442e-03, 1.239531562e-01},
        {3.038660288e-01, 2.438493669e-01, 1.078453884e-01, 
            4.246082008e-01, -1.090344340e-01, -2.973799221e-02},
        {5.899876123e-04, 1.480657235e-02, 3.568655550e-01, 
            1.048606932e-01, 5.152437463e-02, 3.726885840e-02},
        {3.043704927e-01, 2.249094546e-01, 1.613456249e+00, 
            6.566890329e-02, -3.063891232e-01, -3.494682312e-01},
        {-2.571201324e-01, -5.417751893e-02, 6.812777519e-01, 
            6.551088691e-01, 6.489136815e-02, 3.220723569e-01},
        {3.013950586e-02, 2.512312308e-02, -2.014380455e+00, 
            -4.372762144e-01, 3.949832544e-02, 3.738212883e-01},
        {5.722109795e+00, 6.912807226e-01, -7.044493198e+00, 
            3.167030215e-01, -2.824991010e-02, 1.352774352e-02},
        {-8.514366746e-01, 2.758312523e-01, 1.363939524e+00, 
            1.435800791e+00, 5.633928180e-01, 3.208576441e-01},
        {-1.026733994e+00, -6.115957722e-02, 6.123714447e-01, 
            2.349438667e-01, 2.467803285e-02, -2.379109524e-02},
        {6.200536489e-01, 2.300721407e-01, -1.695835292e-01, 
            -1.652218252e-01, -9.216395020e-01, -4.139030874e-01},
        {-2.054515123e+00, -3.189318419e+00, -8.482263088e-01, 
            -1.064186454e+00, -2.159607649e+00, -1.997739971e-01},
        {-2.015915960e-01, 1.117188367e-03, -2.774029970e-01, 
            4.024542123e-02, 2.361335605e-02, 3.966924921e-02},
        {-2.566906929e+00, -4.411981106e-01, -7.051671028e+00, 
            3.698232770e-01, 1.462060306e-02, 4.364695773e-02},
        {-1.057914123e-01, -1.672393233e-01, 8.590131402e-01, 
            8.026352525e-01, 1.692230344e+00, -3.281609416e-01},
        {-2.247262895e-01, -2.578254938e-01, -2.231241465e+00, 
            -1.507294416e+00, 4.720630646e-01, 1.685205847e-01},
        {-1.284358263e+00, -6.116377115e-01, -4.629345536e-01, 
            -4.347546995e-01, -3.790260851e-01, 3.704749644e-01},
        {-1.044316143e-01, -1.262424946e+00, 2.967689931e-01, 
            1.224779129e+00, -1.685594767e-01, 1.528483033e-01},
        {-4.096506119e+00, -1.718422174e+00, -2.366808891e+00, 
            -9.586309791e-01, 1.326550990e-01, -5.463290960e-02},
        {2.498506010e-01, 3.507952020e-02, -3.849969804e-01, 
            1.264811680e-02, 6.715324521e-02, 1.900478825e-02},
        {1.056554437e+00, 6.220087409e-01, -2.518533945e+00, 
            -1.075115919e+00, 6.015051007e-01, 1.362909675e-01},
        {-2.730722129e-01, -8.362276107e-02, 1.077433467e+00, 
            3.390405774e-01, 1.334005594e-01, 9.493623674e-02},
        {5.673922896e-01, 1.219435688e-02, -6.628924847e+00, 
            -6.629052758e-01, 5.954651162e-02, 2.327370346e-01},
        {-2.700102568e+00, 3.869400620e-01, 8.300415277e-01, 
            9.666707367e-02, 3.372210860e-01, 8.194107562e-02},
        {-1.800679862e-01, 5.866516009e-02, -9.235404432e-02, 
            4.667262547e-03, -4.139755294e-02, 2.587013319e-02},
        {-4.417383075e-01, -5.431365967e-02, 1.439082503e+00, 
            5.990391374e-01, -5.709729716e-02, -1.993112862e-01},
        {-1.110491753e+00, -2.339481115e-01, -2.383213304e-02, 
            6.267518997e-01, -1.033842325e+00, -7.604429126e-01},
        {6.484942138e-02, -4.799270257e-02, 5.160236955e-01, 
            2.546922266e-01, -3.476374596e-02, -4.805318266e-02},
        {-5.039497375e+00, -1.194505095e+00, -5.050724983e+00, 
            2.228763849e-01, 2.838222086e-01, 2.270058692e-01}
    },
    {
        {-5.425966978e-01, 1.581667662e-01, 7.026278973e-02, 
            -4.229079783e-01, -4.735574722e-01, -1.526385665e+00, 
            6.760505438e-01, 3.747188449e-01, 4.695267603e-02, 
            5.070386529e-01, -4.148103669e-02, 7.751484960e-02, 
            2.494085878e-01, 5.539748669e-01, 5.518848300e-01, 
            3.135918677e-01, 4.750582576e-01, 6.546665728e-02, 
            5.912187696e-01, -5.549293384e-02, -1.108533621e+00, 
            4.989992380e-01, -4.136725888e-02, 1.457058042e-01, 
            2.163764536e-01, -5.188648701e-01, 4.154330790e-01, 
            3.147671223e-01, 4.631444216e-01, 2.880399227e-01, 
            7.628655434e-02, 3.137589991e-01, -4.135065153e-02, 
            4.109919071e-01, 1.691022329e-02, 8.278039843e-02, 
            1.656510383e-01, -1.227281570e+00, 2.792164385e-01, 
            3.007343113e-01, 1.581843048e-01, 6.592378765e-02, 
            5.349731445e-01, 1.477556825e-01, -1.637171060e-01, 
            3.260502219e-01, -4.162380099e-02, -4.170883298e-01, 
            -6.890481114e-01, 1.235565692e-01, 2.287517637e-01, 
            -6.945846677e-01, 2.026681602e-01, -5.675936341e-01, 
            -2.695242167e-01, 8.821114898e-02, 7.104308605e-01, 
            3.767595440e-02, 1.458967179e-01, -5.501907691e-02, 
            8.794949055e-01, 6.052201614e-02, 3.975431323e-01, 
            -6.390562057e-01, -3.414881974e-02, -1.844484210e-01, 
            -3.745597601e-02, -2.611010969e-01, 1.934354156e-01, 
            -7.320640683e-01, 3.241219819e-01, -1.069671273e+00, 
            4.082074165e-01, 3.303010166e-01, 3.653659225e-01, 
            4.642744064e-01, 5.366370678e-01, -3.418020010e-01, 
            -2.695652723e+00, 7.196847796e-01, 4.513505399e-01, 
            3.312589228e-01, 2.081177384e-02, 3.367540538e-01, 
            -1.115219593e+00, -8.493655920e-02, -1.824716181e-01, 
            7.464313507e-02, -1.415233314e-01, -1.193676889e-01, 
            7.080905139e-02, -4.756348431e-01, 3.086709082e-01, 
            -1.526921749e+00, 4.741405547e-01, 1.511897743e-01, 
            6.791158319e-01, 5.077730119e-02, 4.353240132e-01, 
            -5.475031137e-01},
        {-1.051904321e+00, 7.477198839e-01, 8.920501471e-01, 
            1.219246238e-01, 3.292281032e-01, 9.546161890e-01, 
            3.770654202e-01, 8.980131149e-02, 1.376804262e-01, 
            7.723112702e-01, 7.385565639e-01, 8.860331774e-02, 
            6.842748523e-01, -5.191282630e-01, -2.110206634e-01, 
            -5.119626522e-01, 7.844665051e-01, 3.650847077e-01, 
            7.062781453e-01, 4.101193324e-02, 1.353381723e-01, 
            5.968982577e-01, 5.951352715e-01, 9.428824782e-01, 
            -4.592330158e-01, -9.421641231e-01, 6.675438881e-01, 
            2.376882881e-01, 3.028388619e-01, 5.507421494e-01, 
            7.339967489e-01, 6.593546271e-01, 1.551653910e-02, 
            1.866446435e-01, 4.078027979e-02, 9.332353473e-01, 
            6.602600813e-01, -1.358370900e+00, -4.630000591e-01, 
            -1.407399654e+00, -1.007848501e+00, -1.281881213e+00, 
            3.133291304e-01, 7.784701586e-01, -7.765941620e-01, 
            5.907740593e-01, -9.315544963e-01, -4.238551483e-02, 
            4.113735631e-02, 8.909209967e-01, -5.854251608e-02, 
            -4.507148862e-01, -1.064947128e+00, -9.422526360e-01, 
            -1.310276747e+00, 9.773176908e-01, 3.638463914e-01, 
            -6.054204702e-01, 3.333965540e-01, 3.837806284e-01, 
            4.151338935e-01, 8.886120319e-01, 6.368821263e-01, 
            -6.355499625e-01, -1.777773857e+00, -3.656757176e-01, 
            3.863251507e-01, 8.781853914e-01, -4.151031017e+00, 
            -3.278411925e-01, 6.089153886e-01, 4.139090478e-01, 
            -9.914863110e-01, 9.654203057e-01, 4.367678463e-01, 
            -4.884075522e-01, 1.008675769e-01, 8.934828043e-01, 
            -2.244261093e-03, 7.564651966e-02, 7.610706091e-01, 
            2.129178643e-01, -8.553614616e-01, 9.646126628e-01, 
            2.498027235e-01, -1.182304621e-01, -8.254786134e-01, 
            1.044054508e+00, 4.126522541e-01, -6.012400985e-01, 
            8.299067616e-01, -1.784136444e-01, 2.044787109e-01, 
            -2.190181985e-02, 6.839006543e-01, 6.152713299e-01, 
            8.291824907e-02, 4.489051700e-01, 3.366379440e-01, 
            2.036878169e-01},
        {5.314924717e-01, -2.296718806e-01, -1.139122620e-01, 
            -5.494325757e-01, 2.438756675e-01, -1.041984856e-01, 
            -3.055745363e-01, -3.989968598e-01, -4.871074259e-01, 
            1.373795867e-01, -2.388172150e-01, 8.689066768e-01, 
            -4.893468320e-01, -1.660740376e+00, 1.971919835e-01, 
            -1.024149060e+00, -3.097674251e-01, 5.706205964e-01, 
            -1.775453091e-01, 2.556183338e-01, -1.389506012e-01, 
            2.510045767e-01, -5.520821810e-01, 1.688867360e-01, 
            2.157833725e-01, 1.892987639e-01, 1.272718906e-01, 
            3.823145032e-01, 4.588612318e-01, -2.149757445e-01, 
            2.880973518e-01, -2.230064012e-02, 1.577473134e-01, 
            -3.869039416e-01, -9.048867822e-01, 4.819504023e-01, 
            -3.640863299e-01, 3.140482903e-01, -3.460508883e-01, 
            6.577104330e-01, 1.101356521e-01, -8.579747677e-01, 
            -1.179596782e-02, -4.840404540e-02, -7.314925641e-02, 
            -4.469573796e-01, 4.586140811e-02, 1.663049310e-02, 
            6.252155304e-01, -2.298884094e-01, -1.492183805e-01, 
            7.179679275e-01, -7.784336060e-02, -4.618152510e-03, 
            3.574581444e-01, 3.455464244e-01, -3.868335783e-01, 
            -1.198847741e-01, 2.531294525e-01, -1.227614954e-01, 
            2.672061138e-02, 8.722781390e-02, 3.007020652e-01, 
            -7.217906415e-02, 1.440772265e-01, -6.080505848e-01, 
            6.842988729e-02, 4.549175501e-02, -2.169668823e-01, 
            -3.762343228e-01, -2.315773256e-02, 1.246228069e-01, 
            -5.898827687e-02, 1.484007686e-01, -5.437632203e-01, 
            3.132135421e-02, -6.202558987e-03, 2.314577401e-01, 
            -3.780683503e-02, 2.523443699e-01, -1.855571121e-01, 
            -1.026330516e-01, -1.251612306e-01, -1.920458227e-01, 
            -2.957981527e-01, 1.955199242e-01, 3.633315563e-01, 
            3.958459795e-01, -1.015746444e-01, 1.537527144e-01, 
            -2.889614105e-01, 1.738640815e-01, -8.696765304e-01, 
            1.219603866e-01, -4.645988941e-01, -4.062021971e-01, 
            -2.768130302e-01, 1.063631997e-01, -1.536562294e-01, 
            -6.667655110e-01},
        {-4.243447781e-01, 1.537574977e-01, 5.029104650e-02, 
            4.166158140e-01, -8.046630621e-01, -1.288357377e-01, 
            -1.927295029e-01, -5.498959422e-01, -3.080128133e-01, 
            3.279356062e-01, 1.453696042e-01, 3.871676326e-02, 
            2.464772612e-01, 5.837979168e-02, 6.468338519e-02, 
            2.910985053e-01, 1.333772391e-01, 3.364007771e-01, 
            1.183201447e-01, 1.267465651e-01, 3.431247771e-01, 
            1.902451664e-01, 6.006509066e-01, 2.342492342e-01, 
            -1.838774681e-01, 1.843190193e-01, 2.445260584e-01, 
            4.117645025e-01, 4.006870091e-01, 1.060238704e-01, 
            -9.224097431e-02, 3.353261948e-01, -1.432026327e-01, 
            8.915194124e-02, -3.322795331e-01, 1.316637695e-01, 
            5.481711030e-02, -4.797594249e-01, 4.325638115e-01, 
            3.351188302e-01, -3.254356086e-01, -2.323480994e-01, 
            3.095128238e-01, 2.926891148e-01, 1.087811217e-01, 
            -7.379794121e-02, 4.189216718e-02, -3.466351926e-01, 
            1.137068346e-01, 2.964314222e-01, -8.058197796e-02, 
            -1.211491153e-01, -2.509215772e-01, 4.168780893e-02, 
            -5.826072693e-01, -8.057615906e-02, 9.146938473e-02, 
            3.349456191e-01, 3.873782456e-01, -6.328848004e-02, 
            3.543310985e-02, -7.548090219e-01, 8.909799159e-02, 
            -5.138426423e-01, -2.828370221e-02, -5.247006416e-01, 
            2.983660400e-01, -1.117112517e+00, 1.686442047e-01, 
            1.983038634e-01, -1.483218968e-01, -1.562017083e+00, 
            1.485586762e-01, -2.736182213e-01, 1.753159761e-01, 
            -6.934990287e-01, 2.784873545e-01, 7.860472798e-02, 
            -5.001003146e-01, -1.309800893e-01, -1.283917297e-02, 
            -3.460264504e-01, -5.243588239e-02, 2.894388512e-02, 
            -1.218883768e-01, -2.057752013e-01, 3.524076939e-01, 
            -1.647676677e-01, 4.603759944e-02, -3.771959543e-01, 
            1.583346277e-01, -2.057494968e-01, 6.030761823e-02, 
            -6.578201056e-01, -8.493487723e-03, -5.803900305e-03, 
            -2.410591543e-01, 1.183185205e-01, 1.228153259e-01, 
            -2.454246879e-01},
        {6.488103271e-01, -3.282383084e-01, -9.418354034e-01, 
            -2.374447137e-02, -1.568409055e-02, 1.832435727e-01, 
            -5.970284939e-01, -2.130446956e-02, 4.157848656e-02, 
            -2.336131334e-01, -8.845841289e-01, 1.353864670e-01, 
            -1.021172047e+00, 2.140884399e-01, 2.462428659e-01, 
            -9.944938421e-01, -9.181486964e-01, -6.241877079e-01, 
            -4.059320688e-01, 1.646122932e-01, -3.503870964e-02, 
            -1.429770291e-01, -5.224933624e-01, 9.321605414e-02, 
            -4.362093806e-01, 1.984938383e-01, -2.258315384e-01, 
            3.392295241e-01, 2.336741686e-01, -3.374081850e-01, 
            2.414481044e-01, -1.086833954e+00, -2.945245206e-01, 
            1.050609723e-01, 2.150058597e-01, -6.035329700e-01, 
            -1.138854384e+00, 1.792151630e-01, -1.144668102e+00, 
            -1.678771228e-01, -1.664847434e-01, -1.975457966e-01, 
            5.028391480e-01, -6.511892676e-01, -2.317429334e-01, 
            -4.109165370e-01, 1.438586265e-01, 2.945820093e-01, 
            -1.213709414e-01, -1.053103328e+00, 8.179128170e-02, 
            -4.661553502e-01, 1.466758847e-01, -5.634811521e-02, 
            2.112993002e-01, -3.798062205e-01, 1.332509518e-02, 
            -3.721081614e-01, -1.330536485e+00, 1.844182611e-01, 
            4.307905436e-01, 6.805361807e-02, -6.153567433e-01, 
            3.559190929e-01, 1.047010068e-02, 2.082093209e-01, 
            -4.066529870e-02, -1.810842156e-01, 3.059884906e-01, 
            -9.894291312e-02, -5.271763206e-01, -3.208070993e-02, 
            3.348074108e-02, -4.731751382e-01, -5.552834272e-01, 
            5.911865830e-01, 2.632310688e-01, 1.053820327e-01, 
            3.859871626e-02, 3.743641973e-01, -4.145630300e-01, 
            -1.117772937e+00, 2.412505597e-01, -9.549829960e-01, 
            2.947038412e-01, 1.795550585e-01, 4.733796418e-01, 
            -2.320828438e-01, 2.711044550e-01, 2.571360171e-01, 
            -1.040570855e+00, 4.173475206e-01, -3.831252158e-01, 
            -6.541664898e-02, -9.376193583e-02, -5.215592980e-01, 
            -1.606816947e-01, -1.622761190e-01, -4.626605809e-01, 
            -4.033881798e-02},
        {3.425660133e-01, -5.574882627e-01, -9.869168401e-01, 
            1.514040232e-01, -4.661272466e-01, 2.935155630e-01, 
            -3.742026687e-01, 2.876020968e-01, 1.588898599e-01, 
            -5.214638710e-01, -6.092544794e-01, 3.066086173e-01, 
            -1.047521710e+00, -3.379650712e-01, -9.007815272e-02, 
            6.194733549e-03, -7.827466726e-01, -5.224111080e-01, 
            -1.870501935e-01, -1.334973454e+00, -1.536876112e-01, 
            -6.066707373e-01, -1.465910822e-01, 9.885834903e-02, 
            -1.384871155e-01, 1.888828576e-01, -3.053548634e-01, 
            -4.251670241e-01, -1.207292557e+00, -1.425091475e-01, 
            -3.531559184e-02, -5.769573450e-01, 1.714199781e-01, 
            1.750963777e-01, 2.466937453e-01, 4.090937376e-01, 
            -5.025591254e-01, 1.602808237e-01, -1.343780279e+00, 
            2.786526084e-01, -4.572982788e-01, -2.431239039e-01, 
            4.119303823e-02, -9.222589135e-01, 4.224101901e-01, 
            -1.753531210e-02, 1.496004499e-02, 2.839894295e-01, 
            1.214974746e-01, -6.023594141e-01, -1.030550003e+00, 
            8.652883768e-02, 1.970871240e-01, 3.033710718e-01, 
            -4.922436178e-01, -8.270310760e-01, 1.056175530e-01, 
            -7.333355546e-01, -6.872697175e-02, 3.533606604e-02, 
            1.630516350e-01, 3.384498656e-01, 3.177160323e-01, 
            -2.561314404e-02, -3.017339110e-02, 3.924020231e-01, 
            2.377732992e-01, -1.165642023e+00, -1.105328724e-01, 
            -1.329438239e-01, -4.205691442e-02, 5.454983115e-01, 
            -6.485526562e-01, -8.087977767e-02, -6.066440940e-01, 
            -3.344508111e-01, -6.967895031e-01, -7.556341290e-01, 
            -7.287233323e-02, -7.750791907e-01, -4.018823057e-02, 
            1.629844010e-01, 1.943191290e-01, -7.228115797e-01, 
            1.453869790e-01, 3.686381280e-01, 6.164078042e-02, 
            9.461236596e-01, 1.457269788e-01, -5.968399346e-02, 
            -1.307110786e+00, -1.980853379e-01, -7.422438264e-01, 
            -7.478953898e-02, 9.702802449e-02, -5.053921938e-01, 
            6.503006071e-02, 3.914459944e-01, -3.500816226e-01, 
            -2.651772648e-02},
        {-2.726704180e-01, 5.603468418e-01, 5.855351686e-01, 
            1.086063981e-01, 2.588945031e-01, -9.498877823e-02, 
            3.515882492e-01, 1.525050774e-02, -8.151960373e-02, 
            3.854627013e-01, 4.843314290e-01, 2.674356699e-01, 
            5.406706929e-01, 4.798042774e-01, 1.154453903e-01, 
            3.853266835e-01, 3.274973929e-01, 2.540982366e-01, 
            3.570714593e-01, 2.317988873e-01, 2.674315870e-01, 
            4.195718169e-01, 1.960541308e-01, 3.278807998e-01, 
            3.072970808e-01, -5.126195550e-01, 4.817041755e-01, 
            3.898700178e-01, 4.845360219e-01, 3.680873215e-01, 
            1.720570326e-01, 2.899903357e-01, 1.628484949e-02, 
            -1.216003448e-01, 1.354227960e-01, -5.135542154e-01, 
            2.644287944e-01, -7.195810974e-02, 3.988937140e-01, 
            -7.081683874e-01, 6.281213462e-02, 5.121567100e-02, 
            4.595290124e-01, 4.799316227e-01, -1.372441888e+00, 
            3.057648242e-01, -1.910910368e+00, 3.803817034e-01, 
            -2.233766764e-01, 3.016168773e-01, 1.165560633e-01, 
            2.696011961e-01, -9.318254590e-01, -1.198269486e+00, 
            1.753547601e-02, 5.387505889e-01, 1.289827377e-01, 
            2.102435380e-01, 1.820179224e-01, -3.703230917e-01, 
            -2.404709533e-02, 2.053958029e-01, -7.145275176e-02, 
            2.928609848e-01, -2.452418804e+00, 2.232604176e-01, 
            -5.736299604e-02, 1.341928393e-01, -4.844242334e-01, 
            1.012122333e-01, 1.158110350e-01, -1.280207839e-02, 
            1.551505923e-01, 1.975103319e-01, 3.328140080e-01, 
            2.478067726e-01, 3.513624370e-01, 4.001732469e-01, 
            -8.197894096e-01, -7.262963802e-02, 3.252954781e-01, 
            2.060998827e-01, -2.221738338e+00, 2.761068642e-01, 
            -4.030610323e-01, -2.118401289e+00, 2.330654860e-01, 
            4.563528299e-01, 1.508675050e-02, 2.574149966e-01, 
            5.136947036e-01, 4.296232760e-02, 4.784584045e-01, 
            1.551895589e-01, 8.945757896e-02, 4.439333379e-01, 
            2.419674397e-02, -5.162549019e-01, 3.149247169e-01, 
            1.477060467e-01},
        {-1.499753147e-01, 1.863508373e-01, 4.177916348e-01, 
            3.480614126e-01, -2.967267670e-02, -1.023229361e-01, 
            2.460483909e-01, 4.675048292e-01, -7.796718925e-02, 
            1.794870198e-01, 1.710964739e-01, -1.415176783e-02, 
            1.228463650e-01, -1.754376292e-01, -3.568100035e-01, 
            4.813295230e-02, 2.762345374e-01, 1.336186659e-02, 
            1.151097789e-01, 2.890277803e-01, -1.989380866e-01, 
            1.896977127e-01, 1.233961582e-01, 1.505389661e-01, 
            -6.326592565e-01, -7.409688234e-01, -4.208938405e-02, 
            2.329145558e-02, 1.607281715e-01, 3.007103503e-01, 
            2.732028365e-01, 1.195954829e-01, 2.122851461e-01, 
            1.679616570e-01, -8.681994677e-02, 4.647132754e-01, 
            3.759057224e-01, -1.572208881e+00, -5.503258109e-02, 
            1.971332729e-01, -5.736134052e-01, 6.039722264e-02, 
            -1.176418439e-01, 1.348756552e-01, -7.624436170e-02, 
            5.930462107e-02, 1.346781850e-01, -3.188676536e-01, 
            -3.198719621e-01, 2.385225594e-01, 2.272150815e-01, 
            -3.924363256e-01, -4.440004230e-01, -4.647538438e-02, 
            1.463333517e-01, 1.305898279e-01, -1.718403213e-02, 
            3.360049427e-01, 2.785299718e-01, -2.854929566e-01, 
            -4.601630270e-01, 3.645803332e-01, 1.907689273e-01, 
            -2.011330426e-02, -1.649056940e-04, -1.100787669e-01, 
            3.958851397e-01, -8.044115454e-02, 7.293462753e-02, 
            -3.776285648e-01, 1.350680441e-01, -3.694482744e-01, 
            4.446243048e-01, 2.747664750e-01, 4.948290437e-02, 
            1.107925177e-01, 2.816527486e-01, 1.397598535e-01, 
            -1.701197267e+00, 6.342397630e-02, 9.762337804e-02, 
            2.697467804e-01, 1.475738883e-01, 2.535417676e-01, 
            -6.786010265e-01, -5.084957182e-02, 4.526198655e-02, 
            7.588333637e-02, -3.178454936e-01, -2.168726027e-01, 
            2.401930392e-01, 2.882387936e-01, 2.114635408e-01, 
            -3.275496662e-01, 2.227424681e-01, 8.774836361e-02, 
            -2.242518067e-01, 5.037496686e-01, 1.842219830e-01, 
            -4.922641218e-01},
        {1.836669631e-02, 1.621520370e-01, -1.132401526e-01, 
            -1.804418087e+00, -1.342428476e-01, 4.234806076e-02, 
            -1.781235933e-01, 1.012539625e+00, 2.803760469e-01, 
            1.010894626e-01, -7.212948054e-02, 2.313709632e-02, 
            -9.213355184e-02, -1.731142402e-01, -1.287810318e-02, 
            -1.038442999e-01, -2.168831974e-01, -4.538854957e-01, 
            -1.626545750e-02, 1.840351373e-01, -2.594100237e-01, 
            7.268897444e-02, -2.467813790e-01, 1.359691322e-01, 
            -1.638862342e-01, 3.444688767e-02, -7.915273309e-02, 
            8.115208894e-02, 2.280319482e-02, -2.076967955e-01, 
            2.701602578e-01, -1.044368818e-01, -5.794423223e-01, 
            4.534773827e-01, 1.013808623e-01, 4.354300201e-01, 
            -2.520607710e-01, 1.470379829e-01, -7.191017270e-02, 
            -9.955232739e-01, -8.228976279e-02, 1.943347156e-01, 
            3.891907632e-02, 1.243982986e-01, 2.391379774e-01, 
            -2.140833139e-01, -2.682403103e-02, -1.206921488e-01, 
            -1.426798820e+00, -1.455420163e-02, 1.249448359e-01, 
            -4.022680596e-02, -9.304854870e-01, -9.972319007e-02, 
            -7.415971160e-01, 1.788575575e-02, -1.610203832e-01, 
            -2.640017271e-01, -2.058565617e-01, 2.391699106e-01, 
            3.271910846e-01, 1.540986747e-01, -8.035442829e-01, 
            -5.640776753e-01, 5.581386760e-02, -1.313409358e-01, 
            2.073196024e-01, 4.506343976e-02, 1.798129454e-02, 
            -6.395652145e-02, -2.148451656e-01, -1.304576993e-01, 
            9.777034819e-02, -1.473297775e-01, -2.460517287e-01, 
            4.835863411e-02, -2.096795477e-02, 1.355354041e-01, 
            -1.295191422e-02, -1.405269951e-01, -3.370715678e-02, 
            -3.425714076e-01, 1.134651538e-04, -2.902959846e-02, 
            -4.021727666e-02, 3.632057905e-01, 2.583146989e-01, 
            1.994471699e-01, 2.673317790e-01, -5.265030265e-01, 
            1.235652417e-01, -4.827817082e-01, -2.164515704e-01, 
            2.303905785e-01, 1.549231410e-01, -5.046804622e-02, 
            -6.006557941e-01, 2.827970088e-01, -1.141360551e-01, 
            1.904807054e-02},
        {2.466327697e-02, 2.385975868e-01, 5.272306204e-01, 
            4.894188344e-01, -1.386493295e-01, 2.541397214e-01, 
            3.824675828e-02, 1.843492985e-01, 4.756834209e-01, 
            -2.742327005e-02, 5.541716814e-01, -3.926850557e-01, 
            4.911645874e-02, -3.035355210e-01, -6.729876995e-02, 
            -5.370523930e-01, 4.608118236e-01, 2.509021163e-01, 
            2.495102212e-02, -2.127523869e-01, -3.326456845e-01, 
            -2.984442413e-01, 6.113511920e-01, 6.100921333e-02, 
            -7.255349308e-02, -2.787042856e+00, -1.412238088e-02, 
            -3.997572064e-01, -1.303962916e-01, 1.548317671e-01, 
            1.416751593e-01, 4.096631408e-01, -3.324291855e-02, 
            4.189674556e-02, 4.009895623e-01, -5.986952186e-01, 
            3.333557546e-01, -2.631473541e-01, -2.057552636e-01, 
            -2.225332856e-01, 3.811786175e-01, 3.938703239e-01, 
            -6.372311115e-01, 9.434434772e-02, 4.681434110e-02, 
            4.142040312e-01, 2.925265208e-02, 3.657507598e-01, 
            -1.253517717e-01, 4.251770079e-01, -4.106131382e-03, 
            -3.637849391e-01, 1.221055984e-01, 1.014907956e-01, 
            2.940064669e-01, 4.525898993e-01, -2.574093342e-01, 
            -1.439182162e-01, -3.637652397e-01, -2.639832199e-01, 
            -2.199245989e-01, 4.685852826e-01, 1.367202122e-02, 
            6.027599573e-01, 3.286022693e-02, 3.020536900e-01, 
            5.233938992e-02, 7.316812277e-01, -1.513533294e-01, 
            1.319477856e-01, 1.836794764e-01, -4.810398221e-01, 
            1.507493705e-01, 3.108160496e-01, 1.289079934e-01, 
            -3.613932431e-02, -4.007251263e-01, 1.920222789e-01, 
            -2.617941499e-01, 4.788715541e-01, 3.043524921e-01, 
            1.055627465e-01, 9.909067303e-03, 4.630233347e-01, 
            -4.969509542e-01, -2.549859509e-02, -1.159601584e-01, 
            -5.076709986e-01, -3.647092581e-01, -9.021208882e-01, 
            4.909452498e-01, -5.640254617e-01, -1.878089458e-01, 
            -2.593943179e-01, 8.873091638e-02, 8.965420723e-02, 
            -4.373936355e-02, 2.742023394e-02, 3.220998645e-01, 
            -5.994737148e-01},
        {7.872136831e-01, 5.896610394e-02, 1.282272637e-01, 
            1.066481471e-01, -6.105695665e-02, -3.801546618e-02, 
            -7.015221566e-02, -4.909195006e-01, 4.362818897e-01, 
            2.512781918e-01, -1.801978052e-02, -5.882452726e-01, 
            2.937913835e-01, 4.508778453e-01, 2.492781281e-01, 
            -1.066339463e-01, 2.911474705e-01, -2.082312107e-01, 
            1.975389123e-01, -3.615097404e-01, 1.069289446e-02, 
            3.598487079e-01, -4.904993176e-01, -4.480226338e-02, 
            3.185554445e-01, -3.218329191e+00, 2.485704422e-01, 
            3.204220235e-01, 3.960600495e-01, 2.355090678e-01, 
            -2.351780832e-01, 6.869736314e-02, -5.656921864e-01, 
            2.236038148e-01, -3.247453570e-01, -5.636529922e-01, 
            2.159821093e-01, 1.127159372e-01, 4.240847528e-01, 
            -1.334470809e-01, 1.431258917e-01, 2.262196317e-02, 
            1.853422225e-01, 3.127912283e-01, -5.407750607e-02, 
            5.831447989e-02, 1.343197003e-02, -1.215720735e-02, 
            -2.622648329e-02, 2.463462800e-01, 3.241899014e-01, 
            -7.573583722e-01, -1.169121265e-01, -1.707440317e-01, 
            3.261884749e-01, -5.234483480e-01, 7.193627954e-02, 
            3.602983654e-01, 8.917407691e-02, -1.331803054e-01, 
            -2.082290798e-01, 2.510238886e-01, 3.100027144e-01, 
            -3.149017692e-01, -3.761761263e-02, -1.329841465e-01, 
            -4.040825740e-02, 2.043023258e-01, 7.873246074e-02, 
            2.224322855e-01, -2.486018697e-03, -4.075829387e-01, 
            -8.834587410e-03, -1.514894515e-02, 4.426001310e-01, 
            2.656931579e-01, 3.178174496e-01, 2.726844139e-02, 
            1.431942582e-01, -2.128016353e-01, -3.476919234e-01, 
            -3.071271777e-01, 8.128505945e-02, 7.584300637e-02, 
            -9.210170060e-02, 2.811515033e-01, -7.083238959e-01, 
            -8.439636827e-01, 3.193353117e-02, -5.405264497e-01, 
            2.684026957e-01, 5.966227502e-02, 3.770800829e-01, 
            -2.530709803e-01, -1.354104728e-01, -5.301793292e-02, 
            9.283255041e-02, -3.102045059e-01, 9.936267883e-02, 
            -8.083240986e-01},
        {-1.402489394e-01, 3.964091539e-01, 4.946577847e-01, 
            4.323045015e-01, -4.413430113e-03, 3.208619356e-01, 
            5.558192357e-02, 1.680284366e-02, 7.054478675e-02, 
            3.997874260e-01, 2.915357947e-01, 6.661709398e-02, 
            2.445803881e-01, 1.880913824e-01, -4.704691470e-01, 
            3.083730116e-02, 5.587130189e-01, -5.194728374e-01, 
            4.124841392e-01, -3.561230898e-01, 1.847481430e-01, 
            1.715108603e-01, 4.226128161e-01, 1.911941618e-01, 
            -4.115879536e-02, -2.387734503e-01, 3.820509911e-01, 
            -1.518673599e-01, -9.321993589e-02, 1.085981727e-01, 
            1.698942184e-01, 3.446238935e-01, 6.156475097e-02, 
            -5.096748099e-02, 5.746806264e-01, -9.282136559e-01, 
            5.651628971e-01, -2.998431325e-01, -1.040606648e-01, 
            -1.739036560e+00, 2.343807667e-01, 4.115963578e-01, 
            -1.789223403e-01, 3.099400997e-01, -7.385239005e-01, 
            2.173195332e-01, -5.551172495e-01, -9.087917209e-02, 
            -2.649371028e-01, 3.810425401e-01, 3.260738254e-01, 
            1.790730804e-01, -1.286823988e+00, -4.638449252e-01, 
            -5.564097315e-02, 4.521626532e-01, -6.501904130e-02, 
            -4.418514371e-01, -9.426416457e-02, 2.647686303e-01, 
            -1.622478068e-01, 2.946733832e-01, 3.032420203e-02, 
            1.989971995e-01, -9.374749064e-01, 1.293871701e-01, 
            3.633477539e-02, 3.420491815e-01, -1.165621638e+00, 
            9.537895024e-02, 1.130721197e-01, 9.810502082e-02, 
            3.171228766e-01, 4.276561439e-01, 4.352359474e-01, 
            2.257898003e-01, 8.801274002e-02, 2.739127576e-01, 
            3.506005108e-01, -4.449143410e-01, 1.603979617e-01, 
            3.029001057e-01, -1.549687505e+00, 6.194939613e-01, 
            1.617231667e-01, -2.016549587e+00, -4.628525972e-01, 
            3.729320765e-01, -9.139594436e-02, -2.093010545e-01, 
            3.681741059e-01, -7.098912597e-01, 1.456297189e-01, 
            1.862561554e-01, -2.151057497e-02, 3.725056648e-01, 
            -5.104011297e-02, -5.404313207e-01, 1.867644340e-01, 
            1.845695674e-01},
        {1.890551597e-01, -1.457219385e-02, 9.484530985e-02, 
            -2.652287483e-02, -2.342228144e-01, 1.153534874e-01, 
            -2.869067490e-01, 3.462390229e-02, 6.170831323e-01, 
            -2.546296455e-02, 9.755454212e-02, 8.277886547e-03, 
            -6.048038136e-03, 1.217746083e-02, -9.785188735e-02, 
            -8.423774838e-01, -9.186137468e-03, -6.913623810e-01, 
            9.899424762e-02, -6.509338021e-01, 1.722455621e-01, 
            1.140785068e-01, -2.587876618e-01, -2.030676007e-01, 
            2.169877291e-01, 7.632182539e-02, 9.152169339e-03, 
            -2.497528940e-01, -2.245056815e-02, -3.280127048e-02, 
            -2.563817203e-01, -6.268554926e-02, 2.032924891e-01, 
            -3.086501360e-01, 3.113846183e-01, 3.408598527e-02, 
            1.463593822e-02, 2.966988832e-02, -6.655260324e-01, 
            -2.548120171e-02, 1.503006965e-01, 1.992918998e-01, 
            -4.794780910e-02, 6.191232055e-02, 1.675862670e-01, 
            -4.017934576e-02, 1.532736607e-02, 5.822603106e-01, 
            2.113332897e-01, -1.215236932e-01, -1.413057148e-01, 
            2.886095345e-01, 7.134339213e-02, -2.821336093e-04, 
            -3.807966039e-02, -2.320434451e-01, -1.743111759e-01, 
            2.196846716e-02, -5.778059959e-01, 5.614728853e-02, 
            2.033566087e-01, -2.411147803e-01, -4.303191602e-02, 
            6.130765676e-01, 4.846271873e-02, 3.669522405e-01, 
            -6.204351783e-02, -2.549646795e-01, -3.656080738e-02, 
            2.011463642e-01, -1.446664929e-01, 1.077036336e-01, 
            -1.174138635e-01, -4.963108152e-02, -1.921916306e-01, 
            -1.617370099e-01, -3.513900340e-01, 9.642955847e-03, 
            8.727519959e-02, -1.953661442e-01, -3.470035791e-01, 
            2.227011174e-01, 7.711865008e-02, 1.131684892e-02, 
            1.917791963e-01, -1.760641299e-02, 9.178003669e-02, 
            1.572901160e-01, -1.253223866e-01, 2.978696227e-01, 
            -1.598251164e-01, -2.792533040e-01, -2.238896489e-01, 
            9.459494799e-02, -3.577316552e-02, -8.863899112e-02, 
            -1.060096174e-01, 8.128343523e-02, 2.568843029e-02, 
            1.100761518e-01},
        {8.518815041e-02, 1.078086495e-01, 3.164647818e-01, 
            4.524063766e-01, 3.690877557e-01, 7.144771982e-03, 
            1.114812344e-01, -4.384459853e-01, -9.842916578e-02, 
            -1.757239364e-02, 2.617217600e-01, 1.101800613e-02, 
            2.155652493e-01, -1.560667604e-01, -5.832899213e-01, 
            -3.168456256e-03, 1.330873072e-01, 1.279926747e-01, 
            2.182828076e-02, 2.956902087e-01, 2.158834934e-01, 
            -9.619867802e-02, 3.438160717e-01, -1.468715221e-01, 
            -2.333940417e-01, -5.854967050e-03, -2.311036289e-01, 
            -3.737803102e-01, -1.952604800e-01, -8.786257356e-02, 
            1.606410742e-01, 1.442770064e-01, 4.430878460e-01, 
            -1.100708395e-01, 1.503012925e-01, 6.743494421e-02, 
            1.198224649e-01, 5.723855272e-02, 1.670110226e-02, 
            -1.694929600e-01, -2.923139632e-01, -3.092864454e-01, 
            -3.095802665e-01, 1.289515197e-01, -2.243892988e-03, 
            1.332954131e-02, -1.824126206e-02, 2.964251935e-01, 
            5.500606894e-01, 2.235996127e-01, 4.973513260e-02, 
            4.038451016e-01, -2.677103579e-01, -1.110749543e-01, 
            3.456166089e-01, 4.416700006e-01, -2.355304658e-01, 
            -4.409823939e-02, 4.385179877e-01, 2.392348135e-03, 
            -2.247271240e-01, -1.026637256e-01, 1.045595109e-01, 
            1.294808090e-01, -4.092432559e-02, 3.932128549e-01, 
            -1.500071306e-02, -1.693210155e-01, -2.868986130e-01, 
            -2.776567042e-01, -1.181750372e-01, 4.787904620e-01, 
            -3.110617399e-01, -1.067049950e-01, -1.029300094e-01, 
            -5.126987118e-03, -1.907320768e-01, 6.998116523e-02, 
            1.821457446e-01, -4.512607157e-01, -1.695153490e-02, 
            1.078356206e-01, 1.170089561e-02, 2.871837020e-01, 
            2.671712637e-01, 1.058851406e-01, 3.557661548e-02, 
            2.874735296e-01, 8.926230669e-02, 4.239766300e-01, 
            1.869660169e-01, 3.663425744e-01, -1.489690244e-01, 
            3.866848648e-01, 1.559019238e-01, 1.642332077e-01, 
            -2.070666403e-01, -2.818125784e-01, -6.548056751e-02, 
            -8.438819647e-02},
        {6.490955353e-01, 4.662815109e-02, -1.740365177e-01, 
            -6.294011325e-02, 1.666412652e-01, 2.177917957e-01, 
            -2.375815809e-01, -8.918914795e-01, 1.408384293e-01, 
            -2.154358178e-01, -3.940159082e-01, -2.511263266e-02, 
            -2.402166277e-01, -6.704772711e-01, 3.223780990e-01, 
            -5.891513824e-01, -4.913907349e-01, -3.658474982e-02, 
            -3.022562265e-01, -1.010160893e-01, -9.108493477e-02, 
            -1.567218602e-01, -6.084923744e-01, -1.752684563e-01, 
            -6.387339830e-01, -2.243494987e-01, -4.964309633e-01, 
            8.596308529e-02, -1.278211945e-03, -3.098815382e-01, 
            -2.788101137e-01, -3.457718790e-01, -2.190884650e-01, 
            -4.303201735e-01, 1.158122122e-01, 5.392751694e-01, 
            -6.868581176e-01, 3.430504799e-01, 3.423042968e-02, 
            -3.362493217e-01, -3.676858917e-02, 1.796316803e-01, 
            1.343590170e-01, -1.220779214e-02, 8.708650619e-02, 
            -6.935161948e-01, 4.300284386e-02, 2.103623599e-01, 
            -1.032390893e-01, -4.127781093e-01, -1.087179109e-01, 
            2.590353489e-01, -2.270452827e-01, -7.510574535e-03, 
            -1.363106519e-01, -4.411149919e-01, -3.792961836e-01, 
            5.478103161e-01, 4.059266746e-01, -6.312257051e-02, 
            -2.118542045e-01, 2.579426765e-01, 7.865402102e-01, 
            3.116176128e-01, 5.950904265e-02, 6.507520378e-02, 
            -6.188350171e-02, 8.227577060e-02, 2.189071290e-02, 
            3.396049738e-01, -6.921955347e-01, -1.618532538e-01, 
            1.114685833e-01, -6.348530054e-01, -2.991391420e-01, 
            4.113735855e-01, 1.533679664e-01, 4.795573652e-02, 
            -2.023989707e-01, 5.634872988e-02, -3.156362772e-01, 
            -1.833468914e+00, 1.342503168e-02, -1.848466694e-01, 
            1.640232503e-01, 6.452158689e-01, -7.630939782e-02, 
            -3.543846905e-01, 4.213036597e-01, 2.844817340e-01, 
            1.016787887e-01, 8.138176203e-01, -2.366299182e-01, 
            -2.824534774e-01, 2.955993414e-01, -1.779246032e-01, 
            -6.715813875e-01, -1.421793461e+00, -3.207752407e-01, 
            8.881421387e-02},
        {6.501904726e-01, 2.377962321e-01, 4.130717814e-01, 
            -4.418008626e-01, -4.012063742e-01, -7.748482227e-01, 
            2.770847175e-03, 3.464793563e-01, 1.080964282e-01, 
            -9.424496442e-02, 1.024862677e-01, -4.049389958e-01, 
            1.109827682e-01, -7.888619602e-02, 1.276246551e-02, 
            -8.571088910e-01, 3.259116113e-01, -2.682722546e-02, 
            5.965340137e-02, -3.887086511e-01, -7.779484391e-01, 
            -3.907037079e-01, -5.672610998e-01, -3.879821897e-01, 
            3.166714609e-01, -5.128760263e-02, -1.457175761e-01, 
            -4.402538538e-01, -7.695953846e-01, 1.449788213e-01, 
            1.746415347e-01, 2.604459226e-01, -7.339454293e-01, 
            2.333182693e-01, 2.759105861e-01, -1.942670792e-01, 
            2.191777229e-01, -7.446097136e-01, -4.039846063e-01, 
            -6.331318021e-01, -1.014195383e-01, 5.275092646e-02, 
            -3.590754271e-01, 1.915292740e-01, 7.485384494e-02, 
            2.463300228e-01, 6.143110618e-02, 4.750761092e-01, 
            -5.982604027e-01, 2.499118447e-01, 2.345356941e-01, 
            -2.968350947e-01, 3.098001480e-01, 6.712477654e-02, 
            4.370949864e-01, 3.185399249e-02, -2.406547777e-02, 
            -5.210501552e-01, -3.874611557e-01, 1.625316292e-01, 
            -4.695242271e-02, 1.000949144e+00, 8.057872653e-01, 
            -6.641259044e-02, -4.857183900e-03, -2.010263354e-01, 
            -4.080979824e-01, 2.032761812e+00, -1.256765723e-01, 
            4.159504771e-01, 3.234363496e-01, -5.068958998e-01, 
            -1.336119473e-01, 2.254205644e-01, 3.175444603e-01, 
            5.949924588e-01, -5.831626058e-01, 5.624059960e-02, 
            -2.798084736e+00, -2.178693414e-01, 8.356107026e-02, 
            -5.063009262e-02, 6.138209999e-02, 3.922320604e-01, 
            -1.302723438e-01, 2.003618628e-01, -3.397924304e-01, 
            3.801956773e-01, 4.710767046e-02, 4.140130281e-01, 
            2.759218812e-01, -6.774539351e-01, -6.708364934e-02, 
            3.962364197e-01, 2.080451250e-01, 2.706063986e-01, 
            2.774468362e-01, 1.001439840e-01, 2.201063037e-01, 
            -8.623841405e-02},
        {-2.427370101e-01, 6.351353526e-01, 6.796945930e-01, 
            6.319952607e-01, 1.685652696e-02, 3.639436662e-01, 
            2.800326943e-01, 1.840275973e-01, 2.911178470e-01, 
            3.266809583e-01, 5.575669408e-01, -2.125367820e-01, 
            7.137435675e-01, 2.929983735e-01, 3.170585334e-01, 
            1.882348359e-01, 4.336407185e-01, -6.756193042e-01, 
            4.461168945e-01, -7.012490928e-02, 1.705944240e-01, 
            2.398427874e-01, 4.659452736e-01, 3.967019618e-01, 
            -2.025727183e-01, -3.506813526e+00, 3.818033040e-01, 
            2.844772637e-01, 9.905969352e-02, 4.442058504e-01, 
            1.981873810e-01, 5.737209320e-01, 8.788626641e-02, 
            5.089524388e-01, 4.866329134e-01, 2.102076709e-01, 
            7.136498690e-01, -4.830740988e-01, 2.991899848e-01, 
            -1.486481786e+00, -1.452286094e-01, 8.649710566e-02, 
            2.054827213e-01, 4.612242579e-01, -1.023730710e-01, 
            5.454410911e-01, -7.377352715e-01, 2.718395591e-01, 
            -8.691257834e-01, 6.928356290e-01, 4.317514598e-01, 
            -4.174968004e-01, -4.381923974e-01, -1.127555609e+00, 
            -2.121374458e-01, 3.393601179e-01, 2.659621537e-01, 
            -4.541081563e-02, -4.743897170e-02, -1.002756238e+00, 
            -1.041331068e-01, 3.954171240e-01, 1.249490902e-01, 
            4.558188915e-01, -1.177229285e+00, 4.594413042e-01, 
            -2.334424406e-01, -1.417783648e-01, -1.143628120e+00, 
            -1.061813608e-01, 5.449815989e-01, -7.741666585e-02, 
            -4.084040523e-01, 4.465998709e-01, 5.348087549e-01, 
            1.342684329e-01, 3.647349477e-01, 5.602169037e-01, 
            -9.195843935e-01, -2.543740571e-01, 4.006594121e-01, 
            4.581455290e-01, -2.312477231e-01, 6.240079999e-01, 
            -9.578948617e-01, 1.723803878e-01, -2.854474485e-01, 
            1.828207672e-01, 7.728969306e-02, -1.076984882e+00, 
            4.325973392e-01, -6.630418897e-01, 4.735160172e-01, 
            -3.041570187e-01, 6.351312995e-02, 5.909292698e-01, 
            3.043742776e-01, -4.607956484e-02, 5.688354373e-01, 
            -7.352522016e-01},
        {-2.085337937e-01, 1.929141283e-01, 8.403983712e-02, 
            2.370263785e-01, 6.168636680e-01, 4.692280889e-01, 
            -4.429427087e-01, -3.563249409e-01, 2.257830650e-01, 
            -1.384039223e-01, 2.585833520e-02, 2.388979495e-01, 
            -1.363103837e-01, -1.265057474e-01, -4.177922606e-01, 
            -1.145194918e-01, -2.150743827e-02, 3.900351226e-01, 
            -3.259771168e-01, 2.684941292e-01, 7.133388519e-01, 
            -3.490345478e-01, 1.493498236e-01, 1.062791869e-01, 
            -2.410987765e-01, 3.103370368e-01, -3.224314153e-01, 
            -2.952435017e-01, -4.963090643e-02, -4.414360225e-02, 
            2.754357755e-01, 4.028123617e-02, 1.374400854e-01, 
            -3.620101810e-01, 1.485090405e-01, -2.024727017e-01, 
            5.284322053e-02, 2.957168519e-01, -1.444294453e-01, 
            1.858614981e-01, -2.072527707e-01, -9.763286263e-02, 
            -3.431287110e-01, -1.262747049e-01, 6.589945406e-03, 
            -7.114693522e-02, -2.682330459e-02, 2.816767097e-01, 
            6.436217427e-01, 8.808574080e-02, -1.626153439e-01, 
            6.243777871e-01, -3.985088468e-01, 8.528110385e-02, 
            1.572501510e-01, 1.820977479e-01, -2.071515769e-01, 
            -3.626370057e-02, 3.715053573e-02, 3.051890135e-01, 
            -6.278679967e-01, 2.068728656e-01, -3.244206309e-01, 
            3.550597131e-01, -1.469738502e-02, -8.107911795e-02, 
            2.295208126e-01, 3.834028542e-01, -4.319082797e-01, 
            1.241681054e-01, -2.937938273e-01, 3.649453446e-02, 
            -3.734570742e-01, -1.422332972e-01, -1.106123328e-01, 
            5.964170396e-02, -6.265839189e-02, 4.370450675e-01, 
            4.305026233e-01, -3.214162290e-01, -8.898333460e-02, 
            -1.977522522e-01, -1.093956158e-01, 5.041812733e-02, 
            3.381038010e-01, -1.193299145e-01, 6.049179435e-01, 
            1.220309641e-02, -4.009492397e-01, 5.742561221e-01, 
            3.847407699e-01, 5.222518444e-01, -2.317216545e-01, 
            8.829095960e-01, -4.361111522e-01, -5.811261386e-02, 
            -1.832088679e-01, -2.537083626e-01, -1.465213001e-01, 
            2.740470469e-01},
        {-3.154225349e-01, 2.770809531e-01, 5.558277369e-01, 
            2.006468922e-01, -3.687358797e-01, -5.031929910e-02, 
            2.845608890e-01, 8.601339906e-02, -1.750126332e-01, 
            1.677230895e-01, 3.134762347e-01, 3.902592957e-01, 
            3.480824828e-01, -9.889672697e-02, -2.105432749e-01, 
            1.462798417e-01, 2.502853274e-01, 2.244447172e-01, 
            1.808232367e-01, 8.184502833e-03, -2.964561284e-01, 
            -2.572892979e-02, 2.424664199e-01, 1.361316592e-01, 
            -2.998380177e-02, -9.814431518e-02, 2.796309888e-01, 
            -1.389785260e-01, -9.996663034e-02, 3.345068991e-01, 
            1.211747006e-01, 4.997995198e-01, -2.074456774e-03, 
            -3.705674410e-02, 5.786423758e-02, 1.582942456e-01, 
            5.412442088e-01, -9.903944135e-01, -1.059027165e-01, 
            -6.540666521e-02, 1.408062503e-02, -4.738337100e-01, 
            -1.638962179e-01, 3.813342452e-01, 9.260836989e-02, 
            4.926345646e-01, 6.233128160e-02, -7.262472510e-01, 
            -8.135873824e-02, 4.512613118e-01, 3.234235570e-02, 
            -3.536254764e-01, -2.905353308e-01, 4.693394005e-01, 
            -4.914018512e-01, 3.524952233e-01, 2.231255360e-02, 
            -4.102788568e-01, -6.211667508e-02, -1.605094224e-02, 
            1.426980346e-01, 3.213431239e-01, -1.404396743e-01, 
            -4.716840386e-01, -3.996266052e-02, -1.368329078e-01, 
            -5.962706357e-02, -9.372088313e-02, -3.221154809e-01, 
            -8.060985059e-02, 1.835770905e-01, -2.811079621e-01, 
            -1.097882763e-01, 3.128747046e-01, 1.733309180e-01, 
            -1.824268699e-02, -5.931022111e-03, 1.499818116e-01, 
            -8.658089638e-01, 2.735546604e-02, 3.829212189e-01, 
            6.173113734e-02, 1.716337539e-02, 3.714134395e-01, 
            -1.865112782e-01, -1.324585825e-01, -7.305063009e-01, 
            1.254090816e-01, -1.479511857e-01, -6.446959078e-02, 
            3.864753544e-01, -4.049787223e-01, 5.473424122e-02, 
            -9.665097594e-01, 3.048415780e-01, 3.158145547e-01, 
            1.964472681e-01, 1.534325480e-01, 1.205150113e-01, 
            -1.275682300e-01},
        {4.012275338e-01, 1.226511225e-01, 2.655413747e-01, 
            9.868852794e-02, 1.785480827e-01, 4.842330515e-01, 
            -4.124591127e-02, 2.579698861e-01, -3.204980195e-01, 
            5.953083280e-03, 3.272948861e-01, -3.472049534e-01, 
            9.265676886e-02, -6.812503189e-02, 2.349685729e-01, 
            -4.771786034e-01, 3.832392991e-01, -2.534656227e-01, 
            1.154812053e-01, -3.310668766e-01, -9.819849581e-02, 
            -1.776071382e-03, 2.528574467e-01, 2.594702542e-01, 
            -5.893898010e-02, -5.860974640e-02, 1.746981442e-01, 
            2.824602127e-01, 1.838507652e-01, 2.195621729e-01, 
            1.522798184e-02, 3.646478653e-01, 2.508955598e-01, 
            9.464531392e-02, -5.464814305e-01, -2.074546576e+00, 
            3.359637260e-01, 6.519139744e-03, -1.874841154e-01, 
            -1.888258904e-01, 8.108206838e-02, -1.253761947e-01, 
            1.352697313e-01, 2.702779472e-01, -1.024009824e+00, 
            2.939288020e-01, 2.020619810e-02, -1.192744356e-02, 
            5.583139658e-01, 2.598785758e-01, -3.557169437e-01, 
            -4.155166820e-02, -7.075022161e-02, 2.187145650e-01, 
            3.783486784e-01, 2.172972709e-01, 1.772937551e-02, 
            -7.511165738e-01, -6.438648701e-01, -5.310155079e-02, 
            -3.939182162e-01, 3.884261847e-01, -2.244517505e-01, 
            2.739404738e-01, -4.728662781e-03, 4.137551785e-01, 
            -3.903278708e-01, 9.229701757e-02, -2.398232222e-01, 
            -1.539270133e-01, -8.284705132e-02, 1.085137874e-01, 
            -1.027466357e-01, 2.999379635e-01, 9.047993273e-02, 
            -2.095126659e-01, 1.796489060e-01, -1.498707235e-01, 
            -3.881958723e-01, -7.209663093e-02, 5.375241488e-02, 
            -9.156188965e-01, -2.827700138e+00, 3.360040784e-01, 
            -2.245772444e-02, 2.683961950e-02, -8.737263083e-01, 
            -7.260658145e-01, -5.363572836e-01, 2.877836227e-01, 
            -1.042158827e-01, -1.238084510e-01, 2.304926142e-02, 
            -8.132582307e-01, 2.620441616e-01, 2.854917645e-01, 
            -6.009570509e-02, -9.791880250e-01, 3.128940985e-02, 
            1.589779258e-01},
        {4.198795557e-01, -8.326660842e-02, -4.470420182e-01, 
            7.558351159e-01, 3.431774676e-01, 3.253494203e-01, 
            -9.661104083e-01, -8.910257369e-02, 4.452176988e-01, 
            -7.816737890e-01, -3.507868946e-01, 2.745738328e-01, 
            -9.714092016e-01, -1.547519326e+00, 6.648721099e-01, 
            -3.855250180e-01, -5.181735158e-01, 3.566795886e-01, 
            -8.486550450e-01, 6.331723928e-01, -1.244365424e-01, 
            -9.390381575e-01, -4.087748751e-02, 1.203697696e-01, 
            -1.740591764e+00, 3.137159050e-01, -1.008953571e+00, 
            -4.308868647e-01, -2.897274196e-01, -7.998225689e-01, 
            9.826275110e-01, -5.449523926e-01, 3.401162624e-01, 
            -1.399456710e-02, 3.511117399e-01, 4.921841323e-01, 
            -3.723081648e-01, 4.194496572e-01, 5.104101449e-02, 
            5.016167760e-01, -5.055955052e-01, -1.359537989e-01, 
            -1.740822941e-01, -5.317789316e-01, 5.257868394e-02, 
            -3.147831559e-01, 2.266055532e-02, 2.669814229e-01, 
            3.746865988e-01, -5.843679309e-01, -3.653100133e-01, 
            6.139429212e-01, -4.956478179e-01, 1.122793555e-01, 
            5.623815060e-01, -1.957057230e-02, -1.055071115e+00, 
            1.301271617e-01, 2.749863267e-01, -1.416404247e-01, 
            -5.017596483e-01, -1.222803891e-01, -3.807134628e-01, 
            6.542733908e-01, -4.726361856e-02, 6.432493329e-01, 
            -9.908347577e-02, -6.820192933e-01, 4.254688323e-02, 
            7.240197659e-01, -1.080604792e+00, 1.730536371e-01, 
            -7.140441537e-01, -6.767185330e-01, -1.048260331e+00, 
            -5.744706988e-01, -2.132280320e-01, 1.960051805e-02, 
            -3.551283777e-01, 7.635424733e-01, -1.162714362e+00, 
            3.928274289e-02, 1.672123224e-01, -4.227735698e-01, 
            -6.764789224e-01, 2.089877427e-01, 3.809707761e-01, 
            -2.598726936e-02, 1.211768389e+00, 5.156874657e-01, 
            -4.277640581e-01, 7.825762630e-01, -1.521723747e+00, 
            -8.416271210e-01, 2.551822960e-01, -1.714476645e-01, 
            -1.548069715e+00, 4.690208137e-01, -1.267655134e+00, 
            -4.382489026e-01},
        {-2.869877517e-01, 3.709094524e-01, 4.211025536e-01, 
            -3.842151761e-01, -3.714388702e-03, -5.702529848e-02, 
            3.167694807e-01, -6.784412265e-01, 6.665919721e-02, 
            -1.811477244e-01, 2.783407569e-01, 1.219062880e-01, 
            6.238002703e-02, -5.169655755e-02, -4.833579659e-01, 
            2.953266799e-01, 1.804890037e-01, 5.089942813e-01, 
            -2.069965191e-02, 4.456053674e-01, -2.457212284e-02, 
            -4.493594468e-01, 1.173310503e-01, -6.663993001e-02, 
            -5.439062119e-01, 1.312379241e-01, -4.993546009e-01, 
            -2.283790559e-01, -6.422816515e-01, -1.206721663e-01, 
            4.505874589e-02, 2.930702642e-02, -2.547322512e-01, 
            3.834999502e-01, -9.853099287e-02, -8.962473273e-01, 
            6.572274491e-03, -6.470973790e-02, -4.255208671e-01, 
            2.098426819e-01, 2.275968641e-01, 1.790573895e-01, 
            -2.675898075e-01, -6.779745966e-02, -5.832497030e-03, 
            -1.507645547e-01, 4.925461113e-02, 1.425789893e-01, 
            2.708994038e-02, 1.620537043e-01, 6.116830707e-01, 
            8.922009915e-02, -5.139930919e-02, 1.508669704e-01, 
            -1.385102272e-01, 3.022298813e-01, 4.970196262e-02, 
            -3.221074641e-01, 3.587335050e-01, -1.219882723e-02, 
            -6.124973297e-02, -9.162826836e-02, -6.335769296e-01, 
            3.896608204e-02, -9.611187130e-02, -5.837154984e-01, 
            -5.818023533e-02, -3.308320642e-01, 3.938318416e-02, 
            8.299964666e-02, -1.140047237e-01, 1.757054329e-01, 
            -2.279975861e-01, -6.067700386e-01, 3.344344795e-01, 
            -6.448412538e-01, -2.249943167e-01, 3.403556347e-01, 
            9.525693953e-02, -3.419707716e-02, 3.722734153e-01, 
            8.282637596e-02, -6.757093221e-02, 2.957740128e-01, 
            -1.747730374e-02, -1.084549874e-01, 2.922668159e-01, 
            1.243663207e-01, 1.003398150e-01, -4.780823365e-02, 
            2.849585116e-01, -3.813575953e-02, 7.261734456e-02, 
            -1.355483383e-01, 2.794348449e-02, 1.425270084e-02, 
            -2.672066391e-01, -7.030408382e-01, 2.471581548e-01, 
            1.873896271e-01},
        {3.054693341e-01, -3.894016519e-02, 2.600559294e-01, 
            1.155963819e-02, -1.102414727e-01, 1.597626880e-02, 
            -1.468101293e-01, -7.393879443e-02, -1.116471924e-02, 
            -1.238286868e-01, 3.067811131e-01, -2.350393236e-01, 
            -1.171109304e-01, -4.900076985e-01, -7.235938311e-02, 
            -3.491968811e-01, -6.753167510e-02, 1.194255427e-01, 
            1.097811684e-01, -1.951209903e-01, 1.647580266e-01, 
            -1.781920344e-01, 3.154675663e-01, 3.085965812e-01, 
            -4.641619325e-01, 1.353357732e-01, -2.494160235e-01, 
            -5.056617036e-02, -1.103902757e-01, 5.848682299e-02, 
            1.477681994e-01, -8.346574754e-02, 1.119157225e-01, 
            2.007233799e-01, -1.367908865e-01, 1.396871358e-01, 
            2.812799998e-02, -9.165814519e-02, -3.672438860e-01, 
            3.822800815e-01, -6.526831985e-01, -3.813626468e-01, 
            -1.323727667e-01, 2.127546221e-01, 1.020099521e-01, 
            3.377516568e-01, 6.916931272e-02, 1.025549024e-01, 
            3.679739237e-01, 7.322807610e-02, 5.283636227e-02, 
            -1.881700754e-01, -1.725153476e-01, 8.352358639e-02, 
            -1.228479519e-01, 2.035741210e-01, -1.118738949e-01, 
            -1.718254685e-01, 1.862278730e-01, -2.509767190e-02, 
            -7.888808250e-01, -8.756458992e-04, -3.574648798e-01, 
            -2.617113292e-01, -6.645350903e-02, -4.248953611e-02, 
            -1.133340970e-01, 1.508649439e-01, -8.502154052e-02, 
            1.108065769e-01, 8.181076497e-02, -1.725272238e-01, 
            -4.049036652e-02, -5.908831209e-02, 1.059787646e-01, 
            -5.465867519e-01, -3.904243559e-02, -1.065114960e-01, 
            3.978215456e-01, -7.831835002e-02, -1.066673771e-01, 
            2.278973348e-02, 1.016854197e-01, 2.112071088e-04, 
            -1.466492862e-01, 1.524788514e-02, 4.848882183e-02, 
            6.567731500e-01, 8.841355145e-02, -7.230836898e-02, 
            1.611564457e-01, 7.289208770e-01, -3.058038950e-01, 
            -1.622403264e-01, -3.057419360e-01, 4.899536446e-02, 
            -3.496901095e-01, -4.220752977e-03, -1.048991829e-01, 
            1.794433296e-01},
        {3.644495010e-01, 3.339509964e-01, 4.610385001e-02, 
            3.141534925e-01, 4.049710929e-01, 4.372769892e-01, 
            -4.692699909e-01, -3.360643089e-01, 6.417353749e-01, 
            -4.553745985e-01, -1.909277588e-02, -3.513293564e-01, 
            -4.511088729e-01, -1.018805265e+00, 3.348300457e-01, 
            -4.333326221e-01, 1.056257449e-02, 9.072821587e-02, 
            -4.421778023e-01, 2.212354243e-01, 8.888080716e-02, 
            -7.150543332e-01, 1.641815752e-01, -1.968112215e-02, 
            -1.868379951e+00, 1.629572511e-01, -8.787471056e-01, 
            -1.171088442e-01, -4.521607757e-01, -3.562495708e-01, 
            4.952611923e-01, -1.290362924e-01, -3.695837036e-02, 
            1.792448461e-01, 2.939301729e-01, -1.159882307e+00, 
            4.941515252e-02, -9.370648116e-02, -5.671014786e-01, 
            -9.887481481e-02, -4.737123102e-02, 1.789566278e-01, 
            -5.761163235e-01, -3.563853353e-02, 1.450266838e-01, 
            5.208887160e-03, -1.702062413e-02, 4.225976467e-01, 
            3.243868649e-01, 6.116474047e-03, 3.156594932e-01, 
            7.104212046e-01, -6.214773655e-01, 1.242510416e-02, 
            7.549391389e-01, -3.940292518e-04, -9.681972116e-02, 
            -5.959082022e-02, 1.794245653e-02, 2.948131859e-01, 
            -2.705400586e-01, 4.786060005e-02, -2.111470699e-01, 
            9.458422661e-01, -8.784295619e-02, 4.068260789e-01, 
            -4.508049786e-01, 2.093508095e-01, -1.515851319e-01, 
            1.149686947e-01, -2.092323601e-01, 2.618304193e-01, 
            -3.494513035e-01, -2.934834361e-01, -3.278296590e-01, 
            -6.534965634e-01, -1.852521151e-01, 1.810274832e-02, 
            -3.300036490e-01, 2.648818195e-01, -2.049859799e-02, 
            4.015791416e-01, 1.077376306e-01, 7.448847592e-02, 
            -5.519204736e-01, 3.017337024e-01, 6.509645581e-01, 
            -2.826714143e-02, 5.347034931e-01, -2.066875845e-01, 
            3.331046179e-02, 4.601378441e-01, -5.346563458e-01, 
            -1.043710485e-01, 1.606467962e-01, -6.733442098e-02, 
            -8.355382085e-01, -4.553314447e-01, -3.725862503e-01, 
            -1.704490036e-01},
        {-1.084537148e+00, 3.392119110e-01, 2.720070481e-01, 
            -3.444057703e-01, -1.574014306e+00, 1.992086321e-01, 
            -6.800896674e-02, 2.020759881e-01, -6.042013764e-01, 
            2.380376607e-01, 4.533789158e-01, -1.856791735e+00, 
            1.863446236e-01, 2.669261694e-01, 1.123760343e-01, 
            -9.396418333e-01, 1.983403862e-01, -1.553509235e+00, 
            4.735660926e-02, -2.141388655e+00, -2.998245656e-01, 
            1.537418067e-01, 5.922563672e-01, 2.214968950e-01, 
            -5.825346112e-01, -4.955957532e-01, -3.003704175e-02, 
            1.548670828e-01, -9.388220310e-02, 2.620409131e-01, 
            1.372314543e-01, 3.254212141e-01, -1.543169916e-01, 
            2.186101228e-01, -1.200501397e-01, -1.363110244e-01, 
            2.488346696e-01, -1.107574224e+00, -2.236788988e+00, 
            -1.574147701e+00, -8.977183104e-01, 9.791670740e-02, 
            -1.412819177e-01, 1.711864918e-01, -4.395438671e+00, 
            2.746345103e-01, 1.106232554e-01, -1.371176839e+00, 
            -2.108579874e+00, 5.285892487e-01, 4.430597425e-01, 
            -1.773091674e+00, 2.953087538e-02, -1.400126338e+00, 
            -6.185687184e-01, -2.231770903e-01, -1.579210907e-01, 
            -2.025520325e+00, -1.068704367e+00, 1.749784201e-01, 
            8.013421670e-03, 4.445178807e-02, 1.525969058e-01, 
            1.792890429e-01, -3.374605253e-02, -1.112543225e+00, 
            1.549105495e-01, -4.908556342e-01, -3.086565435e-01, 
            9.242153727e-03, 1.254797131e-01, -1.862294078e-01, 
            7.195150852e-01, 2.712024748e-01, 4.058160484e-01, 
            -3.621456623e-01, -1.191051528e-01, -5.954953656e-02, 
            1.856777072e-01, -2.810575068e-01, 4.930181056e-02, 
            -9.889046848e-02, -1.742661148e-01, 3.701140285e-01, 
            4.404810444e-02, -5.183219910e-01, -2.613052607e+00, 
            6.506294012e-01, 3.872845769e-01, -3.113128662e+00, 
            8.110222220e-02, -2.742645502e+00, -7.130917907e-02, 
            -5.679189563e-01, 7.834153771e-01, 9.378835559e-02, 
            6.125710532e-02, 8.594867587e-02, 6.166248024e-02, 
            -1.131352633e-01},
        {-3.084820509e-01, 5.451041460e-01, 4.596366286e-01, 
            3.793945014e-01, 3.467320204e-01, -4.746245593e-02, 
            -1.091575697e-01, 2.739098072e-01, 1.961951554e-01, 
            2.596386671e-01, 5.349596143e-01, 8.420559019e-02, 
            1.335237622e-01, -1.602255106e-01, -4.766213894e-01, 
            -1.917311102e-01, 3.163470030e-01, 4.103190303e-01, 
            2.477867156e-02, 3.461904228e-01, 5.183203816e-01, 
            -6.800559163e-02, 3.108972013e-01, 2.709531188e-01, 
            -1.108297586e+00, -2.413298368e+00, 1.950979233e-02, 
            -4.196714759e-01, -7.716666460e-01, 3.610310555e-01, 
            4.060164392e-01, 2.895460129e-01, 1.727295369e-01, 
            1.570902616e-01, 1.366924793e-01, 6.945539266e-02, 
            2.786973715e-01, -2.086979151e+00, -7.765435427e-02, 
            1.092727706e-01, -3.359050155e-01, 1.797428876e-01, 
            -8.053427339e-01, 3.740214109e-01, -4.361315668e-01, 
            5.865890384e-01, -7.143791318e-01, 3.884558678e-01, 
            1.657215506e-01, 3.602881432e-01, 4.601664543e-01, 
            -4.054275751e-01, 5.365131795e-02, -1.484343708e-01, 
            9.527214617e-02, 5.817245841e-01, -2.111746222e-01, 
            1.697526686e-02, 1.908149421e-01, -1.570414603e-01, 
            -6.746455431e-01, 1.331807971e-01, 7.733130455e-02, 
            9.890565276e-02, -1.136309132e-01, 7.862029225e-02, 
            -5.352281965e-03, 6.495194435e-01, -4.232139513e-02, 
            4.351116121e-01, 2.354236692e-02, -1.193092167e-01, 
            -4.804424476e-03, 4.508742690e-01, 1.879788190e-01, 
            -6.143972278e-02, -1.625478566e-01, 4.287407398e-01, 
            -2.938072681e+00, 1.316629499e-01, 3.297803700e-01, 
            1.027241796e-01, 9.951636195e-02, 5.907523036e-01, 
            8.811039329e-01, 7.850258611e-03, 6.477414817e-02, 
            3.038030863e-01, 4.368538260e-01, -4.824470356e-02, 
            4.371409714e-01, -4.242609814e-02, 1.406666338e-01, 
            -2.054150701e-01, 2.205541730e-01, 1.656703949e-01, 
            5.142619461e-02, 1.577274799e-01, 1.587826908e-01, 
            1.139272094e+00},
        {4.296555370e-02, 5.170622468e-01, 8.217542171e-01, 
            2.087303251e-01, 4.750868380e-01, 1.807044297e-01, 
            2.755838335e-01, -1.337665170e-01, -1.280564964e-01, 
            4.583061039e-01, 6.550180316e-01, 3.799780309e-01, 
            4.746614993e-01, -5.245941505e-02, 2.146589756e-01, 
            -1.604980230e-01, 4.450476766e-01, 6.413581371e-01, 
            6.008411646e-01, 4.122648537e-01, 1.728687882e-01, 
            5.487300754e-01, 5.267932415e-01, 3.495716155e-01, 
            7.742437720e-02, -9.518230557e-01, 5.325229764e-01, 
            1.064353883e-01, -5.537845194e-03, 3.277547061e-01, 
            4.060185254e-01, 5.501183867e-01, 1.720759720e-01, 
            9.135162830e-02, 1.592741013e-01, -7.590271235e-01, 
            5.353854895e-01, -1.651897430e+00, 2.124843001e-01, 
            -7.848283648e-01, -1.033700304e-03, -6.453494728e-02, 
            9.787146933e-03, 4.388408661e-01, 2.865341604e-01, 
            5.026149154e-01, -8.940925002e-01, -3.863299266e-02, 
            4.092785120e-01, 6.389275193e-01, 9.854757227e-03, 
            6.576271355e-02, -2.833466828e-01, -1.131484628e+00, 
            -3.823663890e-01, 5.726251602e-01, 4.242199659e-01, 
            -4.670492709e-01, 1.392925829e-01, -1.543482840e-01, 
            9.090333246e-03, 5.638087988e-01, 3.449990749e-01, 
            -2.861950696e-01, -5.237993240e+00, 3.670435548e-01, 
            -2.290692776e-01, 9.621784091e-01, -1.333225846e+00, 
            1.043181121e-02, 3.608262539e-01, 2.527094185e-01, 
            -1.046690106e+00, 5.663312674e-01, 2.655953169e-01, 
            -7.641478628e-02, 1.346526593e-01, 2.986278832e-01, 
            -1.640430450e+00, 3.552966118e-01, 4.230239093e-01, 
            2.165340334e-01, -4.539495409e-01, 7.007299662e-01, 
            -4.261252582e-01, 2.436736077e-01, -7.623319328e-02, 
            2.869645059e-01, -1.226720095e+00, 1.989554614e-01, 
            4.660965800e-01, 4.234897788e-04, 3.009499907e-01, 
            -3.993633986e-01, 4.454123846e-04, 3.397023082e-01, 
            4.523565620e-02, -7.535908818e-01, 2.244382799e-01, 
            1.017086208e-01},
        {-5.219120905e-02, 2.028170675e-01, 7.032953948e-02, 
            -2.616912723e-01, -5.590228438e-01, -1.958384067e-01, 
            -1.912288666e-01, 2.360513061e-01, 7.694905996e-01, 
            -1.895056665e-02, -2.637365758e-01, -6.249723434e-01, 
            -1.920383126e-01, -3.058496714e-01, 3.466761410e-01, 
            -7.955495715e-01, -8.647900075e-02, -5.755681396e-01, 
            -6.658085436e-02, -1.601407170e+00, 1.202912033e-01, 
            1.489999294e-01, -4.201774299e-01, -1.508886367e-01, 
            -8.183389902e-02, -4.677860439e-02, 1.281576157e-01, 
            -4.917450994e-02, -6.426014304e-01, 1.704784930e-01, 
            -2.454755902e-01, -2.856660169e-03, -9.257414192e-02, 
            -2.409358881e-02, 2.968589962e-01, -1.127020493e-01, 
            1.303206831e-01, -6.197464094e-02, -1.029273272e+00, 
            8.733595163e-02, -5.537722632e-02, 1.625217646e-01, 
            1.510327607e-01, -1.386925280e-01, -1.628019363e-01, 
            1.705563813e-01, -3.515547607e-03, 2.212330550e-01, 
            4.042823613e-01, -4.530234635e-02, -5.172098279e-01, 
            1.408818215e-01, 5.076330304e-01, 2.286332287e-02, 
            -3.903025389e-02, -5.969067812e-01, -5.313902721e-02, 
            -2.974194661e-02, -2.045492679e-01, -1.627223492e-01, 
            2.400237173e-01, 7.012912631e-01, 1.028403044e-01, 
            4.874616265e-01, -6.526582688e-02, 3.242981434e-01, 
            7.101954520e-02, -5.173441395e-02, 6.473544985e-02, 
            -9.604172409e-02, 3.357069194e-02, -9.527633339e-02, 
            4.345199466e-02, -1.060209870e-01, -1.255338732e-02, 
            3.025414646e-01, -5.752591491e-01, -1.857548505e-01, 
            5.353414640e-02, 7.443569601e-02, -1.228971258e-01, 
            -1.019327119e-01, -4.522808269e-02, -8.854778856e-02, 
            5.968979374e-02, 3.396235704e-01, 6.783766299e-02, 
            1.587860733e-01, -1.156319212e-02, 3.857495636e-02, 
            1.138203144e-01, -6.356105804e-01, -3.305018842e-01, 
            3.209856749e-01, 5.660594627e-02, -4.312505201e-02, 
            3.490565345e-03, 2.692680620e-02, 5.694261193e-02, 
            1.092230603e-01},
        {1.021353483e+00, 1.526172161e-01, 3.152860105e-01, 
            -6.360975504e-01, 3.032221794e-01, -2.012144327e-01, 
            1.604526192e-01, -2.186270207e-01, -4.810159206e-01, 
            1.226071939e-01, 1.462914050e-01, -2.849296331e-01, 
            1.577797383e-01, -7.561147958e-02, -1.465595365e-01, 
            -4.116641283e-01, 2.022536248e-01, 2.616930902e-01, 
            1.380999088e-01, -1.356980056e-01, -6.127454340e-02, 
            3.226692975e-01, 1.351975650e-01, 3.190843463e-01, 
            -1.824710071e-01, -4.031853974e-01, 2.092410475e-01, 
            3.967421949e-01, 3.733908534e-01, -3.269650741e-03, 
            4.918206930e-01, 8.991424739e-02, -1.323984861e+00, 
            -1.109666843e-02, 1.735045691e-03, -1.023077011e+00, 
            5.983379483e-02, -1.237235785e+00, -1.305600703e-01, 
            -1.572008729e+00, -6.023428440e-01, -2.240795493e-01, 
            1.929723322e-01, 3.469818830e-01, -4.022766054e-01, 
            3.434188291e-02, 5.094007775e-02, -3.146480322e-01, 
            1.276462972e-01, 3.241412640e-01, -2.099177567e-03, 
            -4.995560646e-01, -6.102613807e-01, -1.788391620e-01, 
            -1.503079772e+00, 3.387354314e-01, 1.879908890e-01, 
            -4.986032248e-01, -4.545317292e-01, 1.071304157e-01, 
            6.580743194e-02, 9.737294167e-02, -1.428815573e-01, 
            -2.812615037e-01, 1.936149783e-03, 2.989482880e-01, 
            -4.299781621e-01, 3.335435092e-01, -4.000490606e-01, 
            7.255700417e-03, 5.081469938e-02, -6.252910495e-01, 
            1.332357079e-01, -8.642097004e-03, -7.080032676e-02, 
            -1.773645282e-01, 3.060575426e-01, 5.130142570e-01, 
            -2.682379484e-01, 2.803524584e-02, 1.611825675e-01, 
            -1.081226110e+00, -2.345087290e+00, 3.692550957e-01, 
            -1.032772213e-01, -4.448798299e-01, 9.720368981e-01, 
            8.404421210e-01, 4.216624498e-01, -6.632909775e-01, 
            1.198084801e-01, 3.098664582e-01, 1.986426264e-01, 
            2.745049000e-01, 2.174352407e-01, 3.251850903e-01, 
            -3.444167599e-02, -2.065927029e+00, -1.343711317e-01, 
            2.844949663e-01},
        {-7.504128814e-01, 1.587377340e-01, 3.328717053e-01, 
            8.065013587e-02, 2.180037498e-01, -4.644213989e-02, 
            -1.581920832e-01, -5.434745550e-01, -4.757102206e-02, 
            2.714695930e-01, 2.125360221e-01, 5.447671413e-01, 
            7.224794477e-02, 2.328228056e-01, -1.245369092e-01, 
            4.419845343e-01, 7.886210084e-02, 6.435446143e-01, 
            5.794753879e-02, 3.052250445e-01, 1.431987286e-01, 
            2.598261237e-01, 1.279605031e-01, 1.359814703e-01, 
            1.935684383e-01, 2.661061585e-01, 3.648219109e-01, 
            1.729374193e-02, -8.016267419e-02, 7.436534762e-02, 
            -1.156555563e-01, 3.520136476e-01, -2.444146276e-01, 
            -1.338531543e-02, -2.710309327e-01, 2.995032072e-01, 
            2.153667808e-01, -1.332127750e-01, 1.396720111e-01, 
            -7.124250531e-01, 3.885252178e-01, -1.217741728e+00, 
            4.243012965e-01, 1.712437570e-01, -1.860403270e-01, 
            4.127756227e-03, -2.655529417e-02, -5.171671510e-02, 
            5.097012520e-01, 3.446963131e-01, 1.553221941e-01, 
            -2.573174834e-01, -1.296094418e+00, -1.803620532e-02, 
            -2.448685169e-01, 3.627626002e-01, 9.116665274e-02, 
            -4.240653813e-01, 4.742399156e-01, 8.746985346e-02, 
            -2.356533408e-01, -1.259165555e-01, 7.115327567e-02, 
            -2.610099912e-01, -4.498037323e-02, -6.403343081e-01, 
            -2.354665846e-01, 9.201440960e-02, -2.463869750e-01, 
            -1.132114679e-01, 1.295280159e-01, 2.341456562e-01, 
            -2.917392552e-01, -4.186221212e-02, 9.683109075e-02, 
            -7.255045772e-01, 8.406507224e-02, -1.426400393e-01, 
            3.877180219e-01, -6.298861504e-01, 7.178965025e-03, 
            3.645391464e-01, -1.194740087e-01, 6.737117469e-02, 
            1.552011520e-01, -6.614637375e-01, -1.086062074e+00, 
            4.601564407e-01, 1.748320013e-01, -5.218931660e-02, 
            -1.413775259e-03, 2.874463238e-02, 3.176446557e-01, 
            -4.296017289e-01, 2.112847008e-02, 4.289459884e-01, 
            -3.124696612e-01, -2.584330440e-01, 1.129070446e-01, 
            -1.070716232e-01},
        {3.760396540e-01, -3.351888806e-02, -6.023596972e-02, 
            2.608478367e-01, 1.817941815e-01, 1.741161942e-01, 
            -1.497890148e-02, -2.462166399e-01, 5.961251855e-01, 
            5.591011420e-02, -2.644052505e-01, 4.648648798e-01, 
            -1.410826594e-01, -4.270630330e-02, 1.605959684e-01, 
            -3.807241321e-01, 5.125294626e-02, -8.330187201e-01, 
            -8.515834808e-02, -1.896673292e-01, 6.024284661e-02, 
            1.595501304e-01, 2.687990367e-01, 3.123804331e-01, 
            -5.792943239e-01, -1.492740214e-01, 2.624518275e-01, 
            -1.097023487e-01, 1.610285938e-01, 1.707550287e-01, 
            -1.536498964e-02, 8.939698339e-02, 1.199123859e-01, 
            -1.285328269e-01, 3.518806696e-01, -4.473558068e-01, 
            4.382859543e-02, 1.502306461e-01, -7.868352532e-01, 
            -2.445080876e-01, -5.879399180e-01, 1.970456094e-01, 
            4.039193988e-01, -8.212609589e-02, -4.864652753e-01, 
            2.110103220e-01, -3.657679539e-03, 5.796092749e-01, 
            -2.210439295e-01, -4.918657988e-02, -7.681961656e-01, 
            2.323155105e-01, -6.428800821e-01, -1.200743690e-01, 
            -1.401126385e-01, -1.532311440e-01, 6.537082791e-02, 
            -2.455297709e-01, -4.407698512e-01, -2.365598921e-03, 
            3.951933384e-01, -4.511305317e-02, -4.980644584e-02, 
            2.005057633e-01, 1.633132924e-03, 1.425393373e-01, 
            -4.501279071e-02, -4.401828647e-01, 3.536732867e-02, 
            -1.217118725e-01, -2.381445020e-01, 5.824204683e-01, 
            4.746342078e-02, 3.328090906e-01, -3.138930500e-01, 
            -1.037905216e+00, -3.043171763e-01, -2.681966126e-01, 
            -2.568018436e-01, -2.655426860e-01, 1.223584265e-02, 
            -3.062757552e-01, 8.562016487e-02, -7.731483132e-02, 
            3.994016722e-02, -3.076899946e-01, 2.110237330e-01, 
            -1.238123998e-01, -4.827020317e-02, 3.860131204e-01, 
            -2.044604719e-01, -7.265276462e-02, -1.694360375e-01, 
            -7.222598791e-02, 1.197854877e-01, 1.484631747e-01, 
            -1.196918264e-01, -4.457717761e-03, -1.732122600e-01, 
            4.619519413e-02},
        {-2.244623601e-01, -8.341851830e-02, 2.861685753e-01, 
            -9.273912311e-01, -8.059855103e-01, 7.566003501e-02, 
            6.512010843e-02, -1.691223085e-01, 1.752188355e-01, 
            3.982091844e-01, 2.056002021e-01, -8.969465494e-01, 
            7.401836663e-02, -1.241025701e-01, 5.273875967e-02, 
            -4.189406335e-02, 8.233926445e-02, -3.147376776e-01, 
            1.628363878e-01, -7.463631630e-01, -1.312800646e-01, 
            2.679474056e-01, 2.463102788e-01, 3.188755512e-01, 
            -4.389656484e-01, 8.718922734e-02, 2.981931567e-01, 
            1.370507032e-01, 3.564229310e-01, 2.130764127e-01, 
            4.106028378e-02, 3.040710390e-01, -1.408443749e-01, 
            -9.426272660e-02, -7.452462912e-01, 2.522644103e-01, 
            1.751763076e-01, -1.008798242e+00, -2.815129459e-01, 
            6.716095209e-01, -8.261336088e-01, -5.764083862e-01, 
            1.594734043e-01, 3.700124025e-01, -3.513202667e-01, 
            2.057824582e-01, 2.120186687e-01, -1.269056201e+00, 
            -5.768862963e-01, 3.256049454e-01, 1.675458550e-01, 
            -2.024379015e+00, -2.526471019e-01, 1.874732040e-02, 
            4.696949422e-01, -2.812286019e-01, 4.195736349e-02, 
            7.354049087e-01, -9.542508125e-01, -2.084188014e-01, 
            -4.855999053e-01, 5.476690456e-02, -5.146267414e-01, 
            1.125101447e+00, 1.955618560e-01, -9.480037689e-01, 
            1.073535234e-01, 1.742960699e-02, -7.152920365e-01, 
            -2.052655220e-01, 1.140425354e-01, 2.580171227e-01, 
            2.652898133e-01, 8.397431672e-02, 2.789626122e-01, 
            -9.844349027e-01, 2.768869996e-01, -5.807536244e-01, 
            2.923485935e-01, 1.984092146e-01, 8.744877577e-02, 
            -4.595580101e-01, -1.962403059e-01, 1.840566397e-01, 
            -1.988743693e-01, -1.165907178e-02, -1.678105950e+00, 
            -5.114918202e-02, 2.232485265e-01, -2.471744299e+00, 
            1.201001778e-01, -7.552250028e-01, 5.204631016e-02, 
            -6.597449183e-01, -6.577194482e-02, 1.701324992e-02, 
            -3.606209457e-01, -9.289964437e-01, 3.282865882e-02, 
            -8.743351102e-01},
        {-1.207222641e-01, -8.428889513e-02, -6.807628274e-02, 
            -5.509709716e-01, -1.432218999e-01, 3.807951510e-02, 
            8.240772784e-02, -6.900004148e-01, 1.116383970e-01, 
            1.120982096e-01, 6.800137460e-03, 5.020780563e-01, 
            4.087195732e-03, 4.201365709e-01, -1.440856457e-01, 
            -1.052404642e-01, -6.220456585e-02, 3.025321066e-01, 
            -1.229197457e-01, 4.219520688e-01, 5.509251952e-01, 
            4.963639751e-02, -3.606270254e-01, 3.129753172e-01, 
            -3.577035666e-02, -3.400667012e-01, 6.712621450e-02, 
            2.817918174e-02, 1.215841174e-01, -4.051832482e-02, 
            -4.073906541e-01, -1.498468667e-01, -1.126087923e-02, 
            -5.247167349e-01, -1.305908442e+00, 5.227473378e-01, 
            -2.386690229e-01, 2.674444318e-01, -3.030023538e-02, 
            8.350053430e-02, -1.293403208e-01, -3.277976811e-01, 
            1.144779995e-01, 5.620921403e-02, -3.224361688e-02, 
            -2.959069610e-01, 3.083974496e-02, -1.837510020e-01, 
            8.799986243e-01, -1.190574840e-02, -6.178208068e-02, 
            -2.190022618e-01, -1.369988620e-01, -2.564972341e-01, 
            5.255535245e-01, -2.448631674e-01, -2.845200300e-01, 
            1.240061149e-01, 3.159254193e-01, -6.599149108e-02, 
            -2.696331739e-01, 3.771864176e-01, 1.743685007e-01, 
            -5.191102028e-01, -2.795837261e-02, -1.385545015e+00, 
            2.388218604e-02, -8.913782984e-02, -7.308512926e-02, 
            2.006733268e-01, -3.819769621e-01, 8.220373653e-03, 
            4.416905940e-01, -2.332033217e-01, -1.501974761e-01, 
            -2.094514817e-01, -9.510537237e-02, 2.253233194e-01, 
            2.291164398e-01, -4.240160286e-01, 6.584045291e-02, 
            -9.909846783e-01, -4.813837633e-02, -1.003655642e-01, 
            2.426716685e-01, 1.380214244e-01, 1.823677719e-01, 
            -2.512365282e-01, -6.547670066e-02, 5.929031968e-01, 
            3.141552582e-02, -1.431733742e-02, -9.344521910e-02, 
            -4.394064844e-02, 3.640210032e-01, -8.934009820e-02, 
            -2.618742585e-01, 5.194514245e-02, -2.376704663e-01, 
            1.064315066e-01},
        {1.647577249e-02, 5.209366083e-01, 5.990964174e-01, 
            2.932099998e-01, 4.796732068e-01, 2.184315473e-01, 
            1.674241573e-01, -3.195986152e-01, 3.135219812e-01, 
            3.866832852e-01, 5.053789616e-01, 2.777057290e-01, 
            3.130724430e-01, -3.118655980e-01, -4.029244184e-01, 
            2.264291607e-02, 5.255120993e-01, 6.244754791e-01, 
            3.642705083e-01, 3.422390223e-01, 3.065637350e-01, 
            2.158391923e-01, 1.974502206e-01, 4.134428799e-01, 
            -7.261534333e-01, -1.480756760e+00, 1.862608641e-01, 
            -6.596748717e-03, 2.914429083e-02, 1.325990856e-01, 
            8.680068702e-02, 3.178132474e-01, 1.088621393e-01, 
            -3.942703009e-01, 3.180454671e-01, 2.517422736e-01, 
            2.674999833e-01, -1.379789710e+00, 4.735373333e-02, 
            -4.448768795e-01, -5.681587458e-01, -7.257406414e-02, 
            1.413050592e-01, 5.571932197e-01, -4.778363705e-01, 
            1.651972532e-01, 5.533239618e-02, 3.472836614e-01, 
            4.015473723e-01, 5.070692301e-01, 1.355281770e-01, 
            2.200729251e-01, -1.132670283e+00, -2.257561445e+00, 
            -2.381978184e-01, 4.611907899e-01, 6.551758945e-02, 
            4.188167304e-02, 2.035508454e-01, -5.242652893e-01, 
            -3.349035382e-01, 6.872226596e-01, 5.215692148e-02, 
            2.724283934e-01, -3.212490678e-01, 1.517438442e-01, 
            -3.103770316e-01, 4.221388400e-01, -2.626695931e-01, 
            -4.266264737e-01, 3.339260519e-01, 3.678925931e-01, 
            -1.405565977e+00, 1.619670391e-01, 1.202149913e-01, 
            -4.503614604e-01, 1.708498411e-02, 7.288443446e-01, 
            -8.414548039e-01, -4.329092801e-01, 4.198446870e-01, 
            9.886592627e-02, 7.526774891e-03, 6.349379420e-01, 
            -5.466128141e-02, -5.343381315e-02, 3.029931188e-01, 
            3.569534123e-01, -5.129904151e-01, -2.401471734e-01, 
            5.052834153e-01, 2.500125468e-01, 1.268553287e-01, 
            1.900821477e-01, -3.483099490e-02, 2.103361040e-01, 
            -1.322954297e-01, -2.220388353e-01, 2.571989000e-01, 
            -1.267004460e-01},
        {-1.287132800e-01, -5.717435479e-01, -2.561797798e-01, 
            -9.213966727e-01, -9.357047677e-01, 7.201150805e-02, 
            4.497520328e-01, -2.623711154e-02, -3.026336133e-01, 
            1.248261929e-01, -5.083563924e-01, -6.906714439e-01, 
            -7.135672867e-02, -3.587525189e-01, 4.245898426e-01, 
            -1.912096739e-01, -1.737172753e-01, -2.483731955e-01, 
            1.359520555e-01, -5.099298432e-02, -6.411547661e-01, 
            1.113925725e-01, -2.043131590e-01, 4.940193892e-01, 
            -1.865536273e-01, -5.355294347e-01, 2.782421112e-01, 
            4.231233299e-01, 1.497436762e-01, 2.584524453e-01, 
            5.245438218e-01, -1.464374661e-01, -1.648404956e+00, 
            6.174322590e-02, -1.076517820e+00, -5.342916399e-02, 
            -2.067145258e-01, -1.832069278e+00, 8.052389324e-02, 
            -9.725548327e-03, -6.918837428e-01, -1.013210893e+00, 
            3.775362968e-01, 1.913399100e-01, -5.419033170e-01, 
            5.150231719e-02, 2.089932710e-01, -2.367577076e+00, 
            -1.395647407e+00, -1.127503514e-01, 1.070474759e-01, 
            -2.725096703e+00, -1.216107458e-01, -4.770132154e-02, 
            2.122071236e-01, -7.255274104e-04, 2.430142313e-01, 
            -5.743136406e-01, 2.485882789e-01, 1.672879420e-02, 
            5.254703760e-01, 6.757045537e-02, 5.680210516e-02, 
            -1.258018255e+00, -3.887056112e-01, -1.189594626e+00, 
            -3.674492836e-01, 3.627208471e-01, -3.608053029e-01, 
            3.014464974e-01, 3.570159525e-02, -1.590761304e+00, 
            7.149245590e-03, -7.726404816e-02, -2.610407770e-01, 
            1.751009002e-02, 4.046419263e-01, -6.447710097e-02, 
            7.930587977e-03, 5.122581720e-01, 3.925129175e-01, 
            -4.619730636e-02, 1.842699349e-01, -2.452163100e-01, 
            -2.356797010e-01, -2.425719947e-01, 1.933687568e+00, 
            -4.229283929e-01, 5.262192488e-01, -1.560111284e+00, 
            -6.473059207e-02, -1.139575839e+00, 1.438547075e-01, 
            -6.223418713e-01, 8.352178335e-01, -1.862652153e-01, 
            -1.198186278e-01, -5.477892160e-01, 7.674070448e-02, 
            -2.416147478e-02},
        {-5.577572584e-01, 7.165809721e-02, 1.876635253e-01, 
            8.984865993e-02, -3.548007309e-01, 1.741850227e-01, 
            -8.169523627e-02, 2.066528425e-02, -1.238488927e-01, 
            1.376330405e-01, 3.598564267e-01, -1.247891307e+00, 
            -2.719064429e-02, -2.942474186e-01, 1.179583296e-01, 
            -4.105279446e-01, 3.413508236e-01, 2.555285394e-01, 
            1.958116889e-01, -2.395723760e-01, -1.164850071e-01, 
            1.675480604e-01, 2.050123513e-01, 1.329479367e-01, 
            -3.292157352e-01, -2.206873000e-01, -3.894280642e-02, 
            6.154163554e-02, -6.611911580e-03, 2.670740187e-01, 
            2.382209599e-01, 7.245086879e-02, -9.204176068e-02, 
            4.587760270e-01, -2.760900855e-01, -5.201650038e-02, 
            3.126443028e-01, -2.728386223e-01, 6.566252559e-02, 
            -1.803263724e-01, -6.394644827e-02, 1.251108199e-01, 
            -8.098787814e-02, 1.724234521e-01, 7.570382208e-03, 
            2.649092078e-01, -5.929869413e-02, 2.245758027e-01, 
            -1.756202616e-02, 1.868924946e-01, 1.619412154e-01, 
            -1.075698972e+00, 6.061995402e-02, 1.095973477e-01, 
            8.997169882e-02, -2.048064470e-01, -3.112873621e-02, 
            3.381597400e-01, -3.503506072e-03, 4.607996717e-02, 
            -1.185025275e-01, -1.759813130e-01, -3.320052624e-01, 
            8.693731576e-02, 3.133971244e-02, 8.996957541e-02, 
            7.768820971e-02, -1.369937062e-01, -1.300873887e-02, 
            2.681172453e-02, -1.093769912e-02, -7.771580666e-02, 
            -4.644924775e-02, 1.791153550e-01, 2.411952168e-01, 
            6.234053895e-02, 4.046183825e-02, 5.976177379e-02, 
            1.463446617e-01, -7.021050155e-02, -1.764861345e-01, 
            1.312015802e-01, 1.658250840e-04, 3.441352248e-01, 
            3.614209220e-02, -1.485827863e-01, -7.027148604e-01, 
            5.364197493e-01, 1.500273943e-01, -9.582429528e-01, 
            1.610081792e-01, 1.454413980e-01, 1.839364022e-01, 
            -4.092605114e-01, -3.484269977e-01, 1.790116280e-01, 
            1.666908525e-02, 7.224959880e-02, 2.477687746e-01, 
            3.006213158e-02},
        {-7.315629125e-01, -7.578699589e-01, -4.850454032e-01, 
            -3.877283335e-01, 6.250783205e-01, 8.297656476e-02, 
            3.324964941e-01, -2.549391687e-01, -2.421141624e+00, 
            1.865636855e-01, -6.789089441e-01, 2.840078175e-01, 
            -4.127554223e-02, -1.041889191e-01, 4.934193194e-01, 
            -5.092534795e-02, -4.049927890e-01, 4.902658165e-01, 
            4.797945023e-01, 5.551518798e-01, 1.595849693e-01, 
            3.953023255e-01, -4.856129289e-01, 6.369237900e-01, 
            5.773969293e-01, -4.854393378e-02, 6.124334782e-02, 
            2.958017886e-01, 3.237056732e-01, -2.383326888e-01, 
            6.138469577e-01, -7.129223347e-01, -2.173534781e-01, 
            1.569292992e-01, -6.848696470e-01, -3.146116734e+00, 
            -7.556804419e-01, 6.868762523e-02, -3.934030533e-01, 
            3.719688058e-01, -1.111824870e+00, -1.814101189e-01, 
            -4.136488438e-01, -4.849844575e-01, -2.960080147e+00, 
            -6.066893339e-01, -6.291912403e-03, -2.842983045e-02, 
            7.190631032e-01, -4.941109121e-01, 3.516249657e-01, 
            3.298624456e-01, -6.529181004e-01, 8.735802025e-02, 
            2.795069516e-01, -2.090941519e-01, 5.642377138e-01, 
