#include "nn_params.h"

const unsigned short LAYER_DIMS[] = {
    6, 100, 100, 100, 100, 100, 100, 100, 100, 2
};

const Layer LAYER_TYPES[] = {
    DENSE, SOFTPLUS, DENSE, SOFTPLUS, DENSE, SOFTPLUS, DENSE, SOFTPLUS, DENSE, SOFTPLUS, 
    DENSE, SOFTPLUS, DENSE, SOFTPLUS, DENSE, SOFTPLUS, DENSE, TANH
};

const float STATE_BIAS[NUM_STATE_VARS] = {
    -1.354879059e-04, 0.000000000e+00, -8.704454339e-05, 
        0.000000000e+00, 0.000000000e+00, 0.000000000e+00  
};

const float INPUT_SCALER_PARAMS[2][NUM_STATE_VARS] = {
    {-9.630059035e-03, 2.159727369e-03, -2.924314988e-01, 
        -2.695328941e-02, -3.245074642e-04, -3.733555797e-04},
    {4.001365479e+00, 1.454647473e+00, 4.115038958e+00, 
        1.195003989e+00, 1.628627160e-01, 4.535484227e-01}
};

const float OUTPUT_SCALER_PARAMS[4][NUM_CONTROL_VARS] = {
    {-4.518552078e-01, -4.519008672e-01},
    {3.443307042e-01, 3.442589610e-01},
    {1.721654356e-01, 1.721295662e-01},
    {2.740720442e-01, 2.740492048e-01}
};

const float BIASES[NUM_DENSE_LAYERS][MAX_LAYER_DIMS] = {
    {-2.826042473e-02, 1.623507589e-01, -1.490536183e-01, 
        1.002410874e-01, -2.345187962e-01, 1.462959945e-01, 
        -1.481570583e-02, 5.268939305e-03, -9.348101169e-02, 
        1.617936976e-02, -2.663015425e-01, -6.107661128e-01, 
        -3.609994054e-02, -2.111960053e-01, -5.326563865e-02, 
        -4.407083988e-02, -3.525338694e-02, 2.746631801e-01, 
        5.998871103e-02, 8.839891851e-02, -2.249529818e-03, 
        -1.128471270e-01, -2.989954501e-02, -1.501366645e-01, 
        -5.319306511e-04, -6.827195883e-01, -7.958360016e-03, 
        -8.434720337e-02, 5.496134982e-02, -5.113556609e-02, 
        -1.018677577e-01, 2.010048181e-02, -2.277658321e-03, 
        -5.033482239e-02, -3.890815005e-02, -1.166152880e-01, 
        -2.486870624e-02, -2.789735198e-01, -2.029519677e-01, 
        1.541792899e-01, -2.964729965e-01, 8.834722638e-02, 
        -7.674485445e-01, -5.672708154e-02, 1.441651136e-01, 
        -2.226470262e-01, 3.126653433e-01, 6.649912894e-02, 
        -1.666864008e-01, -8.939419687e-02, 3.393642232e-02, 
        1.032193080e-01, -7.525912672e-02, -3.338990510e-01, 
        4.823027551e-02, 4.405512661e-02, -6.664150953e-02, 
        -2.836671174e-01, -1.312054545e-01, 1.762303710e-01, 
        5.226891488e-02, -9.703991562e-02, -6.257262230e-01, 
        1.258158088e-01, -1.590957791e-01, 1.100568548e-01, 
        2.931491435e-01, 2.422766238e-01, 6.790445000e-02, 
        -1.777267009e-01, -5.020954087e-02, 1.436121017e-01, 
        -5.327840447e-01, -2.148815095e-01, -1.215380356e-01, 
        2.649566531e-02, -3.892663401e-03, -2.719627619e-01, 
        7.555927336e-02, -4.247700796e-02, 4.827872664e-02, 
        -5.584532395e-02, -1.344512105e+00, -9.030105919e-02, 
        2.007723302e-01, 9.087887593e-03, -3.993643448e-02, 
        -2.710871994e-01, -7.950901985e-02, -3.091144264e-01, 
        -2.709773183e-01, -7.862588018e-02, 6.531887501e-02, 
        2.045855969e-01, -8.250854164e-02, 3.084503412e-01, 
        1.801500469e-02, 1.814570874e-01, 2.218309045e-02, 
        -9.387931824e-01},
    {-3.202427924e-01, -1.699011773e-03, 1.403270811e-01, 
        2.316403240e-01, 1.339758277e+00, -7.021009922e-02, 
        -1.039259315e+00, -9.828757048e-01, 4.530042037e-02, 
        -3.969455659e-01, -8.845208287e-01, 5.450468510e-02, 
        -1.451368211e-03, 4.587903023e-01, -1.523572803e-01, 
        1.963160187e-01, -2.909020782e-01, 5.088316649e-02, 
        -1.901940852e-01, -1.346173286e+00, 2.418133244e-02, 
        -1.864238381e+00, -4.722361267e-02, 1.625617445e-01, 
        -5.299588442e-01, -1.877494931e+00, -1.169368625e+00, 
        -1.216302395e+00, 1.041054502e-01, 1.094613895e-01, 
        4.795460701e-01, -1.873643100e-01, -5.080055445e-02, 
        1.308908165e-01, 3.969800472e-02, 1.519847065e-01, 
        2.268179804e-01, 6.108077243e-02, -1.108647943e+00, 
        3.224554285e-02, -6.906791925e-01, -2.298926413e-01, 
        -6.758019794e-03, 2.278465591e-02, 5.826471373e-02, 
        -3.202622235e-01, -2.366327494e-01, 5.094428360e-02, 
        2.118175626e-01, 1.679702103e-01, -2.178449631e+00, 
        -2.972877264e+00, -2.417787910e-02, 1.206542373e+00, 
        -1.467077583e-01, -1.936462373e-01, -1.621958733e+00, 
        -4.433249235e-01, 7.315136492e-02, -5.323957205e-01, 
        9.916589409e-02, 1.094581783e-01, 8.799495101e-01, 
        1.573889889e-02, 4.340322316e-02, -1.532834530e+00, 
        2.625674568e-02, -3.273177147e-01, 1.758006066e-01, 
        -1.837126352e-02, -4.768580198e-01, 2.469937205e-01, 
        -2.097552568e-01, -2.530604601e-01, -7.362182736e-01, 
        -1.056848645e+00, 1.463510003e-02, -6.728335619e-01, 
        -1.154111505e+00, -1.195492387e+00, -2.718078345e-02, 
        1.101511046e-01, -2.733386755e+00, -8.528124094e-01, 
        3.540685475e-01, -2.165725976e-01, 1.621370763e-01, 
        -4.715225697e-01, -2.136433363e+00, -3.407631442e-02, 
        9.357723594e-02, 6.474331766e-02, -5.302549601e-01, 
        2.646881938e-01, -1.857889175e+00, 7.008974552e-01, 
        -9.274024367e-01, 6.455065310e-02, 2.352603711e-02, 
        -1.865857005e+00},
    {-1.638232358e-02, -1.164652944e+00, 1.437133998e-01, 
        9.361767769e-02, 3.970805705e-01, -7.950780988e-01, 
        2.156955004e-02, 8.275792599e-01, 1.527873427e-01, 
        2.113698423e-01, 5.752668716e-03, -5.041253567e-01, 
        1.003057435e-01, 3.845188916e-01, -2.343745381e-01, 
        -5.159342289e-01, 1.063819677e-01, -2.913930714e-01, 
        2.510497272e-01, -2.194356441e+00, 3.703193367e-01, 
        2.939108908e-01, 1.287984252e-01, 4.878240526e-01, 
        -2.065277815e+00, 1.766357198e-02, 2.983793989e-02, 
        -8.858494163e-01, -7.647048831e-01, 4.050402641e-01, 
        3.815045059e-01, 3.920437992e-01, 4.109700024e-01, 
        -1.379380822e+00, 2.943455242e-03, 3.140848577e-01, 
        -4.548648000e-02, 6.210083961e-01, 2.659845352e-01, 
        7.305039465e-02, 2.501110137e-01, 1.313732471e-02, 
        2.652741075e-01, 3.563364446e-01, 3.999771476e-01, 
        -1.991824433e-02, 3.382007480e-01, -2.832148075e-01, 
        -1.184775382e-01, -7.449666858e-01, 1.882445216e-01, 
        -5.812512040e-01, 4.427654445e-01, 2.913242877e-01, 
        -2.963600397e+00, -7.497758418e-02, -1.108962521e-01, 
        3.210667968e-01, -2.035658360e-01, 5.267767906e-01, 
        -4.810795560e-02, -1.263125896e+00, -1.557782888e-01, 
        -1.417464018e-01, 7.979655266e-02, 6.542549729e-01, 
        1.441592574e-01, 6.495200396e-01, -5.432183743e-01, 
        -6.153154373e-01, 6.733058691e-01, 2.727453411e-01, 
        9.154898673e-02, -1.330360293e+00, 4.679310918e-01, 
        2.629554272e-01, 1.967460662e-01, 1.224928498e-01, 
        -8.207898736e-01, 6.920222044e-01, 5.893385038e-02, 
        1.705068648e-01, 6.743731350e-02, 4.509314895e-01, 
        3.977531195e-01, 4.809904099e-01, -4.233863354e-01, 
        2.946986556e-01, 1.516837534e-02, -5.099577308e-01, 
        4.978138953e-02, -5.465639234e-01, 2.359315008e-01, 
        -1.385818608e-02, 2.809884958e-02, -2.055325210e-01, 
        3.324744701e-01, 3.838678598e-01, 1.060670987e-01, 
        4.281363264e-02},
    {1.489713043e-01, -1.459796548e+00, -7.289930582e-01, 
        3.091309369e-01, 3.158679903e-01, 1.467910707e-01, 
        -1.248223424e+00, 3.674540520e-01, 5.233008862e-01, 
        3.557592630e-02, 2.655600905e-01, -1.179104075e-01, 
        1.398021132e-01, 1.757872105e-01, 1.431540102e-01, 
        -6.993688643e-02, 5.708820224e-01, 2.473160774e-01, 
        4.381774664e-01, -1.463161230e+00, 8.751444519e-02, 
        5.804873109e-01, 5.627988279e-02, -1.442797542e+00, 
        3.007160425e-01, -9.621918201e-02, 8.336099386e-01, 
        1.959655732e-01, -2.015946805e-01, 3.175312877e-01, 
        1.765230447e-01, 4.082749784e-01, -9.248830676e-01, 
        3.246378005e-01, 2.756279409e-01, 2.235995084e-01, 
        -4.250176847e-01, 5.270886421e-01, -2.374783516e+00, 
        -3.518467247e-01, -1.186792776e-01, 4.180735052e-01, 
        -1.814978480e+00, 4.679944217e-01, 3.855379820e-01, 
        2.909632921e-01, -3.918208927e-02, 2.770370841e-01, 
        -1.013487726e-01, 4.605708420e-01, 1.520332843e-01, 
        6.211568713e-01, 3.159707487e-01, 1.036724567e+00, 
        1.971291006e-01, -2.879944444e-01, 9.390001893e-01, 
        -2.894681990e-01, -5.672992766e-02, 1.379533410e-01, 
        1.552616805e-01, 6.648770571e-01, -8.460639715e-01, 
        2.549960315e-01, 5.834647417e-01, -1.186088443e+00, 
        7.653252482e-01, 2.927747667e-01, 5.653231740e-01, 
        2.182364911e-01, 5.164526701e-01, 9.731089696e-03, 
        3.394135088e-02, -6.797109842e-01, 5.581226349e-01, 
        2.207769752e-01, 2.696118057e-01, -2.659315467e-01, 
        1.977726370e-01, 5.908202529e-01, 4.464598298e-01, 
        -2.573661804e-01, 3.348333836e-01, -5.325850472e-02, 
        -2.271026820e-01, 3.573662639e-01, -1.666813642e-01, 
        -1.676402539e-01, 4.428543746e-01, -2.413595438e+00, 
        -2.620819025e-02, 2.251171768e-01, -4.903997183e-01, 
        -7.189379930e-01, -1.410861909e-01, -9.318503737e-01, 
        7.357404828e-01, 3.085231967e-02, 3.617914021e-01, 
        3.063508868e-01},
    {-6.917939335e-02, 3.172492683e-01, -4.170840234e-02, 
        -9.738241434e-01, 1.078829393e-01, 4.811733961e-01, 
        -6.180276349e-02, 4.541520178e-01, 7.079021931e-01, 
        -1.317389607e-01, 3.289557993e-01, 1.609759331e-01, 
        -2.409002304e+00, 5.883975029e-01, 5.250042081e-01, 
        2.634482980e-01, 4.167829752e-01, 5.510039330e-01, 
        4.117456377e-01, -2.386602312e-01, 7.638148665e-01, 
        -2.062132835e+00, 2.140059024e-01, 4.656105936e-01, 
        1.394916624e-01, -3.719390631e-01, 4.726144671e-01, 
        6.899994016e-01, 8.760052174e-02, 2.908394635e-01, 
        -2.058047295e+00, -8.911827803e-01, -1.851894021e+00, 
        2.236556113e-01, 1.274988502e-01, 4.352430254e-02, 
        5.287518501e-01, 2.606627941e-01, -1.750635386e+00, 
        -2.394560814e+00, -1.438958645e+00, 1.434025317e-01, 
        -4.603574425e-02, 3.042282760e-01, 5.733268857e-01, 
        3.614410162e-01, 3.182725906e-01, -1.007783413e+00, 
        5.660210848e-01, -1.330528140e+00, -2.762062550e-01, 
        3.583477437e-01, 5.548202395e-01, 3.474661410e-01, 
        6.024546623e-01, -8.618893623e-01, 5.511581898e-01, 
        3.970591724e-01, -5.684440956e-02, 4.010530114e-01, 
        -1.122231409e-02, -1.784180850e-01, 5.275221467e-01, 
        5.219084024e-01, 9.118996561e-02, 6.528174877e-01, 
        -1.918222755e-02, -1.054646134e+00, 8.405248523e-01, 
        1.229764149e-01, 6.203224137e-02, 6.654211283e-01, 
        3.449877724e-02, -1.438983828e-01, 5.024256706e-01, 
        -8.335777372e-02, -7.965960503e-01, 4.092408717e-02, 
        1.276284307e-01, 6.439781189e-01, 3.634929359e-01, 
        5.013683438e-01, -4.633968771e-01, 1.305288076e-01, 
        7.689031959e-01, -3.594026804e+00, 8.962573856e-02, 
        -3.250236213e-01, -9.535614252e-01, 4.842838943e-01, 
        2.234975547e-01, 2.732211947e-01, -1.592427015e+00, 
        -2.516284883e-01, 5.954664201e-02, -5.009033680e-01, 
        -2.715036571e-01, -1.730296612e-01, 1.188434362e-01, 
        2.796109319e-01},
    {5.577805042e-01, 7.796701789e-02, 3.458614051e-01, 
        3.822013140e-01, -4.132017493e-01, 9.777970612e-02, 
        4.940072298e-01, 9.258830547e-02, 3.283109367e-01, 
        3.017402887e-01, 3.046329916e-01, -1.882116079e+00, 
        3.196604848e-01, 5.453879237e-01, 9.027168155e-01, 
        1.549610615e+00, 4.755456746e-01, -3.280306458e-01, 
        2.837889595e-03, 1.835304350e-01, 2.230037004e-01, 
        5.913571715e-01, 3.534062803e-01, 1.730796218e+00, 
        -8.489822149e-01, 5.070117712e-01, 1.097268462e+00, 
        5.868304968e-01, -5.203279257e-01, -6.273984313e-01, 
        1.285066158e-01, -2.075585604e+00, 3.432366550e-01, 
        -2.292416058e-03, -4.879117966e+00, 1.262978911e-01, 
        1.965781599e-01, 1.966068894e-01, 4.754828811e-01, 
        -9.715263247e-01, 4.793426394e-01, -4.241823778e-02, 
        2.809176743e-01, 3.973264098e-01, -3.897277415e-01, 
        9.599749744e-02, 1.898795962e-01, -3.358652592e-01, 
        3.154436052e-01, -4.377773702e-01, -6.248821616e-01, 
        7.146448642e-02, 6.269581318e-01, -5.742762089e-01, 
        4.264794588e-01, 1.140570641e+00, -8.149470687e-01, 
        5.128470659e-01, 3.016687632e-01, -9.573479742e-02, 
        1.903743386e+00, -7.062678337e-01, 4.507495463e-01, 
        2.315265536e-01, 2.582426369e-01, 8.622208238e-01, 
        -4.326775968e-01, 2.846500603e-03, -3.264422342e-02, 
        6.672411561e-01, -3.786195219e-01, 3.341408372e-01, 
        5.610402673e-02, -1.812251568e+00, 3.057999015e-01, 
        1.344473958e+00, -3.238686621e-01, -1.724988341e+00, 
        -4.904069304e-01, -8.408334851e-02, 4.023075700e-01, 
        1.541008949e-01, 3.591099083e-01, -2.023114115e-01, 
        2.383600920e-02, 2.569823265e-01, -1.506067157e+00, 
        1.689380556e-01, 5.547723174e-01, 2.344749123e-01, 
        2.846434414e-01, 6.333720684e-01, 7.028276324e-01, 
        4.279265702e-01, -1.747154295e-01, 7.329756618e-01, 
        -9.613887668e-01, -5.205835029e-02, 3.470911980e-01, 
        3.289906383e-01},
    {2.321930379e-01, 1.261922419e-01, -1.950280517e-01, 
        5.636607409e-01, -1.064178869e-01, 3.571438789e-01, 
        7.397795320e-01, -4.109151289e-02, 3.417238593e-01, 
        -8.099404573e-01, -6.187014580e-01, 2.000382692e-01, 
        -1.692697108e-01, 4.231365323e-01, -1.716219306e+00, 
        1.687059295e-03, 8.166962862e-01, 5.347666740e-01, 
        -1.622674942e+00, -1.459219813e+00, 1.427765340e-01, 
        2.644998133e-01, 2.306136638e-01, -1.342397094e+00, 
        -1.512757409e-02, 7.881838828e-03, 1.102716699e-01, 
        2.092884630e-01, 1.157081965e-02, 6.760405302e-01, 
        -1.197536960e-01, 3.460710943e-01, 4.372142851e-01, 
        -2.314437479e-01, -3.005468249e-01, -2.146560103e-01, 
        1.296896487e-01, 1.998926401e-01, 7.466040850e-01, 
        -4.231825352e+00, 1.975402385e-01, 5.191040635e-01, 
        -9.108201414e-02, 1.615688056e-01, 1.564578116e-01, 
        4.853692055e-01, -1.269645333e+00, -2.502485514e-01, 
        2.008139715e-02, -1.223528907e-01, 1.712471545e-01, 
        2.867533267e-02, 2.979162335e-01, 5.363479853e-01, 
        1.346316487e-01, 5.264221430e-01, -1.437963545e-01, 
        2.087720633e-01, 9.740836173e-02, -4.437239096e-02, 
        2.503312826e-01, 4.173711240e-01, 5.140380859e-01, 
        -5.660091713e-02, 2.426575273e-01, 2.205883265e-01, 
        7.862333059e-01, -1.307472885e-01, 5.543220043e-01, 
        2.218049914e-01, 2.347297370e-01, -2.453846931e+00, 
        -2.395829372e-02, 8.428345621e-02, 2.372711897e-01, 
        2.807223499e-01, 1.133528277e-01, -1.862180829e+00, 
        5.030039698e-02, -5.193318054e-02, 3.215708137e-01, 
        2.243358493e-01, 1.632998884e-01, 2.073835582e-01, 
        -3.278932571e-01, 2.581972778e-01, -4.793073535e-01, 
        1.031346992e-01, -4.572316408e-01, -9.502374381e-02, 
        -2.437003255e-01, 7.822039127e-01, 2.743762732e-01, 
        7.034735680e-01, 2.855168879e-01, -2.902337313e-01, 
        -3.074659407e-02, 2.549131811e-01, 7.976217866e-01, 
        8.499327302e-02},
    {-1.249840856e-01, -4.386034608e-01, -4.271122813e-01, 
        3.419632092e-02, -7.273570448e-02, -5.877954960e-01, 
        -2.336902171e-01, -1.284225434e-01, -4.350534081e-02, 
        2.154972963e-02, -5.997582674e-01, 1.579469591e-01, 
        -4.607993662e-01, -3.483786881e-01, -1.733900428e+00, 
        -1.953145713e-01, -3.598190099e-02, -2.181381434e-01, 
        -2.159244418e-01, -1.880064905e-01, -1.186852604e-01, 
        -3.180193156e-02, -2.045657337e-01, -3.862063959e-02, 
        -1.660179794e-01, -3.626812100e-01, -3.008418381e-01, 
        -3.980138004e-01, -5.441785455e-01, -1.492231190e-01, 
        -1.991622150e-01, -1.992097050e-01, -3.520671129e-01, 
        -1.156684399e+00, 3.263420463e-01, 1.479351521e-01, 
        -4.581049085e-01, -5.898462534e-01, -1.094290316e-01, 
        -2.106423825e-01, -2.691555023e-01, -3.407848179e-01, 
        -1.430163383e-01, -5.734907985e-01, -7.750222087e-01, 
        -5.286352634e-01, 7.175392658e-02, -6.044712290e-02, 
        -2.660510242e-01, -8.710199594e-02, 1.216524094e-01, 
        -7.018772960e-01, -1.953283697e-01, -1.578220487e+00, 
        -8.072724342e-01, -7.407885790e-01, -3.200113773e-01, 
        -1.059090346e-01, -1.280886233e-01, -4.886576533e-01, 
        9.688726813e-02, 8.202300221e-02, 1.793284342e-02, 
        -4.476308227e-01, -4.020240605e-01, -7.881520391e-01, 
        -9.540570527e-02, -3.002351522e-02, 5.900676176e-02, 
        -4.472236335e-01, -5.369680747e-02, -2.589581013e-01, 
        -2.296399772e-01, -5.360651389e-02, -1.914988905e-01, 
        -2.274156176e-02, -1.555107981e-01, 8.321642131e-02, 
        1.978265792e-01, -1.832011342e-01, 1.243797876e-02, 
        -1.233110353e-01, -4.709613919e-01, 4.038845748e-02, 
        -3.950698078e-01, -4.775795341e-02, -4.814836085e-01, 
        -5.230426192e-01, -1.304621845e-01, -2.307386845e-01, 
        -3.470598757e-01, 3.160758317e-01, -1.058904648e+00, 
        -9.096387625e-01, -1.984946057e-02, -5.851306915e-01, 
        -1.079513505e-01, -2.433869392e-01, -2.961258888e-01, 
        -2.715919316e-01},
    {-5.465467647e-02, -4.737866297e-02}
};

const float WEIGHTS[NUM_DENSE_LAYERS][MAX_LAYER_DIMS][MAX_LAYER_DIMS] = {
    {
        {-7.257749438e-01, -3.040841967e-02, -2.203521967e+00, 
            -7.003800869e-01, -1.809744090e-01, -3.393433988e-01},
        {4.302841723e-01, -7.665432990e-02, -2.889386177e+00, 
            1.554188877e-01, -3.324713111e-01, -9.228949994e-02},
        {-6.332622766e-01, -2.779325843e-01, -1.529841065e+00, 
            2.468300015e-01, 2.622064054e-01, 5.587284565e-01},
        {8.205018640e-01, 1.364437938e-01, -2.475935221e+00, 
            -4.314777255e-01, 2.276074141e-01, 1.683350354e-01},
        {1.394706607e+00, 5.758543611e-01, -1.332289100e+00, 
            -9.036553502e-01, 5.909330845e-01, 1.465369612e-01},
        {-8.712875843e-01, -2.619161606e-01, -2.961802006e+00, 
            4.311568737e-01, -5.512752756e-02, 5.092172325e-02},
        {-1.780890107e+00, 5.197698250e-02, 1.989068508e+00, 
            4.823054671e-01, 3.835881501e-02, 1.451989822e-02},
        {3.938891888e-01, 1.274693906e-01, 2.018923521e+00, 
            1.211559892e+00, -1.350537986e-01, -3.410089910e-01},
        {2.170816064e-01, 3.426391482e-01, -1.589091659e+00, 
            -4.395155013e-01, 3.515377343e-01, 1.791046560e-01},
        {9.459414482e-01, -8.120180666e-02, 1.915151834e+00, 
            6.471560001e-01, -2.900294065e-01, -2.711071447e-02},
        {3.140631020e-01, 1.923324913e-01, -1.557372212e+00, 
            -6.474745870e-01, 4.332094491e-01, -1.737564206e-01},
        {-4.121401608e-01, -7.727681994e-01, -1.013954997e+00, 
            -2.820289433e-01, 5.806132555e-01, 3.118138015e-01},
        {-8.479447961e-01, 2.937939391e-02, 1.597177029e+00, 
            2.556915283e-01, 2.093690783e-01, 1.204967052e-01},
        {-1.289962530e+00, -3.392054439e-01, 1.142125130e+00, 
            1.072913527e+00, 1.250285506e-01, 1.701051146e-01},
        {8.060557842e-01, 8.942651749e-01, 1.401188493e+00, 
            8.163079619e-01, -3.275771812e-02, -2.386254072e-01},
        {1.561108947e+00, 5.930451155e-01, -2.333418608e+00, 
            -2.112025917e-01, -1.691058278e-02, 3.244524300e-01},
        {4.308184236e-02, 3.054351918e-02, 1.816669226e+00, 
            5.426382422e-01, 1.452636123e-01, 8.394328505e-02},
        {-4.256670475e+00, -5.235768557e-01, -2.642120361e+00, 
            -3.030744493e-01, 4.934675992e-02, 7.981543429e-03},
        {-2.871268690e-01, 1.930171438e-02, 1.978348613e+00, 
            6.996296644e-01, -9.719229490e-02, -4.039487988e-02},
        {-2.075992346e+00, -6.534543633e-01, -2.267306328e+00, 
            -4.157675505e-01, -8.138182759e-02, 2.953584790e-01},
        {-9.496988356e-02, -1.832541823e-01, -2.204139471e+00, 
            -2.562505901e-01, 1.715020239e-01, 1.225219220e-01},
        {8.822347969e-02, 2.066224664e-01, 1.246187329e+00, 
            2.278818041e-01, -5.184495077e-02, 2.104967274e-02},
        {1.345355034e+00, 2.177410275e-01, -1.612304449e+00, 
            -3.118988872e-01, -3.705329299e-01, -1.993359476e-01},
        {5.138921738e-01, 2.523571849e-01, 1.582638144e+00, 
            1.129584908e+00, 1.265987903e-01, 5.136129260e-01},
        {-1.562635422e+00, 9.115211368e-01, 2.340643883e+00, 
            -2.985553741e-01, -6.963503361e-02, -9.969229996e-02},
        {-1.016721368e+00, -2.668698728e-01, -6.099593639e-01, 
            -1.345463991e-01, 9.732266665e-01, 2.771165967e-01},
        {-2.455703914e-01, 1.678846776e-01, 2.077172279e+00, 
            6.609101295e-01, -3.443524241e-01, 1.819800958e-02},
        {-1.807497740e-01, -1.848796755e-02, 1.487965226e+00, 
            7.750728726e-01, 2.957738638e-01, 2.217999846e-01},
        {2.791752815e+00, 7.331915498e-01, -2.132756472e+00, 
            -3.917675316e-01, 1.838307381e-01, 1.028240994e-01},
        {-8.528026938e-01, -6.016558036e-02, 1.746358633e+00, 
            5.732618570e-01, -8.317251503e-02, -2.665231004e-02},
        {-2.354137450e-01, -2.904974483e-02, 1.321352839e+00, 
            7.691471577e-01, 2.455977499e-01, 2.497883737e-01},
        {7.827280164e-01, -1.563088596e-01, 2.085130692e+00, 
            5.781105757e-01, -2.265182287e-01, -5.492882803e-02},
        {-5.398358107e-01, 4.198128358e-02, -2.645951509e+00, 
            -8.603551239e-02, -1.067651287e-01, 1.819880866e-02},
        {2.459586114e-01, 2.042316645e-02, 1.430587769e+00, 
            7.537551522e-01, -1.470513642e-01, -1.832295358e-01},
        {9.810112715e-01, 2.150409073e-01, 1.706633329e+00, 
            4.763644934e-01, -6.184896827e-02, -3.817539290e-02},
        {-2.567831874e-01, -9.997307509e-02, 1.344361901e+00, 
            5.417020321e-01, -4.278075695e-02, -5.475872662e-03},
        {-3.647098839e-01, -1.388245076e-01, 2.128216982e+00, 
            6.489300132e-01, 3.140905201e-01, 1.599813402e-01},
        {1.724215984e+00, 9.435929060e-01, -1.229879379e+00, 
            -2.831554413e-01, 2.757059038e-01, 1.401703805e-01},
        {-2.123288512e-01, -1.139503643e-01, 1.321132302e+00, 
            1.928837597e-01, 7.108380795e-01, 3.284027576e-01},
        {-3.376707792e+00, -1.103856564e+00, -2.353035212e+00, 
            -3.201578856e-01, 1.393604279e-01, -5.986173078e-02},
        {1.509944052e-01, 2.418316901e-01, -8.595297337e-01, 
            -5.940839052e-01, -5.424998403e-01, 5.902788639e-01},
        {-2.634749889e+00, -1.307504654e+00, 4.825931191e-01, 
            -1.292626023e+00, 9.788361937e-02, -1.588752419e-01},
        {1.499226093e+00, -1.386976689e-01, 2.025389485e-02, 
            -1.534839720e-01, 3.532096446e-01, 5.813518763e-01},
        {3.995039463e-01, -2.668077052e-01, 1.696765542e+00, 
            2.483130544e-01, 4.576075077e-01, 3.119869828e-01},
        {9.114671350e-01, 3.488641381e-01, -2.711996317e+00, 
            5.294022560e-01, 5.944998935e-02, 2.358104140e-01},
        {-6.790832877e-01, -1.290418953e-01, -9.773777723e-01, 
            1.126464158e-01, 2.567779124e-01, 6.287438422e-02},
        {2.399519682e+00, 2.309696674e-01, -2.490417242e+00, 
            6.638028026e-01, -3.316487670e-01, -7.749443501e-02},
        {1.908526570e-01, 4.248568043e-02, -2.443478584e+00, 
            -5.012377501e-01, -2.353478521e-01, -6.021100655e-02},
        {-1.613291055e-01, -7.304434478e-02, -1.682731628e+00, 
            -1.129992485e+00, 5.407510400e-01, 1.167353150e-02},
        {-2.646368928e-02, -2.378364280e-02, 4.269243479e-01, 
            2.915419936e-01, 3.716418985e-03, 3.512176219e-03},
        {8.408860564e-01, -1.487710625e-01, 1.976802468e+00, 
            8.370484710e-01, 3.240319714e-02, -7.920830697e-02},
        {-1.295663357e+00, -8.580768108e-01, -2.696672916e+00, 
            -3.739565313e-01, 7.031557709e-02, -8.918216825e-02},
        {6.738306284e-01, 2.865878940e-01, 2.389660835e+00, 
            1.428116322e+00, 2.507286668e-01, -1.608500630e-01},
        {-4.459737241e-01, -6.733693648e-03, 1.457600296e-01, 
            -4.920691550e-01, 8.795952797e-01, 3.247392774e-01},
        {8.187186122e-01, 7.607078552e-01, -1.651847005e+00, 
            -8.622433543e-01, -6.911383867e-01, -3.401772976e-01},
        {-1.468876243e+00, -4.770429134e-01, -2.345988750e+00, 
            -8.592938185e-01, 4.115059376e-01, 6.722986698e-02},
        {-4.796510935e-01, 5.687681213e-02, 2.225097418e+00, 
            8.777639270e-01, -1.618204862e-01, -1.400201917e-01},
        {3.719864488e-01, 3.052281141e-01, 7.274832726e-01, 
            -2.477801442e-01, 1.495030075e-01, 5.538351536e-01},
        {-1.002540365e-01, 4.606932774e-02, 1.622338533e+00, 
            6.233479381e-01, 3.204213455e-02, -1.393990242e-03},
        {2.279542685e+00, 6.772058010e-01, -2.748002052e+00, 
            -2.265720665e-01, 3.403290734e-02, -1.468224525e-01},
        {-2.120070457e-01, 2.137454152e-01, 2.271643877e+00, 
            6.658439636e-01, -9.046582133e-02, -8.395623416e-02},
        {-7.339671254e-02, -2.432596385e-01, 2.285135031e+00, 
            1.395781994e+00, -2.153060883e-01, 2.270579934e-01},
        {-1.904521346e+00, -1.248981208e-01, -4.377542436e-01, 
            -2.389016934e-02, -7.649528384e-01, -4.989703596e-01},
        {2.920460939e+00, 1.390887499e+00, -1.702829003e+00, 
            -7.479695678e-01, -3.867944479e-01, -1.273348480e-01},
        {-8.809879422e-01, -6.658948064e-01, -1.422349215e+00, 
            -8.391968608e-01, 7.991979122e-01, 3.549610972e-01},
        {-1.308403015e+00, -3.381116316e-02, -2.700982332e+00, 
            -3.450591266e-01, -2.980414033e-01, -1.027777269e-01},
        {2.292447910e-02, 3.420177698e-01, -3.235069990e+00, 
            7.569990754e-01, -7.739817351e-02, -1.505128443e-01},
        {1.689590931e+00, -1.711797714e-01, -2.438800812e+00, 
            6.157233119e-01, 5.368507504e-01, 2.609995604e-01},
        {1.967350006e+00, 1.012118384e-01, 1.509491444e+00, 
            -7.074909210e-01, -2.771013975e-01, -1.815971285e-01},
        {-8.265913725e-01, -2.380051911e-01, 1.952492237e+00, 
            1.473714948e+00, 3.797389269e-01, -2.516083717e-01},
        {-4.157562181e-02, 2.153716236e-01, 1.514757752e+00, 
            7.042900920e-01, -2.478627712e-01, -2.102317214e-01},
        {1.544770837e+00, 4.083465338e-01, -2.789850473e+00, 
            2.094386369e-01, -1.331646442e-01, -1.328423619e-01},
        {-1.986875415e+00, -1.467162371e+00, 1.198439360e+00, 
            -1.372123063e-01, 4.824426770e-01, 3.225226998e-01},
        {-5.984065533e-01, 1.691378504e-01, 1.433085203e+00, 
            7.562833428e-01, 2.400859743e-01, 1.815231591e-01},
        {9.357384406e-03, 7.289233152e-03, 5.900231004e-01, 
            2.039096802e-01, 1.171043813e-01, 5.918462947e-02},
        {-1.201676950e-01, 7.552705705e-02, 1.690664172e+00, 
            5.294342637e-01, 7.783419639e-02, 1.926831342e-02},
        {-6.030021906e-01, -1.509550810e-01, 1.737934232e+00, 
            5.020121336e-01, 2.748528421e-01, 1.432570964e-01},
        {7.470598817e-01, 1.432259977e-01, 2.861913145e-01, 
            4.271387309e-02, -8.037787080e-01, -2.897514701e-01},
        {2.915391684e+00, 7.853318453e-01, -2.249532461e+00, 
            -1.742964089e-01, 2.721649408e-01, 5.261180550e-02},
        {-3.913902044e-01, 4.165833816e-02, 4.562487602e-01, 
            2.998501956e-01, 3.484497592e-02, -2.430381021e-03},
        {-1.823539734e-01, 1.191807166e-01, 2.082123995e+00, 
            7.364813089e-01, -1.121512875e-01, -9.894540161e-02},
        {6.484574676e-01, 3.121578395e-01, 7.404400706e-01, 
            -5.332845449e-01, -1.028917909e+00, -3.150241077e-01},
        {-1.337657332e+00, -7.143397927e-01, -8.789734244e-01, 
            -6.348428130e-01, -6.650390625e-01, -2.090487182e-01},
        {2.260641009e-01, -1.158946007e-01, 2.141693354e+00, 
            7.766962051e-01, -4.682507738e-02, 2.010122985e-01},
        {-1.883342266e+00, -4.904507101e-01, -3.151443005e+00, 
            3.091302216e-01, 9.850850329e-03, -2.133148760e-01},
        {-5.825005174e-01, -2.805577517e-01, 2.028682709e+00, 
            8.218557239e-01, 6.490422785e-02, 1.813419759e-01},
        {-6.216732264e-01, -2.604340017e-01, -1.859534383e+00, 
            -1.082207441e+00, 9.530989826e-02, 1.803108603e-01},
        {4.308111668e-01, -6.452291738e-03, -1.471868634e+00, 
            -3.602427840e-01, -7.182637453e-01, -7.321342081e-02},
        {5.981324986e-02, -2.515788376e-02, 1.565717101e+00, 
            5.667276978e-01, 1.392829716e-01, 6.723188609e-02},
        {-4.187158346e-01, -8.385773748e-02, -1.402499080e+00, 
            -9.077885151e-01, -6.739751697e-01, -1.698724627e-01},
        {-1.366655976e-01, -2.960477769e-01, 1.145339727e+00, 
            7.099767923e-01, 2.521952093e-01, 4.179982841e-01},
        {-3.152383268e-01, -8.584750295e-01, -2.133712292e+00, 
            -6.847293377e-01, 8.272384293e-04, 4.517022148e-02},
        {-2.145887166e-02, -1.080907509e-01, 2.107659817e+00, 
            5.883610845e-01, 1.443863939e-02, 8.474080823e-03},
        {-5.185544491e-01, -8.758395165e-02, -3.386774063e+00, 
            4.276973009e-02, -6.447581202e-02, 1.794218719e-01},
        {-1.248602390e+00, 2.091634274e-01, 1.630345702e+00, 
            1.272002310e-01, 1.250242740e-01, 4.039322957e-02},
        {-2.884932756e+00, -3.913900852e-01, -3.086866140e+00, 
            7.292971015e-01, 4.246878624e-02, 1.350627542e-01},
        {6.909251809e-01, -3.611764312e-01, 2.272284031e+00, 
            7.159090638e-01, 2.448899858e-02, -1.375164092e-01},
        {-1.254219860e-01, -1.013269648e-01, -2.547554493e+00, 
            1.233894587e+00, 3.722301722e-01, 7.190398127e-02},
        {2.123942077e-01, -5.542252958e-02, 1.745480418e+00, 
            4.985256791e-01, -1.430357844e-01, -7.277633995e-02},
        {2.840189636e-01, 1.306475252e-01, -1.069869161e+00, 
            -3.572477102e-01, 1.140273333e+00, 4.377716184e-01}
    },
    {
        {8.005513996e-02, 5.755426735e-02, 1.926764101e-01, 
            -6.903314590e-01, -1.017344475e+00, -5.907882378e-02, 
            1.063461378e-01, -4.722140431e-01, -2.833425105e-01, 
            -1.592877209e-01, 7.073792815e-02, 3.490617499e-02, 
            -1.450865343e-02, 4.415226281e-01, -4.471523166e-01, 
            -1.092526078e+00, 3.522379994e-01, 2.337075397e-02, 
            2.717355266e-02, -3.426600099e-01, -4.506587982e-03, 
            -8.803164214e-02, -5.294544697e-01, 4.463769794e-01, 
            1.603336632e-02, 6.638931036e-01, -1.193077788e-01, 
            2.591655552e-01, -1.199262977e+00, -2.588724494e-01, 
            3.686090410e-01, -3.581679761e-01, 6.389535218e-02, 
            -3.538564965e-02, -3.672323823e-01, -1.699904166e-02, 
            2.029925399e-02, -7.266979218e-01, 2.563345432e-01, 
            -3.402742743e-01, 4.094245732e-01, 5.583907664e-02, 
            -9.764892459e-01, -3.163803816e-01, -1.175491139e-01, 
            4.986070096e-01, -1.568648778e-02, -1.770355403e-01, 
            2.250572890e-01, -3.503611311e-02, -6.966945529e-02, 
            -2.232906073e-01, -1.641991287e-01, 3.082960844e-01, 
            -2.213196754e-01, 3.551963270e-01, 5.613173172e-02, 
            -2.089521885e-01, 2.710335255e-01, -4.482608736e-01, 
            -1.587936655e-02, 4.412732422e-01, -8.533048034e-01, 
            -8.512316346e-01, -5.593193322e-02, 8.399170637e-02, 
            1.311303526e-01, 2.871118486e-01, 1.856624931e-01, 
            -2.536006868e-01, -5.161802173e-01, -5.165634677e-02, 
            5.455991253e-02, 3.568056226e-01, -8.123778552e-02, 
            2.158054262e-01, 3.165534139e-01, 8.506277949e-02, 
            -7.051782608e-01, 5.173691548e-03, -1.688020825e-01, 
            1.180877835e-01, -1.880313158e-01, 3.691263497e-01, 
            -3.707082272e-01, 1.257106811e-01, 5.883371830e-02, 
            4.145494848e-02, 2.885227650e-02, 2.155042887e-01, 
            2.245322466e-01, 3.043275476e-01, -2.554186583e-01, 
            -4.242598116e-01, 6.139085814e-02, 2.159016430e-01, 
            -2.943323851e-01, 4.000930786e-01, -5.263245702e-01, 
            5.413542986e-01},
        {-1.990326494e-01, -4.280461073e-01, -2.660627961e-01, 
            -1.903322488e-01, -2.772805095e-01, -2.853453755e-01, 
            8.632011712e-02, 3.248138130e-01, -3.843325749e-02, 
            1.661799401e-01, -1.704629064e-01, -8.845628053e-02, 
            1.075803638e-01, 2.117121033e-02, 3.634546101e-01, 
            -2.087283283e-01, 6.251376867e-02, -4.806978703e-01, 
            3.125196099e-01, -5.009586215e-01, -3.367692828e-01, 
            8.008898795e-02, -6.670453399e-02, 6.833788753e-02, 
            2.609997094e-01, -1.988883615e-01, 3.546156585e-01, 
            9.964846075e-02, -1.934858412e-01, 1.055081142e-03, 
            2.094840258e-01, -3.278184682e-03, -2.705332935e-01, 
            7.950278372e-02, -8.169383556e-02, -5.074711144e-02, 
            -1.723125391e-02, -2.234865129e-01, -2.036639005e-01, 
            -6.005287766e-01, 4.313321039e-02, -7.171691209e-02, 
            5.075829849e-02, -8.981932700e-02, 1.638798267e-01, 
            4.560543969e-02, -1.688706428e-01, -3.397065103e-01, 
            -2.478815615e-01, 4.253920168e-02, -1.234199735e-03, 
            -4.266077280e-01, 2.841485739e-01, -2.681452930e-01, 
            1.642201841e-01, -2.996431887e-01, 2.952371538e-01, 
            1.534552276e-01, 1.762259752e-01, -4.411952198e-01, 
            2.566758394e-01, 1.654559523e-01, 8.628183044e-03, 
            1.025760919e-01, -2.108739614e-01, -4.541988373e-01, 
            -3.028400056e-02, -1.310565472e-01, 1.140108481e-01, 
            3.709516823e-01, 3.464919031e-01, -5.612519011e-02, 
            -3.023524396e-02, 3.599345684e-01, -1.551264990e-02, 
            2.541927993e-01, -8.488458395e-02, 1.594070345e-01, 
            -2.730159163e-01, 1.876059175e-01, 3.489435017e-01, 
            2.732859254e-01, -2.561607659e-01, 6.379466504e-02, 
            -4.808495045e-01, 1.729969308e-02, -2.502723038e-01, 
            -1.661814377e-02, 1.633830369e-01, -8.326798677e-02, 
            7.533669472e-02, -2.921334803e-01, 8.076970465e-03, 
            -3.467310667e-01, 1.032094061e-01, -1.820775867e-01, 
            1.186734661e-01, 2.260316014e-01, -8.484319597e-02, 
            -2.557658255e-01},
        {-7.415047288e-02, 3.188845515e-02, -8.959785104e-03, 
            2.312711179e-01, 3.422062993e-01, 1.868512779e-01, 
            7.269541174e-02, -2.502677739e-01, 2.395627201e-01, 
            -1.023062021e-01, 3.284406066e-01, 1.469120383e-01, 
            -8.268738538e-02, -1.234260574e-01, -5.110049620e-02, 
            1.324291080e-01, -4.334774315e-01, 8.950033039e-02, 
            -1.998354495e-01, -1.090722382e-01, 1.179919913e-01, 
            -4.570253566e-02, -1.814210117e-01, -2.825411558e-01, 
            -1.345553696e-01, 2.479042113e-01, -1.405813843e-01, 
            -2.507877946e-01, -1.731118187e-02, -5.195609853e-02, 
            -1.711038351e-01, 1.418669801e-02, -4.850343242e-02, 
            -2.996717393e-01, -8.260483295e-02, 2.298104763e-02, 
            -3.663069904e-01, 2.191380858e-01, 1.113281399e-01, 
            1.052357033e-01, -2.344849706e-02, -2.290206961e-02, 
            -1.871149056e-02, 1.182527766e-01, 2.442385256e-02, 
            7.553844899e-02, -1.044386812e-02, -1.455147117e-01, 
            3.096672595e-01, 1.099419445e-01, 4.947704822e-02, 
            2.728163600e-01, -2.988224328e-01, 2.178094536e-01, 
            -1.918512881e-01, 3.124727011e-01, -3.104684651e-01, 
            -5.731997639e-02, -2.055355906e-01, -7.035527844e-03, 
            -2.550678551e-01, -2.121412158e-01, -2.788596451e-01, 
            9.194911271e-02, 3.138901293e-01, -1.099847183e-01, 
            2.997914143e-02, -1.170762479e-01, -3.266968131e-01, 
            6.153849140e-02, -7.469633967e-02, -1.089258716e-01, 
            2.474173605e-01, -1.770024151e-01, -5.055376887e-02, 
            -2.785641849e-01, -1.873184592e-01, -3.686316311e-01, 
            3.279186189e-01, 6.659667939e-02, -3.390581310e-01, 
            -1.844712049e-01, -6.327779889e-01, -3.177933395e-01, 
            -5.868300213e-04, -3.396359831e-02, 1.549539119e-01, 
            -2.247006893e-01, -2.840792537e-01, -3.071415722e-01, 
            2.828571573e-02, -4.929197952e-02, -2.416494936e-01, 
            2.761001000e-03, -1.947701871e-01, 9.436200559e-02, 
            -1.025286019e-01, 8.100935817e-02, -1.915698522e-03, 
            5.874506831e-01},
        {-2.390006930e-01, -2.965970039e-01, -8.834449947e-02, 
            -3.373492043e-03, 3.847617190e-04, -2.629638016e-01, 
            -2.304431982e-02, 5.278955400e-02, 2.166147530e-01, 
            3.231724799e-01, 1.338393986e-01, -7.889040112e-01, 
            5.156392977e-02, 3.623712659e-01, 2.034044266e-01, 
            1.927305311e-01, -1.031333283e-01, -1.359990984e-01, 
            1.534335911e-01, -4.410690069e-01, -1.430199593e-01, 
            -1.135624275e-01, 1.169394180e-01, -2.892116606e-01, 
            3.533249348e-02, -2.432976663e-02, 1.967006773e-01, 
            -2.218192071e-02, -7.728143036e-02, 1.628786623e-01, 
            -1.455722842e-02, 2.872612178e-01, -2.590922117e-01, 
            8.115575463e-02, -1.082402766e-01, 2.345457822e-01, 
            -2.202521116e-01, -5.746288300e-01, -5.029950738e-01, 
            -3.068884015e-01, 3.174692094e-01, -1.003997996e-01, 
            -1.012534127e-01, -2.874340117e-01, -2.411184832e-02, 
            -7.190747559e-02, 1.607139707e-01, 6.337238848e-02, 
            -2.733408511e-01, 2.100782096e-01, -8.969359100e-02, 
            -6.751863360e-01, -3.259959444e-02, -4.135375321e-01, 
            1.282965541e-01, -6.283541322e-01, 3.706920743e-01, 
            -2.175023966e-02, 1.666766405e-01, -1.541239917e-01, 
            1.883055568e-01, 8.234965056e-02, -1.685245633e-01, 
            -3.650182113e-02, -8.866421580e-01, -5.989122987e-01, 
            -2.348328531e-01, -2.141937017e-01, 6.473387033e-02, 
            4.408068061e-01, 1.673227102e-01, 2.952504344e-02, 
            -2.510938561e-03, -5.429292470e-02, -2.368856966e-02, 
            -7.571092993e-02, 3.694910184e-02, 2.448124886e-01, 
            -4.549214542e-01, 1.909517348e-01, 2.613655031e-01, 
            2.074075043e-01, -5.025426745e-01, -6.403233111e-02, 
            -6.520309448e-01, 1.568682939e-01, -3.193469346e-01, 
            5.548220873e-01, -1.899017543e-01, 1.382763386e-01, 
            -2.369595170e-01, 1.975775659e-01, 2.203633636e-02, 
            -3.586404622e-01, -4.867500439e-02, -5.636838078e-01, 
            6.666535884e-02, -3.768258169e-02, 1.662937403e-01, 
            -5.620656013e-01},
        {6.000812724e-02, -3.442280889e-01, 5.871145055e-02, 
            -7.628467679e-01, -5.144159198e-01, -8.600221574e-02, 
            4.804032296e-02, 1.073103920e-01, -8.862879127e-02, 
            -1.508358866e-01, -6.780695915e-01, 3.569294140e-02, 
            -8.572318405e-02, -7.214723527e-02, 5.118002295e-01, 
            7.819465548e-02, 2.747548819e-01, -2.796486616e-01, 
            9.174297750e-02, 3.302157223e-01, -1.631838083e-01, 
            1.043928973e-02, -5.139658451e-01, -4.230234623e-01, 
            -1.896500438e-01, -3.035654724e-01, 1.262988150e-01, 
            -1.435550451e-01, -1.088297606e+00, -2.785725333e-02, 
            -6.197159737e-02, -2.072408348e-01, 1.296624988e-01, 
            3.549185097e-01, 3.865882754e-02, 5.840061232e-02, 
            -1.886935681e-01, -4.890661240e-01, 1.557531506e-01, 
            -2.908498980e-02, -1.538869739e-01, 2.050835788e-01, 
            -3.327606320e-01, -6.084003672e-02, -5.285417289e-02, 
            2.259049416e-01, -2.594982982e-01, -1.436490715e-01, 
            -3.643389642e-01, 9.349443018e-02, -1.521248668e-01, 
            -1.161126718e-01, 1.033114716e-01, -8.253701925e-01, 
            -1.982978731e-01, -1.604519486e-01, 6.924828142e-02, 
            -1.813168675e-01, 2.456471790e-03, -9.197192788e-01, 
            2.939683199e-01, -2.488566637e-01, 1.065057702e-02, 
            -1.437187493e-01, 2.084097862e-01, 1.114502829e-02, 
            -2.483206838e-01, -7.116352916e-01, -5.916712061e-02, 
            5.383968726e-02, 1.697383225e-01, -1.075628623e-01, 
            7.840380818e-02, 1.459877659e-02, 3.418855965e-01, 
            1.234391481e-01, 9.009686112e-02, 1.257099211e-01, 
            -9.810737967e-01, 4.490976334e-01, 9.851617366e-02, 
            9.329129243e-04, -2.399589866e-01, -2.628000975e-01, 
            1.958771497e-01, -3.101289831e-02, 2.584866881e-01, 
            6.493166834e-02, 2.590716481e-01, 2.256323844e-01, 
            -9.719080329e-01, 2.161968052e-01, 6.307877600e-02, 
            -2.922818065e-02, -1.424875408e-01, -1.740873456e-01, 
            -1.174847558e-01, -1.561051011e-01, -1.191741303e-01, 
            -2.681389749e-01},
        {1.320598125e-01, -4.843166471e-01, -2.943091393e-01, 
            1.583942771e-01, 7.165775448e-02, -1.733352393e-01, 
            -4.051766396e-01, -2.665615827e-02, 2.161314487e-01, 
            -1.233189180e-01, 3.530307859e-02, -1.087811962e-01, 
            -1.110222861e-01, 2.264491469e-01, -1.984774694e-02, 
            1.339967847e-01, -1.967831999e-01, 2.850074880e-02, 
            3.609419242e-02, 1.346745491e-01, -9.843396395e-02, 
            -1.154690608e-01, -8.134868741e-02, -7.581636310e-01, 
            1.606549919e-01, -4.057963490e-01, 9.180562198e-02, 
            -4.559151828e-01, 4.100699723e-02, 6.320691854e-02, 
            -3.049631417e-01, 1.795615554e-01, -8.439265937e-02, 
            -1.617277972e-02, -9.368760511e-03, -4.749952629e-02, 
            -2.493742555e-01, 6.751671433e-02, -6.554072499e-01, 
            1.012220979e-01, 1.671053320e-01, 9.530552477e-02, 
            -4.405813813e-01, -2.703717649e-01, -2.395428270e-01, 
            5.288867652e-02, -4.769791961e-01, 1.607751250e-01, 
            -6.959234923e-02, 1.015443727e-01, -4.587582499e-02, 
            3.511831164e-01, -1.565125138e-01, -2.500539124e-01, 
            4.230008721e-01, -2.267428488e-01, -5.429265648e-02, 
            -8.846142888e-02, -3.686148524e-01, -1.838572770e-01, 
            -9.742306173e-02, 1.251545846e-01, 4.823767766e-02, 
            4.620084167e-01, -1.953983158e-01, 1.606924087e-01, 
            -5.890811682e-01, -2.105353773e-01, 9.403147548e-02, 
            -1.636982113e-01, 9.244795889e-02, -6.570572853e-01, 
            -3.683327138e-01, -1.446444094e-01, -2.738111466e-02, 
            -5.772234872e-02, -1.398095787e-01, 3.193450570e-01, 
            -1.112127975e-01, -6.883852929e-02, -1.329083275e-02, 
            2.470505536e-01, 3.632302284e-01, 8.515521884e-02, 
            3.271134105e-03, -1.602242887e-01, -2.558500171e-01, 
            -1.675777882e-01, -3.063199520e-01, -3.550120071e-02, 
            3.639694676e-02, 4.309080541e-01, -1.546088606e-01, 
            -2.207668126e-01, -6.160645187e-02, 1.543195546e-01, 
            1.140007898e-01, -6.643411517e-02, 6.941213459e-02, 
            -4.075484872e-01},
        {9.388322383e-02, 2.737357616e-01, -5.013814569e-01, 
            8.607856184e-02, 3.879786730e-01, -1.079043094e-02, 
            4.052803852e-03, -2.106177360e-01, -3.021069169e-01, 
            -4.086738229e-01, 4.753980339e-01, 1.122798175e-01, 
            -4.392618686e-02, 4.441294372e-01, -2.787885964e-01, 
            -1.835687160e-01, -6.540918946e-01, -2.637153864e-02, 
            -5.524467230e-01, -2.396354526e-01, 1.765661836e-01, 
            -1.788886636e-01, 1.918553412e-01, -9.658253193e-02, 
            4.300603271e-01, 1.097144932e-01, -3.263550401e-01, 
            -6.212241054e-01, -3.911037371e-02, -4.005273581e-01, 
            -8.097256422e-01, -3.325406909e-01, -1.985238343e-01, 
            -7.723204494e-01, -5.046328306e-01, -7.116349339e-01, 
            -5.565320849e-01, -3.951292634e-01, -3.931256831e-01, 
            2.928977134e-03, -9.215613008e-01, 3.572349623e-02, 
            -1.723821461e-01, 1.060143411e-01, -5.456734076e-02, 
            -1.836052239e-01, -5.277647972e-01, 2.898814678e-01, 
            2.937285602e-01, -8.229959011e-01, -6.435852647e-01, 
            1.718883812e-01, -1.953969747e-01, 4.085937981e-03, 
            2.623523772e-01, 1.840277463e-01, -6.814390421e-01, 
            -3.048084304e-02, -9.090184569e-01, 1.003246382e-01, 
            -6.528692842e-01, -4.179867506e-01, -1.895045042e-01, 
            3.481681049e-01, 1.130704433e-01, -1.796437427e-02, 
            1.924571842e-01, 1.206130534e-02, 3.192021549e-01, 
            1.177920997e-01, -7.302362323e-01, 1.125454009e-01, 
            -9.215059690e-03, -6.415441632e-01, -3.504554033e-01, 
            -4.009310901e-01, -4.519722760e-01, 1.813112013e-02, 
            -3.282180130e-01, -1.088778138e+00, -5.019912124e-01, 
            1.525538564e-01, 1.309275627e-01, -4.377703071e-01, 
            -1.163440645e-01, -5.990661383e-01, 2.892091572e-01, 
            -8.490704745e-02, -4.685516357e-01, 4.195536077e-01, 
            -6.261932254e-01, 4.045622051e-01, -2.516770363e-01, 
            -1.672959626e-01, -1.771858186e-01, 1.388503760e-01, 
            -3.187775314e-01, -7.346763462e-02, -1.569921970e-01, 
            -2.524847090e-01},
        {-1.922192276e-01, -1.298417896e-01, 1.639756858e-01, 
            -1.678851247e-01, 1.461950094e-01, 5.884238705e-02, 
            -1.374266203e-02, 2.197180837e-01, 6.063775420e-01, 
            3.043185733e-02, 1.327735633e-01, 7.153473496e-01, 
            -1.555615962e-01, 3.663266599e-01, -2.113166898e-01, 
            9.955374151e-02, -4.140144885e-01, -3.349432349e-01, 
            -1.627933085e-01, -2.611124814e-01, -1.556892693e-01, 
            -1.496545225e-01, -4.346411228e-01, -4.420633018e-01, 
            5.658268929e-02, 2.201035321e-01, 4.596143961e-03, 
            -2.613830268e-01, -9.351536036e-01, 1.900348812e-01, 
            -2.668116987e-01, -1.272549778e-01, -3.630094230e-01, 
            -6.916643679e-02, -6.877285838e-01, 2.652354538e-01, 
            1.081153601e-01, -2.714745700e-02, 3.695004620e-03, 
            2.193788886e-01, 1.724868715e-01, 3.227958381e-01, 
            -2.634562552e-01, 8.720316738e-02, -4.178978503e-01, 
            -5.958490446e-02, -3.174335361e-01, -2.984492183e-01, 
            -3.925693780e-02, -6.539138407e-02, -6.434460729e-02, 
            3.370721042e-01, -1.103019342e-02, 1.010359228e-01, 
            -7.171700150e-02, -3.497977555e-01, 1.370445490e-01, 
            2.808203697e-01, -6.114484370e-02, -1.172062039e+00, 
            -4.004982114e-01, 4.801812470e-01, 4.148724675e-01, 
            -7.768850327e-01, 2.493890226e-01, -2.416058332e-01, 
            4.572378397e-01, 1.747111976e-01, -3.283905387e-01, 
            3.156054914e-01, -4.384521395e-02, -4.037400186e-01, 
            5.233331323e-01, -6.147597730e-02, -2.680388689e-01, 
            -5.483204722e-01, 1.726750657e-02, -3.266634047e-02, 
            -9.206514955e-01, -4.083560705e-01, -3.127106428e-01, 
            2.594694495e-01, 5.638371110e-01, -7.918443531e-02, 
            2.034682631e-01, 1.649583876e-01, -1.037252769e-01, 
            2.372231483e-01, -3.535502553e-01, 3.517045826e-02, 
            4.186072350e-01, 2.090661377e-01, 2.600613423e-02, 
            -2.621919811e-01, -2.177860588e-01, 1.270101666e-01, 
            3.651268408e-02, 2.711158693e-01, -2.634459361e-02, 
            4.951229319e-02},
        {-1.806399971e-01, -8.223726600e-02, -2.263474911e-01, 
            -3.137143552e-01, -9.648206830e-02, -2.311220020e-01, 
            1.459181402e-02, 3.886039853e-01, -8.866020478e-03, 
            4.082831144e-01, 1.514397562e-01, 7.636123151e-02, 
            1.233370751e-01, -1.005382836e-02, -1.769759506e-01, 
            -3.547708988e-01, 8.624513447e-02, -5.577760935e-01, 
            2.159214914e-01, -2.083632052e-01, -3.309135884e-02, 
            1.743637919e-01, -1.886096597e-02, 2.319053710e-01, 
            5.211171508e-02, 1.992432475e-01, 1.974344403e-01, 
            2.163851708e-01, -3.039571345e-01, 3.157993406e-02, 
            2.724453211e-01, 3.075211048e-01, -2.276517898e-01, 
            1.755545288e-01, 2.530661821e-01, 1.854992658e-01, 
            1.780168712e-01, -1.893048286e-01, 2.426781356e-01, 
            -1.078691036e-01, -1.217103079e-01, 8.436029404e-02, 
            1.055084616e-01, 3.334308863e-01, -3.478819430e-01, 
            -1.236857399e-01, -1.733485907e-01, -1.062965468e-01, 
            -1.346694231e-01, 1.842075586e-01, 2.695742548e-01, 
            1.234188452e-01, 1.188673005e-01, 2.197115570e-01, 
            -2.994897962e-01, -2.762996256e-01, 2.504881918e-01, 
            -8.826443553e-02, 5.594722461e-03, -3.405856192e-01, 
            1.586403847e-01, 2.094305903e-01, -2.671650648e-01, 
            -4.533662796e-01, 9.437639266e-02, -1.313643903e-01, 
            -7.132160068e-01, -3.155542314e-01, 1.017611921e-01, 
            -4.126345739e-02, 1.598843187e-01, -4.285369515e-01, 
            1.410678178e-01, 1.598469466e-01, 1.369514465e-01, 
            5.748043582e-02, 7.214976102e-02, 1.581017971e-01, 
            -5.305005908e-01, 6.130447984e-02, 1.791500002e-01, 
            1.067429334e-01, -1.212180853e-01, 1.769509614e-01, 
            -4.333841801e-01, 1.847471744e-01, 3.166890144e-02, 
            -9.868845344e-02, 1.097925752e-01, -2.287721485e-01, 
            3.331437111e-01, 2.047100961e-01, 1.493075192e-01, 
            -3.740551174e-01, 5.525904894e-02, -4.489836991e-01, 
            2.815783918e-01, -1.991476864e-01, 2.751839459e-01, 
            1.723082364e-01},
        {3.071148098e-01, 1.040880755e-02, -2.206124132e-03, 
            -1.128660589e-01, -8.865123391e-01, -1.517644734e-03, 
            -7.762400806e-02, -4.288472831e-01, -5.289316177e-01, 
            5.630330741e-02, -1.721489131e-01, -1.112679318e-01, 
            -1.117257625e-01, -3.998044133e-01, 1.919000782e-02, 
            1.723829359e-01, 3.537037224e-02, 2.221195698e-01, 
            -7.069668919e-02, 1.543926597e-01, -2.639941275e-01, 
            -1.423692564e-03, 3.902099729e-01, 2.094734162e-01, 
            3.455991298e-02, 7.430250943e-02, 2.222700417e-01, 
            -2.197100967e-01, -7.134549320e-02, -3.696825802e-01, 
            -2.575199306e-01, 1.453424692e-01, -1.431636047e-02, 
            -5.436461568e-01, 4.358063936e-01, -6.057252288e-01, 
            -5.753079653e-01, -2.739595771e-01, 3.278355347e-03, 
            1.428912282e-01, 2.561289370e-01, 3.370889425e-01, 
            5.677927658e-02, -2.706409097e-01, 2.693948448e-01, 
            1.440012548e-02, -1.125471760e-02, 3.373030573e-02, 
            -7.131642699e-01, -6.149664521e-01, -2.907537222e-01, 
            3.762153536e-02, -9.445684552e-01, -5.204982162e-01, 
            2.045183480e-01, -9.518319368e-02, -4.199815094e-01, 
            -2.810133621e-02, -2.863225341e-01, -9.766647965e-02, 
            -1.059681028e-01, -4.649793804e-01, 3.609338999e-01, 
            1.040165797e-01, -8.339303732e-01, 1.842040718e-01, 
            6.496527046e-02, -1.178787053e-01, 2.798400223e-01, 
            -2.676430717e-02, -3.500959650e-02, 2.973748557e-02, 
            -2.295253277e-01, 1.690375209e-01, -3.914158642e-01, 
            -2.797044218e-01, -4.619141221e-01, 5.197834373e-01, 
            1.271946281e-01, -2.187955379e-01, 2.563951351e-02, 
            4.300487936e-01, 6.062062085e-02, -1.653682888e-01, 
            1.474616677e-01, -8.121516109e-01, -6.847088337e-01, 
            1.105758026e-01, -3.121985495e-01, -7.355085015e-02, 
            -6.065400839e-01, 3.369961679e-02, -2.556014657e-01, 
            1.895403117e-02, -3.798008338e-02, -1.134594604e-01, 
            -1.582998335e-01, 6.075456738e-02, 1.878719926e-01, 
            -6.380733848e-01},
        {-6.911507845e-01, -5.006358624e-01, 2.336737961e-01, 
            -3.898539543e-01, -2.365869284e-01, -1.379189342e-01, 
            -4.888663441e-02, -4.712200463e-01, 5.200450122e-02, 
            -7.802808285e-01, -8.098247647e-01, 3.097398877e-01, 
            -1.286639720e-01, 5.039793849e-01, -6.178894266e-02, 
            -3.828111337e-03, 1.960898340e-01, -1.138409898e-01, 
            -1.390364766e-01, -4.699272513e-01, -4.361152351e-01, 
            -4.391370714e-01, -1.290515184e+00, 3.212911487e-01, 
            -1.403460503e-01, 4.517496526e-01, -3.189289868e-01, 
            3.725938797e-01, -2.016843557e-01, -1.575246751e-01, 
            3.424701393e-01, -8.299090266e-01, -3.132273555e-01, 
            -3.988032639e-01, -6.022745371e-01, -9.987220913e-02, 
            2.782651782e-01, 9.310296923e-02, 2.546626925e-01, 
            -1.973798424e-01, -2.610156685e-02, 4.841631651e-01, 
            -1.407456025e-02, 2.614541724e-02, 4.088090956e-01, 
            2.768740356e-01, -5.243701935e-01, -6.726769209e-01, 
            -5.408412218e-01, -1.963480264e-01, -3.023179173e-01, 
            -8.774495125e-01, -1.987003982e-01, 1.389325857e-01, 
            3.956364393e-01, -5.250394940e-01, -1.785726547e-01, 
            -1.314801127e-01, -7.452751696e-02, -3.570466638e-01, 
            -9.611178935e-02, 2.079772502e-01, -5.564453602e-01, 
            -3.716509640e-01, -2.466727197e-01, -2.037538886e-01, 
            4.122255743e-01, -5.315953866e-02, -2.937253714e-01, 
            3.323134184e-01, -8.086928725e-01, -2.832621634e-01, 
            3.344073892e-01, 3.884164393e-01, -5.828183144e-02, 
            6.780398637e-02, 2.300974727e-01, -1.457600296e-01, 
            -1.345685720e-01, -1.514525115e-01, -4.034500718e-01, 
            3.649277389e-01, -5.184194446e-01, -2.100851387e-02, 
            -2.666132152e-01, 1.308830529e-01, -4.966446161e-01, 
            -2.699668407e-01, 1.523438543e-01, 9.925432503e-02, 
            2.734919488e-01, -9.903990626e-01, -2.083390653e-01, 
            -2.208012044e-01, -1.265726686e-01, 2.254982591e-01, 
            -4.334635735e-01, 1.100964546e-01, -9.239771962e-01, 
            3.252341449e-01},
        {-3.173450530e-01, -4.516911507e-01, -3.874976560e-02, 
            -1.646479815e-01, -4.029821232e-02, -3.762113154e-01, 
            2.153930962e-01, 4.568664134e-01, -1.064873561e-01, 
            4.228817523e-01, -1.493242532e-01, 1.154783741e-01, 
            5.597061664e-02, 1.248252094e-01, 1.173152179e-01, 
            -2.650827169e-01, 2.645742893e-01, -5.728518963e-01, 
            4.189085364e-01, -4.522433579e-01, -2.368439138e-01, 
            1.368799806e-01, -8.880677633e-03, 2.175544053e-01, 
            2.520530224e-01, -3.919793293e-02, 3.472255468e-01, 
            7.953896374e-02, -2.619190812e-01, 8.827260137e-02, 
            2.174116224e-01, 1.976885945e-01, -4.629440904e-01, 
            1.278480738e-01, 3.798315823e-01, 2.581845410e-02, 
            3.386268914e-01, -1.305633336e-01, 1.410671324e-01, 
            -5.096614957e-01, 9.389216453e-02, 6.775757670e-02, 
            7.291613519e-02, 1.502505988e-01, -2.070281506e-01, 
            -1.261501461e-01, -5.492401309e-03, -3.641507924e-01, 
            5.121830478e-02, 1.071265936e-01, 3.904161453e-01, 
            -2.739288509e-01, 2.562187612e-01, 7.346463948e-02, 
            -1.671760529e-01, -1.406123787e-01, 2.472123206e-01, 
            -2.140714601e-02, 1.436400115e-01, -1.330762804e-01, 
            2.535721362e-01, 2.336367518e-01, -1.216263622e-01, 
            -7.668136805e-02, -1.737352014e-01, -4.781363606e-01, 
            -5.262729526e-01, 5.693977233e-03, 3.045062721e-01, 
            2.141931653e-01, 9.693399817e-02, -2.511011958e-01, 
            1.292588413e-01, 2.755443752e-01, 2.352293134e-01, 
            2.825741768e-01, 1.420257688e-01, 1.159382463e-01, 
            -2.678762674e-01, 8.578242362e-02, 3.661604226e-01, 
            2.178627439e-02, -2.509222925e-01, 3.731395602e-01, 
            -4.220580459e-01, 1.853301078e-01, -1.657776535e-01, 
            -1.182319447e-01, 1.110574976e-01, -9.765585512e-02, 
            2.384713739e-01, -2.923143208e-01, 2.235083133e-01, 
            -5.967894793e-01, 2.348612547e-01, -5.459520817e-01, 
            2.316359580e-01, -2.350579947e-01, 1.556609720e-01, 
            4.948383570e-02},
        {1.297707856e-01, 3.407814726e-02, -6.425327063e-02, 
            -3.885036334e-02, 3.475607038e-01, -9.970203787e-02, 
            -7.387225330e-02, -2.225593776e-01, 1.123157516e-01, 
            -9.683512151e-02, 2.073561996e-01, 3.425419703e-02, 
            2.033669800e-01, -2.285944819e-01, -3.983118236e-01, 
            -1.330481768e-01, 5.303359777e-02, -2.624869347e-02, 
            5.235120654e-02, -4.106317088e-02, -8.185586194e-04, 
            4.538429156e-02, 2.356984466e-02, -3.235962093e-01, 
            3.144800663e-01, 1.099024788e-01, -2.646117210e-01, 
            -1.822796911e-01, 7.500375062e-02, 2.186214179e-02, 
            -2.756819427e-01, 2.389596589e-02, 1.037340909e-01, 
            -3.533719480e-01, 3.689205647e-02, -1.463316381e-01, 
            1.144135222e-01, 1.209756806e-01, 6.783784181e-02, 
            2.387147211e-02, -2.440448850e-02, 3.636525571e-01, 
            4.706400633e-02, 3.692331910e-01, -1.652911752e-01, 
            -5.452930555e-02, -1.465597004e-01, 1.900120825e-01, 
            2.992787659e-01, -1.403397024e-01, -3.617718443e-02, 
            2.256880403e-01, -4.302635491e-01, 1.361377388e-01, 
            9.293394536e-02, -6.820581853e-03, -2.992342412e-01, 
            1.996248811e-01, -2.302398980e-01, 8.201463521e-02, 
            -3.214689717e-02, -3.533657789e-01, 9.058119357e-02, 
            1.163642928e-01, 2.482487112e-01, 2.698401362e-02, 
            -9.928768128e-02, -2.951411605e-01, 2.438842803e-01, 
            -3.178759515e-01, -2.598441243e-01, -1.323327515e-02, 
            2.599142790e-01, -1.165165603e-01, 6.084946543e-02, 
            3.712938353e-02, -8.051718771e-02, 1.109436303e-01, 
            -8.530868590e-02, 1.916463673e-02, -2.525851429e-01, 
            2.820836604e-01, 2.409036160e-01, -5.887445062e-02, 
            -4.877879750e-03, -1.963606179e-01, 2.885688543e-01, 
            -1.034747958e-01, -1.207002066e-02, 1.689328998e-01, 
            -2.061321288e-01, 1.954813451e-01, -1.636362672e-01, 
            -1.310891211e-01, 8.349303901e-02, -3.130899370e-01, 
            -1.371219307e-01, -2.269638479e-01, 2.125782669e-01, 
            2.144116312e-01},
        {-3.835924864e-01, -2.132345885e-01, -1.243286356e-01, 
            3.760576844e-01, -1.402287334e-01, -6.869372725e-01, 
            3.287758529e-01, -1.104215607e-01, 7.473921031e-02, 
            1.364130527e-01, 6.829290651e-03, 1.033920720e-01, 
            4.729345739e-01, -3.722264469e-01, 2.673405968e-02, 
            1.621826440e-01, 2.086102962e-01, -1.536107779e+00, 
            3.105595410e-01, -5.856900215e-01, -2.600353956e-02, 
            3.522647917e-01, 4.290773571e-01, -3.939648569e-01, 
            3.052119017e-01, -1.031050552e-02, 1.646496952e-01, 
            -2.925270423e-02, -3.107299805e-01, 2.226047516e-01, 
            2.736668885e-01, 2.629352212e-01, -2.238801569e-01, 
            1.557582170e-01, 2.928881049e-01, 1.387495250e-01, 
            1.823222637e-01, -1.980609149e-01, 2.585663497e-01, 
            -9.706704617e-01, -4.655276239e-02, -4.257996678e-01, 
            -2.538633943e-01, 1.744414121e-01, -1.081544235e-01, 
            -9.572917223e-02, 6.823173165e-02, 2.354897261e-01, 
            6.206602603e-02, 3.326362967e-01, 1.415708810e-01, 
            -3.834470809e-01, -1.371435076e-01, 1.036854908e-01, 
            3.853043914e-01, -3.470091522e-01, 3.862300888e-02, 
            1.469658129e-02, 2.419060022e-01, -2.464757711e-01, 
            3.246077001e-01, -5.449095368e-01, -1.566480249e-01, 
            7.463429868e-02, 1.096186042e-01, -4.558522403e-01, 
            -4.374964833e-01, -1.531706452e-01, 1.754590124e-01, 
            1.734540015e-01, 2.461521327e-01, 1.345557570e-01, 
            -3.956320286e-01, 8.544473350e-02, 1.173275933e-01, 
            3.605126739e-01, 1.720116884e-01, 4.044549763e-01, 
            -4.521899223e-01, 2.039241642e-01, 1.784218550e-01, 
            6.621404290e-01, -4.573657215e-01, 4.222556576e-02, 
            -8.184854984e-01, -1.282761991e-01, -2.491472512e-01, 
            1.132094115e-01, 1.146870106e-01, 1.885589771e-02, 
            -1.123734638e-01, -2.232756652e-02, 1.105011925e-01, 
            -4.767467380e-01, 2.030328810e-01, -1.435888529e+00, 
            -2.412136237e-04, -2.148616165e-01, 2.522179484e-01, 
            4.888740554e-02},
        {7.221501321e-02, 1.131232828e-01, 2.188684940e-01, 
            -3.431900740e-01, -2.062965631e-01, -1.865076125e-01, 
            -3.330267072e-01, -1.617322303e-02, -1.366676241e-01, 
            2.891917229e-01, -6.355085969e-02, 4.730019271e-01, 
            7.747355103e-02, -1.999048330e-02, -3.696738482e-01, 
            -8.048744202e-01, 3.369979560e-02, -8.893481642e-02, 
            -4.314770922e-02, -3.704340756e-01, 5.148146302e-03, 
            1.905015670e-02, 3.416110873e-01, 7.966101170e-02, 
            -1.646333784e-01, 2.232573926e-01, -2.394619733e-01, 
            9.653199464e-02, -1.129123330e+00, -1.681997925e-01, 
            1.572852135e-01, 4.859362841e-01, -2.246785313e-01, 
            1.860917062e-01, 1.345233470e-01, 9.247332811e-02, 
            -2.627249993e-02, -2.359767258e-01, 3.554837704e-01, 
            -4.794375971e-02, -2.189453393e-01, -1.403611898e-01, 
            4.557599872e-02, 3.430258930e-01, -3.233427107e-01, 
            -1.209377348e-01, -2.040295601e-01, -9.836455435e-02, 
            6.930013746e-02, 8.628508449e-02, 5.328500271e-01, 
            3.826937079e-01, -1.753885448e-01, 5.631973147e-01, 
            -4.220748246e-01, -1.604166478e-01, -2.914517820e-01, 
            8.833526820e-02, -5.069107562e-02, -8.058649302e-01, 
            -2.992261052e-01, 1.463592052e-01, -1.548961848e-01, 
            -6.934431195e-01, 9.909545630e-02, -2.367676944e-01, 
            -5.590969324e-01, -1.495280564e-01, 2.187917382e-01, 
            -2.994699217e-02, -1.634812355e-01, -5.191861987e-01, 
            1.158242375e-01, 7.707925141e-02, 2.572232783e-01, 
            1.220947281e-01, 2.499383390e-01, 2.838560045e-01, 
            -9.167549610e-01, 1.005591527e-01, -3.030947968e-02, 
            -3.574995100e-01, -1.987352669e-01, 1.355651021e-01, 
            -8.037192374e-02, 2.400983125e-01, -1.445119679e-01, 
            1.073217764e-01, 2.584628761e-01, -3.272578716e-01, 
            3.559288979e-01, 4.910379350e-01, 1.607147604e-01, 
            -5.198668242e-01, 6.611730903e-02, -1.648963839e-01, 
            4.748735130e-01, -3.336860538e-01, 2.562222779e-01, 
            3.172754943e-01},
        {-1.549905092e-01, -1.174680218e-01, 2.950575650e-01, 
            -2.005835623e-01, -3.384088278e-01, 1.638271958e-01, 
            1.153080985e-01, 1.643204987e-01, -1.479784492e-02, 
            -3.106760979e-02, -2.936687768e-01, -1.330251098e-01, 
            -5.404498801e-02, -4.898845032e-02, -1.249336451e-01, 
            -3.248974979e-01, 1.861736029e-01, 2.886382118e-02, 
            2.189633995e-01, 1.516452879e-01, -1.008317620e-01, 
            -1.287238151e-01, -2.284116894e-01, 9.583663940e-02, 
            -1.246051192e-01, 1.344142109e-01, 2.737390622e-02, 
            2.637606561e-01, -4.094203711e-01, -5.627525970e-03, 
            8.942338079e-02, 1.525180340e-01, -5.852219835e-02, 
            2.098461986e-01, -6.615494937e-02, 1.591863632e-01, 
            1.282559931e-01, -1.473260671e-01, 1.742047369e-01, 
            -2.443139106e-01, -1.420613825e-01, -4.379739761e-01, 
            -2.391695976e-01, -2.191227823e-01, 1.203784049e-01, 
            2.556953728e-01, -1.965353340e-01, -2.417597622e-01, 
            -4.161842763e-01, -3.336362541e-03, 1.905743480e-01, 
            -3.452468216e-01, -3.304997459e-02, -7.338178903e-02, 
            -2.713966668e-01, -1.437150091e-01, 3.021949530e-02, 
            -1.125772670e-01, 1.440653354e-01, -2.008210570e-01, 
            1.325435042e-01, 2.821103334e-01, 3.665401135e-03, 
            -9.194779992e-01, -1.072400883e-01, -1.101962030e-01, 
            -7.285867631e-02, 9.674832225e-02, -2.927823663e-01, 
            -5.650470778e-02, 1.356461644e-01, -1.518349946e-01, 
            -4.625470936e-01, 1.190134510e-01, 1.943111867e-01, 
            2.200385183e-01, -7.849383354e-02, -4.643181711e-02, 
            -4.099739492e-01, 9.777199477e-03, 1.471807361e-01, 
            -5.339324102e-02, 5.403972045e-02, 3.564181551e-02, 
            -3.504422680e-02, 8.776604198e-03, -1.649884135e-01, 
            -3.051816300e-02, -3.600940108e-02, 2.518779971e-02, 
            2.315004021e-01, -4.736541808e-01, 4.027330503e-02, 
            1.321124732e-01, -9.452439100e-02, 1.874082685e-01, 
            1.297037154e-01, 1.461646557e-01, 3.213680163e-02, 
            2.282453924e-01},
        {-8.910050988e-01, 1.346760094e-01, 2.364294231e-01, 
            -3.055047095e-01, -9.971504807e-01, 2.518316507e-01, 
            -2.093849778e-01, 1.464042217e-01, -7.062401772e-01, 
            1.140843183e-01, -9.787344337e-01, 9.281803854e-03, 
            -3.592614233e-01, 4.376617074e-01, -2.812817693e-01, 
            -6.352211833e-01, -2.417030782e-01, -4.130848646e-01, 
            6.457857788e-02, -5.562603474e-01, 3.544244543e-02, 
            -5.462285280e-01, -2.179228514e-01, 1.150969863e-01, 
            2.289988995e-01, -8.062697053e-01, 3.368987516e-02, 
            1.050810888e-01, -6.705771089e-01, 3.693955019e-02, 
            3.357958794e-02, 2.204057723e-01, -3.923653662e-01, 
            2.670898736e-01, 9.190496802e-02, 2.738223672e-01, 
            1.108756512e-01, -8.322185278e-01, -1.039664149e+00, 
            -5.901076198e-01, -1.375442743e+00, -1.511101365e+00, 
            -3.410881758e-01, -3.771254420e-01, 3.245140612e-02, 
            6.470645964e-02, 1.714055389e-01, -5.898075700e-01, 
            -8.461477757e-01, 1.775871813e-01, 4.336547554e-01, 
            -3.352626860e-01, 1.827959865e-01, -9.660216570e-01, 
            -1.466977954e+00, -7.812663317e-01, 9.350860119e-02, 
            -1.806736231e+00, 8.935779333e-02, -1.985302269e-01, 
            -1.990435719e-01, 3.707125485e-01, -4.560706615e-01, 
            -1.184733868e+00, -5.182652473e-01, -4.945478141e-01, 
            9.219466895e-02, 2.784833908e-01, -1.070418835e+00, 
            1.005486026e-01, 1.478490233e-01, 1.109317094e-01, 
            -1.245021224e-01, -1.435783952e-01, -2.691792846e-01, 
            -8.494639397e-02, -2.382588014e-02, -5.655210838e-02, 
            -4.894289374e-01, -1.558406502e-01, 5.681599304e-02, 
            -4.307343066e-01, -7.876585126e-01, 1.548402458e-01, 
            1.767674275e-02, 4.081455767e-01, -5.243352056e-01, 
            -1.957783550e-01, 3.308325633e-02, -1.346837878e+00, 
            2.023822516e-01, -4.087405205e-01, 1.478548199e-01, 
            -1.774751097e-01, -3.721093833e-01, 1.599883437e-01, 
            1.838408262e-01, 1.520785391e-01, 1.182626709e-01, 
            -5.218323469e-01},
        {-7.567572873e-03, 1.669081300e-01, 1.426932123e-02, 
            2.908095419e-01, 3.402434587e-01, 2.474229485e-01, 
            -3.714539707e-01, -1.403876394e-01, 2.280909717e-01, 
            -1.247723177e-01, 5.919482931e-02, 1.032409370e-01, 
            -1.759880036e-01, 1.069441065e-02, 2.257395834e-01, 
            3.113175929e-01, -1.149417385e-01, -7.047335804e-02, 
            -2.761143148e-01, -5.182034895e-02, 2.604479492e-01, 
            -1.346573234e-01, 2.295833677e-01, 6.440047920e-02, 
            -2.105490267e-01, -8.651433140e-02, -1.603725851e-01, 
            -1.432519555e-01, 4.392004013e-01, -8.031978458e-02, 
            7.022583485e-02, -7.286798209e-02, 2.345778048e-01, 
            -2.239851505e-01, 5.482306331e-02, -2.823298573e-01, 
            -9.210333973e-02, 3.250460923e-01, 8.656252176e-02, 
            -3.347555920e-02, 5.633258447e-02, -3.701748550e-01, 
            -1.498166285e-02, -2.374719828e-01, 2.319662869e-01, 
            -2.681497484e-02, 1.646329463e-01, 9.877895564e-02, 
            1.174582615e-01, -1.400964055e-02, -3.015858531e-01, 
            3.011173904e-01, -2.633611262e-01, 5.363111850e-03, 
            3.304269016e-01, 8.526205271e-02, -9.037189186e-02, 
            -1.301942319e-01, -1.768885404e-01, 3.844827414e-01, 
            -2.241287977e-01, -2.570659220e-01, -2.556668222e-01, 
            4.517210424e-01, 4.835898057e-03, 9.704451263e-02, 
            3.039082587e-01, 2.387953252e-01, -1.704256535e-01, 
            -1.617508233e-01, -2.355275154e-01, 1.491768658e-01, 
            -2.140838504e-01, -9.044490755e-02, -5.337011814e-02, 
            3.978464752e-02, -3.233392537e-02, 1.172800586e-01, 
            5.410049558e-01, 1.594907371e-03, -1.021984369e-01, 
            -1.437679678e-01, -2.934233546e-01, -1.687343270e-01, 
            -1.400624961e-02, -2.535883784e-01, 1.925374120e-01, 
            1.922605336e-01, -1.811923832e-01, 1.750441790e-01, 
            1.850043237e-01, 1.789651960e-01, -1.564653665e-01, 
            3.095166087e-01, -1.731217802e-01, -4.236498103e-02, 
            -1.304055303e-01, 3.498287126e-02, -1.158356592e-01, 
            2.849965096e-01},
        {-6.303180456e-01, -1.806310266e-01, 3.507320881e-01, 
            -2.982234657e-01, -7.027746439e-01, 4.914664850e-02, 
            4.813909531e-02, 3.002981544e-01, -1.406983733e-01, 
            -1.214846969e-02, -5.960156322e-01, -5.319826305e-02, 
            -1.279965788e-01, 2.690245509e-01, -2.573408559e-02, 
            -4.537956715e-01, -1.355907917e-01, 6.980442256e-02, 
            -4.019303713e-03, -1.323423088e-01, -1.712078229e-02, 
            -3.830240965e-01, -4.223401248e-01, 1.465981603e-01, 
            5.902952049e-03, 7.722548209e-03, 1.099780202e-01, 
            1.390355229e-01, -7.151911855e-01, -6.085210480e-04, 
            2.924598055e-03, 9.609306604e-02, -3.032515943e-01, 
            7.403866202e-02, -8.246212453e-02, 1.271928847e-01, 
            2.001447529e-01, -4.502881169e-01, -1.612915099e-01, 
            -5.545939133e-02, -4.086407423e-01, -5.236143991e-02, 
            -3.261281252e-01, 5.066917744e-03, 4.940967262e-02, 
            2.629791796e-01, -1.274660677e-01, -6.697790623e-01, 
            -4.819291532e-01, 6.218300015e-02, 2.619784176e-01, 
            -1.223022342e-01, 4.260312021e-01, -4.734078944e-01, 
            -2.566939592e-01, -5.221575499e-01, 7.218588144e-02, 
            -5.995720029e-01, 7.834913582e-02, -4.784094989e-01, 
            1.440521479e-01, 3.184267581e-01, -2.715702355e-01, 
            -6.660273671e-01, -2.227738798e-01, -4.588535428e-01, 
            -1.628103293e-02, 6.392509490e-02, -1.413265765e-01, 
            4.351264536e-01, 5.004049093e-02, -1.572316587e-01, 
            -2.488709241e-01, 1.137702838e-01, -2.026268691e-01, 
            -1.494747251e-01, -2.933917381e-02, -2.081077546e-03, 
            -5.603002906e-01, 1.870208606e-02, 1.605906188e-01, 
            -3.670587018e-02, 4.811453074e-02, -1.725042798e-02, 
            9.910578281e-02, -3.694213927e-02, -4.137319624e-01, 
            -3.221264780e-01, -8.043794334e-02, -2.900372148e-01, 
            3.354101777e-01, -2.516424954e-01, -1.046753600e-01, 
            -3.227265477e-01, -1.057112589e-02, 1.367513835e-01, 
            2.550738752e-01, 3.130025566e-01, -1.886332929e-01, 
            -2.384365499e-01},
        {9.475782514e-02, -2.045063078e-01, 3.305503726e-02, 
            1.486673206e-01, -3.682528734e-01, 2.906986773e-01, 
            2.971943319e-01, -1.016366959e+00, 2.247423381e-01, 
            -2.842558026e-01, -1.816764474e-01, 5.751459599e-01, 
            1.405265927e-01, -2.682772279e-01, -7.551022768e-01, 
            -4.604986608e-01, 3.488210961e-02, -1.407530997e-02, 
            -1.219590157e-01, -7.227807641e-01, -9.517286718e-02, 
            -2.984755635e-01, -1.033239603e+00, -9.898653626e-02, 
            2.073383033e-01, 5.456719398e-01, -1.302464604e+00, 
            7.507041842e-02, -4.817093015e-01, -2.186957449e-01, 
            4.996543005e-02, 2.211543769e-01, 1.411997825e-01, 
            -9.609395266e-01, -8.719041348e-01, -1.760253161e-01, 
            1.853539795e-01, -4.251197278e-01, 1.176954433e-01, 
            9.654121846e-02, -2.576339245e+00, 6.632626802e-02, 
            1.552253366e-01, 4.575079083e-01, -2.458587736e-01, 
            -1.976906508e-02, 3.793082386e-02, 1.114987284e-01, 
            3.888704777e-01, -4.409590662e-01, 2.806492709e-02, 
            -1.080272160e-02, -6.189525127e-01, 4.392742813e-01, 
            -1.349440455e+00, 8.115360886e-02, -1.123161539e-01, 
            -4.224738181e-01, -3.603488207e-01, 1.592059135e-01, 
            -4.376454055e-01, 1.520702839e-01, -6.516634822e-01, 
            -5.117295980e-01, 3.946458399e-01, 2.059646100e-01, 
            2.350514680e-01, -2.081909180e-01, 5.693091452e-02, 
            -2.011591569e-02, -1.400014520e+00, 2.484289259e-01, 
            2.620387375e-01, 8.853071183e-02, -1.192521956e-02, 
            -2.236692160e-01, 1.241851971e-01, -4.632207453e-01, 
            -3.682083786e-01, -4.535436630e-01, -2.350425422e-01, 
            -5.207467675e-01, -2.823158503e+00, -1.198919192e-01, 
            -8.875245601e-02, 2.792162262e-02, -4.244590402e-01, 
            -1.299980879e+00, -5.789991841e-02, -2.425410002e-01, 
            5.035610124e-02, -2.798235118e-01, 1.464876235e-01, 
            2.331861556e-01, 3.614351451e-01, -1.527992934e-01, 
            2.703572214e-01, 1.445804387e-01, -1.115879640e-01, 
            5.486986041e-01},
        {2.022004575e-01, -1.296768337e-01, -3.454937637e-01, 
            -3.740772838e-03, -3.457979560e-01, -8.613938838e-02, 
            -3.632321656e-01, -3.337085545e-01, 6.023365632e-02, 
            -8.490014821e-02, -3.338408768e-01, -3.466904759e-01, 
            -2.562188804e-01, -1.481180787e-01, 4.963409603e-01, 
            1.045938209e-01, 1.049360111e-01, -5.376970768e-01, 
            -3.872239217e-02, -7.867479920e-01, -9.842544794e-02, 
            -2.371946350e-02, -1.059299186e-01, 3.446749747e-01, 
            9.122652560e-02, 5.854908824e-01, 1.356392801e-01, 
            2.332093120e-01, 1.843590103e-02, -2.001643628e-01, 
            3.360749781e-02, -3.178948537e-02, 3.238626942e-02, 
            -1.481816322e-01, 4.646077007e-02, -8.468058705e-02, 
            -9.925457835e-02, -6.984224916e-02, 1.616990939e-02, 
            -1.350172162e-01, 2.036850154e-01, -3.140854836e-01, 
            -1.084855720e-01, 9.623470157e-02, 4.061484933e-01, 
            3.377409279e-01, 3.983081505e-02, -2.194205970e-01, 
            -9.733325243e-02, -2.288434952e-01, -2.988591790e-01, 
            -2.347541302e-01, 1.223770529e-01, 3.183354437e-01, 
            6.539027691e-01, 2.229829133e-01, -1.965626478e-01, 
            1.967340559e-01, 2.073339932e-02, -8.957415074e-02, 
            5.754777044e-02, 6.865874678e-02, -3.491287827e-01, 
            4.944489002e-01, -4.267225266e-01, 1.405345052e-01, 
            4.458532035e-01, -2.602848113e-01, 2.405105978e-01, 
            -2.824091315e-01, 5.706242844e-02, 2.876511216e-01, 
            -8.482866287e-01, 1.063927710e-01, -2.194784116e-03, 
            -5.091625080e-02, -8.958527446e-02, 4.013870656e-01, 
            -2.086569518e-01, 4.953866452e-02, -1.981787384e-01, 
            3.885709494e-02, -8.411432505e-01, -4.194784909e-02, 
            -2.215459049e-01, -2.515567839e-01, 9.062991478e-03, 
            1.022295430e-01, 3.073126450e-02, 2.497745603e-01, 
            -1.641558707e-01, -9.022052586e-02, -4.193104208e-01, 
            -1.070915088e-01, -5.124279857e-02, 3.561641648e-02, 
            -5.338493586e-01, 2.488521338e-01, -3.202188909e-01, 
            2.145181596e-02},
        {-8.828991055e-01, -2.648701072e-01, -1.354960918e+00, 
            8.865339160e-01, 1.118448935e-02, -2.137743384e-01, 
            3.059131503e-01, 1.471680552e-01, 8.905873895e-01, 
            3.090249300e-01, 3.451345116e-02, 1.197022796e-01, 
            -1.067218259e-01, 1.167493314e-02, 1.335555613e-01, 
            4.627147224e-03, -1.944528967e-01, 1.749880910e-01, 
            2.128326744e-01, -9.089572430e-01, -2.519111037e-01, 
            -8.305297792e-02, -9.108803421e-02, -8.759099245e-01, 
            7.438602298e-02, 2.426437289e-01, 2.255138457e-01, 
            -7.175525427e-01, -1.418610215e-01, 1.537553966e-01, 
            -6.902213693e-01, 1.750567853e-01, -3.996361494e-01, 
            -6.213906221e-03, -1.395284198e-02, 1.966435164e-01, 
            -2.277322412e-01, -5.366500467e-02, 1.674009115e-01, 
            1.513788663e-02, 1.669379920e-01, 1.491948664e-01, 
            -1.768919826e-01, -4.507615045e-02, 5.901913047e-01, 
            -1.648981452e+00, 1.788096279e-01, -4.305644035e-01, 
            -1.731173396e-01, -3.518137932e-01, 3.556661904e-01, 
            -3.564291596e-01, 7.442144305e-02, -2.198725939e-01, 
            2.205201657e-03, -2.778853476e-01, 3.795864582e-01, 
            8.617988974e-02, 1.566265821e-01, -4.322372377e-02, 
            2.675577998e-01, 2.950054109e-01, 2.392028868e-01, 
            7.121741772e-02, -6.325936913e-01, -4.254336655e-01, 
            9.914686903e-03, -1.645191461e-01, 1.817337126e-01, 
            2.377602905e-01, 1.766673177e-01, 5.189977214e-02, 
            2.869640887e-01, -2.236679941e-01, -3.172094226e-01, 
            -1.901824325e-01, -1.593211591e-01, 3.140533864e-01, 
            -4.331709445e-01, -3.456914723e-01, 2.188211381e-01, 
            3.486401439e-01, 4.728599265e-02, 7.077301294e-02, 
            -4.519521296e-01, -6.177048385e-02, -3.645423055e-01, 
            6.518547982e-02, -4.306488931e-01, -2.350861728e-01, 
            -8.523030877e-01, -1.553003937e-01, -1.395865530e-02, 
            -3.365860581e-01, -6.152683496e-02, 9.839270264e-02, 
            8.728599548e-02, -2.299685031e-01, 2.857898474e-01, 
            1.745738238e-01},
        {2.907828093e-01, 2.251989953e-02, -1.537493765e-01, 
            -7.680623233e-02, -1.275782567e-02, 1.217201427e-01, 
            -7.392486185e-02, -1.232878715e-01, -1.123060659e-01, 
            -3.992016912e-01, 2.530954480e-01, 4.097499698e-02, 
            -2.306514978e-01, -1.917402446e-02, 3.255774081e-01, 
            -5.192800239e-02, -2.625367343e-01, 8.354578912e-02, 
            -2.556931786e-02, -1.633055322e-02, 1.369690988e-03, 
            -1.794070601e-01, 2.425327003e-01, -6.695223041e-03, 
            -2.717424929e-01, -2.805117667e-01, -1.749276817e-01, 
            -2.031508237e-01, -3.467802331e-02, -4.589769989e-02, 
            -9.612891078e-02, -3.472073078e-01, -9.211885929e-02, 
            9.866765887e-02, -6.185169518e-02, -2.668939531e-01, 
            -1.592447758e-01, 1.278279256e-02, -2.651091516e-01, 
            3.404143751e-01, 5.221390724e-02, 1.743873358e-01, 
            -2.768235207e-01, -5.757935718e-02, 1.113920361e-01, 
            1.159304604e-01, 2.015845627e-01, 2.200579196e-01, 
            -4.715073481e-02, -1.221891791e-01, -1.310932636e-01, 
            7.961973548e-02, -9.783086367e-03, -2.427425832e-01, 
            1.983724535e-01, 1.988096833e-01, 1.645634300e-03, 
            1.135744229e-01, -1.661458611e-01, 1.045697480e-01, 
            -2.302734852e-01, 1.075630188e-01, 1.971445084e-01, 
            2.153423131e-01, -8.422069252e-02, 3.101520836e-01, 
            1.198481694e-01, -5.011399463e-02, -2.061380297e-01, 
            2.108336538e-01, 7.011959702e-02, 2.558285296e-01, 
            3.117408454e-01, -8.995331079e-02, 5.334975943e-02, 
            -2.757553458e-01, -2.338871807e-01, -1.024735942e-01, 
            1.261965185e-01, -4.967041314e-03, -2.764148414e-01, 
            -1.658257395e-01, 4.189090729e-01, -3.001629710e-01, 
            1.234697327e-01, -2.825613916e-01, 1.137728021e-01, 
            1.654616743e-01, 4.571405798e-02, 2.888114750e-01, 
            -5.459476262e-02, 3.197420835e-01, -3.247366250e-01, 
            1.828973293e-01, -2.390556186e-01, 1.087621897e-01, 
            -2.933877110e-01, -5.578893796e-02, -2.438256145e-01, 
            -4.994968772e-01},
        {1.056726556e-02, 9.272545576e-02, 1.353580058e-01, 
            3.272168338e-01, 1.910416782e-01, 9.018941969e-02, 
            -1.069665030e-01, -3.962707818e-01, 2.122862637e-01, 
            -2.904466689e-01, -1.564435661e-01, -2.349134535e-03, 
            -1.956914365e-01, 1.943731159e-01, -1.696402133e-01, 
            1.467698365e-01, -1.105029508e-01, 2.432247102e-01, 
            -1.538091302e-01, 6.364130974e-02, 2.130387425e-01, 
            -2.074434757e-01, -1.711452305e-01, -2.755216360e-01, 
            -1.195659637e-01, 2.725800872e-01, -3.266851604e-01, 
            2.388896421e-02, -2.175553516e-02, -2.050543725e-01, 
            -2.111861669e-02, -2.532885969e-01, 1.160773262e-01, 
            -1.951644272e-01, -4.321134984e-01, -3.248734027e-02, 
            -6.143925712e-02, -7.872502506e-02, -1.152505800e-01, 
            1.116853803e-01, 1.458774060e-01, -6.193237379e-02, 
            5.511181802e-02, -6.952632219e-02, 6.727658957e-02, 
            9.579535574e-02, -1.341098100e-01, 1.031134054e-01, 
            2.743882239e-01, 5.117407441e-02, -1.568930596e-01, 
            9.960031509e-02, -6.458727121e-01, 2.200676650e-01, 
            9.181956947e-02, 2.104533166e-01, 6.604423374e-02, 
            -9.698540717e-02, -2.693003118e-01, 1.006439626e-01, 
            -3.183673620e-01, -3.537824377e-02, -2.104636654e-02, 
            1.712499857e-01, 4.348502159e-01, 8.234985918e-02, 
            -7.096733153e-02, 8.194635808e-02, 6.800217088e-03, 
            9.826707095e-02, 6.869852543e-02, -1.932880878e-01, 
            -7.818672061e-02, -1.898411289e-02, 7.903727703e-03, 
            -2.750400603e-01, -1.724336594e-01, -3.457215726e-01, 
            9.902200848e-02, 1.899473071e-01, -1.022503078e-01, 
            -3.082846664e-02, -3.281887770e-01, -1.352564842e-01, 
            -2.541300282e-02, -2.086746991e-01, 3.620618284e-01, 
            -2.226915509e-01, -1.766154170e-01, -2.420025915e-01, 
            -1.681882655e-03, -7.125290111e-03, -1.271315217e-01, 
            1.366984844e-01, 2.513625659e-02, -2.270150557e-02, 
            -2.514626384e-01, -5.926522613e-02, -1.967032999e-01, 
            1.841516644e-01},
        {-2.465572394e-02, 2.778736055e-01, -1.602788717e-01, 
            -1.942211837e-01, -1.193430945e-01, 1.248304397e-01, 
            -4.066630304e-01, 1.795972139e-02, -6.475559473e-01, 
            -1.088281721e-01, 1.320007294e-01, -6.384784728e-02, 
            -1.420681328e-01, 3.266159445e-02, 3.038825393e-01, 
            -1.628059149e-01, -2.297143340e-01, 2.115126848e-01, 
            -2.823695838e-01, 2.734361589e-01, -1.387380958e-01, 
            -2.912746929e-02, 1.583815366e-01, 1.903312057e-01, 
            -1.241971925e-01, 9.446058422e-02, -2.500579655e-01, 
            9.363482893e-02, 1.728535444e-01, -2.451464385e-01, 
            1.387095749e-01, -4.095798433e-01, 7.583259791e-02, 
            -8.897573501e-02, 2.559269965e-02, -1.387221664e-01, 
            -2.865741551e-01, 1.434930712e-01, 3.668430075e-02, 
            1.750310808e-01, 6.800077856e-02, -1.045404896e-01, 
            -2.723526955e-01, -3.652224541e-01, 5.929030851e-02, 
            -3.102585487e-02, 2.228836119e-01, -7.167640328e-02, 
            -3.662706614e-01, -1.537287533e-01, 3.428002447e-02, 
            9.865278751e-02, 3.494237363e-01, -3.050538301e-01, 
            1.357330829e-01, -1.604395956e-01, -4.010811150e-01, 
            3.603703678e-01, -7.955601066e-02, 3.958417773e-01, 
            -2.034062743e-01, -9.488354623e-02, -1.343602985e-01, 
            5.137262344e-01, -2.372464985e-01, 6.671645492e-02, 
            1.908658892e-01, 1.363886613e-02, -8.261153847e-02, 
            2.671214566e-02, -2.192463428e-01, 4.238300398e-02, 
            7.441385835e-02, 1.284124404e-01, -2.420810163e-01, 
            -6.325586140e-02, -1.791726351e-01, 1.874768287e-01, 
            1.594890505e-01, -3.417812884e-01, -2.972659767e-01, 
            -1.440524459e-01, 3.161343038e-01, 3.712391853e-02, 
            4.247506857e-01, -2.723413408e-01, -1.927905381e-01, 
            4.519598484e-01, 3.124171123e-02, 3.586839139e-01, 
            4.675263166e-02, -3.169442117e-01, -3.647225797e-01, 
            -3.323811339e-03, -1.317982972e-01, 1.845416874e-01, 
            -6.546740234e-02, 5.736320093e-02, -5.000001788e-01, 
            -1.666848660e-01},
        {2.907198966e-01, -7.250225544e-02, -5.377425551e-01, 
            3.108208813e-02, 3.460279107e-01, -3.051138222e-01, 
            -2.858200967e-01, -1.950501949e-01, -9.141265601e-02, 
            -5.246180892e-01, 7.261335850e-01, -5.662090331e-02, 
            -1.496541202e-01, 4.042669535e-01, 2.153911740e-01, 
            -4.568397105e-01, -4.005542994e-01, -8.045946062e-02, 
            -9.663428068e-01, -2.906008959e-01, -5.783171952e-02, 
            -6.020038724e-01, -8.024942130e-02, 9.623364210e-01, 
            1.241087317e-01, 4.165399373e-01, -1.288250923e+00, 
            3.447057903e-01, 5.479463842e-03, -9.595729709e-01, 
            2.211453617e-01, -5.410355926e-01, -2.685504854e-01, 
            -9.074768424e-01, -4.827329516e-01, -1.031500697e+00, 
            -7.571707945e-03, 9.773440659e-02, 1.139026880e-01, 
            4.201882184e-01, -1.248800874e+00, 3.546655476e-01, 
            -1.664835215e-01, 8.133376390e-02, 1.591694914e-02, 
            1.012197211e-01, -1.462668031e-01, -2.374861240e-01, 
            4.214102626e-01, -1.271255612e+00, -1.631996036e-01, 
            2.519639730e-01, 2.886059461e-03, 3.092841804e-02, 
            1.660571061e-02, 1.172842458e-01, -6.700466871e-01, 
            -2.647451460e-01, -4.558534920e-01, 2.044886202e-01, 
            -7.185440660e-01, 6.158325076e-01, 2.585877776e-01, 
            1.505558789e-01, -2.867978811e-01, 1.556840446e-02, 
            3.141166568e-01, 3.049739003e-01, 3.088000715e-01, 
            1.422200501e-01, -1.260115147e+00, 2.334731817e-01, 
            -2.104829252e-02, 5.167445540e-01, -3.228416443e-01, 
            -6.132478714e-01, 9.331163019e-02, -8.692201972e-01, 
            2.687485814e-01, -8.014738560e-01, -7.534250021e-01, 
            -1.868740320e-01, -3.102566898e-01, 2.570988834e-01, 
            4.238357842e-01, -1.337602288e-01, -1.394762248e-01, 
            -6.971445084e-01, -4.135404229e-01, 7.850002497e-02, 
            5.812634230e-01, 2.351661772e-01, -3.510414660e-01, 
            -1.397584230e-01, 9.742920101e-02, -3.147576749e-02, 
            2.505320907e-01, -5.427202210e-02, -3.855780661e-01, 
            3.870896697e-01},
        {1.606777906e-01, 1.847488880e-01, 1.543048471e-01, 
            9.350587428e-02, -1.667571627e-02, 3.574117124e-01, 
            -3.460421562e-01, -1.623758674e-01, -2.769349515e-02, 
            -3.457593322e-01, -6.159825251e-02, -1.097358465e-01, 
            -3.241062164e-01, 1.052568108e-01, 1.766423136e-02, 
            3.085669503e-02, -2.379840463e-01, -1.157689542e-01, 
            2.038405463e-02, 1.021655351e-01, -1.326817460e-02, 
            -9.228033572e-02, -5.525753275e-02, 1.918745041e-02, 
            6.527278572e-02, -2.401963323e-01, 8.803603053e-02, 
            -1.013288833e-02, -5.300555378e-02, -2.668978870e-01, 
            -3.101388924e-02, -4.116276205e-01, 2.431895733e-01, 
            -1.523336489e-02, -3.464111984e-01, -1.774145290e-02, 
            -2.191667706e-01, -1.353248060e-01, -3.171061277e-01, 
            -3.071883321e-01, 4.618665576e-01, -3.641673028e-01, 
            -4.252766371e-01, -3.646844625e-01, 2.188200206e-01, 
            6.754921377e-02, -1.205124240e-02, 2.204722613e-01, 
            3.021748960e-01, -3.567128181e-01, -2.649013139e-02, 
            1.890231818e-01, 6.503170729e-02, 6.504134089e-02, 
            2.824455798e-01, 2.401497960e-01, 1.776476949e-01, 
            3.619961143e-01, -7.323168963e-02, 2.569653392e-01, 
            -2.559497356e-01, 5.543350056e-02, -1.249135062e-01, 
            7.723798603e-02, -1.496381462e-01, 4.752933681e-01, 
            2.094763964e-01, 1.840338260e-01, -1.150418669e-01, 
            2.907058895e-01, -2.117620260e-01, 1.438578367e-01, 
            -3.329454660e-01, 1.454400718e-01, -1.006478190e+00, 
            -3.941441476e-01, -3.102610409e-01, -6.959499717e-01, 
            -3.388971463e-02, -5.645040870e-01, -8.890191466e-02, 
            -2.879099846e-01, 4.306300730e-02, -8.346869051e-02, 
            1.799117327e-01, 7.988887280e-02, 3.821805418e-01, 
            3.988384083e-02, -5.366577581e-02, 4.296411276e-01, 
            -1.911426634e-01, 4.371478781e-02, -3.019798398e-01, 
            7.136369497e-02, -4.690733254e-01, 4.070081562e-02, 
            -2.487152368e-01, 9.640710056e-02, -7.423608303e-01, 
            -4.844364822e-01},
        {8.775066584e-03, -3.233132958e-01, 4.991741478e-02, 
            1.074888483e-01, 2.668682635e-01, 4.133911431e-02, 
            3.608898520e-01, -6.651489735e-01, 1.873491257e-01, 
            -4.053006470e-01, 4.672447592e-02, -2.198652327e-01, 
            4.793825373e-02, -8.028507978e-02, -3.693994880e-01, 
            -5.724658445e-02, -3.961772621e-01, -6.161640957e-02, 
            -4.609205425e-01, -2.504414320e-01, 8.082410693e-02, 
            -3.624099195e-01, 1.022509187e-01, -4.498231411e-01, 
            2.335885018e-01, 5.301072001e-01, -7.560755014e-01, 
            -8.411180973e-02, -5.121447891e-02, -3.260279447e-02, 
            -2.083101273e-01, -3.274879605e-02, 2.037265152e-02, 
            -1.038061261e+00, -8.352783918e-01, -9.714255333e-01, 
            2.035794556e-01, 9.856793284e-02, 3.093857467e-01, 
            1.118114516e-01, 3.276566267e-01, 5.744206905e-02, 
            3.064856529e-01, 1.003429592e-01, -2.646859037e-03, 
            3.235177696e-01, 5.315865204e-02, -1.685888767e-01, 
            -4.703312740e-02, -9.715300202e-01, -9.993904829e-02, 
            -2.643222809e-01, -6.976260990e-02, 3.745713830e-01, 
            -3.063121736e-01, -1.621989161e-02, -2.292323411e-01, 
            2.935833037e-01, -5.436237454e-01, 1.528026313e-01, 
            -4.205102026e-01, -8.747814298e-01, -7.809494855e-05, 
            1.752773486e-02, 9.294131398e-02, 2.166785449e-01, 
            1.152883470e-01, -1.568900608e-02, 1.027253494e-01, 
            5.343033671e-01, -1.155973792e+00, 1.265215427e-01, 
            6.112459302e-01, 2.944741845e-01, -3.999893069e-01, 
            -1.922531128e-01, 3.105166554e-01, -1.204278111e+00, 
            2.120699435e-01, -4.096119702e-01, -6.374974251e-01, 
            -3.160991967e-01, -2.063908875e-01, -7.119945884e-01, 
            -7.968053967e-02, -4.503418803e-01, -1.972181350e-01, 
            -2.755390704e-01, -4.943481684e-01, -5.114312172e-01, 
            -1.042747288e-03, -1.358995885e-01, -6.860995889e-01, 
            2.315914072e-02, 9.355504811e-02, -1.335775852e-01, 
            3.988718688e-01, 1.160697192e-01, -7.027701139e-01, 
            7.334154844e-01},
        {9.133530408e-02, -4.144186527e-02, 1.484024376e-01, 
            1.625913777e-03, -1.302992553e-01, 3.951501846e-02, 
            3.347042203e-02, 9.423900396e-02, -2.180498540e-01, 
            -1.404931694e-01, 8.215314150e-02, 1.661102325e-01, 
            1.383226663e-01, -2.009540983e-02, -1.768145561e-01, 
            2.731628902e-02, 5.260862783e-02, 2.875171304e-01, 
            -9.779515117e-02, -1.890980303e-01, 2.461777180e-01, 
            1.961513981e-02, 5.026750639e-02, 2.553622723e-01, 
            -4.354884103e-02, 2.809067965e-01, -1.631813645e-01, 
            2.365192771e-01, -1.018696278e-01, -2.171491683e-01, 
            2.382883132e-01, -5.927347019e-02, 5.752612278e-02, 
            4.851159453e-02, 9.676350281e-03, -1.193201989e-01, 
            5.402241647e-02, -3.223748505e-01, -1.652484387e-02, 
            1.459689438e-01, -9.684358835e-01, 2.775534391e-01, 
            -4.168383479e-01, 2.512244284e-01, 1.662463248e-01, 
            3.464951217e-01, 1.124060005e-01, -2.786785066e-01, 
            2.571107261e-02, 2.410538644e-01, 4.974533245e-02, 
            4.229225218e-02, 2.609435283e-02, -9.407775104e-02, 
            -5.611633062e-01, 7.631861418e-02, 8.259494603e-02, 
            -1.020310402e+00, 2.790342271e-02, 9.493306279e-02, 
            -1.822335869e-01, -2.800243199e-01, -5.312489867e-01, 
            -4.721575677e-01, -1.349521577e-01, 1.162355393e-01, 
            -8.882286400e-02, 2.470674664e-01, 4.835378006e-02, 
            1.599710137e-01, -2.334072627e-02, -4.067286849e-02, 
            -1.589281410e-01, -6.245429069e-02, 1.113947853e-01, 
            -1.387084424e-01, 2.033990920e-01, -2.040393651e-01, 
            -2.887888551e-01, 7.679570466e-02, 3.465435654e-02, 
            -5.633232594e-01, -7.517536283e-01, -5.940323696e-02, 
            -1.288340390e-01, -1.261003222e-02, -1.700260676e-02, 
            -3.989620805e-01, 2.419473678e-01, -4.606159627e-01, 
            8.224409819e-02, -5.310376734e-02, 1.842400432e-01, 
            2.484568208e-01, 1.524598747e-01, 1.928701252e-01, 
            2.975336313e-01, -1.978117786e-02, -9.366337210e-02, 
            -1.470236927e-01},
        {-8.062210679e-02, 3.612609804e-01, 1.013317853e-01, 
            3.769164681e-01, 1.399851292e-01, 1.653808355e-01, 
            -3.525927961e-01, -1.932217032e-01, 5.325734615e-02, 
            1.808601469e-01, 2.590902448e-01, 2.698646486e-01, 
            -3.387362957e-01, -1.596536487e-01, -2.017341107e-01, 
            -2.781491959e-03, -3.152167201e-01, -1.173744574e-01, 
            -2.613571584e-01, 2.400587797e-01, 2.553809881e-01, 
            -1.340827346e-01, 4.931930006e-01, -3.577730432e-02, 
            -5.733726025e-01, -7.114213705e-02, 8.020064235e-02, 
            -2.581107318e-01, 1.246983558e-01, -1.303995997e-01, 
            -1.606717259e-01, 1.491646022e-01, 1.858367473e-01, 
            4.144315049e-02, -1.930165589e-01, 1.291794032e-01, 
            -1.479232162e-01, -9.471211582e-02, -1.989418268e-01, 
            4.184269905e-02, -1.090915501e-01, -3.711730838e-01, 
            2.948072255e-01, -2.025815099e-02, 1.380050033e-01, 
            5.287405103e-02, 4.155675769e-01, 3.439788520e-01, 
            2.698134482e-01, 1.649672687e-01, 2.381743304e-02, 
            4.323920608e-01, -3.411761522e-01, -1.261064261e-01, 
            -2.724930048e-01, 1.716274619e-01, 1.763587631e-02, 
            -3.137195706e-01, -3.734469041e-02, 4.481052756e-01, 
            -1.249864250e-01, -2.158704549e-01, 7.693188637e-02, 
            -1.829087883e-01, 3.086752892e-01, 6.631191820e-02, 
            1.974326074e-01, 2.839330733e-01, -1.290916502e-01, 
            -1.050833687e-01, 4.592546448e-02, 2.638902664e-01, 
            -1.018986329e-01, -2.815919518e-01, -5.614693463e-02, 
            -1.938501559e-02, -1.513427347e-01, 1.915368289e-01, 
            2.607659101e-01, -7.434843481e-02, -2.207922041e-01, 
            -1.350378990e-01, -4.755492881e-02, -2.756739855e-01, 
            3.313646317e-01, -1.120462492e-01, 4.146769643e-02, 
            1.768534482e-01, -1.167074665e-01, -2.921915054e-01, 
            -6.838939339e-02, 3.331038356e-01, -6.821116433e-03, 
            4.412746429e-02, -2.991385758e-01, 3.867910430e-02, 
            -6.486579776e-02, 8.223928511e-02, 1.275900286e-02, 
            3.448893130e-01},
        {-1.697915606e-02, 2.169665098e-01, 6.066097692e-02, 
            -1.745008677e-01, -2.324619144e-01, 6.067267060e-02, 
            -1.941819862e-02, 9.804038703e-02, -1.173451021e-01, 
            9.404569864e-03, -1.747447401e-01, 1.741340905e-01, 
            1.271337718e-01, 1.095945388e-01, -6.433997750e-01, 
            -5.388503075e-01, 1.801916063e-01, -3.784566373e-02, 
            -5.483883247e-02, -1.497629192e-02, 2.581270933e-01, 
            1.053571925e-01, 3.132483065e-01, 5.965571851e-02, 
            -1.265397519e-01, -5.748346820e-02, 2.088692486e-01, 
            2.171525657e-01, -6.612636447e-01, 1.704691499e-01, 
            1.744337380e-01, 1.151803657e-01, -1.502076834e-01, 
            8.603051305e-02, 1.143691465e-01, 1.529510468e-01, 
            1.590427756e-01, -6.915081143e-01, 1.670099050e-01, 
            -6.932851672e-02, 4.342640191e-02, -2.666560113e-01, 
            -1.318412721e-01, 2.151045650e-01, -3.525706828e-01, 
            9.795423597e-02, 2.958419323e-01, -1.818572134e-01, 
            1.709878147e-01, 2.291588932e-01, -3.056467045e-03, 
            2.648425400e-01, -3.711346686e-01, 2.915870547e-01, 
            -6.964326501e-01, 4.094628096e-01, -1.054914668e-01, 
            1.285683513e-01, 1.095665097e-01, -4.247603118e-01, 
            -1.464404911e-01, 2.403489947e-01, 1.520294249e-01, 
            -7.692932487e-01, 7.142869830e-01, -1.273783743e-01, 
            -9.881425649e-03, 1.327117085e-01, -3.100581765e-01, 
            -1.614709049e-01, -1.574070603e-01, 1.374881864e-01, 
            1.660390347e-01, -1.671290956e-02, 5.421758816e-02, 
            2.890034765e-02, 9.430833161e-02, -7.390414923e-02, 
            -8.392617106e-01, 2.318103313e-01, 6.261229515e-02, 
            -4.460100830e-01, -6.924927235e-01, 1.411312670e-01, 
            7.544953376e-02, 4.416931421e-03, 3.049036860e-01, 
            8.002883941e-02, 3.547428921e-02, -8.762069792e-02, 
            2.127985805e-01, 4.238888621e-02, 1.529675573e-01, 
            -4.825314507e-02, 1.022647545e-01, -5.719998106e-02, 
            -1.503879875e-01, -3.545093536e-02, -4.930578545e-02, 
            1.037210226e-01},
        {7.050552964e-02, 4.226138443e-02, 8.568529040e-02, 
            -3.511871994e-01, -1.946110278e-01, -2.289416045e-01, 
            -8.306664973e-02, 1.297518015e-01, -4.619892538e-01, 
            3.632371128e-01, -2.786053419e-01, 3.771398216e-02, 
            3.914159164e-02, 1.090503037e-01, -4.934621602e-02, 
            -2.521518767e-01, 1.935375109e-02, -4.470942318e-01, 
            -1.826846600e-02, -2.683316171e-01, -1.286453158e-01, 
            -2.439433336e-02, -3.393696621e-03, 6.227346659e-01, 
            1.383533478e-01, -5.214157049e-03, 2.518320084e-01, 
            1.609454602e-01, -4.332149923e-01, -1.842211233e-03, 
            2.059068680e-01, 2.492849976e-01, -1.945811808e-01, 
            5.777334422e-02, 2.325866371e-01, 2.692534029e-01, 
            1.312896907e-01, -4.556534588e-01, 1.172760800e-01, 
            -3.488480151e-01, -3.626718223e-01, -4.632515460e-02, 
            -2.462056698e-03, 1.014617234e-01, -2.455330938e-01, 
            -3.148721755e-01, 2.995853126e-01, -2.834948003e-01, 
            5.933054537e-02, 1.187569126e-01, 2.414769679e-01, 
            -1.589895189e-01, 8.458620310e-02, 5.349948406e-01, 
            -5.277177095e-01, 1.226502564e-02, 1.959883571e-01, 
            -3.674096614e-02, 6.724351645e-02, -4.447326660e-01, 
            -8.774855174e-03, 6.036984921e-01, -3.169443905e-01, 
            -3.185654283e-01, 9.706483781e-02, -4.122487307e-01, 
            -6.125525832e-01, 1.653745398e-02, -3.862860501e-01, 
            -4.040373266e-01, 2.489599138e-01, 6.348594278e-02, 
            -9.638591856e-02, 1.333984882e-01, 9.714682400e-02, 
