#include "nn_params.h"

const unsigned short LAYER_DIMS[] = {
    5, 100, 100, 100, 100, 2
};

const Layer LAYER_TYPES[] = {
    DENSE, SOFTPLUS, DENSE, SOFTPLUS, DENSE, SOFTPLUS, DENSE, SOFTPLUS, DENSE, TANH
};

const float STATE_BIAS[NUM_STATE_VARS] = {
    -7.290470864e-03, 0.000000000e+00, 8.843960909e-03, 
        0.000000000e+00, 0.000000000e+00  
};

const float INPUT_SCALER_PARAMS[2][NUM_STATE_VARS] = {
    {5.443935367e-03, -3.033234667e-03, 4.349294509e-01, 
        1.990146934e-01, -6.559776723e-04},
    {3.609147198e+00, 2.680498545e+00, 3.576341606e+00, 
        2.631996060e+00, 4.408049966e-01}
};

const float OUTPUT_SCALER_PARAMS[4][NUM_CONTROL_VARS] = {
    {-1.838037239e-01, 4.433946998e-02},
    {3.356788837e-01, 4.005422286e-02},
    {1.527338921e+00, 1.342420270e+00},
    {3.713693056e+00, 1.115321900e-03}
};

const float BIASES[NUM_DENSE_LAYERS][MAX_LAYER_DIMS] = {
    {1.392971873e-01, 1.045993119e-01, -9.048122168e-02, 
        -2.103695273e-01, -1.773206145e-01, -9.888280183e-02, 
        1.263348579e+00, 2.246840298e-02, -1.940852106e-01, 
        2.268560380e-01, -6.260905415e-02, 7.278449833e-02, 
        4.436201975e-02, -1.136937216e-01, 4.621032774e-01, 
        -2.839086056e-01, 2.171026357e-02, 5.739662647e-01, 
        1.078854427e-01, -2.453054674e-02, -2.078286558e-01, 
        1.081609502e-01, 6.104062200e-01, 5.918668956e-02, 
        -1.178383641e-02, 3.509695828e-01, -6.559574604e-02, 
        -2.475110441e-02, 6.810194850e-01, -2.480399758e-01, 
        -6.975645423e-01, -2.060420662e-01, 2.348432243e-01, 
        1.521134842e-02, -6.870283484e-01, -3.143772110e-02, 
        7.076494098e-01, 1.448501647e-01, 5.553414226e-01, 
        -3.008318543e-01, -4.339384660e-02, 1.575734168e-01, 
        8.153831959e-02, -5.282511469e-03, 2.689085305e-01, 
        3.113183938e-02, 6.682878733e-02, -4.339129105e-02, 
        -2.762784250e-02, -8.173222840e-02, 6.048493460e-02, 
        1.355799884e-01, 9.492708743e-02, -2.725378275e-01, 
        -5.237160921e-01, -8.294240385e-02, 1.097953841e-01, 
        -5.182274058e-02, 1.242333055e-01, -6.217208132e-02, 
        -6.233611703e-02, -6.426655650e-01, 8.375574648e-02, 
        -2.375734895e-01, 4.889795184e-01, 9.418774396e-02, 
        9.976186790e-03, 4.483442754e-02, -9.162465483e-02, 
        5.735865235e-02, 9.647469968e-02, 3.411449492e-02, 
        1.826809049e-01, 8.007550240e-02, 4.626554623e-02, 
        1.531267166e-01, 1.072652787e-01, 3.997149765e-01, 
        -6.747494638e-02, 9.469336271e-02, 7.861425728e-02, 
        -1.418993026e-01, 9.329947829e-02, 1.329508424e-01, 
        -2.018450350e-01, 4.198496044e-02, -4.753541201e-02, 
        -5.255822539e-01, -3.287287652e-01, 9.703134187e-03, 
        1.261486858e-01, 8.718707412e-02, 1.129120365e-01, 
        8.614794910e-02, 3.203267977e-02, -2.774024196e-02, 
        2.306482643e-01, -1.729257219e-02, 6.970582064e-03, 
        -2.481399775e-01},
    {1.601469666e-01, 2.243811339e-01, -1.335751772e+00, 
        1.310263872e-01, -1.241877079e-01, 8.863946795e-02, 
        -1.808155328e-01, 6.124150753e-01, -1.372348666e+00, 
        3.632105291e-01, -9.555689991e-02, 4.748089612e-01, 
        -9.998797625e-02, 1.850945503e-01, 8.213858306e-02, 
        4.899698496e-01, -8.444389701e-02, -2.115579098e-01, 
        7.272277474e-01, 5.854261518e-01, -2.933565080e-01, 
        -3.616134450e-02, -6.432578713e-02, 3.586252332e-01, 
        8.294764906e-02, -1.704393476e-01, -5.198194385e-01, 
        4.566908479e-01, 1.870444715e-01, 4.554099739e-01, 
        -1.284600854e+00, 6.005802155e-01, 7.879692912e-01, 
        -1.891662925e-02, 2.600234151e-01, 6.458181888e-02, 
        3.796023130e-02, -1.353674293e+00, 3.037215173e-01, 
        4.494820833e-01, 5.358930826e-01, 5.545292422e-02, 
        4.700522125e-01, -7.623090595e-02, -7.331600785e-02, 
        1.930707097e-01, -1.307784915e+00, 5.639203191e-01, 
        5.294994116e-01, 4.781645834e-01, -9.464591742e-01, 
        -4.193690121e-01, 2.051163092e-02, 5.943300128e-01, 
        3.192082047e-01, -3.192641539e-03, -1.264413595e-01, 
        3.542685509e-01, -1.213317513e+00, -4.013112932e-02, 
        1.605914533e-01, 1.784535348e-01, 1.538628936e-01, 
        -6.169480085e-02, -1.663299799e+00, 6.550304890e-01, 
        -8.088322878e-01, 3.837023973e-01, 9.090754390e-02, 
        -7.073029280e-01, 9.047849476e-02, -1.828039885e+00, 
        8.127364516e-01, 8.908890486e-01, -1.073666960e-01, 
        6.749013066e-01, 6.044417024e-01, 8.238851428e-01, 
        2.415302023e-02, 5.635275245e-01, 3.432267308e-01, 
        -8.373402804e-02, -5.608200431e-01, 1.130178690e+00, 
        -8.494793773e-01, 2.434923649e-01, -5.561913252e-01, 
        3.639771342e-01, 5.557723045e-01, 3.897611201e-01, 
        3.388553113e-02, 7.406572998e-02, 5.195213109e-02, 
        -1.825208664e-01, 1.706806757e-02, 2.410672419e-02, 
        -2.005467378e-02, 8.574943244e-02, 1.992519796e-01, 
        -1.049569994e-01},
    {1.846835464e-01, -1.646338589e-02, 3.759839833e-01, 
        1.356982589e-01, -7.173219323e-02, 2.462840527e-01, 
        -8.308321834e-01, -1.181650758e+00, 5.535117351e-03, 
        2.929795086e-01, 2.750524580e-01, 1.176114008e-01, 
        5.717041492e-01, -7.287263274e-01, -3.982382119e-01, 
        2.662950158e-01, -4.073806405e-01, -2.193198502e-01, 
        1.038839445e-01, 2.644757032e-01, 3.728491366e-01, 
        1.009993032e-01, -3.649073541e-01, 2.058434784e-01, 
        2.324931473e-01, 2.732756734e-01, 5.250507221e-02, 
        1.702502668e-01, -2.289258502e-02, 5.326341987e-01, 
        6.032853127e-01, 4.782544076e-01, 5.870936066e-02, 
        4.138154909e-03, 5.994135141e-02, -3.893031180e-01, 
        -3.329464197e-01, 8.949971944e-02, -7.670607418e-02, 
        1.641388088e-01, 2.905717865e-02, 2.933568060e-01, 
        -3.524644077e-01, 9.268525243e-02, 4.254984856e-01, 
        -5.060815215e-01, 2.692842484e-01, 4.166848958e-01, 
        4.255805612e-01, -1.684066534e+00, 6.388587356e-01, 
        2.050745040e-01, 2.535637617e-01, 1.368555278e-01, 
        2.338312417e-01, -6.007097661e-02, 3.909324110e-01, 
        -6.608216166e-01, 7.789053023e-02, 3.175750375e-01, 
        3.794877231e-01, 3.137091696e-01, 1.800801307e-01, 
        2.537300289e-01, 1.718327552e-01, 3.700512350e-01, 
        5.470546484e-01, 6.588143706e-01, 1.371817142e-01, 
        2.921516001e-01, 2.357956022e-02, 1.627293229e-01, 
        8.444640785e-02, 5.365414545e-02, 3.172147647e-02, 
        1.912151724e-01, 1.104089022e-01, 2.851046920e-01, 
        2.230969444e-02, 3.838327527e-02, 2.569847703e-01, 
        3.028160036e-01, 1.477337331e-01, 4.911597371e-01, 
        3.144696057e-01, 2.076515108e-01, 3.334518895e-02, 
        1.393684298e-01, 2.793577909e-01, 1.619827598e-01, 
        2.275392115e-01, 4.027264714e-01, -2.839315496e-02, 
        7.798209041e-02, -1.357732415e+00, 1.614894867e-01, 
        2.131590992e-01, 7.263240814e-01, 4.432421923e-02, 
        6.141459942e-02},
    {-8.387857080e-01, -2.507224977e-01, -5.586177111e-02, 
        5.294549093e-02, -5.886957049e-01, -4.967669845e-01, 
        -9.243937731e-01, 7.208515424e-03, -4.531061053e-01, 
        -2.633959949e-01, -5.103462376e-03, -2.188860029e-01, 
        4.584917426e-01, -4.774306417e-01, 4.784723818e-01, 
        -5.543449894e-02, 2.895758152e-01, -2.644024789e-01, 
        -2.621456981e-01, -1.244538948e-01, -1.441183090e-01, 
        -1.448521763e-02, -4.162748158e-02, -1.726694405e-01, 
        -4.079409689e-02, -1.240007952e-01, -3.314943612e-02, 
        -2.508230209e-01, -4.164802432e-01, -3.713923097e-01, 
        -1.513673902e+00, -4.989930987e-01, -7.385478616e-01, 
        -7.335754633e-01, -5.728126168e-01, -1.329193264e-01, 
        3.903554082e-01, 8.201618493e-02, -3.866431415e-01, 
        -2.406823337e-01, 1.122787446e-01, 1.150587797e-01, 
        -1.188490614e-01, -2.742292583e-01, -4.457276165e-01, 
        -3.915454149e-01, -1.235363632e-01, 3.719120473e-02, 
        -1.885545492e+00, -3.645606637e-01, -6.229211763e-02, 
        -2.357623279e-01, 1.217632927e-02, -2.476125956e-01, 
        -9.064034373e-02, 1.589362323e-01, -1.131932531e-02, 
        4.251127690e-02, 4.325143620e-02, -2.839061022e-01, 
        -2.412523925e-01, -2.025989443e-01, -1.755166352e-01, 
        1.706205010e-01, -7.137797773e-02, -8.691444993e-02, 
        -4.348785877e-01, 1.009219512e-01, -2.431083843e-02, 
        1.236137450e-01, -1.852894574e-01, -5.580239892e-01, 
        -2.372077480e-02, -4.196291864e-01, -4.515759945e-01, 
        -1.358599663e-01, -1.962599158e-01, 6.050126161e-03, 
        -4.747215807e-01, -4.229159355e-01, 1.159483716e-01, 
        1.641024649e-01, -1.873890400e+00, -1.257041842e-01, 
        3.499985114e-02, -1.240154803e-01, -3.384691477e-01, 
        -3.401981890e-01, -2.594948709e-01, -3.344827890e-02, 
        -7.712215930e-02, -8.279681802e-01, -2.099960893e-01, 
        -8.625377417e-01, 8.578146994e-02, -1.447256804e-01, 
        -1.027653813e-01, -2.119490057e-01, -6.422351003e-01, 
        -3.137226775e-02},
    {-1.200578809e-01, 3.880770132e-02}
};

const float WEIGHTS[NUM_DENSE_LAYERS][MAX_LAYER_DIMS][MAX_LAYER_DIMS] = {
    {
        {-2.678071976e+00, 7.112938166e-01, -3.797582150e+00, 
            -5.041132569e-01, 1.264542937e+00},
        {1.722997546e+00, -4.192561150e+00, -1.525397301e+00, 
            7.068415880e-01, -1.333292276e-01},
        {2.971296012e-01, 7.897954434e-02, 2.116550803e-01, 
            5.097064376e-01, 1.304397881e-01},
        {4.578467309e-01, 4.814527929e-01, 3.766354918e-01, 
            1.831679642e-01, 9.486136958e-03},
        {2.204175949e+00, 1.145620108e+00, -9.511487484e-01, 
            -8.627239466e-01, -4.945572913e-01},
        {1.130883455e+00, 7.599632144e-01, -1.115691185e+00, 
            -4.828043282e-01, -2.657982111e-01},
        {-8.646804810e+00, 2.704158068e+00, 2.213162184e+00, 
            -3.289596796e+00, -9.647697955e-02},
        {-2.779259682e-01, 1.514903069e+00, 1.777862191e+00, 
            1.570517778e+00, 8.503612876e-02},
        {8.030802757e-02, 4.732718170e-01, -5.886574984e-01, 
            -5.531570315e-01, -1.998980641e-01},
        {1.590099931e+00, -1.718077421e+00, 2.782158375e+00, 
            7.141218185e-01, -8.387261629e-01},
        {1.203486919e+00, 9.718890786e-01, 1.260575533e+00, 
            6.281150877e-02, 8.671870232e-01},
        {-3.077168465e+00, -8.777190447e-01, 1.830421567e+00, 
            -1.562010646e+00, 2.164800644e+00},
        {6.583789587e-01, 3.941034675e-01, 1.556730866e+00, 
            3.117646277e-01, 2.692730129e-01},
        {-1.547155499e+00, -7.918962240e-01, 4.139544070e-01, 
            1.055183172e+00, -7.070981860e-01},
        {3.357496500e+00, 9.547323585e-01, 4.655029774e+00, 
            -1.274498582e+00, -1.055850267e+00},
        {-1.117328763e+00, -1.243205428e+00, 1.014445066e+00, 
            2.922522724e-01, -5.601218343e-01},
        {-3.799275458e-01, 4.846510589e-01, 8.266687989e-01, 
            8.310033083e-01, 1.047974452e-02},
        {-2.504087687e+00, -4.787073612e+00, 2.059947968e+00, 
            -1.213061333e+00, 1.624028325e+00},
        {-3.026985884e+00, -1.084117055e+00, 1.840875983e+00, 
            5.649245381e-01, -6.910588145e-01},
        {-1.042415738e+00, -9.091402888e-01, -1.289771080e+00, 
            -9.894628525e-01, 9.634015709e-02},
        {9.691142440e-01, -3.424482942e-01, -1.225280762e+00, 
            -3.646689653e-01, 4.719846249e-01},
        {1.781031251e+00, -2.674929202e-01, 1.758755684e+00, 
            1.455496848e-01, -1.247409265e-02},
        {1.085507870e+01, -1.683785617e-01, -8.487557173e-01, 
            5.622743964e-01, -4.823888093e-02},
        {2.466026306e+00, 1.897942662e+00, 1.068587661e+00, 
            7.668378949e-01, 1.009992123e+00},
        {-6.880155206e-01, 4.629506469e-01, -2.281095743e+00, 
            -1.204611182e+00, -1.107176065e+00},
        {-4.267562866e+00, -2.357905060e-01, -3.943999290e+00, 
            -3.705514371e-01, 2.939261729e-03},
        {-1.047818661e+00, -8.107645512e-01, 1.085065126e+00, 
            4.529698491e-01, -6.645855904e-01},
        {9.427074790e-01, 1.755117625e-01, 1.173795581e+00, 
            2.234009802e-01, 1.627889127e-01},
        {4.830576897e+00, 2.925677538e+00, 1.629107594e-01, 
            3.599039316e+00, -4.400832653e-01},
        {9.967402816e-01, 7.724061608e-01, 1.136983871e+00, 
            -4.259777963e-01, 1.566669196e-01},
        {-2.609058380e+00, 4.711006582e-01, 1.834699661e-01, 
            1.486741066e+00, -6.981400847e-01},
        {4.346271038e+00, -2.355823040e+00, -8.925895095e-01, 
            -3.120277822e-01, -7.465821505e-01},
        {-5.281442642e+00, -5.866751820e-02, -1.722809553e+00, 
            -8.278139234e-01, -5.957254171e-01},
        {8.639134169e-01, -3.832705915e-01, 1.043140173e+00, 
            9.208424687e-01, -1.401719265e-02},
        {-9.590959549e-01, -1.515652776e+00, -9.707986116e-01, 
            3.782426715e-01, -1.102304935e+00},
        {3.819856420e-02, 4.094020128e-01, -2.139374018e+00, 
            -1.052062273e+00, -6.309167147e-01},
        {-2.916682661e-01, 5.674669519e-03, 1.532966971e+00, 
            -4.961378574e+00, 9.726344608e-03},
        {4.827404022e+00, -7.465482354e-01, -3.288667917e+00, 
            8.324619383e-02, -5.989475846e-01},
        {8.587841988e+00, 8.782917857e-01, 1.273698092e+00, 
            1.112004161e+00, -2.467544824e-01},
        {-2.545857668e+00, -1.733673930e+00, 2.687407285e-02, 
            -9.525004625e-01, 6.870618463e-01},
        {6.368390471e-02, 8.980793878e-03, 1.497184634e-01, 
            -7.218297720e-01, 1.095075607e-01},
        {3.764144897e+00, 1.054997087e+00, -2.260481358e+00, 
            -1.010876536e+00, 1.350284696e+00},
        {-3.695070744e-01, -1.607551426e-01, 7.700396180e-01, 
            -3.607733250e-01, 1.063566208e-01},
        {1.445865512e+00, 5.220092535e-01, 7.001027465e-01, 
            6.068142056e-01, 7.989757061e-01},
        {-5.950164795e+00, 1.227680922e+00, -3.722956896e+00, 
            1.959651411e-01, 6.608276367e-01},
        {8.755910397e-01, 1.012638688e+00, 5.630652308e-01, 
            1.142496467e+00, 9.507318139e-01},
        {3.429327965e+00, -7.340229750e-01, -2.927928209e+00, 
            -5.111805201e-01, -1.343539953e+00},
        {1.358394742e+00, 4.764033258e-01, -1.843161583e+00, 
            -1.254042864e+00, -6.453548670e-01},
        {-1.049595952e+00, -6.643359065e-01, -1.817375660e+00, 
            -9.960214496e-01, -7.035591453e-02},
        {1.979072765e-02, -1.153141931e-01, 1.685712039e-01, 
            2.369296253e-01, -3.123327158e-03},
        {1.507960558e+00, -4.417144060e-01, 5.044630766e-01, 
            2.269166708e+00, 5.837641954e-01},
        {-1.154002905e+00, -7.787586451e-01, -3.385929108e+00, 
            -4.977368116e-01, 4.395158496e-03},
        {6.524215341e-01, 5.689093471e-01, 1.504797697e+00, 
            1.015879273e+00, 4.584667981e-01},
        {-1.114485711e-01, 6.353616714e-02, -1.148948371e-01, 
            7.778143138e-02, -3.515111515e-03},
        {1.879243731e+00, 2.164438248e+00, 6.193780303e-01, 
            -7.042831182e-01, -9.858046174e-01},
        {-5.088368654e-01, 9.416293502e-01, 2.423321247e+00, 
            -4.304798841e-01, 1.131344438e+00},
        {-2.571905136e+00, -9.700481892e-01, 1.940389872e+00, 
            5.673040152e-01, -6.988402009e-01},
        {-2.248382010e-02, -1.613871194e-02, 5.453318730e-02, 
            2.709058225e-01, 4.626009613e-03},
        {-1.540914297e+00, -3.106887639e-01, 1.899309397e+00, 
            9.085078835e-01, -5.242678896e-02},
        {1.144677997e+00, -5.942740664e-02, -1.784099460e+00, 
            -8.664872050e-01, -3.857199103e-02},
        {-1.899551630e+00, -7.438996434e-01, 7.536846995e-01, 
            9.657924175e-01, -6.382997632e-01},
        {5.749715492e-03, 3.518673033e-02, 1.864643209e-02, 
            6.578271836e-02, 3.457999602e-02},
        {-2.020737171e+00, 1.615992486e-01, 1.650671601e+00, 
            2.257321775e-01, 2.602798864e-02},
        {3.219002008e+00, 1.109736085e+00, -1.029240564e-01, 
            -6.414846182e-01, -9.492732286e-01},
        {-3.073463678e+00, -1.110331893e+00, 3.538566589e+00, 
            -1.483707905e+00, 4.731789529e-01},
        {-2.938795090e+00, -1.102369666e+00, -1.920780420e+00, 
            -1.330250144e+00, -1.395717025e+00},
        {5.153792381e+00, 3.701514006e-01, -2.221159220e+00, 
            1.437061429e+00, -6.497230530e-01},
        {2.206174135e+00, -4.123636186e-01, -2.722807407e+00, 
            -2.501228452e-01, -4.608893301e-03},
        {-1.327278018e+00, -7.863010764e-01, -1.303433061e+00, 
            -6.655976772e-01, -6.716901064e-02},
        {-6.938373089e+00, 1.291815639e+00, -2.873329639e+00, 
            -1.336288154e-01, 1.540822864e+00},
        {-7.781399488e-01, 4.906463921e-01, 2.113975763e+00, 
            2.767082453e-01, 3.123437166e-01},
        {2.135823011e+00, -3.828381598e-01, -2.898736477e+00, 
            8.933060616e-02, -2.123104930e-01},
        {-7.923516035e-01, -8.101233244e-01, 2.656394243e+00, 
            -2.796356678e-01, -2.283372432e-01},
        {2.002498627e+00, 4.685905278e-01, 1.307514191e+00, 
            -3.224704862e-01, 3.035602272e-01},
        {1.367979646e-01, -1.051160023e-01, 1.243980646e+00, 
            8.690407872e-02, 1.854465306e-01},
        {2.414855957e+00, 9.440732002e-02, 2.220182896e+00, 
            6.040789485e-01, -1.668335348e-01},
        {1.124714017e-01, -2.375086099e-01, 1.631531477e+00, 
            3.527303636e-01, -1.302727014e-01},
        {4.237215996e+00, 1.991353929e-02, 2.485173464e+00, 
            -1.443686366e+00, -5.002635121e-01},
        {2.448139906e+00, 1.707429409e+00, -1.155936956e+00, 
            -7.303867936e-01, -6.106867194e-01},
        {1.382128000e+00, 1.179503441e+00, 1.969980478e+00, 
            6.218900084e-01, 1.683515757e-01},
        {-5.338459611e-01, 7.088957429e-01, 1.526907206e+00, 
            1.396749854e+00, -1.879517287e-01},
        {-7.274903655e-01, -1.237433076e+00, 8.265363574e-01, 
            -3.587586880e-01, -4.488826394e-01},
        {-3.257988691e+00, -1.302488685e+00, 1.068385839e+00, 
            -3.293353319e-01, -8.685931563e-01},
        {-1.937628150e+00, 1.694189310e-01, 2.063419104e+00, 
            5.488108397e-01, 2.374352887e-02},
        {-1.612862706e+00, -8.413774371e-01, -8.751666546e-01, 
            -1.890851855e-01, 2.170347571e-01},
        {9.542135596e-01, -4.179851711e-01, 1.072640896e+00, 
            1.667100310e+00, 7.907953113e-02},
        {-2.209166586e-01, -8.471419215e-01, -1.745827317e+00, 
            -1.214087725e+00, 8.155391216e-01},
        {1.793235838e-01, 7.253417373e-02, 7.211257517e-02, 
            1.731651127e-01, 6.241246592e-03},
        {3.100823164e+00, 1.659646749e+00, -9.496647120e-01, 
            -2.163460404e-01, 1.095694304e+00},
        {-1.316866517e+00, -6.752662063e-01, -2.252490520e+00, 
            -7.185419202e-01, 4.447631538e-01},
        {3.774995804e+00, 1.756897092e+00, 5.070502758e-01, 
            2.037578821e-01, 1.193824530e+00},
        {2.375777960e+00, -5.001782626e-02, -2.975078821e+00, 
            -1.488291144e+00, 6.743099689e-01},
        {-6.155349016e-01, -3.549111485e-01, 2.025862694e+00, 
            4.641363025e-01, -1.118023768e-01},
        {1.323343873e+00, 1.179564521e-01, -2.387211561e+00, 
            -1.037174463e+00, -3.778732941e-02},
        {1.857456286e-03, 1.376349926e-01, 6.656694412e-02, 
            7.494003978e-03, 3.074403480e-02},
        {-8.617595434e-01, -5.523535609e-01, 4.833794832e-01, 
            5.351563692e-01, -3.180437982e-01},
        {-2.370146275e+00, -2.091481686e+00, 1.968000889e+00, 
            3.005287647e+00, 1.415134907e+00},
        {-2.499348402e+00, 6.499201655e-01, 1.643535376e+00, 
            9.317734838e-01, 6.785638928e-01},
        {1.580506116e-01, -6.151172519e-01, 1.589200854e+00, 
            7.723392248e-01, 5.167009309e-02},
        {-1.905605555e+00, -9.427375197e-01, -1.054307580e+00, 
            -4.625222087e-02, 4.275768995e-01}
    },
    {
        {-1.331817508e-01, -8.830744773e-02, 2.311328351e-01, 
            -1.429155320e-01, -2.799412608e-01, -2.181694508e-01, 
            -6.514544040e-02, 1.173889562e-01, 4.469033796e-03, 
            1.597975492e-01, 8.465423435e-02, -3.154315352e-01, 
            7.850747555e-03, 5.175636411e-01, -1.770371795e-01, 
            4.233703017e-01, 3.953105211e-01, 1.073030457e-01, 
            4.320196509e-01, -7.587092370e-02, -1.449759454e-01, 
            7.803278416e-02, -1.159962654e+00, 1.126603037e-01, 
            6.952340156e-02, 4.104175866e-01, 1.626486331e-01, 
            4.443635419e-02, -1.643365249e-02, -1.709671170e-01, 
            4.057608545e-01, -4.045332074e-01, 4.059653878e-01, 
            3.040769994e-01, 3.655501008e-01, -3.579134494e-02, 
            -2.918969393e-01, -5.897938609e-01, -8.284816146e-01, 
            4.613539577e-02, 2.284017056e-01, -5.967850685e-01, 
            1.457988471e-01, -4.898970202e-02, 2.429582477e-01, 
            3.606058955e-01, -4.799638689e-01, -1.768520474e-01, 
            -1.249020919e-01, 1.402242482e-01, 2.385449857e-01, 
            -1.183898672e-01, 1.877627522e-01, 8.216369152e-02, 
            -1.038623322e-02, 1.415767670e-01, 4.693510234e-01, 
            2.941545248e-01, 4.367506206e-01, -5.238794535e-02, 
            5.051090717e-01, 1.446546316e-01, 8.378191292e-02, 
            -3.530330062e-01, -2.738715410e-01, 4.466676414e-01, 
            -4.319349825e-01, -3.693481386e-01, 3.150272369e-02, 
            -6.022499502e-02, -5.982989073e-02, -3.966405988e-01, 
            2.583135664e-01, -4.353868216e-02, 1.354497969e-01, 
            1.583904028e-01, 3.292707205e-01, -1.994818151e-01, 
            -2.152308971e-01, -1.319329143e-01, 2.411161810e-01, 
            3.162884116e-01, 2.114617378e-01, 3.155151904e-01, 
            5.372895673e-02, 1.540498883e-01, -2.518692315e-01, 
            1.786448509e-01, -3.477787971e-01, 1.448603719e-01, 
            -3.878178000e-01, -4.948390424e-01, 5.199396238e-02, 
            -4.341258705e-01, 9.136946499e-02, 3.400269747e-01, 
            5.468377471e-01, 1.568914801e-01, 2.099414319e-01, 
            2.049378753e-01},
        {-1.036802903e-01, -6.050483584e-01, 1.752980947e-01, 
            1.791872084e-01, -2.758067548e-01, -9.302658588e-02, 
            -2.189069837e-01, 4.035304189e-01, -3.095444106e-02, 
            2.580989301e-01, 3.671837449e-01, 7.859346457e-03, 
            4.673107862e-01, 1.749186367e-01, 1.220106184e-01, 
            8.222430944e-02, 3.317659497e-01, -1.648396254e-01, 
            4.056120217e-01, -1.676831692e-01, -3.657076359e-01, 
            3.124518991e-01, -9.500814676e-01, 3.825047612e-01, 
            -5.049986765e-02, -2.665070295e-01, 4.617699385e-01, 
            2.855944037e-01, 8.595200628e-02, -1.640434749e-02, 
            2.844133377e-01, -1.760206223e-01, -8.755643666e-02, 
            1.362117976e-01, 6.677668542e-02, -3.589667082e-01, 
            -2.513788640e-01, -7.679937482e-01, -2.409727573e-01, 
            -1.703064740e-01, -4.201368615e-02, -1.544482261e-01, 
            2.681626678e-01, 1.960152090e-01, 1.734332144e-01, 
            4.664846063e-01, -3.678047061e-01, -2.804811597e-01, 
            -2.592394054e-01, 2.497459799e-01, -2.017704546e-01, 
            -4.038041532e-01, 4.824030995e-01, 1.215141863e-01, 
            -1.832533777e-01, 3.292018175e-01, 3.144533038e-01, 
            3.737334311e-01, 4.037523866e-01, -4.383131862e-01, 
            4.277949631e-01, 8.525141329e-02, 1.372129321e-01, 
            -4.270325974e-02, -4.158088192e-02, -4.799576104e-02, 
            -1.895504147e-01, -6.182335019e-01, -1.555394679e-01, 
            4.975892231e-02, 3.693536222e-01, -4.205429554e-01, 
            2.154459655e-01, 4.481137395e-01, 2.560994923e-01, 
            4.812441468e-01, 1.907066703e-01, 3.880154192e-01, 
            -1.570397317e-01, 3.901298344e-01, 5.222179890e-01, 
            2.672765851e-01, 1.279656142e-01, 2.344842553e-01, 
            -1.872879416e-01, 1.119509414e-01, -2.256791741e-01, 
            2.442331612e-01, 2.369487584e-01, -2.222428024e-01, 
            4.523151815e-01, -7.254635692e-01, 2.063923627e-01, 
            -3.899610341e-01, 3.285557330e-01, 1.964096725e-01, 
            -1.018470302e-01, 3.771139383e-01, 4.561871290e-02, 
            -2.363131940e-01},
        {-3.811020851e-01, 1.371675134e-01, -5.911952816e-03, 
            -6.694483161e-01, -4.089328349e-01, -1.172852635e+00, 
            1.778850406e-01, 2.435154170e-01, -8.516987562e-01, 
            3.702777624e-01, 9.935450554e-02, 3.119059503e-01, 
            -1.204336733e-01, 5.418376625e-02, 5.428561196e-02, 
            3.364837468e-01, -2.444643825e-01, 1.211999804e-01, 
            2.236999273e-01, -4.938090444e-01, -2.435570955e-01, 
            7.595644891e-02, 5.280362442e-02, 2.143252194e-01, 
            5.595137179e-02, -3.776870072e-01, 2.259112746e-01, 
            -1.432471424e-01, 1.587967724e-01, -5.569305420e-01, 
            4.812959135e-01, 4.011660814e-01, 1.644641459e-01, 
            1.059398614e-02, 5.270301551e-02, -2.659721673e-01, 
            5.473509431e-02, -1.384460479e-01, -6.492799520e-02, 
            6.544300169e-02, -1.053407788e+00, -7.106686383e-02, 
            -6.152974367e-01, 1.627348363e-01, -8.934999257e-02, 
            1.086585820e-01, -3.966803849e-02, -6.146915555e-01, 
            -4.301691651e-01, -3.565601110e-01, 5.965434313e-01, 
            -5.365991592e-01, 3.651764691e-01, -1.059453130e+00, 
            2.474816889e-01, 3.418062031e-01, 7.400305569e-02, 
            -7.799031734e-01, 3.305260241e-01, -5.608080626e-01, 
            3.166462481e-01, -1.030806422e+00, -3.021990359e-01, 
            2.165577747e-02, 1.956168413e-01, 2.247703522e-01, 
            -2.723417878e-01, -3.009425104e-01, -6.673429608e-01, 
            -1.301715225e-01, -4.858412966e-02, -4.708771110e-01, 
            2.005359083e-01, -1.592502743e-01, -2.979680300e-01, 
            -1.341430843e-01, -1.077112854e-01, -8.569080383e-02, 
            -6.384756565e-01, -4.057719111e-01, 2.736440897e-01, 
            1.369144768e-01, 1.183813885e-01, -1.317983121e-01, 
            -3.959552348e-01, 5.130670667e-01, -1.797420233e-01, 
            -6.592286229e-01, -5.050098151e-02, -4.268887937e-01, 
            1.631443501e-01, -3.744480610e-01, 1.492274851e-01, 
            -4.773854911e-01, -1.259506822e+00, -5.167904124e-02, 
            4.605403841e-01, 1.890659332e-01, 3.077110350e-01, 
            -1.805472672e-01},
        {2.147221118e-01, 2.379016131e-01, -8.141377941e-03, 
            -4.338441789e-02, -1.635077745e-01, -1.048265845e-01, 
            -3.884019852e-01, -2.720484138e-01, 1.272227615e-01, 
            5.903854966e-01, 7.597704977e-02, 6.780872354e-04, 
            1.330115944e-01, 6.075963005e-02, 1.943532079e-01, 
            3.585890532e-01, -1.120560691e-01, 1.755978167e-01, 
            6.495152414e-02, -7.844139822e-03, 1.137506333e-03, 
            2.377374172e-01, -6.077364087e-01, 1.665261807e-03, 
            2.379127545e-03, -5.904433131e-01, 2.931763828e-01, 
            1.846503317e-01, -1.150248945e-01, -8.722335845e-02, 
            1.084059756e-02, 4.816090167e-01, 4.240401462e-02, 
            2.069420367e-01, 3.354612589e-01, -2.341766097e-02, 
            -2.623441815e-01, -3.125073910e-01, -2.603093088e-01, 
            7.100457698e-02, 3.246438131e-02, -7.356629372e-01, 
            2.310131192e-01, 3.061607182e-01, -2.591159046e-01, 
            1.542337239e-01, 2.270511985e-01, -7.534284145e-02, 
            -4.809221998e-02, 3.178368211e-01, -2.538871467e-01, 
            -5.195125341e-01, -1.401596069e-01, 2.326883227e-01, 
            1.295696050e-01, 4.792085662e-02, 1.816421747e-01, 
            1.297186315e-01, -1.042241510e-02, -3.294728100e-01, 
            5.673646182e-02, -1.280019283e-01, -1.584698558e-01, 
            -9.343944490e-02, -3.965872526e-01, 3.221772015e-01, 
            -1.749422103e-01, -5.042284131e-01, 1.589259356e-01, 
            1.806461513e-01, -2.266696990e-01, -3.857314885e-01, 
            2.385854870e-01, -2.134812474e-01, 1.482344270e-01, 
            1.726700962e-01, 2.857182622e-01, 1.881912649e-01, 
            -3.174066544e-01, -7.127693295e-02, -5.436046422e-02, 
            3.166070580e-01, 2.193312719e-02, -4.369654953e-01, 
            -2.290459536e-02, -6.112350523e-02, 1.731748879e-01, 
            3.299911320e-01, -4.195067286e-01, 3.219043314e-01, 
            -2.895053327e-01, -4.812014699e-01, 1.048332676e-01, 
            -4.551033676e-01, 1.020020153e-02, 8.047194779e-02, 
            -3.378714323e-01, -4.066296816e-01, 2.957249582e-01, 
            -2.298903652e-02},
        {1.236142591e-01, 4.753304124e-01, -1.515331566e-01, 
            -1.240326911e-01, -8.013558388e-02, -2.319657654e-01, 
            4.436268210e-01, -1.387459598e-02, -7.477547228e-02, 
            -1.259247661e-01, -3.422154486e-01, 2.352592796e-01, 
            -5.419021249e-01, -2.332681417e-02, -5.957002640e-01, 
            5.985570606e-03, -1.383556873e-01, 2.125958651e-01, 
            -3.694184721e-01, 2.353420258e-01, 1.790321618e-01, 
            -3.838072121e-01, -2.680555880e-01, -3.133998215e-01, 
            -4.402929544e-01, -3.792048665e-03, -3.523116559e-02, 
            -3.925616145e-01, -2.164106220e-01, -3.088712394e-01, 
            -2.511792257e-02, 2.653779387e-01, -1.434837580e-01, 
            1.139100865e-01, 1.910360307e-01, -2.836038172e-01, 
            1.310295910e-01, -5.125885829e-02, -1.895110160e-01, 
            3.162133396e-01, -4.101980105e-02, 1.410271525e-01, 
            -1.500493195e-02, -2.776142359e-01, -6.890802830e-02, 
            -1.167209521e-01, 3.048613295e-02, -7.323483378e-02, 
            -2.529879101e-02, -2.222929448e-01, 6.001557037e-02, 
            -1.139356270e-01, -2.867150009e-01, -1.069088057e-01, 
            8.297656775e-01, -4.584100544e-01, -4.039002061e-01, 
            3.325279057e-02, -3.674979806e-01, -2.028804421e-01, 
            -1.142913997e-01, 3.741035610e-02, -2.976139486e-01, 
            5.207059383e-01, -9.461078793e-02, -2.980655730e-01, 
            -2.624262571e-01, 1.271468699e-01, 2.583665252e-01, 
            9.411354363e-02, -6.893041134e-01, 7.733243704e-02, 
            -5.373412967e-01, -2.878390849e-01, -2.467912287e-01, 
            -6.363876462e-01, -3.169604540e-01, 5.734298751e-02, 
            6.968849897e-02, -4.027694762e-01, -5.353123546e-01, 
            1.181652248e-01, -2.515704334e-01, -4.347542822e-01, 
            2.338057607e-01, 6.889349781e-03, 3.855129778e-01, 
            -2.142593823e-02, -1.553260535e-02, 1.918856651e-01, 
            -5.975412130e-01, 2.304941565e-01, -4.319799840e-01, 
            -8.357715793e-03, -2.882223129e-01, -4.786602221e-03, 
            1.941023320e-01, 3.556387126e-02, -2.313226610e-01, 
            3.189357221e-01},
        {1.816447079e-01, -4.977350831e-01, 1.557457894e-01, 
            1.534788013e-01, -2.923366129e-01, -7.742603123e-02, 
            -4.318122268e-01, 3.315493166e-01, -2.702723071e-02, 
            2.364185406e-03, 2.004414983e-02, -2.941431999e-01, 
            1.319914311e-01, 2.922852635e-01, 2.934136800e-02, 
            1.720686406e-01, 2.020061910e-01, -3.281522989e-01, 
            1.146967337e-01, -2.262497097e-01, -1.327929944e-01, 
            -2.652216144e-02, -1.650763750e+00, -1.808990091e-01, 
            1.832042038e-01, 1.712929010e-01, 2.976053059e-01, 
            -1.266589612e-01, 8.276759088e-02, 9.809034318e-02, 
            2.611995637e-01, -2.727753818e-01, -1.762197316e-01, 
            3.442316949e-01, 3.998274803e-01, -1.028611660e-01, 
            -4.946360132e-04, -3.959438205e-01, -1.077811122e+00, 
            -3.788144886e-01, -8.583933860e-02, -1.811441332e-01, 
            -4.667273909e-02, 2.716636471e-02, 3.846427500e-01, 
            3.075313270e-01, -2.727552354e-01, -1.967898756e-01, 
            -1.386080533e-01, 2.538532615e-01, 3.437184691e-01, 
            1.251442134e-01, 1.156016737e-01, 2.712823749e-01, 
            -2.971147001e-02, -6.354685756e-04, 1.726555973e-01, 
            1.246964838e-02, 7.998988777e-02, -3.611928523e-01, 
            3.220962882e-01, 1.598864049e-01, 4.267357290e-03, 
            -2.222057432e-01, -5.267081261e-01, 8.623245172e-03, 
            8.309397101e-02, -4.531340301e-01, -8.956836164e-02, 
            1.168767959e-01, 9.775979444e-03, -1.719251871e-01, 
            -4.492292553e-02, -1.540264189e-01, 8.001443744e-02, 
            1.117715314e-01, 3.479351401e-01, 1.502176076e-01, 
            -3.195764422e-01, -1.988021731e-01, 4.157482088e-01, 
            2.470519245e-01, -6.896451861e-02, 1.399452537e-01, 
            3.234903514e-02, 1.695088893e-01, -1.852843016e-01, 
            6.115079671e-02, -3.158456683e-01, -1.149020121e-01, 
            -2.929014862e-01, -2.777095437e-01, 7.727783173e-02, 
            -5.220884085e-01, 1.752357334e-01, 1.783798933e-01, 
            3.601112068e-01, 2.101961225e-01, 7.740603387e-02, 
            -7.279457897e-02},
        {-2.948586643e-01, 6.133580580e-02, 1.891791523e-01, 
            1.757495552e-01, 2.747603357e-01, 7.098176330e-02, 
            2.962957835e-03, 7.891556025e-01, -2.522403598e-01, 
            -3.516032696e-01, 4.558498561e-01, -1.386557072e-01, 
            2.403051406e-01, -2.864025533e-01, 2.816942036e-01, 
            -8.344563246e-01, 1.862865686e-01, -1.921729445e-01, 
            -7.388588786e-01, -2.316431105e-01, 3.789540231e-01, 
            6.333703548e-02, 3.650528491e-01, 4.764232039e-01, 
            -3.279413581e-01, -4.454771876e-01, -3.534269929e-01, 
            1.951404214e-01, 4.533887208e-01, 4.450838268e-01, 
            4.174831510e-01, 9.375814348e-02, -8.179491162e-01, 
            -4.708768129e-01, -4.864778817e-01, -4.065639675e-01, 
            1.941700131e-01, 3.516502976e-01, 1.619912535e-01, 
            -1.010889187e-01, -6.459455937e-02, 6.156647801e-01, 
            1.784555763e-01, 3.277764916e-01, -2.578702569e-01, 
            3.125256002e-01, -1.542631835e-01, 1.652772278e-01, 
            -1.752558798e-01, -2.417979240e-01, -4.374464154e-01, 
            4.798613116e-02, 1.882862449e-01, -1.221971437e-01, 
            3.150050640e-01, 2.642079592e-01, -6.383426189e-01, 
            -2.280835956e-01, -4.305912554e-01, 3.121362031e-01, 
            -2.931959927e-01, -7.408803701e-02, 1.752205892e-03, 
            3.021837175e-01, -9.037164599e-02, -6.377190948e-01, 
            2.716278732e-01, 2.963013351e-01, -2.243294716e-01, 
            -2.099903077e-01, 8.111861348e-02, 2.857607007e-01, 
            -1.503259242e-01, 3.260671496e-01, 1.784373634e-02, 
            1.750577241e-01, -1.197673902e-01, 2.652603388e-01, 
            -2.168157138e-02, 4.141212702e-01, 7.010192275e-01, 
            -4.620203078e-01, -8.954557776e-01, 6.399625912e-03, 
            -3.492946625e-01, -3.625780344e-01, 2.597694099e-01, 
            1.669059396e-01, 4.956454933e-01, 4.417399690e-02, 
            7.072374821e-01, 8.919360638e-01, -1.127561331e-01, 
            4.402105808e-01, -2.271627262e-02, -5.771863461e-01, 
            -8.235792518e-01, 5.558412522e-03, -4.207158089e-01, 
            -2.525316179e-01},
        {-2.819781899e-01, -1.852960438e-01, 5.441614985e-01, 
            4.050778151e-01, 1.108356118e-01, 1.757271886e-01, 
            -4.690827131e-01, 3.415677324e-02, 4.769419432e-01, 
            -2.600089610e-01, 3.352304995e-01, -5.952790380e-02, 
            1.741684377e-01, 1.134945452e-01, -8.779875189e-02, 
            -9.450497106e-03, 1.928096265e-01, -5.596431494e-01, 
            -4.996718764e-01, 1.324248761e-01, 3.553974628e-01, 
            3.157820106e-01, 2.410831302e-02, 9.592200071e-02, 
            -1.542837471e-01, -5.201840997e-01, -1.087950263e-02, 
            1.396694183e-01, -2.537075877e-01, 2.249495983e-01, 
            -1.367412060e-01, -2.321806997e-01, -2.779206038e-01, 
            4.229954444e-03, 5.001670867e-02, 5.876465887e-02, 
            1.401530206e-01, -1.640096456e-01, 2.722175047e-02, 
            -1.241934747e-01, 2.553386092e-01, 3.365823925e-01, 
            2.871400118e-01, 3.240207732e-01, -1.039169192e+00, 
            9.419603646e-02, 1.149092168e-01, 4.765574634e-02, 
            -1.494784802e-01, 4.152663350e-01, -4.171361625e-01, 
            -1.143142432e-01, 6.503824890e-02, 2.087680995e-01, 
            -4.086196721e-01, 8.239385672e-03, -4.383393526e-01, 
            4.981761873e-01, 5.196321011e-02, 1.964103580e-01, 
            -1.043516472e-01, 5.919494629e-01, 2.529662549e-01, 
            -2.573973127e-02, -1.590008438e-01, 1.594934426e-02, 
            -1.040832102e-01, 3.069367409e-01, 6.371793151e-02, 
            -7.598971725e-01, 1.212891117e-01, -3.126631677e-02, 
            -2.103311867e-01, 5.262036920e-01, 1.700529605e-01, 
            1.588175446e-02, 1.852125227e-01, -5.437807739e-02, 
            -2.532790601e-01, 3.696975857e-02, -2.590905428e-01, 
            2.094877660e-01, -2.219942957e-01, 6.441910565e-02, 
            -1.420103479e-02, -1.528797150e-01, 1.125219986e-01, 
            2.526423335e-01, 2.790846303e-02, 4.723791778e-02, 
            4.900388420e-01, 2.294048071e-01, 1.820308268e-01, 
            1.816072315e-01, 2.855699360e-01, 2.296775728e-01, 
            -1.303308010e+00, -1.747551374e-02, 1.285355389e-01, 
            -1.363508403e-01},
        {3.761540949e-01, 6.461159885e-02, -1.073445193e-02, 
            -5.013599992e-01, -3.006247282e-01, -1.965879947e-01, 
            1.811225526e-02, 3.563857079e-01, -8.457525373e-01, 
            1.121798828e-01, 6.140161753e-01, -5.302920341e-01, 
            7.909628749e-02, -4.031492770e-01, -5.647547171e-02, 
            5.802838877e-02, -5.436102748e-01, 3.517882898e-03, 
            -1.255863011e-01, -4.741218090e-01, 2.108656317e-01, 
            -5.391652510e-02, 6.480072439e-02, 5.744189024e-01, 
            -5.443005562e-01, -3.763907775e-02, -4.088369757e-02, 
            5.310701951e-02, -1.252725422e-01, 1.300834585e-02, 
            6.206735969e-01, 6.194467843e-02, -4.184304923e-02, 
            -4.451816976e-01, -1.519532204e-01, -2.106324434e-01, 
            -8.616693318e-03, -9.752205014e-02, 2.583876811e-02, 
            -2.166555226e-01, -1.262818217e+00, 5.302962661e-01, 
            -6.448413730e-01, 5.601368546e-01, 1.349086463e-01, 
            3.248661160e-01, -3.114840090e-01, -2.759076059e-01, 
            -3.625986874e-01, -1.084738016e+00, 1.602692306e-01, 
            2.895129323e-01, 7.228947431e-02, -1.358524799e+00, 
            -4.481511712e-01, 3.418568149e-02, 1.630077213e-01, 
            -1.383710504e+00, -1.736342758e-01, 3.393282369e-02, 
            -2.332544625e-01, -7.650786042e-01, 3.043994121e-02, 
            -6.622505188e-01, 2.923493087e-01, 9.171807021e-02, 
            -3.920561671e-01, 4.687190801e-02, -5.867783427e-01, 
            -2.907998562e-01, -4.552279040e-02, -1.979544312e-01, 
            2.214906067e-01, 3.541887105e-01, -2.631363571e-01, 
            -2.996875644e-01, -4.556814432e-01, -6.901845336e-02, 
            -4.520028234e-01, 1.679265350e-01, -2.887963057e-01, 
            4.833531678e-01, -2.590630352e-01, 1.927992851e-01, 
            -6.666399837e-01, -1.430984288e-01, 3.775052726e-02, 
            -8.993386626e-01, 4.737225175e-01, -1.233305410e-01, 
            6.259527802e-01, 5.373577476e-01, -2.754046619e-01, 
            1.565864496e-02, -1.044151187e+00, -7.431281805e-01, 
            9.021075070e-02, 3.615400493e-01, -9.456700832e-02, 
            -3.724015057e-01},
        {3.274939060e-01, -1.972470522e+00, 2.575153410e-01, 
            5.960932374e-01, 3.173257113e-01, 4.256242812e-01, 
            -1.625900567e-01, 6.457949281e-01, 4.945793152e-01, 
            -1.036023021e+00, 7.746717334e-01, -4.214276969e-01, 
            3.123872876e-01, 3.532612324e-01, -5.013450384e-01, 
            -1.311595738e-01, 5.854989886e-01, -1.755870581e+00, 
            9.773580730e-02, -3.847754002e-02, -1.388501674e-01, 
            -1.922761053e-01, -1.095289946e+00, 6.650576591e-01, 
            1.804307401e-01, -8.673352003e-02, 3.190915287e-01, 
            1.981058717e-01, 5.561175346e-01, 5.385758281e-01, 
            4.316306710e-01, -1.223399282e+00, -2.798608541e-01, 
            -1.674595028e-01, 7.836785167e-02, 1.274978966e-01, 
            -8.550616354e-02, -5.235353708e-01, 8.265364170e-02, 
            -4.254576266e-01, 5.435544252e-01, 8.064374924e-01, 
            1.764766425e-01, 1.221788526e-01, 1.684395671e-01, 
            3.167036176e-01, -1.596873403e-01, 1.811313629e-01, 
            -8.493985236e-02, 1.635885984e-01, -7.285587192e-01, 
            -3.951928020e-01, 1.368071139e-01, 4.102505445e-01, 
            1.788254231e-01, 4.411516488e-01, 1.448121667e-02, 
            2.569129765e-01, 3.581858054e-02, 7.619117200e-02, 
            2.919254601e-01, 3.493916392e-01, 3.932724595e-01, 
            1.573918909e-01, -9.224503636e-01, -1.333998144e-01, 
            1.523158997e-01, -2.333275974e-01, -2.079333812e-01, 
            6.765060127e-02, 3.938979805e-01, -2.584233284e-01, 
            -4.889076650e-01, 2.914324403e-01, 3.770671785e-02, 
            4.859836400e-02, 1.264502555e-01, -3.834593296e-01, 
            6.428877711e-01, 7.065445781e-01, 7.318940163e-01, 
            -2.535652518e-01, -1.546943337e-01, 2.299779654e-01, 
            -1.604777277e-01, -1.839498729e-01, -6.732045114e-02, 
            1.621539444e-01, 8.398163915e-01, -3.303105757e-02, 
            8.160459399e-01, 1.842801720e-01, 8.125518449e-03, 
            2.054461539e-01, 6.366631389e-01, 2.050577551e-01, 
            -1.314444780e+00, 2.395004332e-01, -1.798423827e-01, 
            -2.633341849e-01},
        {1.976050586e-01, 3.074419796e-01, -4.874750078e-01, 
            -2.252171040e-01, 2.363220751e-01, -1.059694067e-01, 
            2.848247588e-01, -7.628409266e-01, 3.605114818e-01, 
            6.692801835e-04, -4.558215141e-01, 5.619091392e-01, 
            -4.099680781e-01, -8.007873595e-02, 7.079929858e-02, 
            2.232486308e-01, -4.257558286e-01, 4.675790071e-01, 
            2.609682642e-02, 3.615256846e-01, 4.242727160e-02, 
            -8.956757188e-02, -4.041410685e-01, -5.889631510e-01, 
            4.138053060e-01, 2.595501542e-01, 5.687636882e-02, 
            -2.079630494e-01, -1.303799868e+00, 1.619727165e-02, 
            -5.523110032e-01, 1.710426509e-01, 2.050499469e-01, 
            -4.601027071e-01, 2.819576561e-01, 4.205839336e-01, 
            7.669601440e-01, 2.295662314e-01, -4.631153345e-01, 
            4.798005521e-01, 3.540130556e-01, -1.668225378e-01, 
            2.237489223e-01, -5.297650099e-01, 7.542300969e-02, 
            -5.930253267e-01, 1.331521720e-01, 4.274990261e-01, 
            4.573689997e-01, -7.461831719e-02, -7.679013610e-01, 
            3.148129880e-01, -7.067939043e-01, -1.183211058e-02, 
            8.697070926e-02, -1.672462747e-02, -1.800805032e-01, 
            -1.108816713e-01, -4.670987129e-01, 3.241115510e-01, 
            -2.458892465e-01, -8.264730871e-02, -2.220251113e-01, 
            1.209899187e-01, 3.606369793e-01, 7.872378826e-01, 
            -3.550175726e-01, 1.146137416e-01, 3.804130554e-01, 
            1.073317751e-01, -3.938464820e-01, 9.953987598e-02, 
            4.221628904e-01, -1.893580854e-01, 5.110779312e-03, 
            -2.424024045e-01, -1.071057767e-01, 2.151833475e-01, 
            -1.792822406e-02, -5.658922791e-01, -9.060960412e-01, 
            5.127514005e-01, 4.535755813e-01, -3.303061128e-01, 
            -3.738252074e-02, -6.905975342e-01, 4.161565006e-01, 
            -2.282315195e-01, -1.878360510e-01, 3.233592212e-01, 
            -5.883120894e-01, 4.918960333e-01, -1.642011106e-01, 
            3.295356035e-01, -9.933594614e-02, -3.044519722e-01, 
            -6.115438938e-01, -4.938072264e-01, -3.937398493e-01, 
            8.711479604e-02},
        {-1.552432328e-01, -1.333344579e-01, 1.462670863e-01, 
            3.260981143e-01, -5.497023812e-04, 1.767724901e-01, 
            2.738044560e-01, 3.395693377e-02, 2.599852681e-01, 
            -1.211939454e-01, -9.929227084e-02, -2.337089181e-02, 
            -2.583663762e-01, 6.354940683e-02, -6.753029823e-01, 
            1.559716016e-01, 8.828673512e-02, -1.462803334e-01, 
            8.707727492e-02, -1.869824231e-01, -3.181817383e-02, 
            -4.284628034e-01, 2.316197753e-01, -1.288117170e-01, 
            3.701284900e-02, 5.811454728e-02, 1.277336031e-01, 
            -2.490170002e-01, -4.265745282e-01, 1.171296611e-01, 
            -1.903700083e-01, -2.090547085e-01, -9.982191026e-02, 
            -2.329758853e-01, 4.516576231e-02, -1.299525946e-01, 
            2.997474968e-01, 9.583415091e-02, -8.172566444e-02, 
            -1.345857978e-01, 5.358882546e-01, 1.008372009e-01, 
            2.333768308e-01, -1.875724941e-01, 3.512190655e-02, 
            -4.812303483e-01, 1.782870591e-01, -1.093039066e-01, 
            2.023931406e-02, 2.241015434e-01, -5.146415234e-01, 
            9.749535471e-02, -4.703555703e-01, 2.819059491e-01, 
            -4.670397192e-02, 2.981801033e-01, -1.455045193e-01, 
            2.834843397e-01, -2.709170580e-01, 1.922260225e-01, 
            -7.182598859e-02, 3.248255253e-01, 6.708946824e-02, 
            -1.328987628e-01, -9.218700230e-02, -1.851868331e-01, 
            -1.546198875e-01, 2.079776973e-01, 8.539842814e-02, 
            2.355626412e-02, -1.262623072e-01, -1.748067141e-02, 
            -5.839799345e-02, -8.272624761e-02, 1.169526950e-01, 
            -4.009156823e-01, -2.394127250e-01, -7.835770249e-01, 
            5.780907720e-02, -3.353833556e-01, -2.198689133e-01, 
            2.975886464e-01, 1.272532437e-02, 1.492499262e-01, 
            -5.654127523e-02, -4.091578424e-01, -1.693886817e-01, 
            1.674428284e-01, 7.381563634e-02, -7.112214714e-02, 
            5.336817121e-04, -1.952632666e-01, -2.903608084e-01, 
            -1.628477722e-01, 4.677250683e-01, 9.751388431e-02, 
            -5.709854364e-01, -6.907045096e-02, -2.246361375e-01, 
            2.391387150e-02},
        {5.005605817e-01, 6.496348232e-02, 1.684345752e-01, 
            -3.251375258e-01, -5.733096227e-02, 1.539358986e-03, 
            3.138335347e-01, -2.977383137e-01, 1.381069049e-02, 
            -2.704015672e-01, -6.705060601e-02, 3.047084808e-01, 
            -1.780584902e-01, 4.746513814e-02, -5.380408168e-01, 
            -1.528995298e-02, -4.985416308e-02, 3.328238130e-01, 
            1.391921341e-01, 1.056135222e-01, -4.670766741e-02, 
            -3.695481718e-01, -7.568762302e-01, -3.418628573e-01, 
            3.608230650e-01, 7.694709301e-01, -2.450715452e-01, 
            -2.686405182e-01, -1.095933914e-01, -6.739029288e-02, 
            -5.334895849e-01, -3.971450925e-01, 2.186200768e-01, 
            -1.918482184e-01, 1.644885093e-01, 1.111857593e-01, 
            2.028039992e-01, 4.164898768e-03, -1.183935404e+00, 
            2.914298177e-01, -1.380464248e-02, -2.318939567e-01, 
            -1.671191156e-01, -1.082251593e-01, 5.649385452e-01, 
            7.245020475e-03, -4.580218345e-02, 8.900947869e-02, 
            2.168660164e-01, -2.129336596e-01, 3.352957368e-01, 
            4.883692265e-01, -1.755786687e-01, -1.713258326e-01, 
            4.166784231e-03, -1.308890283e-01, -1.781406552e-01, 
            -5.616769940e-02, 2.004932053e-02, -2.505155466e-02, 
            -6.245107949e-02, -1.115101501e-01, 8.521324955e-03, 
            -1.448232830e-01, 2.041090280e-01, 1.041057631e-01, 
            -3.423143411e-03, -2.289052606e-01, 1.951905191e-01, 
            2.809615433e-01, -2.875795364e-01, 1.411144733e-01, 
            3.848341852e-02, -3.446605802e-01, -2.127307653e-01, 
            -4.093378782e-01, -2.996545434e-01, -3.995488882e-01, 
            -1.563684270e-02, -3.451766670e-01, -3.468410373e-01, 
            1.652181298e-01, 2.231217772e-01, -3.406223655e-02, 
            3.218942881e-01, 6.518325955e-02, 1.812673956e-01, 
            -2.349146008e-01, -3.545960486e-01, 2.690791786e-01, 
            -6.626143456e-01, -2.681331933e-01, -2.283835709e-01, 
            -5.695009232e-02, -2.222740799e-01, -8.464303799e-03, 
            6.244718432e-01, 1.192801073e-01, 1.925361156e-01, 
            3.779504895e-01},
        {-2.667587399e-01, 6.748391688e-02, 2.073652893e-01, 
            2.540237010e-01, -2.531977594e-01, -2.117486447e-01, 
            8.394475281e-02, 1.053880341e-02, -3.362224996e-01, 
            1.893992573e-01, -2.541125985e-03, -4.349698126e-01, 
            3.047095835e-01, 1.885492355e-01, 2.374846675e-02, 
            7.152779400e-02, 5.798622593e-02, -1.669577658e-01, 
            2.513362169e-01, 3.589466214e-02, -2.832099795e-01, 
            1.478515267e-01, -1.633318365e-01, -1.486853957e-01, 
            -1.561763883e-01, 1.117525250e-01, 5.849440768e-02, 
            2.062766626e-02, -1.216370910e-01, -5.306797475e-02, 
            2.882963717e-01, 2.487562746e-01, 1.796743721e-01, 
            7.412358373e-02, 2.823652923e-01, -1.745042801e-01, 
            7.948945463e-02, -3.741504848e-01, -6.965795904e-02, 
            -2.640781999e-01, -1.320572793e-01, -5.581722856e-01, 
            -1.192576587e-01, 1.623706520e-01, 1.452597678e-01, 
            2.091280967e-01, -2.343595326e-01, -1.914253235e-01, 
            1.346000284e-01, 1.981579512e-01, 2.154418230e-01, 
            -2.622419000e-01, 3.045729399e-01, 2.500813901e-01, 
            -2.055436224e-01, -5.656162277e-02, 1.240113005e-01, 
            6.388463080e-02, 1.408134401e-01, -3.548664451e-01, 
            1.494170129e-01, -1.247967710e-03, 6.903786212e-02, 
            -3.923511803e-01, 7.181254774e-02, 2.453766465e-01, 
            -2.103787363e-01, -4.309419990e-01, 1.340330206e-02, 
            1.473980993e-01, -5.037185922e-02, -1.091256663e-01, 
            -4.226252437e-02, 3.205257654e-02, -3.718436509e-02, 
            4.184658453e-02, -5.134509504e-02, 7.120104134e-02, 
            -4.050795436e-01, -8.452944458e-02, 2.623609453e-02, 
            2.317316830e-01, 4.019275010e-01, 2.898903005e-02, 
            4.657589644e-02, 1.541640330e-02, -2.682693899e-01, 
            7.791374624e-02, -3.756713271e-01, -9.415067732e-02, 
            -3.029298782e-02, -5.259245038e-01, -5.669672415e-02, 
            -3.779588938e-01, -2.463896014e-02, 4.133554921e-02, 
            6.960743666e-02, 7.691101730e-02, -4.704827443e-02, 
            -1.096445508e-02},
        {6.510464102e-02, 1.271965504e-01, 3.945475221e-01, 
            8.822887391e-02, -3.833837211e-01, -8.439631760e-02, 
            -7.482296824e-01, -5.889947526e-03, -8.725880086e-02, 
            -7.113860548e-02, -3.602423146e-02, -3.526397794e-02, 
            1.594311744e-01, 1.822159998e-02, -8.266847134e-01, 
            -1.254576594e-01, 2.425535172e-01, -8.612103015e-02, 
            2.237066329e-01, 3.437981708e-03, -1.667216304e-03, 
            7.127200067e-02, 9.274683148e-02, 9.481696784e-02, 
            -3.916370571e-01, 1.868938208e-01, -5.188946798e-02, 
            7.284318656e-02, 3.607586026e-01, -7.609184086e-02, 
            3.815395758e-02, 5.928857997e-02, -2.332284302e-02, 
            5.034872293e-01, -5.916975439e-02, -1.229035407e-01, 
            -1.057370305e+00, 4.668181390e-02, -4.707231373e-02, 
            4.883786663e-02, -3.410464823e-01, -2.614655495e-01, 
            3.547291085e-02, 2.510320544e-01, 2.077300549e-01, 
            2.567447722e-01, -1.566319615e-01, -3.122592568e-01, 
            -3.071022406e-02, 1.210717037e-01, 5.574988127e-01, 
            8.346097916e-02, 3.375630081e-01, 1.759478152e-01, 
            -8.534254432e-01, -6.267033517e-02, -2.126296982e-02, 
            2.413341254e-01, 4.130086899e-01, 2.207346819e-02, 
            -1.428918447e-03, 7.305477560e-02, 2.662667818e-02, 
            -5.274811387e-01, -1.808743328e-01, -2.925752401e-01, 
            1.308521628e-01, -1.717177220e-02, 1.137825400e-01, 
            1.001578942e-01, 4.551547766e-02, -1.154640783e-02, 
            1.759251207e-02, -1.099824011e-01, 2.366193086e-01, 
            1.579209417e-01, 2.781736851e-01, -4.710203707e-01, 
            -3.357513845e-01, 1.885419488e-01, 3.708208799e-01, 
            -8.179461956e-02, 1.281388551e-01, 2.892676592e-01, 
            9.569945186e-02, 5.851930976e-01, -2.635148168e-01, 
            5.122740194e-02, 4.458459467e-02, -1.368001699e-01, 
            1.279962212e-01, -1.444816142e-01, 2.518486381e-01, 
            -2.865005136e-01, 1.076020300e-01, 1.351188570e-01, 
            7.968831658e-01, 3.934147209e-02, 3.979310989e-01, 
            1.849920005e-01},
        {-1.439098865e-01, -8.035510778e-01, 2.923403978e-01, 
            3.461633027e-01, 1.538761612e-02, 2.921521068e-01, 
            -2.922783494e-01, 1.920907795e-01, 4.151519835e-01, 
            -1.204276204e+00, 1.168079153e-01, -4.491834715e-02, 
            2.563620210e-01, -2.258836776e-01, -8.476295471e-01, 
            -3.188753128e-01, 3.440321386e-01, -1.867354214e-01, 
            -4.242866337e-01, 2.069700211e-01, -3.988180310e-02, 
            3.697214276e-02, -1.179059505e+00, -2.208736027e-03, 
            3.731004000e-01, -2.175445408e-01, 1.010017470e-01, 
            4.537524879e-01, -3.376412094e-01, 2.413318753e-01, 
            1.127077490e-01, -1.063049555e+00, 2.426531166e-02, 
            3.354560137e-01, -3.573101759e-01, 3.707902431e-01, 
            9.422829002e-02, -1.408539891e+00, -5.575630665e-01, 
            -1.090941578e-01, 4.269468188e-01, -1.295581758e-01, 
            3.748827577e-01, 1.540859193e-01, 3.825199604e-02, 
            2.868057191e-01, -7.951654792e-01, 8.602986485e-02, 
            2.166239917e-02, 1.745591164e-01, 2.411131561e-01, 
            -4.363476038e-01, 1.208330393e-01, 2.273893654e-01, 
            -2.709276602e-02, 3.721697256e-02, -5.085422993e-01, 
            3.126014471e-01, 1.348017603e-01, 9.157915413e-02, 
            2.973723784e-02, 4.473518729e-01, 8.254451305e-02, 
            -3.185030520e-01, -7.768226415e-02, 2.637311518e-01, 
            -1.014692068e+00, -5.049854517e-01, 1.628906727e-01, 
            -1.417167783e-01, 1.985456795e-01, -6.615796089e-01, 
            -3.862456679e-01, 4.506419599e-01, 4.381097555e-01, 
            2.859886587e-01, 8.146703988e-02, -4.502979666e-02, 
            1.753902249e-02, 1.276665777e-01, 2.779255509e-01, 
            1.374067515e-01, -2.055951357e-01, -4.523418471e-02, 
            2.560090832e-02, -4.662530962e-03, 9.730172902e-02, 
            2.640996575e-01, -8.607761562e-02, 2.074006945e-02, 
            1.654801518e-01, -3.386898041e-01, 9.097614884e-02, 
            6.295112893e-03, 3.753874600e-01, 1.240830794e-01, 
            7.996229082e-02, 6.596850604e-02, 1.212419495e-01, 
            8.821140975e-02},
        {-2.103424966e-01, 3.094575405e-01, -3.374828398e-01, 
            -7.438945025e-02, -2.948639393e-01, -1.822096854e-01, 
            -2.720405459e-01, -3.733709455e-01, -9.694021940e-02, 
            2.364188731e-01, -7.311981171e-02, -9.145702720e-01, 
            -1.363450587e-01, 4.376061857e-01, -3.937414289e-02, 
            4.489231408e-01, -2.197781652e-01, -3.429422081e-01, 
            4.890016019e-01, -3.278169632e-01, 8.037480712e-02, 
            -1.003187969e-01, -6.048997864e-02, -1.981111318e-01, 
            -2.073310912e-01, -6.549280882e-01, 4.058360755e-01, 
            -1.901142001e-01, -2.804908156e-01, -3.822775781e-01, 
            -3.291472793e-02, 1.492582411e-01, -1.987143159e-01, 
            1.540292501e-01, 4.555432796e-01, -1.766444892e-01, 
            -4.683277607e-01, 7.474867254e-02, -1.989525259e-01, 
            -2.903309762e-01, -2.374159098e-01, -6.878339499e-02, 
            2.423412725e-02, -2.197807580e-01, -6.430025697e-01, 
            -3.199397624e-01, -3.341509029e-02, -3.219938576e-01, 
            -1.864289194e-01, 1.806848496e-01, -1.292935759e-01, 
            -4.419012368e-01, -3.889214993e-01, -9.790791571e-02, 
            -3.482302725e-01, -3.007358015e-01, 3.426090479e-01, 
            -1.141140163e-01, 2.201285809e-01, -4.456361234e-01, 
            2.066950649e-01, -2.160760909e-01, 1.431983337e-02, 
            -6.891016662e-02, -6.399760842e-01, 3.359660208e-01, 
            -7.389924675e-02, -3.553113639e-01, -5.321109295e-02, 
            -2.599393129e-01, -1.890769899e-01, -1.843986958e-01, 
            1.155299693e-01, -5.792678595e-01, -3.551110253e-02, 
            1.981610954e-01, 2.467963547e-01, 2.660369314e-02, 
            -4.154950976e-01, -3.049848080e-01, -2.201512083e-02, 
            5.138905644e-01, 5.907244682e-01, -1.489537116e-02, 
            -1.261018515e-01, 5.489465222e-02, 4.726274014e-01, 
            9.443433583e-02, -1.295706332e-01, -4.825821519e-02, 
            5.502250791e-02, -1.321416646e-01, 2.615214586e-01, 
            -7.503267527e-01, -7.685591280e-02, 3.993002772e-01, 
            -2.969079614e-01, -9.097026587e-01, 2.240086645e-01, 
            5.861541629e-02},
        {-3.794357777e-01, -2.606956363e-01, -3.592788875e-01, 
            1.849199533e-01, 4.877903163e-01, 2.487196177e-01, 
            -5.001360178e-01, 2.718452215e-01, 1.331596971e-01, 
            -3.309391811e-02, -1.619078368e-01, -4.918186963e-01, 
            -1.168700680e-01, -1.519521922e-01, 4.609766304e-01, 
            -2.817600071e-01, -4.679863155e-02, -1.734383553e-01, 
            -6.746810079e-01, 8.001014590e-02, -1.776754111e-02, 
            -1.251887530e-01, 2.076399177e-01, 2.328711003e-01, 
            3.594569862e-02, -4.650087357e-01, -2.424102575e-01, 
            -1.890951544e-01, 2.192671150e-01, 2.091872543e-01, 
            -1.503297389e-01, -4.096372426e-02, -5.871255398e-01, 
            -2.707451880e-01, 4.125753418e-02, -3.276419127e-03, 
            3.810779154e-01, 2.895580828e-01, 3.431569636e-01, 
            -2.233967185e-01, 1.183757186e-01, 6.510020792e-02, 
            -2.366036475e-01, -3.748955131e-01, -4.600614905e-01, 
            -1.529287547e-01, 3.499535322e-01, 2.054319382e-01, 
            1.607755274e-01, -1.268208325e-01, -4.110073447e-01, 
            1.911269575e-01, -1.118799597e-01, -1.656312943e-01, 
            4.673046470e-01, -1.679284275e-01, -3.906541467e-01, 
            -3.127202392e-01, -4.253809154e-01, 2.054072171e-01, 
            -3.092877865e-01, -2.703951895e-01, -5.766454339e-01, 
            4.797698259e-01, -9.738737345e-02, -1.538810581e-01, 
            2.955482900e-01, 9.680291265e-02, -2.755335905e-02, 
            -1.339752972e-01, -2.780453563e-01, 7.874253392e-02, 
            -2.049096823e-01, -7.091683894e-02, -1.684434861e-01, 
            1.390130669e-01, -6.836327910e-02, 3.815935850e-01, 
            4.906410575e-01, 2.574965358e-01, 1.996128261e-01, 
            -1.716141701e-01, -7.694183588e-01, -4.748290777e-01, 
            -1.461656541e-01, -2.866960168e-01, 3.857623637e-01, 
            1.916303486e-01, -1.963289082e-01, 1.598085314e-01, 
            2.735308111e-01, 3.857449889e-01, -2.405501455e-01, 
            3.261594176e-01, -1.217714176e-01, -4.013654292e-01, 
            -3.941083550e-01, -6.820553541e-01, -2.096781582e-01, 
            5.251750350e-03},
        {-1.978240013e-01, -2.642094493e-01, 4.583655298e-01, 
            5.621716976e-01, -2.195085287e-01, 2.678622007e-01, 
            -1.102292910e-01, -4.839327559e-02, 5.606342554e-01, 
            2.017741650e-01, -6.363453716e-02, -1.056706086e-01, 
            3.345570862e-01, 1.858503520e-01, -7.832412720e-01, 
            2.505036294e-01, 1.770606637e-01, -3.893232718e-02, 
            -8.202400059e-02, 3.664915860e-01, 3.418704867e-01, 
            2.569424808e-01, -1.210313201e+00, -2.324943244e-01, 
            2.612474561e-01, -1.636609733e-01, 5.665940046e-01, 
            3.588497639e-01, -6.577874422e-01, 1.387521625e-01, 
            -4.757094383e-01, -1.563381255e-01, 3.594423831e-02, 
            4.444936812e-01, 1.234632172e-02, 3.357633054e-01, 
            -4.655590281e-02, -6.745253205e-01, -1.062452197e+00, 
            9.739231318e-02, 5.902484059e-01, -3.278041482e-01, 
            3.792178333e-01, 3.257308602e-01, -1.721141934e-01, 
            2.969907522e-01, -4.969206750e-01, -1.394919157e-01, 
            3.293698430e-01, 7.068635821e-01, 2.489085793e-01, 
            -1.527712494e-01, 2.665910125e-01, 6.064125896e-01, 
            -3.129045963e-01, -1.761208028e-01, -9.937983006e-02, 
            6.827380061e-01, 1.319228262e-01, 2.256949693e-01, 
            2.236315012e-01, 6.309883595e-01, -4.868786409e-02, 
            -3.493923545e-01, -5.538664758e-02, 5.817477778e-02, 
            -6.564267874e-01, -4.215650558e-01, 4.574834704e-01, 
            -1.189570315e-02, 3.856979311e-02, -3.393113315e-01, 
            4.424146935e-02, 1.911927611e-01, 3.522347510e-01, 
            8.542045206e-02, 4.217475355e-01, -4.609274566e-01, 
            -1.970840693e-01, 2.157207765e-02, 2.378600240e-01, 
            5.969569683e-01, 2.275146097e-01, 2.910749242e-02, 
            3.528122902e-01, 1.517744958e-01, 1.983654499e-01, 
            4.402237236e-01, -2.765250206e-01, -5.030824617e-02, 
            -7.758449018e-02, -3.141882122e-01, 2.405556142e-01, 
            -2.344113290e-01, 7.583430409e-01, 4.358969331e-01, 
            -8.023564517e-02, 5.271354690e-02, 3.069590926e-01, 
            9.815858305e-02},
        {-3.223734498e-01, 3.819848597e-02, 2.177763730e-01, 
            6.798899174e-02, 1.679563895e-02, 4.277273417e-01, 
            2.205758542e-01, 5.889813974e-02, 4.792731106e-01, 
            -8.611049652e-01, 5.970888212e-02, -4.624921456e-02, 
            8.320990205e-02, 2.936724424e-01, -8.618785739e-01, 
            2.033891529e-01, 3.985465169e-01, 1.305944920e-01, 
            7.616320997e-02, 4.055561423e-01, 1.956989914e-01, 
            -3.730956316e-01, -1.754668951e+00, -3.409844339e-01, 
            5.836669803e-01, 4.944246709e-01, 1.565259546e-01, 
            1.521369815e-01, -5.686523765e-02, 6.602001190e-02, 
            2.273629308e-01, -7.159667015e-01, 2.035133690e-01, 
            2.830679715e-01, 1.721917391e-01, 5.101898313e-01, 
            -1.412662417e-01, -2.135449052e-01, -1.470100641e+00, 
            1.584877633e-02, 4.357168078e-01, -3.670991361e-01, 
            1.787135452e-01, 2.740393579e-01, -1.045086458e-01, 
            4.711364210e-02, -1.595048159e-01, 5.223365128e-02, 
            4.346553981e-01, 3.858656585e-01, 3.437919021e-01, 
            6.082068682e-01, 6.324695051e-02, 4.942297339e-01, 
            1.090351343e-01, -6.729999930e-02, 1.105772555e-01, 
            4.763065577e-01, 5.536185950e-02, 3.222863376e-01, 
            9.900893271e-02, 4.550547898e-01, 1.463829428e-01, 
            -3.459709585e-01, -3.283529878e-01, 4.407022297e-01, 
            9.836133569e-02, 3.075921535e-01, 3.680559993e-01, 
            -5.621870160e-01, -1.689220965e-01, 3.583965898e-01, 
            -5.270062685e-01, -2.505521178e-01, 1.533936113e-01, 
            -5.285254717e-01, 7.190240920e-02, -1.445891380e+00, 
            -1.171108056e-02, -3.672526181e-01, 2.520625293e-01, 
            -1.274062991e-01, -1.057276577e-01, 1.376563450e-03, 
            9.821700305e-02, 5.292338133e-01, 1.361061037e-01, 
            1.734820157e-01, -3.723120391e-01, 2.608989477e-01, 
            -7.270718813e-01, -2.109468728e-01, 9.608893842e-02, 
            9.752967209e-02, 4.999402761e-01, 2.386154383e-01, 
            6.776200980e-02, -2.960109711e-01, 1.442718804e-01, 
            1.412139088e-01},
        {2.871254385e-01, -5.749781430e-02, -3.521178961e-01, 
            1.724933833e-01, 2.317513376e-01, -4.219297320e-02, 
            -1.803219020e-01, 2.355485409e-01, 7.419040054e-02, 
            -6.314986199e-02, -4.405202866e-01, -3.115288541e-02, 
            -2.532320619e-01, -3.730522096e-01, 2.916767895e-01, 
            -7.378966808e-01, 1.491330564e-01, 3.618311584e-01, 
            -5.277553201e-01, 1.720614880e-01, -1.600716561e-01, 
            -2.153116763e-01, -1.426147372e-01, 6.241964176e-02, 
            1.771576144e-02, -3.059447110e-01, -3.188481927e-01, 
            -2.440648340e-02, 4.333559275e-01, 2.997112274e-02, 
            6.646960229e-02, 1.401301622e-01, -4.761396646e-01, 
            -1.781627685e-01, -3.914895952e-01, 1.980118454e-01, 
            6.497946382e-02, -1.591980159e-01, -2.266019117e-03, 
            1.335286796e-01, 4.955766257e-03, -5.946169421e-02, 
            -1.085327193e-01, -3.917593658e-01, 1.901171505e-01, 
            7.162944973e-02, -3.706269711e-02, 7.273221761e-02, 
            -1.064699027e-04, -3.641656637e-01, -4.221817255e-01, 
            -4.108066559e-01, 1.062123924e-01, -1.085831672e-01, 
            5.078628063e-01, -1.439164430e-01, -5.885570049e-01, 
            -2.026328146e-01, -3.471509516e-01, 2.992149629e-02, 
            -2.243149579e-01, -1.070909724e-01, -3.344904780e-01, 
            3.147411644e-01, 1.235715747e-01, -2.916717231e-01, 
            2.182741910e-01, -3.660455942e-01, -6.003072858e-02, 
            2.035081834e-01, 5.349924788e-02, -9.537053853e-02, 
            -1.047109962e-01, -3.638231754e-01, -6.219898816e-03, 
            2.808105573e-02, 4.371953011e-02, 1.753163487e-01, 
            1.577055901e-01, 2.018155009e-01, 1.343279630e-01, 
            -5.250349641e-01, -6.023613811e-01, -3.984696269e-01, 
            -5.391456485e-01, -4.936330393e-02, 4.209174216e-01, 
            -6.941376626e-02, -1.783952001e-03, 5.198100954e-02, 
            -3.122292459e-01, 2.100791186e-01, -2.566453218e-01, 
            -4.273962602e-02, -6.441996247e-02, -3.428801298e-01, 
            -8.656293154e-01, -3.370230198e-01, -2.145355940e-01, 
            -5.153167844e-01},
        {2.247264087e-01, -3.844786584e-01, -1.706370711e-01, 
            -2.247182131e-01, -1.434637308e-01, -7.796251774e-02, 
            1.371163130e+00, -4.150342345e-01, 5.876142904e-02, 
            -4.910033047e-01, 7.385529578e-03, 1.227548003e+00, 
            -1.723152697e-01, -4.043545127e-01, 5.290223360e-01, 
            9.862033278e-02, -3.534668684e-01, 1.296249747e+00, 
            2.619752586e-01, 4.391924739e-01, -2.169005014e-02, 
            -1.817244142e-01, -7.552323341e-01, -3.825314045e-01, 
            2.274675965e-01, 2.521356940e-01, -8.758202940e-02, 
            -1.010879949e-01, -1.636238337e+00, 6.296839565e-02, 
            -2.351344228e-01, -5.678546429e-01, 5.314801335e-01, 
            -6.429161429e-01, -4.667200446e-01, 1.468022466e-01, 
            1.320510149e+00, -1.053523421e+00, -9.157150388e-01, 
            7.941110134e-01, 2.732928991e-01, 7.275294513e-02, 
            4.277788997e-01, -4.131641090e-01, 3.015005589e-01, 
            -5.474739671e-01, -8.012732863e-01, 7.190913707e-02, 
            2.416826934e-01, -2.344268709e-01, -5.859157443e-01, 
            1.722308695e-01, -4.113477468e-01, -1.970750540e-01, 
            1.883965582e-01, 3.855476379e-01, 2.849045992e-01, 
            -2.263753861e-01, -1.237985268e-01, -1.357914507e-01, 
            -1.399498433e-01, -1.967607252e-02, 9.968779236e-02, 
            -2.920443416e-01, 1.049927831e+00, 3.958541751e-01, 
            -1.134250879e+00, -3.930111527e-01, 2.106176615e-01, 
            3.115155697e-01, 7.491425425e-02, -6.020324230e-01, 
            4.925488830e-01, -7.458483800e-03, 1.400908530e-01, 
            -4.472381473e-01, -1.435154080e-01, 3.570390642e-01, 
            -1.002875790e-01, -3.741882443e-01, -4.441787302e-01, 
            2.824594080e-01, 6.049650311e-01, 7.265179604e-02, 
            2.039321959e-01, -6.989173889e-01, 5.533968806e-01, 
            -4.604881108e-01, -3.444339633e-01, 3.030695915e-01, 
            -2.264121771e-01, 1.937764287e-01, -1.523309648e-01, 
            -6.819821149e-02, -1.093211919e-01, -2.206035256e-01, 
            1.427192241e-01, -7.314345986e-02, -2.676696703e-02, 
            3.027803302e-01},
        {3.101025820e-01, -9.350347519e-02, 6.981235743e-02, 
            -6.949026883e-02, -2.384642065e-01, -5.207052454e-02, 
            2.202252895e-01, 1.504981667e-01, -2.377780154e-02, 
            -2.153588831e-02, 3.575144410e-01, -2.040823996e-01, 
            3.625598038e-03, 5.764827132e-02, 1.693855077e-01, 
            -4.143422544e-01, -1.642578095e-02, -3.641697764e-01, 
            -6.576652080e-02, -6.188969687e-02, 2.424539924e-01, 
            -1.412108541e-01, 1.590515673e-02, 4.362199605e-01, 
            -5.932774544e-01, -2.400224209e-01, -1.621337682e-01, 
            -7.923652977e-02, 4.610984400e-02, 3.101270199e-01, 
            6.970552728e-03, 1.831966788e-01, -4.106955230e-01, 
            5.444282666e-02, 9.926331788e-02, -3.196790814e-01, 
            1.664565653e-01, -1.423768401e-01, -3.220727742e-01, 
            1.557456404e-01, -1.638681628e-02, 4.781889617e-01, 
            -1.646333337e-01, 2.074538320e-01, 2.609348893e-01, 
            2.311098129e-01, -3.803793192e-01, -1.370472461e-01, 
            -1.054030284e-01, -1.678565145e-01, -8.630802482e-02, 
            -1.372344885e-02, 2.399970219e-02, -1.753204614e-01, 
            -2.310415208e-01, 3.229526877e-01, -6.117521599e-02, 
            -9.784041345e-02, -2.321178764e-01, 9.393447638e-02, 
            6.862355024e-02, 2.300346494e-01, 1.283735484e-01, 
            -3.827780485e-01, -1.943124682e-01, -5.423484445e-01, 
            -1.249582469e-01, -3.303792700e-02, -1.479480267e-01, 
            2.652642429e-01, 2.728602588e-01, 8.799322695e-02, 
            -4.007551819e-02, 3.345580399e-02, 1.095098034e-01, 
            -2.453450710e-01, -9.530716389e-02, 1.620813273e-02, 
            -1.793395281e-01, 2.698410153e-01, 1.135595590e-01, 
            -5.396136045e-01, -1.975877136e-01, -1.230851561e-01, 
            -1.094337031e-01, -2.243080735e-01, 2.934123874e-01, 
            -4.113933817e-02, 5.274022818e-01, 1.532611400e-01, 
            5.094947815e-01, 5.000669360e-01, -2.119313627e-01, 
            2.890276015e-01, -8.216641843e-02, -2.679695785e-01, 
            -4.868409038e-01, -1.132223979e-01, -3.009448647e-01, 
            -1.032884121e-01},
        {-1.566985548e-01, -1.168352067e-01, 1.367934346e-01, 
            2.663396895e-01, -4.449670762e-02, 2.486009151e-01, 
            -3.410491347e-01, -2.509844899e-01, 2.663768642e-02, 
            -8.646811545e-02, -2.788730860e-01, -3.060110211e-01, 
            3.762595356e-02, 4.023589492e-01, -1.240255460e-01, 
            3.691942990e-01, 1.870518327e-01, -2.639848292e-01, 
            2.932865024e-01, -1.779036224e-01, 1.022707447e-01, 
            2.263069302e-01, -2.715878487e-01, -8.940469623e-01, 
            2.291042805e-01, 2.201408334e-02, 1.613029391e-01, 
            3.794364035e-01, -5.542348623e-01, -5.638492107e-02, 
            5.001982450e-01, -7.666984200e-02, 5.073195100e-01, 
            2.143450826e-01, -1.711557359e-01, -7.687760051e-03, 
            4.978582263e-02, -5.506266952e-01, -4.223327041e-01, 
            -2.141712457e-01, 2.919518054e-01, -3.775292933e-01, 
            1.610410362e-01, 2.964682281e-01, -1.364751607e-01, 
            -1.100504473e-01, -6.706526875e-01, -1.081751883e-01, 
            4.012233764e-02, 2.709103525e-01, 1.225757450e-01, 
            -1.369167119e-01, -3.869627416e-01, 2.940544784e-01, 
            -3.117763251e-02, -1.670939326e-01, 4.742656052e-01, 
            1.879838556e-01, -4.322501272e-02, -1.145001724e-01, 
            1.807011515e-01, 2.086470574e-01, 3.530873358e-01, 
            -5.546045676e-02, -8.304411173e-02, 3.445290029e-01, 
            -3.354028761e-01, -2.243524790e-01, 1.938573271e-01, 
            -4.238844514e-01, 1.392640322e-01, -4.257444441e-01, 
            7.159272581e-02, 3.835774958e-01, 2.102311999e-01, 
            -8.455008268e-02, 5.497500300e-02, -2.668838501e-01, 
            -4.878531024e-02, 7.764475420e-03, 7.746998966e-02, 
            2.517783940e-01, 3.656196892e-01, 1.869604141e-01, 
            -1.065021381e-01, 3.050352037e-01, -2.714634538e-01, 
            1.816273630e-01, -3.804543614e-01, -4.072327018e-01, 
            -2.785705328e-01, -5.457589626e-01, 2.044823021e-01, 
            -3.255074620e-01, 2.284947783e-01, 2.625630200e-01, 
            -7.159759998e-01, -3.211495876e-01, 1.388816237e-01, 
            -3.492280543e-01},
        {-9.429783374e-02, 8.852705359e-02, 6.132953241e-02, 
            2.161027789e-01, 4.533697963e-01, 3.080784976e-01, 
            -7.080155611e-01, -1.959787011e-01, 1.673888564e-01, 
            -2.134115547e-01, 5.226149410e-02, -3.568453789e-01, 
            1.612659544e-02, -3.391243219e-01, 3.074223101e-01, 
            -5.388542414e-01, -2.496337593e-01, -1.145528182e-01, 
            -8.586578965e-01, 2.590679526e-01, 4.157924354e-01, 
            1.350302845e-01, 5.110580921e-01, 2.708365917e-01, 
            3.208655119e-02, -3.284569681e-01, -5.012738705e-01, 
            1.338251382e-01, 3.120955825e-01, 1.834469438e-01, 
            -1.545702070e-01, -1.599333733e-01, -5.400148034e-01, 
            -4.706091434e-02, -2.274896353e-01, 4.122159183e-01, 
            4.163657501e-02, 3.679724932e-01, 3.568107784e-01, 
            -2.964749187e-02, 2.479140162e-01, 8.181577921e-01, 
            -7.906267047e-02, 1.234191563e-02, -5.221117735e-01, 
            9.342830628e-02, 3.375573754e-01, 3.536799252e-01, 
            5.871278420e-02, 1.273263991e-01, 1.788515747e-01, 
            3.029413819e-01, 3.146827593e-02, -2.297385037e-02, 
            3.426432610e-01, -4.519172609e-01, -9.260972738e-01, 
            1.386498064e-01, -5.398358107e-01, 4.927652180e-01, 
            -4.101583362e-01, 1.486111581e-01, -4.820635915e-01, 
            6.829483509e-01, -4.160810709e-01, -3.306638598e-01, 
            2.423982769e-01, 3.168279827e-01, 1.967401654e-01, 
            -5.107122660e-01, -3.554900289e-01, 1.768210381e-01, 
            -3.868745863e-01, 3.477041721e-01, 3.505458683e-02, 
            1.153408289e-01, -1.399386525e-01, 2.960066199e-01, 
            4.042917192e-01, 4.196848720e-02, -2.578959167e-01, 
            -3.476717770e-01, -6.334291101e-01, -4.836769402e-01, 
            1.824146658e-01, -1.968592405e-01, 4.173533320e-01, 
            2.582971752e-01, 6.319065690e-01, 2.847595215e-01, 
            5.753548741e-01, 8.270323873e-01, -4.151949883e-01, 
            4.827288687e-01, 2.549322248e-01, -3.274608552e-01, 
            -4.155986011e-01, -4.867676795e-01, -4.065423310e-01, 
            -3.980335314e-04},
        {-7.520306110e-01, 6.194215268e-02, -2.383562326e-01, 
            2.757607400e-01, 3.671720624e-01, -1.953019761e-02, 
            -1.082951546e+00, 2.385698408e-01, 1.657750458e-01, 
            2.954671159e-02, 3.079001904e-01, 3.842033446e-01, 
            -3.378788009e-02, 1.059051156e-01, -8.196604252e-02, 
            -2.472386211e-01, -6.438568234e-02, -2.153827697e-01, 
            -4.131239355e-01, 4.997681379e-01, -1.810861230e-01, 
            -1.427441486e-03, -2.892378867e-01, 1.331729144e-01, 
            1.939711571e-01, -2.561369240e-01, -5.673310161e-02, 
            -2.250431851e-02, 1.392686646e-02, 1.755412072e-01, 
            3.823360428e-02, -2.746970654e-01, -2.125716358e-01, 
            -5.308866873e-02, 1.248355657e-01, 2.412776351e-01, 
            -4.143036902e-01, -1.963398904e-01, 1.174019575e-01, 
            5.124868751e-01, -2.128789872e-01, 1.645624638e-01, 
            -2.472041249e-01, 2.576303482e-02, -8.907209039e-01, 
            1.525790989e-01, -2.599390037e-02, 2.407416701e-01, 
            4.796935916e-01, -2.227179408e-01, -2.528600097e-01, 
            7.640944421e-02, -6.642062217e-02, -7.386486977e-02, 
            1.896183640e-01, 6.063484550e-01, -3.743297160e-01, 
            7.802105974e-04, -3.386054337e-01, -2.790997028e-01, 
            2.559835650e-02, -1.966115981e-01, -2.894985378e-01, 
            3.114943802e-01, -5.833813548e-01, 4.647773504e-01, 
            2.606503963e-01, -1.950979531e-01, 2.810088992e-01, 
            -8.448551893e-01, -4.448226094e-02, -5.235593766e-02, 
            -3.127714097e-01, 1.027341336e-01, 3.336727992e-02, 
            3.606949747e-02, 1.445246041e-01, -3.136848807e-01, 
            3.268484175e-01, 2.102109045e-01, 1.960754097e-01, 
            -2.222698778e-01, -3.797907233e-01, -2.579370737e-01, 
            1.824073195e-01, -1.800092757e-01, 5.333644152e-01, 
            1.159952655e-01, -5.098382011e-02, 2.319708914e-01, 
            4.798755795e-02, -4.230859280e-01, 4.320095852e-02, 
            1.188403461e-02, 9.995109588e-02, -2.356185317e-01, 
            3.703064471e-02, -7.876182199e-01, -2.225933522e-01, 
            -9.911492467e-02},
        {2.100064605e-01, 3.014349379e-02, 2.702928782e-01, 
            -3.835187852e-01, -4.758161008e-01, -3.820115700e-02, 
            -1.392241120e-01, -2.446633019e-02, -4.024438560e-01, 
            1.836904734e-01, 1.173388734e-01, -3.989764750e-01, 
            -1.697043031e-01, -1.185253561e-01, 1.571296751e-01, 
            -1.163920313e-01, -2.227858752e-01, 1.792886704e-01, 
            2.728736699e-01, 4.101438820e-02, 2.705410719e-01, 
            -1.456065923e-01, 2.901976407e-01, 2.204492688e-01, 
            -2.363018692e-01, -1.184477881e-01, 2.042047679e-01, 
            -1.689235270e-01, 5.454430822e-03, -3.891883790e-01, 
            -5.118808523e-02, -2.316025347e-01, 8.651669323e-02, 
            6.981068850e-02, -8.239396214e-01, -1.449977756e-01, 
            9.829583764e-02, -2.209471315e-01, -1.222723573e-01, 
            -3.714966476e-01, -3.819787204e-01, 4.897224605e-01, 
            -4.256732166e-01, 1.842308789e-01, 1.262937933e-01, 
            2.929822803e-01, -6.816311479e-01, -1.493222564e-01, 
            -2.095235744e-03, -2.886800170e-01, 2.091302723e-01, 
            1.171745174e-02, 1.007713936e-02, -5.162909627e-01, 
            4.691139758e-01, -4.393210113e-01, 2.897663116e-01, 
            -3.435943425e-01, -1.053123642e-02, 3.390343785e-01, 
            -1.185941696e-01, -3.667874634e-02, -1.876981258e-01, 
            -5.940808058e-01, -6.760533452e-01, -3.826923668e-01, 
            -1.929836571e-01, 3.013756573e-01, -2.957847714e-01, 
            5.309689417e-02, -3.854627013e-01, 1.019953471e-02, 
            -9.384974092e-02, 6.028807536e-02, -3.936588168e-01, 
            -4.923872352e-01, -1.102170795e-01, 1.920506805e-01, 
            -4.845782518e-01, -4.054100215e-01, 1.312990785e-01, 
            -9.975337237e-02, 1.201998070e-01, -1.498412341e-01, 
            -1.476620138e-01, 2.632500231e-01, 3.743990362e-01, 
            -3.812463582e-01, 5.765681267e-01, 1.196860671e-01, 
            2.786466777e-01, 3.944179714e-01, -1.653243788e-02, 
            8.386699855e-02, -5.837349296e-01, -2.026462704e-01, 
            5.284424871e-02, -2.049502134e-01, -1.143029854e-01, 
            5.397288501e-02},
        {-3.269887269e-01, -1.030235365e-01, 2.946690023e-01, 
            2.490231544e-01, 2.723067403e-01, 1.022548079e-01, 
            -5.603355169e-01, -3.252818584e-01, 3.113644719e-01, 
            -9.420785308e-02, -1.218472794e-01, -6.360866427e-01, 
            -5.153315514e-02, -1.659796573e-02, 2.770986557e-01, 
            5.669952929e-02, -6.218599528e-02, -1.794791669e-01, 
            -2.290993780e-01, -3.435526490e-01, 4.895447195e-02, 
            1.054068133e-01, 1.689673811e-01, -8.301111311e-02, 
            3.076442517e-02, -3.314628005e-01, 1.247966513e-01, 
            2.969352715e-02, -3.385650814e-01, 4.583358169e-01, 
            -1.096663158e-02, 4.454010352e-02, -2.724718153e-01, 
            -1.914910525e-01, -3.077600002e-01, -2.973900139e-01, 
            -7.159090042e-02, -6.357020885e-02, 1.411550343e-01, 
            -3.067139685e-01, 3.258991838e-01, -7.717519253e-02, 
            2.561577559e-01, -1.740420461e-01, -1.034046039e-01, 
            1.582908332e-01, 3.268424049e-02, 2.357012779e-02, 
            -3.724382222e-01, 6.263993680e-02, -3.952777386e-01, 
            -4.746595025e-01, -1.715990156e-01, 4.413616359e-01, 
            2.567792833e-01, -1.041416645e+00, -1.062933430e-01, 
            3.104359508e-01, -4.427258372e-01, -6.389156729e-02, 
            9.157928079e-02, 2.430259138e-01, -1.094333008e-01, 
            1.760584116e-01, -6.899347901e-01, 8.181072772e-02, 
            -1.830511987e-01, -1.382675320e-01, -4.670208320e-02, 
            -9.986015409e-02, -2.599233091e-01, 6.810655445e-02, 
            8.382708579e-02, 5.546110123e-02, 1.042630821e-01, 
            8.004434407e-02, 1.585887372e-01, 1.128098667e-01, 
            2.531225085e-01, -1.622883379e-01, -3.023108542e-01, 
            1.652536243e-01, -2.084591091e-01, -3.978150487e-01, 
            -1.747244596e-02, -4.459212124e-01, -2.808550596e-01, 
            -3.410357237e-02, -2.094570845e-01, -3.889120221e-01, 
            -1.896041632e-01, -5.265939832e-01, -1.511531025e-01, 
            -2.197835296e-01, 2.999481559e-01, 3.035599599e-03, 
            -4.579490721e-01, -2.621134222e-01, -2.124172002e-01, 
            -1.116278246e-01},
        {5.763507634e-02, -1.216408014e-01, -3.379326547e-03, 
            4.663249105e-02, -3.006749228e-02, 2.016929677e-03, 
            -5.160977840e-01, 1.404485293e-02, -7.978934795e-03, 
            -1.173461899e-01, 6.303876638e-02, -6.746123433e-01, 
            2.150810361e-01, -2.941204607e-02, -5.583565831e-01, 
            2.046983689e-01, 2.445722558e-02, -7.576426268e-01, 
            -6.915158033e-02, -1.429065317e-01, 6.262961775e-02, 
            1.910617203e-01, 8.443725854e-02, 1.099764258e-01, 
            -1.000029966e-01, 6.837105006e-02, 8.366765082e-02, 
            2.385647446e-01, 1.830602586e-01, -9.723535925e-02, 
            -4.810481891e-02, -1.788855493e-01, -7.501643151e-02, 
            1.273009777e-01, -1.855073720e-01, -7.032629848e-02, 
            -4.889351726e-01, -2.693309784e-01, 6.658896804e-02, 
            -1.905885786e-01, 1.576636918e-02, -6.786999851e-02, 
            -8.065517247e-02, 1.809904873e-01, 4.291697592e-02, 
            1.428870857e-01, -2.159672044e-02, -1.115176976e-01, 
            -8.318025619e-02, 2.466760278e-01, -8.649084717e-02, 
            1.648531295e-02, -5.589924008e-02, -3.834615648e-02, 
            -4.169600308e-01, -2.595953643e-01, 1.264483631e-01, 
            1.218980458e-02, -3.119385988e-02, 1.427553445e-01, 
            -1.484750211e-01, -5.846330151e-02, -1.001057550e-01, 
            -2.268923521e-01, -4.871670902e-01, -2.236962877e-02, 
            -1.010197923e-01, 7.767751813e-02, -3.336257488e-02, 
            -1.050560102e-01, 8.226630092e-02, -4.881738871e-02, 
            -1.076032072e-01, -2.116900124e-02, 4.191038013e-02, 
            -9.374091774e-02, 1.840438396e-01, -3.053201921e-02, 
            -2.428341955e-01, 1.335728914e-03, 3.023209795e-02, 
            4.233142734e-02, 3.499903530e-02, 5.289286003e-02, 
            -1.203249022e-01, -1.988632418e-02, -1.420283318e-01, 
            -3.244603053e-02, 8.057202399e-02, -1.107010394e-01, 
            3.450130299e-02, -1.495615840e-01, 2.188291550e-01, 
            1.200108305e-01, 2.551385164e-01, 8.652998507e-02, 
            -3.023144603e-02, -2.169526666e-01, -8.005529642e-02, 
            -1.770521849e-01},
        {-3.980755508e-01, -5.795221329e-01, 2.616782486e-01, 
            2.985797822e-01, 1.082651839e-01, 2.658457756e-01, 
            -8.567942977e-01, -5.600345135e-01, 3.777793944e-01, 
            5.166807398e-02, -1.185492333e-02, -5.090806484e-01, 
            -5.248270929e-02, -7.453591097e-04, -1.089905262e+00, 
            1.499617100e-01, -8.187227696e-02, -1.587767482e+00, 
            -8.377075940e-02, 2.187788859e-02, 1.241226122e-01, 
            1.894519329e-01, 1.465130150e-01, -3.745326102e-01, 
            1.722812057e-01, 7.801729441e-02, 2.929481566e-01, 
            2.866689116e-02, -1.312664002e-01, -1.501892805e-01, 
            -1.835627109e-01, -3.729891777e-02, 6.468681246e-02, 
            2.220829129e-01, -2.094762921e-01, 3.516586125e-01, 
            -9.629172683e-01, -3.877916932e-02, -2.359876931e-01, 
            -2.331346869e-01, 4.165516198e-01, -7.457483411e-01, 
            4.960778058e-01, 2.511382662e-02, 4.370346293e-02, 
            -1.392229050e-01, 1.139438897e-01, 3.515740335e-01, 
            2.304100394e-01, 4.890481830e-01, -9.943445027e-02, 
            2.790632844e-01, -2.109862864e-01, 1.677395403e-01, 
            -3.946357071e-01, -1.283403579e-02, 1.726662070e-01, 
            2.811398804e-01, 2.115793526e-01, 3.155178726e-01, 
            8.803188056e-02, 2.196131051e-01, 1.857587844e-01, 
            1.318379790e-01, -2.663263381e-01, -2.736351080e-02, 
            1.139322221e-01, 1.092373580e-01, -3.802656755e-02, 
            -7.796022892e-01, 1.018765718e-01, 6.714349240e-02, 
            2.045185864e-02, -8.842787147e-02, 2.071475387e-01, 
            7.868228853e-02, 1.375090927e-01, -6.341313720e-01, 
            2.495216578e-01, -2.757650316e-01, -2.183208168e-01, 
            1.513627917e-01, -4.982851818e-02, -1.105597168e-01, 
            1.626366824e-01, -5.210760515e-03, -4.278098643e-01, 
            2.028215528e-01, -4.526109099e-01, -1.172721386e-01, 
            -7.174245119e-01, -4.058915377e-01, 2.448431253e-01, 
            2.403728105e-02, 2.951082289e-01, 2.407759726e-01, 
            -4.861545563e-01, 2.451134622e-01, 2.267220914e-01, 
            1.255149841e-01},
        {-4.290251732e-01, 1.977290064e-01, -7.612209916e-01, 
            -4.454268813e-01, 3.786443770e-01, 3.264506757e-01, 
            -4.035299122e-01, 1.013150811e-01, 1.372607499e-01, 
            -1.030813083e-01, 9.985671192e-02, 9.277111888e-01, 
            -7.381103039e-01, 3.335087597e-01, -3.509234190e-01, 
            8.985287696e-02, -8.088704348e-01, -1.934096664e-01, 
            2.453897148e-01, -3.579994142e-01, 2.849254943e-02, 
            -4.592813849e-01, 3.101596236e-01, 2.572445273e-01, 
            1.515610516e-01, 2.267134339e-01, -3.569975868e-02, 
            -6.543359160e-01, 1.450904012e-01, -9.448073059e-02, 
            -1.137797907e-01, 1.644518226e-01, -3.329721093e-01, 
            -3.400609195e-01, 1.922740191e-01, 1.793421507e-01, 
            3.072584271e-01, 5.095699057e-02, 1.422411948e-01, 
            1.450468898e-01, -1.404056191e+00, -1.519719511e-01, 
            -9.253722429e-01, -2.359051406e-01, -4.424795806e-01, 
            2.124147117e-02, 1.106124744e-01, 9.177355468e-02, 
            -2.295593023e-01, -7.847955823e-01, -1.237275228e-01, 
            2.379269749e-01, -3.666711450e-01, -5.801237226e-01, 
            3.961374760e-01, 6.879339218e-01, 1.756478399e-01, 
            -9.305564165e-01, 1.501184106e-01, 1.370744258e-01, 
            9.309360385e-02, -9.078401923e-01, -5.018852353e-01, 
            1.359904259e-01, 2.284725606e-01, 1.317095906e-01, 
            2.290678918e-01, 1.766678393e-01, -1.015909016e-01, 
            3.877648413e-01, -8.300098181e-01, 1.790707707e-01, 
            1.682330817e-01, -1.491495222e-01, -1.039655089e+00, 
            -8.811549842e-02, -6.974853873e-01, 7.715970278e-02, 
            1.121206358e-01, -1.587561518e-01, -4.570570886e-01, 
            -4.513383284e-02, 1.083179936e-01, -3.726243079e-01, 
            -6.043469533e-02, -1.193235740e-01, -6.124320030e-01, 
            -7.575032860e-02, 1.472714841e-01, -3.140762746e-01, 
            5.230804682e-01, -1.448858082e-01, -3.508409858e-01, 
            1.211718917e-01, -1.379750252e+00, -1.111255214e-01, 
            4.772970378e-01, 1.349126101e+00, -3.302032948e-01, 
            -2.900462411e-02},
        {8.574736118e-02, -1.156634018e-01, 2.483203709e-01, 
            5.520846844e-01, -1.528060287e-01, 1.825893819e-01, 
            -2.169126749e+00, -1.264136136e-01, 2.541391551e-01, 
            2.682792842e-01, 6.370124966e-02, -3.958747089e-01, 
            1.924652904e-01, -1.654165685e-01, -7.017775178e-01, 
            1.923303455e-01, 4.732247815e-02, 4.427484795e-02, 
            -5.140362978e-01, 4.641579390e-01, 2.300385088e-01, 
            3.152662516e-01, -9.150748700e-02, 3.625113368e-01, 
            5.931230262e-02, -2.680849731e-01, 3.056409061e-01, 
            2.052081227e-01, 7.401742041e-02, 2.708162665e-01, 
            -3.920444474e-02, -2.522957921e-01, -4.254504293e-02, 
            2.532192133e-02, -8.199648559e-02, 3.115431666e-01, 
            -5.669975281e-01, -2.639415562e-01, -1.504786015e-01, 
            1.640049666e-01, 4.623114765e-01, 3.374126256e-01, 
            1.721801013e-01, 1.641062796e-01, -3.727335334e-01, 
            1.453464776e-01, -1.797291040e-01, -1.570634991e-01, 
            1.661527157e-01, 4.522150159e-01, -1.911070347e-01, 
            3.952369466e-02, 8.399595506e-03, 4.721643031e-01, 
            -2.409952730e-01, -1.147015020e-01, -2.506031990e-01, 
            4.670125544e-01, -3.536752164e-01, 6.888534129e-02, 
            -2.084109187e-01, 4.441794753e-01, -5.350331068e-01, 
            -1.272973567e-01, -7.378455400e-01, -2.457019687e-02, 
            -3.897081017e-01, 3.619192913e-02, 1.445457488e-01, 
            -3.501457274e-01, -5.678953975e-02, -1.595935598e-02, 
            -1.716149747e-01, 2.012068480e-01, 3.149960935e-01, 
            2.223260254e-01, 3.460896313e-01, -5.236971378e-01, 
            1.087851077e-01, 3.081853986e-01, -9.074550867e-02, 
            2.368816435e-01, 1.082818955e-02, -3.366653919e-01, 
            1.677328497e-01, 2.952879667e-02, 3.437262475e-01, 
            5.087480694e-02, 3.068956137e-01, 3.706605434e-01, 
            1.444316953e-01, -6.672251970e-02, -8.483689278e-02, 
            1.760999262e-01, 4.497871399e-01, -8.768126718e-04, 
            -4.287536740e-01, -4.770866632e-01, 5.786158517e-02, 
            1.067039892e-01},
        {-1.715507060e-01, -2.540386021e-01, 2.940191031e-01, 
            4.257584810e-01, -6.230451912e-02, 7.055925578e-02, 
            -7.741728425e-02, -2.594836354e-01, 1.832553595e-01, 
            -1.752188802e-01, 4.471800327e-01, -7.142152786e-01, 
            3.374920785e-01, 2.291344553e-01, -3.389229774e-01, 
            -4.265487790e-01, 2.123556882e-01, -7.356393933e-01, 
            -8.054350615e-01, 1.685695797e-01, 2.226879001e-01, 
            1.777978092e-01, 2.050687373e-01, -3.948339522e-01, 
            3.172110915e-01, -1.427652240e-01, 2.642599493e-02, 
            3.004290164e-01, 1.164493412e-01, 2.753167748e-01, 
            -3.201878369e-01, -1.460965723e-01, 2.721150406e-02, 
            1.305442750e-01, -2.263691872e-01, 2.651212215e-01, 
            -2.232874781e-01, 3.785622492e-02, 1.375955045e-01, 
            -1.201232672e-01, 7.621542811e-01, -2.189384699e-01, 
            2.315861285e-01, 2.821162939e-01, -1.175406575e-01, 
            6.847364455e-02, -8.691201359e-02, -8.002903312e-02, 
            1.277152151e-01, 5.472972393e-01, -3.118269444e-01, 
            -2.104328871e-01, 2.380676121e-01, 4.527329206e-01, 
            -1.521891654e-01, -4.402265251e-01, -8.231713772e-01, 
            8.587737083e-01, -2.165100425e-01, 2.905591205e-02, 
            -2.187162638e-01, 6.575664282e-01, -4.881182313e-02, 
            -1.151909456e-01, -1.024515152e+00, -8.433853509e-05, 
            -8.876375854e-02, 1.012486368e-01, 9.419012815e-02, 
            -1.089895368e-01, -2.409565151e-01, -1.390853822e-01, 
            -9.427116513e-01, 3.513753712e-01, 1.835787594e-01, 
            6.645874679e-02, 1.022537276e-01, -5.103635788e-02, 
            2.988772988e-01, -1.511676610e-01, 4.059931263e-02, 
            -1.708662510e-01, -4.402943254e-01, -4.989948869e-01, 
            3.552170694e-01, 6.007698551e-02, 7.376166433e-02, 
            2.321048528e-01, -4.101418853e-01, 2.498899996e-01, 
            -2.755579650e-01, -2.863393128e-01, -2.073045224e-01, 
            -2.205903456e-02, 8.960663080e-01, 1.164962426e-01, 
            -9.247860312e-01, -6.833006740e-01, -3.265185980e-03, 
            2.908009589e-01},
        {2.268478274e-01, -9.261105955e-02, 3.621863127e-01, 
            1.276077181e-01, -3.282082081e-01, -1.932321042e-01, 
            -6.013858318e-01, 6.726993322e-01, -1.355286390e-01, 
            5.970401764e-01, 3.955960572e-01, -3.784087896e-01, 
            1.759099513e-01, 3.121339679e-01, -1.051419601e-02, 
            1.534339637e-01, 4.150339067e-01, -6.691843867e-01, 
            3.967473805e-01, -4.410061538e-01, 3.127690777e-02, 
            1.047250554e-01, 1.824142784e-01, 7.280838490e-01, 
            -5.520797372e-01, -1.922202706e-01, 1.262568384e-01, 
            1.920727938e-01, 1.139790893e+00, -2.101548463e-01, 
            1.154051200e-01, -2.047325671e-01, -3.656148612e-01, 
            2.761762440e-01, 1.569764018e-01, -2.149673700e-01, 
            -1.306339741e+00, 1.601294279e-01, 5.122272968e-01, 
            -4.124546945e-01, -4.693089724e-01, 4.898437113e-02, 
            -7.464984804e-02, 5.857962966e-01, 2.959698252e-02, 
            5.277459621e-01, -6.873778999e-02, -3.993908465e-01, 
            -4.324482679e-01, 1.601165235e-01, 7.366641164e-01, 
            2.537196875e-02, 5.467859507e-01, -1.572826505e-01, 
            -3.872510493e-01, -6.011754647e-02, 3.938403428e-01, 
            1.889242977e-01, 3.072647750e-01, -1.038838401e-01, 
            3.683414459e-01, 1.952045858e-01, -5.719855055e-02, 
            -1.317655742e-01, -4.334755540e-01, -6.396351457e-01, 
            3.792564571e-01, 1.072297152e-02, -3.307760358e-01, 
            2.101377249e-01, 3.092484772e-01, 1.360295564e-01, 
            -1.862236261e-01, -1.475570500e-01, 1.482462697e-02, 
            2.284644544e-01, 8.120615035e-02, -2.156860530e-01, 
            -3.815080225e-01, 2.592256665e-01, 7.115911841e-01, 
            7.553087082e-03, -2.853696644e-01, 3.487574160e-01, 
            -6.366964430e-02, 6.633079648e-01, -2.025728971e-01, 
            6.495265663e-02, 3.031630814e-01, -1.143168658e-01, 
            5.706718564e-01, -2.481926978e-01, 2.541586757e-01, 
            -3.755231798e-01, -1.680136323e-01, -3.125448152e-02, 
            6.888559461e-01, 3.397199810e-01, 3.467683792e-01, 
            -1.660279930e-01},
        {2.475667046e-03, -7.131876349e-01, 2.390338629e-01, 
            2.902464271e-01, -3.029717505e-01, 1.765523106e-01, 
            -6.299225092e-01, -1.382619143e-01, 2.449977398e-01, 
            -1.793664992e-01, 1.652354151e-01, -1.944113374e-01, 
            2.316461951e-01, -9.902042896e-02, -7.656168342e-01, 
            1.164360493e-01, -2.142165042e-02, -5.358038545e-01, 
            -1.510702968e-01, 1.197498515e-01, 1.740386784e-01, 
            2.444064617e-01, -8.800824732e-02, 1.479529887e-01, 
            -2.112609893e-01, 6.180920079e-02, 1.987322122e-01, 
            3.711945415e-01, -8.470352292e-01, 3.191617727e-01, 
            -4.979553446e-02, -2.038161308e-01, -2.180753648e-01, 
            3.137481213e-02, -7.546232343e-01, 1.928060055e-01, 
            -4.749454260e-01, -3.372874856e-01, -9.425696731e-02, 
            -1.836960576e-02, 1.446076781e-01, 4.815655649e-01, 
            3.644365072e-01, 3.076599836e-01, -6.458435953e-02, 
            2.228490561e-01, -6.671868563e-01, 1.961486787e-02, 
            3.042486683e-02, 3.270965219e-01, -1.278323829e-01, 
            -2.536807656e-01, 2.276549116e-02, 3.320326805e-01, 
            -5.542260408e-01, 3.158918023e-01, -2.257220633e-02, 
            1.727017760e-01, -1.334149539e-01, 2.829653621e-01, 
            -1.339553297e-01, 3.752589524e-01, 2.379824966e-01, 
            -3.217750788e-01, 9.938561916e-02, -4.914781749e-01, 
            -5.140082836e-01, 1.803332716e-01, 8.291940391e-02, 
            8.232898265e-02, 2.018280029e-01, -3.219876587e-01, 
            3.862901330e-01, 1.685611606e-01, 1.564675719e-01, 
            4.158984721e-01, 4.316700697e-01, -1.684975922e-01, 
            -9.905204922e-02, 2.187187374e-01, -2.243371904e-01, 
            3.866350353e-01, 9.139301255e-03, 1.513269097e-01, 
            -8.219895884e-03, -8.577138931e-02, 3.070659339e-01, 
            -3.198585659e-02, 4.925167263e-01, 1.563800275e-01, 
            2.348045856e-01, 2.156861722e-01, 4.058926105e-01, 
            1.635115147e-01, 1.390756667e-01, -8.020539582e-02, 
            -6.345033646e-01, -4.521594569e-02, 2.739991248e-01, 
            2.773240954e-02},
        {-3.031840920e-01, -2.486404181e-01, -2.509459108e-02, 
            1.450606883e-01, -4.932286590e-02, 2.549758554e-01, 
            3.089087903e-01, 1.222527549e-01, 2.156309038e-02, 
            -1.067744493e-01, 5.387350544e-02, -7.120155096e-01, 
            -1.706082523e-01, -2.927325666e-02, -1.976715177e-01, 
            9.552982636e-03, 3.026795685e-01, -2.403430492e-01, 
            8.366709203e-02, 2.159955055e-01, -1.090506911e-01, 
            9.465336800e-03, 5.334791914e-02, 1.109373495e-01, 
            -3.023183346e-01, -5.065379143e-01, -8.483565412e-03, 
            2.094682865e-02, 1.002423391e-01, 1.168030277e-01, 
            2.468091995e-01, -2.604808211e-01, -2.482071966e-01, 
            2.140128314e-01, -3.443512917e-01, 1.578826159e-01, 
            1.324026138e-01, -1.899816543e-01, 6.917727645e-03, 
            1.790749468e-02, -1.442974508e-01, 9.587729722e-02, 
            -1.865571439e-01, -2.809924446e-02, -4.277986884e-01, 
            3.086272813e-02, -3.580789864e-01, 8.972834796e-02, 
            -3.131749108e-04, 4.091323167e-02, 7.456532866e-02, 
            -3.635171950e-01, -1.164215505e-01, 1.386943161e-01, 
            -1.248529879e-03, -4.149224460e-01, -4.149160907e-02, 
            1.327595264e-01, -1.044287011e-01, 2.371201068e-01, 
            1.822093278e-01, 1.441680193e-01, -1.254466921e-01, 
            -1.224000528e-01, -7.855848223e-02, -2.225537002e-01, 
            2.698836923e-01, -2.382645905e-01, 6.465180963e-02, 
            -9.668149352e-01, -2.508113384e-01, -6.702268869e-02, 
            -6.097619981e-02, 5.905654654e-02, 6.509958953e-02, 
            1.925810054e-02, -9.056778997e-02, -5.975352228e-02, 
            8.008261770e-02, 1.829768121e-01, 7.235406339e-02, 
            -1.416642666e-01, -2.618222833e-01, 1.367084384e-01, 
            -8.038202673e-02, 1.907265931e-01, -8.323724382e-03, 
            7.378500700e-02, -7.059181109e-03, -3.235226125e-02, 
            1.820403337e-02, -3.379530087e-02, 1.544817984e-01, 
            -6.544050574e-02, -1.277882606e-01, 1.342675239e-01, 
            3.619875386e-02, -9.142047912e-02, 1.395305395e-01, 
            -2.007646859e-01},
        {-3.905900419e-01, 1.795440614e-01, 3.627286553e-01, 
            2.857698798e-01, 3.116630018e-01, 1.031680480e-01, 
            -1.181161180e-01, 1.231049299e-01, -8.866535127e-02, 
            1.286172569e-01, -2.174356766e-02, -1.865903437e-01, 
            1.672908068e-01, -5.031748116e-02, 3.307809830e-01, 
            1.511487514e-01, 2.089767754e-01, 2.953999937e-01, 
            -1.973443329e-01, 9.722658247e-02, 2.379279882e-01, 
            -2.600140125e-02, -3.686349839e-02, 4.835874140e-01, 
            -2.524647415e-01, -1.071010470e+00, -3.245113790e-02, 
            2.156476676e-01, 6.290804744e-01, 6.482189894e-02, 
            -1.620032340e-01, -5.897528529e-01, -9.391327500e-01, 
            1.698210239e-01, -6.126533262e-03, -4.131645560e-01, 
            2.103658915e-01, -3.658797741e-01, 5.017300248e-01, 
            6.499926001e-02, -7.778834552e-02, 5.765999556e-01, 
