#include "nn_params.h"

const unsigned short LAYER_DIMS[] = {
    6, 100, 100, 100, 100, 100, 100, 100, 100, 100, 2
};

const Layer LAYER_TYPES[] = {
    DENSE, SOFTPLUS, DENSE, SOFTPLUS, DENSE, SOFTPLUS, DENSE, SOFTPLUS, DENSE, SOFTPLUS, 
    DENSE, SOFTPLUS, DENSE, SOFTPLUS, DENSE, SOFTPLUS, DENSE, SOFTPLUS, DENSE, TANH
};

const float STATE_BIAS[NUM_STATE_VARS] = {
    2.557851151e-03, 0.000000000e+00, -1.431707009e-03, 
        0.000000000e+00, 0.000000000e+00, 0.000000000e+00  
};

const float INPUT_SCALER_PARAMS[2][NUM_STATE_VARS] = {
    {-6.639561558e-03, 5.316099470e-03, -2.397042707e-01, 
        -1.293971497e-01, -8.588785735e-04, -5.694528324e-04},
    {4.090731985e+00, 2.887442689e+00, 4.011157374e+00, 
        2.246159094e+00, 5.628542151e-01, 2.135185704e+00}
};

const float OUTPUT_SCALER_PARAMS[4][NUM_CONTROL_VARS] = {
    {4.186804832e-01, 4.186040124e-01},
    {8.483879636e-01, 8.486053663e-01},
    {4.241943829e-01, 4.243029752e-01},
    {7.093404012e-01, 7.093019904e-01}
};

const float BIASES[NUM_DENSE_LAYERS][MAX_LAYER_DIMS] = {
    {-1.099332094e+00, -9.183970839e-02, -6.667727232e-01, 
        -3.472631872e-01, -4.324645698e-01, 3.600095212e-01, 
        -5.783762932e-01, -7.539736629e-01, -1.154457688e+00, 
        -5.398589969e-01, -1.169103086e-01, -1.235686660e+00, 
        -1.025577903e+00, -7.024781704e-01, -8.033566475e-01, 
        -8.251188993e-01, -1.045585275e+00, 5.017645657e-02, 
        -1.056465268e+00, -1.221924782e+00, 1.703403890e-01, 
        -6.967597604e-01, -8.375931382e-01, -1.006936789e+00, 
        -1.322487831e+00, -1.094192982e+00, -8.815782666e-01, 
        -4.852800369e-01, -3.367444500e-02, -6.092932820e-01, 
        -7.893012762e-01, -7.683550715e-01, -1.828765035e+00, 
        -7.581161857e-01, -1.269463420e+00, -6.222581863e-01, 
        -5.105319619e-01, -1.569422185e-01, -1.745042503e-01, 
        -2.356298268e-02, -1.053407907e+00, -4.172059521e-02, 
        -9.291501641e-01, -7.578278780e-01, -8.704212308e-01, 
        -8.918566704e-01, -4.803979099e-01, -2.560319901e-01, 
        -8.645880222e-01, -8.694012165e-01, -7.599999905e-01, 
        -9.364055395e-01, -7.266162634e-01, -1.334475398e+00, 
        -5.083737969e-01, -2.520298362e-01, -8.470094204e-01, 
        -1.189208508e+00, -7.240815163e-01, 8.261568099e-02, 
        -5.441257358e-01, -6.773247123e-01, -1.058647633e+00, 
        3.917564452e-01, -1.317201734e+00, -3.723109365e-01, 
        2.956342101e-01, -1.053011060e+00, -1.113195300e+00, 
        -5.223002434e-01, -4.658264518e-01, 4.294553101e-01, 
        -6.926926374e-01, -1.353684902e+00, -9.086015224e-01, 
        -7.922776341e-01, -4.262565374e-01, -1.488528013e+00, 
        -1.061321139e+00, -1.179506660e+00, -6.424108744e-01, 
        -3.152663112e-01, -9.450946450e-01, -7.443894148e-01, 
        -7.084041834e-01, -7.734929919e-01, 6.791184843e-02, 
        -1.527643085e+00, -8.471242785e-01, -1.139145851e+00, 
        -7.902921438e-01, -8.855758309e-01, -4.239558280e-01, 
        2.315504849e-02, -1.372366667e+00, -1.266514659e-01, 
        -6.745309830e-01, -6.777821183e-01, -6.493043303e-01, 
        5.437480211e-01},
    {4.859737456e-01, 3.451825976e-01, -3.521751463e-01, 
        1.605399549e-01, -8.888070285e-02, -4.712499306e-02, 
        -3.475711346e-01, 3.102301061e-01, 5.769193769e-01, 
        -2.917376161e-01, -7.709093690e-01, -1.538309455e-01, 
        -8.101297617e-01, -1.725116968e+00, 5.865066648e-01, 
        2.426856905e-01, 3.914819658e-01, -1.509384811e-01, 
        -7.030863762e-01, 6.982918382e-01, 2.924668137e-03, 
        -4.546771049e-01, -2.683933973e-01, -2.448680103e-01, 
        -6.553393006e-01, 2.060433775e-01, -1.006184816e+00, 
        2.177336812e-01, -9.246907383e-02, -5.832885504e-01, 
        -1.508423239e-01, 8.766779304e-02, -3.491495550e-01, 
        -7.233572602e-01, 1.270257086e-01, 2.784370482e-01, 
        -5.629541725e-02, -8.851706386e-01, -7.392395139e-01, 
        9.617515840e-03, -2.133338600e-01, 3.855229020e-01, 
        -1.419371739e-02, 2.069095522e-01, -2.055806875e+00, 
        -3.954154253e-02, -3.595863879e-01, -2.914043367e-01, 
        3.288656771e-01, -7.271633148e-01, -7.516170144e-01, 
        4.746239483e-01, -3.254609406e-01, 4.769141376e-01, 
        8.907864243e-02, 5.698997378e-01, -9.435187578e-01, 
        6.594842076e-01, 5.262100697e-01, -1.223140001e+00, 
        1.065109521e-01, 4.329326153e-01, 5.083208680e-01, 
        -1.801797003e-01, 6.734539270e-01, -4.532682896e-01, 
        -1.759441346e-01, -6.398372650e-01, -6.605376303e-02, 
        6.395548582e-01, -8.806034923e-01, -5.774161592e-02, 
        -2.471241951e-01, -6.738258153e-02, -2.213491797e-01, 
        -5.218278170e-01, 1.896959245e-01, -1.032314897e+00, 
        -6.897272468e-01, 1.216676831e-01, 6.442124248e-01, 
        4.529971778e-01, -2.091691941e-01, -1.350998282e+00, 
        2.706238329e-01, -5.305822492e-01, 3.537068963e-01, 
        -1.119230747e+00, -1.211570024e+00, 5.205475092e-01, 
        -2.851563394e-01, 1.121313050e-01, -3.698891401e-01, 
        2.842358649e-01, -7.074258327e-01, 5.918353200e-01, 
        -1.355477214e+00, -2.865565717e-01, 5.449655652e-01, 
        -7.746281028e-01},
    {7.807022929e-01, -1.865047812e-01, 3.458778262e-01, 
        6.336238384e-01, 6.859421134e-01, 8.236551285e-01, 
        1.497757155e-02, 9.544315189e-02, -6.939045191e-01, 
        -1.954670906e+00, 1.765025109e-01, 3.676514924e-01, 
        -5.109426975e-01, 2.403007895e-01, -3.655799329e-01, 
        -1.458737612e+00, 5.967736840e-01, -2.605950236e-01, 
        2.498490363e-01, 7.348753810e-01, 2.479624450e-01, 
        3.226487935e-01, -1.540925503e+00, 3.195448816e-01, 
        -2.255612612e+00, 6.553241014e-01, 8.911815286e-01, 
        -1.968587339e-01, -1.500541091e+00, -1.372008324e+00, 
        6.776476502e-01, -6.593106389e-01, 5.720575452e-01, 
        -1.497096121e-01, 5.804947019e-01, -1.107811853e-01, 
        6.498682499e-01, -3.907905519e-01, -6.483770013e-01, 
        -2.864232063e-01, 5.793945193e-01, 5.315063000e-01, 
        -6.410675049e-01, 7.482188344e-01, -1.157859087e+00, 
        -1.218635142e-01, 6.388759017e-01, 5.933918357e-01, 
        -4.370276034e-01, -1.590740800e+00, 2.049911618e-01, 
        -1.094258547e+00, 3.183373213e-01, -5.378317237e-01, 
        5.802394152e-01, 1.359185278e-01, 8.347452283e-01, 
        5.399892926e-01, -3.518467546e-01, -1.261670291e-01, 
        2.428152561e-01, -1.333908916e+00, 6.260229349e-01, 
        5.576357245e-01, 1.029047146e-01, 7.119245529e-01, 
        5.013552308e-01, 7.021632046e-02, -6.582350731e-01, 
        -1.820282191e-01, 3.463328481e-01, 6.563277841e-01, 
        4.838498235e-01, 7.957554460e-01, -6.266527772e-01, 
        -4.861364067e-01, -5.140022039e-01, -1.213516761e-02, 
        6.451898217e-01, -2.339419164e-02, 7.933745384e-01, 
        6.060764194e-01, -4.419873655e-01, -1.830219269e+00, 
        -2.003314257e+00, -1.464660019e-01, 2.323401868e-01, 
        7.099123001e-01, -7.039038539e-01, 9.717206359e-01, 
        4.509371221e-01, -9.743392467e-01, -9.657741785e-01, 
        6.139688492e-01, -2.762487233e-01, -1.422621250e+00, 
        -3.504262865e-01, -3.145705163e-01, -2.148420095e+00, 
        1.195935249e+00},
    {1.845470369e-01, 1.019275665e+00, -1.934262872e+00, 
        -2.333069801e+00, 2.211551219e-01, -4.026067853e-01, 
        -5.873318315e-01, 1.279452801e+00, -2.116781473e+00, 
        4.780804515e-01, -4.011965096e-01, -9.972727299e-02, 
        1.481996924e-01, 2.549930513e-01, -7.081858516e-01, 
        1.062640361e-02, -3.254797697e+00, 2.004197687e-01, 
        3.461145982e-02, 4.060875475e-01, 9.706337750e-02, 
        -1.485946774e-01, 2.899159789e-01, -2.917371988e-01, 
        2.840533480e-02, -1.013527751e+00, 5.509616137e-01, 
        7.691344619e-02, 1.026636511e-01, -7.103982382e-03, 
        1.068214774e+00, -8.213186860e-01, -2.195323229e+00, 
        1.091713190e+00, 2.310114801e-01, 8.843462467e-01, 
        -2.618804574e-01, -4.489892423e-01, -1.618154496e-01, 
        9.266307950e-02, 6.653914452e-01, 1.971926093e-01, 
        3.477910459e-01, -1.307048082e+00, 5.241063833e-01, 
        -4.993929863e-01, 4.377128482e-01, 1.168292999e+00, 
        5.107339025e-01, -3.193297982e-01, 1.158695459e+00, 
        2.885545492e-01, -1.623850018e-01, -1.654271245e+00, 
        -8.907091618e-01, -1.991695464e-01, 1.040345788e+00, 
        7.970345616e-01, 9.850874543e-01, -5.764874220e-01, 
        5.386646986e-01, 3.404067159e-01, 3.039731979e-01, 
        8.128555417e-01, -8.508886099e-01, -2.301530391e-01, 
        -7.209707797e-02, 7.751709223e-01, 1.590306014e-01, 
        6.636375785e-01, 3.372299075e-01, -4.060674608e-01, 
        1.549931169e-01, 4.043269455e-01, 1.135390997e+00, 
        5.057946444e-01, 1.395438612e-01, 3.827308118e-01, 
        5.457698107e-01, -1.968808532e+00, 2.366140336e-01, 
        -7.402570918e-04, 7.974088192e-03, -8.960384130e-01, 
        -2.186528206e+00, -7.169167995e-01, -5.999261737e-01, 
        -1.012507677e+00, -1.590204120e+00, 4.522694945e-01, 
        3.025852442e-01, -6.924903393e-01, 2.608430386e-01, 
        -7.777447999e-02, 5.433876514e-01, -2.125555754e+00, 
        4.499908090e-01, 8.775717020e-01, -1.998735189e+00, 
        7.064582705e-01},
    {1.009369850e+00, 7.353219390e-02, 8.476115018e-02, 
        -8.382568955e-01, -1.542803645e+00, -1.479704618e+00, 
        3.440404236e-01, -1.210802794e+00, -8.256545663e-01, 
        -1.722743809e-01, 4.001928866e-01, 3.530231118e-01, 
        -2.875730753e+00, 1.251090169e-01, -6.937316060e-01, 
        3.677780330e-01, -1.704066694e-01, 3.469345868e-01, 
        3.332171142e-01, -3.020743728e-01, -1.310886979e+00, 
        2.531251311e-01, -2.629026175e-01, 4.958384931e-01, 
        2.645525336e-01, 5.032694340e-01, 5.567618608e-01, 
        3.612376451e-01, 4.656897187e-01, 4.471702874e-01, 
        -2.170698404e+00, -1.032412425e-01, -5.725829005e-01, 
        -4.023348391e-01, -1.305019736e+00, -2.057467699e+00, 
        -8.233606815e-02, -5.741318464e-01, 1.418489516e-01, 
        -1.752708793e+00, 3.163219988e-01, 6.981703639e-01, 
        -1.755029410e-01, -3.579854071e-01, -8.257585168e-01, 
        -8.584761024e-01, 2.293491550e-02, -1.019604921e+00, 
        3.386375904e-01, -2.453544617e+00, -1.092627168e+00, 
        7.559367269e-02, -1.322556753e-02, -8.275588751e-01, 
        -6.688480973e-01, 5.640126392e-02, -2.022677898e+00, 
        1.059422612e+00, 4.269870371e-02, 5.751188993e-01, 
        5.508209467e-01, 9.155170619e-02, -5.105584264e-01, 
        4.736756682e-01, 2.538992167e-01, -2.265075445e+00, 
        -6.757681966e-01, -1.700781107e+00, -2.442412972e-01, 
        4.543481767e-01, -1.701908469e+00, 3.333394825e-01, 
        4.760992527e-01, 1.597702876e-02, -1.990567684e+00, 
        -6.653226018e-01, -1.004082680e+00, 7.682934403e-01, 
        1.039981961e+00, -2.105569601e+00, -1.998096466e+00, 
        3.702118397e-01, -1.093484089e-01, -3.742257357e-01, 
        -1.315366387e+00, -8.131763339e-01, -1.307880402e+00, 
        -1.058103204e+00, -8.541291207e-02, -2.077320069e-01, 
        -4.480139017e-01, 9.769126028e-02, -2.009352446e+00, 
        3.700219691e-01, -1.650272906e-01, 6.460294127e-01, 
        -1.432822347e+00, 1.123406410e+00, 9.678770900e-01, 
        -1.527122021e+00},
    {7.199805379e-01, -6.199787837e-03, -6.257199049e-01, 
        6.789265275e-01, 1.327706337e+00, -3.395381868e-01, 
        1.003925085e+00, 6.969145685e-02, -2.751516402e-01, 
        -1.632089615e-01, -4.222740978e-02, -2.375564724e-01, 
        -1.057031870e+00, -1.192607641e+00, -2.559349298e+00, 
        -1.113150641e-01, 8.449436724e-02, 4.443178885e-03, 
        7.231112719e-01, 6.019490585e-02, 8.670237064e-01, 
        -1.955223441e+00, 4.607907534e-01, 2.532521188e-01, 
        -1.179144233e-01, -2.226933479e+00, -1.633298844e-01, 
        2.264134586e-01, -3.000549316e+00, -5.520292521e-01, 
        -1.983654857e+00, 5.369375348e-01, 1.072649360e-01, 
        -1.029722333e+00, -1.701864243e+00, 6.768430769e-02, 
        1.755404472e-01, -1.181191429e-01, -3.687428832e-01, 
        -1.616986692e-01, -4.772388190e-02, -9.824223518e-01, 
        -1.583403647e-01, -1.068625689e+00, 3.148559034e-01, 
        8.349687457e-01, 9.142556190e-01, -1.728780800e-03, 
        -1.429582119e+00, 1.073071361e+00, 1.014355659e+00, 
        1.644348502e+00, -2.219679832e+00, -1.373352949e-02, 
        -1.852236271e+00, 6.538941264e-01, 6.194003224e-01, 
        -1.138209552e-01, -2.041310310e+00, 9.506710172e-01, 
        3.162677884e-01, 1.915648282e-01, 1.051336080e-01, 
        2.426211089e-01, -8.480556011e-01, -1.649679095e-01, 
        4.524300694e-01, 6.976783276e-01, -3.425191343e-01, 
        -1.180719018e+00, 7.692992091e-01, 5.441758633e-01, 
        -1.743266106e+00, 2.374957055e-01, 4.053092897e-01, 
        4.287334979e-01, -3.004181623e+00, 3.785840273e-01, 
        -1.114230454e-01, 1.003175974e+00, -3.933513165e-01, 
        -9.799230099e-01, -1.044479683e-01, 6.464948654e-01, 
        -3.830311000e-01, -2.545467913e-01, -1.439890742e+00, 
        7.856291533e-01, -2.389925271e-01, 8.183223009e-01, 
        3.455026448e-01, -1.129194628e-02, -1.163663030e+00, 
        -3.179301023e-01, 3.880407512e-01, -2.255258560e-01, 
        5.376139283e-01, 1.924884319e-01, -1.982587576e-01, 
        -7.776802778e-02},
    {7.895854115e-02, 9.256192446e-01, 1.038083509e-01, 
        -3.293196261e-01, 5.025863647e-01, 3.269999027e-01, 
        -6.807587147e-01, 8.037984371e-01, 1.294470310e+00, 
        1.001863718e+00, -2.736241341e+00, 4.258732498e-01, 
        -2.838121355e-02, -2.047719240e+00, -1.490263462e+00, 
        -1.848236024e-01, -3.476891816e-01, 5.766689181e-01, 
        -8.697255701e-02, 6.132044792e-01, 5.180222392e-01, 
        3.217194602e-02, 5.530535579e-01, 2.660179511e-03, 
        5.886946917e-01, -3.450747812e-03, 5.719999671e-01, 
        5.234559178e-01, 9.519565701e-01, 8.178263903e-01, 
        2.692422867e-01, 9.410036802e-01, -4.470384866e-02, 
        3.524744213e-01, -1.357541680e+00, 4.328438938e-01, 
        1.820063218e-02, 1.889213771e-01, 5.527185798e-01, 
        8.113053441e-01, 4.478551447e-01, -1.351771355e+00, 
        -7.549723983e-02, 1.001529470e-01, -2.075236797e+00, 
        -1.785417080e+00, -2.500336468e-01, -6.568937898e-01, 
        -3.150717914e-01, 2.762110829e-01, -3.849898338e+00, 
        -2.665190399e-01, -2.467094921e-02, -2.133342773e-01, 
        -6.681476235e-01, 6.220510006e-01, 1.258887816e-02, 
        -4.876603782e-01, -4.918824673e+00, -7.346388698e-01, 
        -9.276306629e-01, 9.224882722e-01, 1.072635174e+00, 
        -8.089373112e-01, 7.056180835e-01, 7.100568712e-02, 
        4.169391692e-01, -1.739736348e-01, 1.093043447e+00, 
        -1.290904284e+00, -1.434488744e-01, -3.200280964e-01, 
        -3.250387684e-02, 7.598292232e-01, 2.280078232e-01, 
        3.283421993e-01, -1.674796820e+00, 2.249670625e-01, 
        -2.735661507e+00, 4.311148524e-01, 2.306562811e-01, 
        2.357314676e-01, -4.884160757e-01, 6.705985870e-03, 
        1.092023969e+00, 1.458733529e-01, -1.954224706e-01, 
        -1.405870080e+00, 4.768119156e-01, -2.503933609e-01, 
        1.190739155e+00, -3.134277344e+00, -1.216021460e-02, 
        -1.025194004e-01, -7.306084633e-01, 6.817444563e-01, 
        -1.148853421e+00, 7.388096452e-01, 6.253857613e-01, 
        7.353398800e-01},
    {-1.614280939e+00, 2.898110151e-01, 1.104753137e+00, 
        6.602400541e-01, -2.957625091e-01, 8.839582801e-01, 
        -8.533118526e-04, 1.268848777e+00, -7.539469600e-01, 
        -1.793092251e+00, 4.568758607e-01, 2.839310765e-01, 
        2.726716101e-01, -1.389922976e+00, 9.732955098e-01, 
        2.156141587e-02, 1.651236415e+00, -6.898294687e-01, 
        4.215312302e-01, 8.928619027e-01, -4.852047861e-01, 
        3.860208392e-01, -6.790204048e-01, 7.582086921e-01, 
        -6.757048368e-01, -1.404187679e-01, -2.299959064e-01, 
        -2.098960876e-01, -2.082456112e+00, -3.911847770e-01, 
        -9.927145243e-01, 1.865211725e-01, 6.095721126e-01, 
        4.154137075e-01, 7.393152118e-01, 7.939715981e-01, 
        -8.108197153e-02, 5.987236500e-01, -1.186866313e-01, 
        -4.745024741e-01, 2.100995034e-01, 5.141198635e-01, 
        1.242015362e+00, 5.478280783e-01, -5.657992885e-02, 
        5.857124329e-01, -9.735018830e-04, 5.948663950e-01, 
        8.154386878e-01, 1.002029061e+00, 1.245613575e+00, 
        4.346218109e-01, -1.279592752e+00, 3.493306637e-01, 
        2.464158460e-04, 9.401125312e-01, 5.633540154e-01, 
        -7.917311043e-02, -2.794637680e+00, 7.168617249e-01, 
        9.395765066e-01, 1.277407050e+00, 1.028110862e+00, 
        -1.056175709e+00, 5.572650433e-01, -1.972650588e-01, 
        7.155926824e-01, 1.849543571e+00, -9.995617867e-01, 
        6.983528137e-01, -5.246372223e-01, -6.481063962e-01, 
        2.570061684e-01, 1.056390762e+00, 1.317668706e-01, 
        6.162276268e-01, 4.183426499e-01, 6.027804613e-01, 
        8.700947165e-01, 1.431340575e+00, -2.410984039e-01, 
        9.149095416e-01, 2.305815369e-01, -6.202352419e-02, 
        8.358601332e-01, 2.291381918e-02, 1.318059802e+00, 
        4.258294106e-01, -2.279386997e+00, -2.313112617e-01, 
        1.392969638e-01, 7.043821812e-01, 1.411502838e+00, 
        -4.285246730e-01, 5.840144157e-01, 1.861329377e-01, 
        -3.562808037e-02, -1.060298324e+00, -6.593022346e-01, 
        5.690256953e-01},
    {-1.143183485e-01, -2.394166231e+00, 6.862754822e-01, 
        -1.362268686e+00, 9.699388146e-01, 2.337888241e+00, 
        -1.272622943e+00, 7.491806746e-01, -8.626736403e-01, 
        2.534348011e+00, 1.690363526e+00, -1.118448734e+00, 
        -6.396028996e-01, 2.100585550e-01, -1.146425903e-01, 
        -7.279068977e-02, -1.282451034e+00, 1.210974693e+00, 
        -3.396030068e-01, 8.461451530e-01, 6.364817619e-01, 
        -4.201802611e-02, -8.361033201e-01, -2.625104487e-01, 
        8.928985596e-01, -1.515123367e+00, 5.712183118e-01, 
        9.088315368e-01, 2.917384207e-01, -5.963056087e-01, 
        -3.642731011e-01, -4.307573438e-01, -1.266970158e+00, 
        -1.568031013e-01, 8.884783983e-01, -1.436670125e-01, 
        4.354612529e-01, -2.789853215e-01, 4.094320238e-01, 
        -1.254541636e+00, 5.204967856e-01, -1.059136391e+00, 
        -6.638691425e-01, 1.510771632e+00, 6.415346265e-01, 
        2.802058935e+00, -8.229153156e-01, 2.763483226e-01, 
        -7.761440277e-01, 7.123368979e-01, -1.453845762e-03, 
        1.460861564e-01, 4.241446257e-01, 4.731430113e-01, 
        -9.570421278e-02, 4.387334883e-01, 2.418342680e-01, 
        7.307334542e-01, 4.298105240e+00, -5.517721772e-01, 
        1.030319691e+00, 2.400303036e-01, 4.935004115e-01, 
        3.287174925e-02, -1.556877732e+00, -2.387399375e-01, 
        -4.526010156e-01, -2.011587024e-01, -1.148653924e-01, 
        -1.078255177e+00, 1.420945954e-02, -1.477324367e+00, 
        -3.233723640e-01, 1.081429049e-01, -1.054981947e-01, 
        -6.481885165e-02, 5.255256295e-01, 5.464433193e+00, 
        -1.996309876e+00, -2.471881658e-01, -7.718370110e-02, 
        2.863171697e-01, -4.935239851e-01, -7.186630368e-01, 
        1.194598436e+00, -1.214736104e+00, 1.275408864e-01, 
        -1.016724348e+00, -6.229349971e-01, -9.683003426e-01, 
        -3.891654909e-01, -1.140314579e+00, -1.197076738e-01, 
        -7.489815950e-01, -6.737963557e-01, -4.584426582e-01, 
        -1.172487617e+00, -2.087375402e+00, -9.359284043e-01, 
        4.076789320e-01},
    {-5.644160509e-02, -6.629015505e-02}
};

const float WEIGHTS[NUM_DENSE_LAYERS][MAX_LAYER_DIMS][MAX_LAYER_DIMS] = {
    {
        {-5.809647441e-01, 3.982437029e-02, -1.860204488e-01, 
            -1.695601642e-01, -1.618816376e+00, -6.385684609e-01},
        {9.414516687e-01, 1.029524058e-01, -3.327661991e+00, 
            -1.513004661e+00, -6.517316103e-01, -2.085666060e-01},
        {-2.061811924e+00, -3.703658581e-01, -2.408295393e+00, 
            -6.291461587e-01, 7.060971856e-01, 2.756913006e-01},
        {1.138448119e-01, -6.214069203e-02, -3.396211863e+00, 
            -2.134079456e+00, 5.926315784e-01, 2.089825124e-01},
        {3.063916266e-01, -5.269199610e-01, -3.370275021e+00, 
            -1.645267844e+00, 4.534277320e-01, 1.445261836e-01},
        {-4.647125956e-03, -7.490159273e-01, -6.217755795e+00, 
            -1.643406987e+00, 6.279268861e-02, 5.170605727e-04},
        {-1.991515160e+00, 1.534524709e-01, -4.910116494e-01, 
            -8.151943982e-02, 5.278283358e-01, 1.162039340e-01},
        {1.638120115e-01, 3.251758218e-02, 1.486940030e-02, 
            2.388286740e-01, -1.384214014e-01, -3.231376410e-01},
        {3.088738620e-01, 2.887758017e-01, -7.582514882e-01, 
            -3.798565269e-01, -1.547723711e-01, -8.308503777e-02},
        {1.483547330e+00, -7.021015137e-02, 2.664853632e-01, 
            8.147207499e-01, -1.006666645e-01, 1.246023998e-01},
        {-1.575612575e-01, -4.937906936e-02, -2.005736381e-01, 
            -1.214875132e-01, 5.407127142e-01, -1.352189898e+00},
        {-5.421550944e-03, -4.485610500e-02, -2.996151745e-01, 
            -9.572418034e-02, -7.082062215e-02, -1.533669978e-01},
        {-8.268558234e-02, 2.549793012e-02, -6.256159395e-02, 
            -3.627890721e-02, -1.127833202e-01, -2.906836756e-02},
        {-3.567327857e-01, -1.416220367e-01, -4.238281846e-01, 
            -1.013439968e-01, 4.212480485e-01, -1.500121504e-02},
        {4.780994058e-01, 2.762960792e-01, -6.260353923e-01, 
            -2.543389797e-01, -3.268214464e-01, -2.042088956e-01},
        {7.254886031e-01, 1.051257610e+00, -1.660899162e+00, 
            -6.775172949e-01, -4.520988166e-01, -2.167231739e-01},
        {2.157121450e-01, 1.363791227e-01, 1.857187599e-01, 
            5.097381473e-01, 1.478556842e-01, 2.360497564e-01},
        {-2.164784193e+00, -3.933631182e-01, -3.509184599e+00, 
            -1.424956203e+00, 3.423543572e-01, 1.327823400e-01},
        {1.571350098e-01, 1.200936139e-01, -4.304746389e-01, 
            -9.271074086e-02, -1.563901305e-01, 2.035546489e-02},
        {-4.309964180e-01, -4.115008414e-01, -1.227343321e+00, 
            -5.500077009e-01, 8.821448684e-02, 2.870678604e-01},
        {-2.079085827e+00, -1.119628191e+00, -4.725939751e+00, 
            -1.540441155e+00, 2.574421167e-01, -3.626694903e-02},
        {-7.944109291e-02, -1.018316075e-01, 1.764430851e-01, 
            3.220701125e-03, 4.416872561e-01, 1.904819608e-01},
        {8.463199250e-03, -3.514104486e-01, -1.983244270e-01, 
            4.798781276e-01, 8.991466761e-01, 5.051890612e-01},
        {-1.112417430e-01, 1.418137271e-02, -5.485484004e-01, 
            -1.547141373e-01, 1.949311644e-01, 2.327132225e-01},
        {4.772419035e-01, 3.954444528e-01, -4.931365550e-01, 
            -6.925617456e-01, -6.276200414e-01, 6.925077438e-01},
        {4.871328771e-01, 5.096424818e-01, -1.528659344e+00, 
            -3.138875067e-01, -1.256504178e+00, -7.980844975e-01},
        {1.214473173e-01, 1.240986660e-01, -1.337934732e-01, 
            -5.877787247e-03, -1.907548308e-01, 1.721157134e-01},
        {-2.641394436e-01, 1.459555887e-02, -9.793632478e-02, 
            1.351706237e-01, 5.281632543e-01, 2.118676603e-01},
        {2.495235920e+00, 1.433486938e+00, -2.885655165e+00, 
            -1.666784048e+00, 8.868066221e-02, 5.797113106e-02},
        {8.165931702e-02, -4.323780537e-02, 3.710377589e-02, 
            1.235031188e-01, -4.844235480e-01, -1.476300508e-01},
        {-1.481827796e-01, 9.621234611e-03, -1.471319944e-01, 
            3.415732086e-02, 2.457551360e-01, 2.296325564e-01},
        {1.379735351e+00, 2.332072705e-01, -9.550821781e-01, 
            3.197553158e-01, -2.936704457e-01, -1.505756676e-01},
        {-9.201745391e-01, -1.604999155e-01, -7.241595984e-01, 
            -2.278643399e-01, -1.213674188e+00, 1.741734594e-01},
        {3.363924325e-01, 7.862681895e-02, -4.095468819e-01, 
            1.014734507e-01, -4.111614823e-01, -2.236425132e-01},
        {2.817287445e-01, 4.946388677e-02, -6.829019785e-01, 
            -2.459112406e-01, -4.411243796e-01, -6.340445578e-02},
        {2.068349272e-01, 6.372624636e-02, -1.835044175e-01, 
            -9.595320374e-02, -5.734217763e-01, 3.792295000e-03},
        {-5.580780506e-01, 8.448272012e-03, 6.051994562e-01, 
            1.097163558e+00, 5.887577534e-01, 1.730764806e-01},
        {2.446226120e+00, 2.221525431e+00, -1.651181459e+00, 
            -1.113941073e+00, -3.611359298e-01, -1.787345558e-01},
        {-6.083217263e-01, -3.372210860e-01, -5.876885727e-02, 
            -6.549812108e-02, 1.109212518e+00, 4.198658764e-01},
        {-2.123945951e+00, -1.636053562e+00, -2.067800283e+00, 
            -1.502977729e+00, 7.930161953e-01, 1.779226810e-01},
        {-1.979323328e-01, -4.434842989e-02, 9.919552505e-02, 
            -6.210286543e-02, 5.719584227e-01, 8.515551090e-01},
        {-2.100868940e+00, 3.550935388e-01, -3.072507620e+00, 
            -1.438160181e+00, -3.174698055e-01, -1.982352436e-01},
        {-1.443764716e-01, -1.685243659e-02, -1.338380482e-02, 
            6.829332560e-02, 3.772838116e-01, 3.450171351e-01},
        {-1.786173433e-01, -1.114281192e-01, 1.162129641e-01, 
            1.677304879e-02, 4.165634811e-01, 3.496195972e-01},
        {9.902768135e-01, 7.865777612e-01, -1.782752156e+00, 
            -7.101910710e-01, -1.352898717e+00, 5.758550763e-01},
        {-4.736402333e-01, -1.813513339e-01, -6.940334439e-01, 
            -1.996944994e-01, 4.624896944e-01, -1.073115692e-01},
        {1.177691221e+00, 1.333098263e-01, -3.052910805e+00, 
            -6.693004966e-01, -3.862881660e-01, -1.672996134e-01},
        {8.656582236e-01, 5.556383729e-01, -2.842604637e+00, 
            -1.809421420e+00, -4.430206716e-01, -9.568889439e-02},
        {1.022747457e-01, 2.945152521e-01, -1.863178492e+00, 
            -1.538690090e+00, 4.949492514e-01, -9.269942343e-02},
        {-4.886490479e-02, -1.699587144e-02, -3.046703637e-01, 
            -7.253423333e-02, 9.853363782e-02, -1.509892289e-02},
        {3.337475955e-01, -2.602227926e-01, -3.239665926e-02, 
            9.060386419e-01, 9.899862856e-02, -1.303713173e-01},
        {-5.471782684e-01, -3.994732201e-01, -1.981409073e+00, 
            -1.398557186e+00, -1.040596247e+00, -2.959435284e-01},
        {-1.532609314e-01, -5.013118684e-02, 6.824426055e-01, 
            5.083542466e-01, 9.095876813e-01, -6.124466658e-01},
        {8.627595305e-01, 4.431928396e-01, -3.637025356e-01, 
            -2.579934001e-01, 1.837484837e+00, 5.350561738e-01},
        {8.580975533e-01, 6.039978862e-01, -3.494915366e-01, 
            -5.888095498e-01, -4.788591564e-01, -4.795841575e-01},
        {-1.687199712e+00, -2.220535278e-01, -2.093255997e+00, 
            -1.194433570e+00, 5.134713054e-01, 1.201056913e-01},
        {6.183474883e-02, -1.590406746e-01, 4.833207640e-04, 
            4.211895764e-01, -6.344935298e-01, 8.506033570e-02},
        {2.227645218e-01, 7.180782408e-02, -3.559248149e-01, 
            -8.751400560e-02, -4.941384494e-01, 4.595708102e-02},
        {3.238967359e-01, 4.034031555e-02, 3.622445762e-01, 
            1.934785098e-01, 1.812273711e-01, 1.375299133e-02},
        {2.077905893e+00, 1.669252157e+00, -5.142838955e+00, 
            -1.765826702e+00, 6.870672703e-01, 1.842434704e-01},
        {-8.266124874e-03, 2.811214626e-01, 9.223208427e-01, 
            7.408797741e-01, -4.605977833e-01, -1.037248969e-01},
        {2.654952407e-01, 1.417660266e-01, -2.413790226e-01, 
            6.960764527e-02, -5.465623736e-01, 7.662643492e-02},
        {8.440163732e-02, 3.729563951e-02, -3.660680652e-01, 
            -5.234398693e-02, -1.614201814e-01, -4.878616333e-01},
        {2.551733732e+00, 1.104990244e+00, -4.607371807e+00, 
            -1.795028448e+00, -7.436940819e-02, 6.554026157e-02},
        {6.213887334e-01, 2.265103161e-01, -1.105524421e+00, 
            -8.190806508e-01, -4.432814419e-01, -6.575115770e-02},
        {-4.460024834e-01, 2.568357587e-01, -3.635993481e+00, 
            -1.651622057e+00, -8.227469921e-01, -2.231053859e-01},
        {1.323026299e+00, 7.621759772e-01, -5.771570683e+00, 
            -1.101960778e+00, -2.418101430e-01, -1.159409955e-01},
        {-2.448129654e-02, -4.539833069e-01, -2.236529112e+00, 
            -8.424646258e-01, 1.578189015e+00, 4.705547988e-01},
        {1.181602404e-01, 3.092115000e-02, -4.904003441e-01, 
            -1.469531804e-01, -1.932813972e-02, -3.610162139e-01},
        {-2.023193836e+00, -1.444478154e+00, -2.029865980e-01, 
            -3.842300270e-03, -3.178255260e-01, -3.528238460e-02},
        {7.248928398e-02, 3.189047575e-01, 1.300318241e-01, 
            1.956419051e-01, -3.585113883e-01, -1.491460502e-01},
        {1.149937510e+00, 3.052777648e-01, -6.973158360e+00, 
            -9.515670538e-01, -1.138917450e-02, 4.531015828e-02},
        {-5.682687759e-01, -4.797822535e-01, -8.719783425e-01, 
            -2.754431963e-01, 3.104516864e-01, 7.616929412e-01},
        {-1.074310765e-01, 1.170268469e-02, -2.951635420e-01, 
            -1.857961714e-01, 1.432029307e-01, 5.554823205e-02},
        {2.685932070e-02, 2.620944008e-02, -2.838951945e-01, 
            -1.046929061e-01, -1.015863419e-01, -1.102004945e-01},
        {9.316404909e-02, 1.217896566e-01, -1.396819651e-01, 
            3.121203743e-02, -1.166269854e-01, -4.569131136e-02},
        {-2.244494110e-01, -8.197191358e-02, -1.133788824e-01, 
            1.243017539e-01, 4.159415066e-01, 1.917683482e-01},
        {9.491822124e-02, -6.381581724e-02, -4.986496270e-01, 
            -1.645706594e-01, -3.275026381e-01, -4.384836182e-02},
        {9.913809299e-01, 8.865340352e-01, -7.571179271e-01, 
            -3.316425085e-01, 1.273199677e+00, 5.050542951e-02},
        {5.952848494e-02, 7.277286798e-02, -3.101002276e-01, 
            -1.206168979e-01, -1.116461977e-01, -7.843550295e-02},
        {-4.469353706e-02, 1.807092875e-01, 3.152853847e-01, 
            2.504692972e-01, -2.485848069e-01, -1.546812952e-01},
        {3.684860170e-01, 2.368959971e-02, -6.996927410e-02, 
            1.886855513e-01, -1.024076343e+00, -3.430729806e-01},
        {-1.821830124e-01, -2.157835215e-01, 3.233790398e-01, 
            1.653291881e-01, -1.338324666e+00, -2.916605473e-01},
        {-9.405082464e-02, 1.593381464e-01, 1.596740931e-01, 
            1.181853712e-01, -9.852235764e-02, 1.067997068e-01},
        {-2.016166210e+00, -1.107371807e+00, -2.416996717e+00, 
            -9.964371324e-01, -5.967956185e-01, -2.555457354e-01},
        {-9.003668278e-02, 1.283766031e-01, 4.945383072e-01, 
            8.463338017e-01, 1.667397469e-01, 1.675543189e-01},
        {-1.785354137e+00, -1.387462258e+00, -3.972737551e+00, 
            -1.950292587e+00, -1.070888489e-01, -5.172394682e-03},
        {1.019354090e-01, -1.482406259e-01, -1.281726956e+00, 
            -4.815788269e-01, 1.180546761e+00, -4.342119396e-01},
        {1.548180282e-01, 1.080346256e-01, -2.662698328e-01, 
            -5.136097595e-02, -3.165670633e-01, -6.501000375e-02},
        {-1.121935606e+00, -1.551319957e+00, -1.486288428e+00, 
            -9.787048101e-01, -3.606900275e-01, 6.232728064e-02},
        {-3.551132679e-01, -1.933738776e-02, -2.024342269e-01, 
            1.308380365e-01, 4.845690429e-01, 4.478524327e-01},
        {4.916287661e-01, -3.705606163e-01, -1.826850057e+00, 
            -9.852645993e-01, -3.212068677e-01, -4.374264181e-01},
        {1.633039117e-01, -4.482564330e-02, 6.014960408e-01, 
            4.679943919e-01, -9.973853827e-02, 1.951321363e-01},
        {-1.139465690e+00, -5.089151859e-01, -4.638494015e+00, 
            -1.732606888e+00, 7.492354512e-02, 1.144372448e-01},
        {-4.108429328e-02, 2.705634339e-03, -3.100365400e-01, 
            -1.550999135e-01, 6.287382543e-02, -5.218456686e-02},
        {-2.488640785e+00, -9.298732877e-01, -3.826182365e+00, 
            -6.304901838e-01, 1.459329873e-01, 1.270122379e-01},
        {1.116525456e-01, 5.680276081e-03, -7.637680392e-05, 
            1.896248758e-01, 1.756650954e-01, -1.856985837e-01},
        {-7.747019529e-01, 2.016442567e-01, -6.369488686e-02, 
            1.391371846e+00, -3.314776421e-01, -1.900508553e-01},
        {2.211458534e-01, 1.139071733e-01, -7.633606903e-03, 
            6.902942806e-02, -2.579735816e-01, -2.884837091e-01},
        {-1.425274968e+00, -3.165381253e-01, -7.250190735e+00, 
            -9.570450187e-01, 2.231688052e-02, -1.812613942e-02}
    },
    {
        {-4.728387594e-01, 2.988843992e-02, -1.394200176e-01, 
            -3.616782427e-01, -9.010282159e-02, -8.573549390e-01, 
            -1.668498218e-01, -8.173537254e-02, 2.910171151e-01, 
            -3.629490361e-02, -1.211594939e-01, -6.016588211e-02, 
            -3.859455884e-01, 1.897371560e-01, 2.258650362e-01, 
            8.124189377e-01, 8.008834720e-02, -1.362757757e-02, 
            4.416754842e-01, 3.982284963e-01, -6.473298073e-01, 
            -3.991900086e-01, 1.151972786e-01, 4.682252407e-01, 
            -3.724186420e-01, 5.716255903e-01, -2.101520598e-01, 
            -8.795183152e-02, 1.942299157e-01, -2.645243704e-01, 
            2.721725591e-02, 5.976265669e-02, 3.181707561e-01, 
            3.659912646e-01, 2.360535264e-01, -2.333130687e-01, 
            -3.352960050e-01, 5.205311775e-01, -5.753222704e-01, 
            2.689700425e-01, -3.112788796e-01, 1.454676688e-01, 
            -8.277646452e-02, -4.284278452e-01, 4.556658268e-01, 
            1.766984910e-01, -4.677509665e-01, -2.130347192e-01, 
            -6.813582778e-01, 1.435603946e-01, 9.126857668e-02, 
            -5.183448195e-01, -5.106860995e-01, -7.019184828e-01, 
            -3.986935019e-01, -7.749713957e-02, 2.665414512e-01, 
            2.144607157e-02, -3.427255154e-01, -9.102138132e-02, 
            -1.071940511e-01, 1.351842731e-01, 2.185069025e-01, 
            -5.273716450e-01, -2.414680123e-01, 5.894495174e-02, 
            -8.350611925e-01, 6.581034660e-01, 8.298269659e-02, 
            3.159459531e-01, -2.078164965e-01, -1.099286914e+00, 
            2.152677476e-01, -1.139522120e-01, 1.106124073e-01, 
            1.759320945e-01, 1.784863025e-01, 9.931812435e-02, 
            -1.965773255e-01, 1.260388643e-01, -2.308393717e-01, 
            -2.604724169e-01, -6.928173900e-01, -1.467655897e-01, 
            1.750804931e-01, -2.461747825e-01, -5.890194774e-01, 
            5.200474858e-01, 1.393431574e-01, -4.200211540e-02, 
            -8.186964691e-02, 4.405919835e-02, -5.766642094e-01, 
            -2.875330746e-01, 3.305204585e-02, -2.328574210e-01, 
            1.088023260e-01, 4.117594659e-01, -1.899314672e-01, 
            -1.050829768e+00},
        {-1.446848959e-01, -7.107321024e-01, 6.991952658e-01, 
            -2.656524181e-01, -2.027881444e-01, -5.604532957e-01, 
            -7.447661459e-02, -1.505223364e-01, 6.807321906e-01, 
            -1.244636718e-02, -1.505930305e+00, 1.931529790e-01, 
            -3.650901094e-02, 1.154803932e-01, 4.315431416e-01, 
            5.246584862e-02, 3.364109099e-01, -3.752382100e-01, 
            9.147505760e-01, 7.596275806e-01, -9.612936378e-01, 
            -1.493076235e-01, -2.746699750e-01, 7.820242643e-01, 
            -1.922759563e-01, 3.073776364e-01, 4.677393138e-01, 
            3.347271383e-01, -1.000458598e+00, -1.481243819e-01, 
            5.755789876e-01, 2.903540134e-01, 2.728828788e-01, 
            6.499626040e-01, 3.825984299e-01, 2.492117584e-01, 
            -9.679459780e-02, -1.466867566e+00, -7.362840772e-01, 
            -6.826515794e-01, -3.184644282e-01, 9.156548977e-02, 
            3.826992512e-01, 3.616846725e-02, -6.395874545e-03, 
            4.696514904e-01, 3.585725427e-01, -7.062923908e-01, 
            -1.997754574e-01, 5.209654570e-01, 5.329474807e-03, 
            -9.099106491e-02, -1.180939198e+00, -8.691475391e-01, 
            -7.477902770e-01, 3.838180900e-01, 4.373049140e-01, 
            4.992057979e-01, -3.778370321e-01, -4.687092006e-01, 
            -2.284485400e-01, 6.149249673e-01, 4.988576472e-02, 
            -6.052802205e-01, -3.356725276e-01, -1.147644877e+00, 
            -5.195491910e-01, -1.332052648e-01, 4.375823308e-03, 
            -4.217387140e-01, 1.243125796e-01, -2.219592929e-01, 
            4.525976777e-01, 6.526583433e-01, 3.676669002e-01, 
            2.596217990e-01, 1.494537890e-01, 8.877505064e-01, 
            -4.039834142e-01, 6.540191174e-01, -8.715597540e-02, 
            9.468080848e-02, -2.855177224e-01, 8.138722740e-03, 
            -2.112491280e-01, -4.849315062e-02, -8.993166685e-01, 
            4.814895988e-01, 6.098397374e-01, 2.738105059e-01, 
            6.037754416e-01, -3.766970336e-01, -2.914813757e-01, 
            -8.275108933e-01, 4.957995117e-01, -5.760130659e-02, 
            -2.657948136e-01, 3.013720512e-01, -4.894057214e-01, 
            -1.180674195e+00},
        {-2.270371616e-01, 4.648803771e-01, -1.304561049e-01, 
            7.459689379e-01, 5.509392023e-01, 2.770578265e-01, 
            7.265173197e-01, -8.839020133e-01, 2.273413539e-01, 
            -3.915582299e-01, 4.554565847e-01, -5.948898196e-02, 
            -2.237653583e-01, -3.944520056e-01, -1.792585999e-01, 
            3.288913965e-01, -9.067847729e-01, -3.562434018e-01, 
            -3.922786713e-01, 4.539087415e-02, -1.042374521e-01, 
            2.760897763e-02, -7.363326550e-01, -2.706799507e-01, 
            6.208786964e-01, -6.522676945e-01, -1.735448837e-01, 
            -5.138596892e-01, 1.158483922e-01, -6.073516011e-01, 
            -3.462202549e-01, -2.651331127e-01, -4.069197178e-01, 
            -7.303677201e-01, 2.730181906e-03, -7.943173498e-02, 
            -1.563586354e+00, 3.468285203e-01, 4.019448757e-01, 
            6.829481721e-01, 3.366554677e-01, -1.165445242e-02, 
            -2.631409466e-01, -9.151682258e-02, 2.992429733e-01, 
            -1.331312656e-01, -1.970511973e-01, 4.050835371e-01, 
            6.328835487e-01, -2.983926237e-01, -5.242809057e-01, 
            3.039574623e-01, -7.345044017e-01, 4.771696031e-01, 
            2.834036052e-01, 2.266079783e-01, -7.388370633e-01, 
            -5.755316839e-02, -5.834860802e-01, 7.674920559e-02, 
            -1.067843914e+00, -5.003964305e-01, -2.996395230e-01, 
            4.991754889e-01, 4.810263216e-01, -3.362696767e-01, 
            -2.992949784e-01, 4.246482998e-02, -1.924426109e-01, 
            -3.155644983e-02, -6.253327131e-01, -3.569649532e-02, 
            4.229299426e-01, 1.963107884e-01, -3.746258914e-01, 
            -7.086436152e-01, -6.923403144e-01, -9.202370048e-02, 
            3.629622757e-01, -4.472436905e-01, -1.029711127e+00, 
            -1.751747578e-01, -1.375767738e-01, -4.703928828e-01, 
            -5.314972401e-01, -8.708772659e-01, 4.904231131e-01, 
            -1.477277279e-01, -5.608809590e-01, 4.536227286e-01, 
            -4.050549567e-01, 5.643792748e-01, -8.213770390e-01, 
            -1.960107237e-01, -1.125986874e-01, -7.758212686e-01, 
            -8.353179693e-01, -1.056595892e-02, -4.045465589e-01, 
            -5.124910474e-01},
        {-7.095159888e-01, 3.902398795e-02, -8.764020205e-01, 
            -2.081266940e-01, 3.108728230e-01, 4.900887907e-01, 
            -2.062702417e+00, 1.899078488e-01, 6.714709103e-02, 
            3.798756599e-01, -2.705530636e-02, -5.056661740e-02, 
            -1.670538783e-01, 1.174436137e-01, 5.808651075e-02, 
            4.675956070e-02, -1.170276403e-01, -1.556500699e-02, 
            2.744885087e-01, 3.593793809e-01, 6.156048179e-02, 
            -2.223945409e-01, -1.600933820e-01, 1.833448559e-01, 
            -2.425851673e-01, -1.430956274e-01, 1.273699254e-01, 
            -6.349870563e-02, -4.094680846e-01, 5.750809237e-02, 
            -7.758660614e-02, 7.274662256e-01, -2.126266509e-01, 
            4.653297663e-01, 2.196072228e-02, 1.092672795e-01, 
            -7.145230174e-01, -8.255589008e-01, -1.865203492e-02, 
            3.960716426e-01, 1.212253124e-01, -9.247284532e-01, 
            1.042199209e-01, 2.045775391e-02, -5.299798027e-02, 
            7.806575298e-02, 1.199595809e+00, -4.983015060e-01, 
            -3.169082701e-01, 1.951992810e-01, 2.258267105e-01, 
            -1.464447379e-01, -1.417608261e-01, -6.713460386e-02, 
            -5.644173026e-01, -2.903381586e-01, 2.722984850e-01, 
            -2.111227065e-02, 7.146497071e-02, -3.673123121e-01, 
            6.891321391e-02, 5.902852863e-02, 2.831828892e-01, 
            -2.553363144e-01, -6.989551783e-01, 5.968108028e-02, 
            8.195500076e-02, 4.148609936e-01, 1.487545669e-01, 
            -1.643690467e-01, -4.157489911e-02, 2.530587614e-01, 
            5.473406911e-01, -3.017559052e-01, 9.552995861e-02, 
            -1.367937177e-01, -6.261690706e-02, 2.473781407e-01, 
            -2.464889884e-01, 1.749134064e-02, 1.495499047e-03, 
            1.539900154e-01, -5.092259645e-01, -2.584185600e-01, 
            7.252984494e-02, -2.677888870e-01, 6.902687997e-02, 
            5.008182526e-01, -3.896031901e-02, 3.430716097e-01, 
            -8.834030479e-02, -6.224630028e-02, -7.751049101e-02, 
            1.791590899e-01, -8.747599274e-02, -4.470409751e-01, 
            1.404727250e-01, -7.329262495e-01, 1.605886221e-01, 
            -1.513707042e+00},
        {-6.458691359e-01, -8.828813583e-02, 4.175163805e-02, 
            1.311335415e-01, -1.141941398e-01, 2.332198471e-01, 
            -2.901441231e-02, -1.619782299e-01, -3.341874480e-01, 
            -6.669164300e-01, -1.538014412e-01, -8.861257881e-02, 
            -3.417698443e-01, 2.383815199e-01, -6.485190988e-01, 
            -1.043814182e+00, -1.709189117e-01, 2.249139696e-01, 
            -8.342087269e-02, 4.630329311e-01, 4.359397590e-01, 
            -2.798602581e-01, -1.564710140e-01, 1.643872857e-01, 
            3.821469545e-01, -7.955969572e-01, -8.096669614e-02, 
            -1.559593678e-01, -4.839139432e-02, -1.437717825e-01, 
            -1.050738320e-01, -5.132715106e-01, -7.821062207e-01, 
            2.446119934e-01, -4.169097915e-02, 2.968266979e-02, 
            -2.598329484e-01, -8.577381968e-01, 3.147709668e-01, 
            6.386626363e-01, -5.723684281e-02, -4.494738877e-01, 
            7.476401329e-02, -2.483801246e-01, -7.690048218e-02, 
            1.429595351e-01, 8.747021668e-03, -9.801623225e-02, 
            -2.838662565e-01, -1.050443053e-01, 3.547056392e-02, 
            -5.686833858e-01, -1.335394084e-01, -5.307580233e-01, 
            -1.023669958e+00, 1.550768018e-01, 7.927063853e-02, 
            2.240410298e-01, -7.766619325e-01, -2.450770587e-01, 
            -5.211299062e-01, 8.605367690e-02, -1.863268465e-01, 
            -9.176652879e-02, 3.739825785e-01, -7.056083083e-01, 
            -1.665701419e-01, 4.002883136e-01, -1.685812026e-01, 
            3.120334744e-01, -4.098156691e-01, 4.209607244e-01, 
            5.489902496e-01, 5.137163401e-02, 4.085612018e-03, 
            -2.655655742e-01, 3.833649680e-02, 1.770637780e-01, 
            -6.775314212e-01, 9.749705344e-02, -5.438432693e-01, 
            4.100383818e-02, -1.593712866e-01, -4.410838783e-01, 
            1.876873523e-01, -3.317379355e-01, 1.605664492e-01, 
            -1.149863377e-02, 3.963047639e-02, 6.300110817e-01, 
            -1.467505544e-01, 8.264523745e-02, -6.113336086e-01, 
            1.739321351e-01, -2.034994364e-01, 2.914665937e-01, 
            -2.655173540e-01, 1.758077741e-01, -3.862105012e-01, 
            5.028966069e-01},
        {4.647125006e-01, 1.658169925e-01, -7.784155607e-01, 
            1.047270969e-01, 2.576785088e-01, 2.709636688e-01, 
            -6.265229583e-01, 1.918430179e-01, -3.414415419e-01, 
            -3.297221661e-01, 9.018003196e-02, 3.126811981e-01, 
            3.226928413e-02, 1.234627962e-01, -3.177174330e-01, 
            -2.392830998e-01, -3.468837738e-01, -1.670630574e+00, 
            1.654962003e-01, 3.435448185e-02, -1.351627469e+00, 
            -5.939334035e-01, -5.418622494e-02, -9.216484614e-03, 
            -1.101534963e+00, -4.986307025e-02, -1.931108385e-01, 
            -3.288285732e-01, 3.199014068e-01, 1.920904070e-01, 
            -2.408152074e-01, -9.081768245e-02, 4.531644881e-01, 
            3.951993883e-01, 1.409985274e-01, 5.453670770e-02, 
            -2.290297002e-01, -1.038238406e+00, -6.283991933e-01, 
            -1.347819805e+00, -1.210218668e+00, -3.934453428e-01, 
            -4.478287697e-01, -5.187143683e-01, 2.440634668e-01, 
            1.956034899e-01, 3.306358457e-01, 2.220620587e-02, 
            -5.961389542e-01, 2.142154425e-01, 2.329863310e-01, 
            2.719325013e-02, 6.915659457e-02, -2.454082072e-01, 
            -8.162919283e-01, -7.704530954e-01, 4.328306615e-01, 
            -8.612839878e-02, -6.389642358e-01, 3.570111692e-01, 
            -3.014780879e-01, 2.078353465e-01, 1.167168319e-01, 
            3.411151171e-01, -1.815076619e-01, -5.974221230e-01, 
            4.227385819e-01, 8.876294643e-02, 8.086718619e-02, 
            -1.497655362e-01, -3.437199444e-02, 3.649522364e-01, 
            -3.772118688e-01, -1.478117704e-01, 9.475959837e-02, 
            -1.204689518e-01, 8.832253516e-02, 3.540185988e-01, 
            -2.634671330e-01, 2.526992233e-03, -6.628907472e-02, 
            2.728422582e-01, 5.265209675e-01, -2.075627297e-01, 
            -7.265756726e-01, -3.229254782e-01, -2.192587614e+00, 
            3.323837370e-02, 2.400248870e-02, -3.098238707e-01, 
            -1.440430284e-01, -1.444165707e-01, -3.831189573e-01, 
            -6.387426257e-01, 1.588657200e-01, -1.178948402e+00, 
            1.084011495e-01, 2.582416832e-01, -1.206663921e-01, 
            -2.767471075e-01},
        {2.809630334e-01, 1.809587330e-01, 1.805631965e-01, 
            5.897196531e-01, -1.265680343e-01, -2.702403963e-01, 
            -5.311687943e-03, -4.953231215e-01, 7.037857175e-02, 
            -1.355259120e-01, 3.522872627e-01, -1.499869525e-01, 
            -3.712545335e-02, -1.388807446e-01, -3.096445091e-02, 
            1.141708046e-01, -8.316552639e-01, 2.643799484e-01, 
            -4.488110542e-01, 6.203010306e-02, 2.416994423e-01, 
            -4.092302024e-01, -8.312111497e-01, -2.877211869e-01, 
            8.451012969e-01, -1.137490645e-01, -1.693730503e-01, 
            -6.759831309e-01, 9.837923944e-02, -2.302232534e-01, 
            -6.945528388e-01, -1.063149095e+00, -2.392190993e-01, 
            -7.855684757e-01, -1.044935659e-01, 3.528191522e-02, 
            -1.230942607e+00, 4.466636181e-01, -4.431694746e-01, 
            3.497798145e-01, -1.240426078e-01, 3.865387440e-01, 
            -3.824889660e-01, -4.865188301e-01, 2.321671098e-01, 
            1.874400824e-01, -1.221395016e+00, 6.522964239e-01, 
            7.163193226e-01, -3.922121227e-01, -4.504228234e-01, 
            7.068832517e-01, -3.974853456e-01, -3.020540774e-01, 
            5.248866677e-01, 4.547316432e-01, -7.477664948e-01, 
            1.540307999e-01, -7.881785035e-01, 3.159424365e-01, 
            -1.240762234e+00, -4.263688922e-01, -1.369184703e-01, 
            1.711171567e-01, 3.477903903e-01, 5.936227441e-01, 
            -1.830664426e-01, -1.061000943e+00, 8.852180094e-02, 
            -1.267690212e-01, -6.501745582e-01, -6.854628921e-01, 
            -2.962804772e-02, 2.770978585e-02, -9.770768881e-02, 
            -4.066273272e-01, -8.447054625e-01, -9.184660390e-03, 
            -2.698161006e-01, -3.271863461e-01, -7.140644193e-01, 
            1.168461442e-01, 4.340276718e-01, -5.760763288e-01, 
            -8.217592537e-02, -1.203701377e+00, 5.343313217e-01, 
            -9.435396641e-02, -2.110992223e-01, 5.221620798e-01, 
            -6.199905872e-01, 4.738111496e-01, -6.478626132e-01, 
            2.780269980e-01, 1.930357330e-02, -1.554220617e-01, 
            -7.729325891e-01, 2.463224903e-02, -2.310256362e-01, 
            6.269400567e-02},
        {-7.688909173e-01, -1.718515307e-01, 2.131489217e-01, 
            1.815872490e-01, -4.322874546e-01, -6.666476130e-01, 
            -1.034666896e+00, 1.454590857e-01, 2.180562466e-01, 
            1.529571563e-01, -7.547351122e-01, 1.044669673e-01, 
            -4.158117250e-02, -1.090968922e-01, -2.434765399e-01, 
            9.729404747e-02, 8.344536275e-02, -2.000862919e-02, 
            1.873684376e-01, -9.420986474e-02, -8.533231169e-02, 
            4.461250792e-04, -3.107815385e-01, 1.771475524e-01, 
            -2.072032094e-01, -8.769900799e-01, -6.915206462e-02, 
            1.766507700e-02, 4.224917889e-01, 2.685791850e-01, 
            9.888436645e-02, -6.417769790e-01, -7.469272614e-01, 
            -8.796775341e-02, -1.850252412e-02, 9.545715153e-02, 
            2.748003602e-01, 1.197167635e-01, -6.291259527e-01, 
            -4.313996136e-01, -4.377730191e-01, 2.898359895e-01, 
            1.656701555e-03, -2.606798410e-01, -4.197010696e-01, 
            -5.110940933e-01, -6.134473085e-01, 2.181947380e-01, 
            -3.203238547e-01, 1.947278231e-01, -8.037563413e-02, 
            -1.074118376e+00, -6.522694230e-01, -5.491094589e-01, 
            -6.771284938e-01, -4.722968042e-01, 2.909374982e-02, 
            6.680539250e-02, -4.470758140e-02, 4.045527279e-01, 
            -1.739735305e-01, 3.571736068e-02, -1.005702987e-01, 
            1.486589462e-01, -4.703460261e-02, -6.160814762e-01, 
            -1.033133492e-01, 4.400535300e-02, -2.495061755e-01, 
            -4.405847192e-01, -1.013703570e-01, -2.611014247e-01, 
            -6.798439026e-01, 1.074126735e-01, 5.506914854e-02, 
            -7.690548897e-02, 1.863869429e-01, 6.290048361e-02, 
            -5.805203319e-02, -4.073665943e-03, -2.920548916e-01, 
            2.249608338e-01, -5.986571684e-02, -1.292242855e-01, 
            -5.837518573e-01, 3.774845973e-03, -3.568608463e-01, 
            -8.938882947e-01, -1.132519245e-01, -3.303935826e-01, 
            3.840286732e-01, -7.361921072e-01, 8.448980004e-02, 
            -1.445637643e-01, -1.047689244e-01, -2.731981277e-01, 
            -1.800848842e-01, -1.649859846e-01, 4.499941319e-02, 
            -1.200751781e+00},
        {-4.679631889e-01, 4.730740190e-01, -8.576579392e-02, 
            3.566631973e-01, 3.051768541e-01, -4.888815880e-01, 
            1.563684940e-01, 1.748083383e-01, 5.272471309e-01, 
            -1.205377802e-01, 6.167929992e-02, 1.031364948e-01, 
            1.512225419e-01, 2.491416782e-01, 1.872292310e-01, 
            3.052179217e-01, -1.054880917e-01, -1.586728096e-01, 
            2.315651029e-01, 4.263959229e-01, -2.233339697e-01, 
            2.853845060e-01, -8.772833645e-02, 3.529680073e-01, 
            2.742663026e-01, 9.661095589e-02, 1.714958549e-01, 
            2.619934678e-01, -1.843637079e-01, 4.091991857e-02, 
            2.705211341e-01, 4.928057641e-02, -2.703284323e-01, 
            1.783511937e-01, 4.023955762e-01, 2.336112112e-01, 
            -2.274710834e-01, -5.174962804e-02, 4.029615521e-01, 
            6.083232760e-01, 2.640230656e-01, 6.014879420e-02, 
            2.518420815e-01, 3.184762001e-01, -1.891340017e-01, 
            3.070766628e-01, -2.239430845e-01, 4.475276470e-01, 
            3.617143035e-01, 3.325943351e-01, -1.261469256e-02, 
            3.915803134e-01, -3.579935133e-01, 5.977076478e-03, 
            -7.280138880e-02, 2.607404590e-01, -2.849426237e-04, 
            1.324004978e-01, -1.730708480e-01, -2.987870872e-01, 
            -8.261539042e-02, 1.133899838e-01, 7.333058864e-02, 
            -3.831021786e-01, 4.430513978e-01, 2.753168941e-01, 
            -1.607144356e+00, 9.601063281e-02, 2.168517113e-01, 
            -1.887403727e-01, 1.209489182e-01, -1.939743400e+00, 
            3.371436894e-01, 3.609834313e-01, 2.982803881e-01, 
            4.278885573e-02, 8.474234492e-02, 4.413983524e-01, 
            -3.515469134e-01, 2.691152096e-01, 1.731407456e-02, 
            2.131506801e-01, -3.137878478e-01, 1.215991676e-01, 
            -2.510677874e-01, -2.298899889e-01, 3.590213358e-01, 
            2.688899040e-01, 1.460837126e-01, 3.164412677e-01, 
            3.269609213e-01, 7.536956668e-01, -1.503991485e-01, 
            -7.677560672e-03, 3.646734059e-01, -7.602550983e-01, 
            8.616161533e-03, -2.589820623e-01, 1.601058990e-01, 
            -2.009888887e+00},
        {4.624429643e-01, 3.200350702e-01, -2.957753837e-01, 
            -1.174282208e-01, -3.026564121e-01, 2.459362745e-01, 
            -2.901019156e-01, -4.142174125e-02, 3.243269622e-01, 
            -2.291605771e-01, -3.450613320e-01, -1.573842615e-01, 
            1.330739353e-02, -5.696791410e-01, 1.841716319e-01, 
            3.318903148e-01, 9.283940494e-02, 7.985089719e-02, 
            2.847893536e-01, 1.023175344e-01, -5.498401448e-02, 
            -3.908738196e-01, -6.986473799e-01, -1.331099775e-02, 
            5.034427643e-01, 2.648048103e-01, 3.531400263e-01, 
            -4.963661730e-01, 2.176958770e-01, 2.625659108e-02, 
            -2.638704479e-01, 4.395251349e-02, 2.685295641e-01, 
            4.893232882e-02, 3.339685202e-01, 3.029324412e-01, 
            -6.245366931e-01, 6.663120389e-01, -9.783331156e-01, 
            -2.315897495e-01, -2.666629255e-01, 3.663531244e-01, 
            -1.763766259e-01, -4.296242893e-01, 9.534698725e-01, 
            -5.277261734e-01, 2.556547821e-01, 4.526392221e-01, 
            -1.953446418e-01, -1.267443448e-01, -4.305860698e-01, 
            3.948042095e-01, -6.310517788e-01, -1.141988873e+00, 
            2.827725410e-01, -1.064353287e-01, -2.287367918e-02, 
            2.607198358e-01, -7.519050688e-02, -1.827935129e-02, 
            -1.225241497e-01, 3.747416437e-01, 9.949328378e-03, 
            5.563403368e-01, 2.420587689e-01, 8.407799602e-01, 
            5.195322037e-01, -1.308681250e+00, -1.898829192e-01, 
            -8.999595046e-02, 1.950051785e-01, 3.012692630e-01, 
            -1.345877647e-01, -1.915923208e-01, -5.568028614e-02, 
            -5.422872305e-02, -3.838222027e-01, 8.852660656e-02, 
            -3.934406042e-01, 1.645518541e-01, 1.772914529e-01, 
            3.125074208e-01, 3.913060725e-01, 1.215040237e-01, 
            3.505192697e-01, -2.071915716e-01, 1.639166623e-01, 
            -9.724571705e-01, 2.444998175e-01, 1.714089513e-02, 
            -2.069204450e-01, -2.493946813e-02, 2.706988715e-02, 
            1.889323294e-01, -1.666721329e-02, 8.513508737e-02, 
            -2.717974186e-01, -2.381897718e-01, 9.941854328e-02, 
            1.829319894e-01},
        {3.757447898e-01, 4.291691184e-01, -4.545739591e-01, 
            -3.580288962e-02, 4.859447777e-01, -4.171802104e-01, 
            1.144663915e-01, -4.106408358e-01, -9.198510647e-02, 
            -1.944897324e-02, -2.291908264e+00, -4.518187642e-01, 
            -1.683717519e-01, -1.432859063e+00, -9.977442026e-02, 
            -2.579125464e-01, 2.331812382e-01, -1.013386607e+00, 
            1.148492098e-01, 3.067326844e-01, -7.556292415e-01, 
            -3.744729757e-01, -7.682070136e-01, -6.376308203e-02, 
            7.127870321e-01, -7.649401575e-02, 4.420102537e-01, 
            -6.284340024e-01, 1.144330278e-01, 2.453880906e-01, 
            -1.277603209e-01, -1.044245288e-01, 5.798211098e-01, 
            2.692323923e-02, 2.473327070e-01, 5.005581975e-01, 
            -7.103722543e-02, 3.849654496e-01, -4.706534147e-01, 
            -1.103398800e+00, 4.517923594e-01, -1.316515058e-01, 
            -7.651830465e-02, -1.642514616e-01, 8.995841146e-01, 
            -1.809059143e+00, -3.525885642e-01, -1.900841445e-01, 
            -7.328702807e-01, -5.333945155e-01, -2.526530325e-01, 
            1.694386303e-01, -1.593208432e+00, -2.536736429e-01, 
            -3.151758015e-02, -7.506426573e-01, 3.099535406e-01, 
            4.952704608e-01, -3.089832067e-01, -1.996871978e-01, 
            3.148127496e-01, 5.218104124e-01, -7.421329021e-01, 
            2.579479516e-01, 8.273696899e-02, 7.700118423e-02, 
            -1.179592609e+00, 1.176564768e-01, -6.941996813e-01, 
            -1.194812804e-01, -2.505646273e-02, -1.198275208e+00, 
            8.549632430e-01, -3.495373726e-01, -3.087984324e-01, 
            4.874055088e-02, -4.781250358e-01, 2.224846631e-01, 
            1.674769223e-01, -3.497779667e-01, -1.200902462e-01, 
            6.173414588e-01, 7.090960741e-01, 1.667902172e-01, 
            -1.254002750e-01, 1.995902508e-02, 2.669531107e-02, 
            -1.671241999e+00, 1.649359465e-01, 1.965098232e-01, 
            -1.397622526e-01, 3.389741778e-01, 1.576545238e-01, 
            -5.281651020e-01, -5.631821752e-01, -1.788651943e-01, 
            -7.833198905e-01, -1.601112261e-02, -3.832860291e-01, 
            -1.549902081e+00},
        {-1.715402007e+00, -7.314178348e-01, 2.953225672e-01, 
            1.189152244e-02, -1.274612248e-01, 9.110529721e-02, 
            -3.306752443e-01, 1.295050979e-01, -1.873085201e-01, 
            -1.340711564e-01, -1.468829811e-01, 2.399521507e-02, 
            -2.092896402e-01, 1.503084749e-01, -4.070146680e-01, 
            -6.154978871e-01, 5.174672231e-02, 2.687731981e-01, 
            1.534601897e-01, -1.685763448e-01, 2.778046131e-01, 
            -2.719441652e-01, 5.070017651e-02, 2.305537164e-01, 
            -1.007482186e-01, -9.551305771e-01, 6.262852997e-02, 
            -6.194068864e-02, 1.994652152e-01, -2.171822339e-01, 
            1.887881309e-01, 3.896824317e-03, -6.156300306e-01, 
            -1.330081224e-01, -1.828006506e-01, -3.643009961e-01, 
            1.447485536e-01, 6.199429929e-02, -1.234191805e-01, 
            2.494738251e-01, -2.362768799e-01, -2.342329174e-01, 
            -1.029642895e-01, -8.321300894e-02, -2.177021466e-02, 
            5.150995776e-02, 1.449211389e-01, -8.208719492e-01, 
            -7.434073836e-02, -1.679602824e-02, 3.379042447e-01, 
            -6.507010460e-01, -1.525611877e-01, -5.254572034e-01, 
            -8.557921052e-01, 3.642947674e-01, 2.837209105e-01, 
            -3.212617934e-01, -3.297773600e-01, 2.162976712e-01, 
            -1.870707124e-01, -2.404555492e-02, -3.603676856e-01, 
            -3.465392813e-02, -6.987805367e-01, -5.770670176e-01, 
            1.068496052e-02, 2.631147802e-01, 2.408638410e-02, 
            2.893725038e-01, -4.316045344e-01, 2.299800962e-01, 
            1.762933582e-01, 1.603172868e-01, -4.106381908e-02, 
            -7.470678072e-03, 5.948309600e-02, -2.083474249e-01, 
            -1.501479596e-01, -1.381138414e-01, -3.263543174e-02, 
            -6.353603601e-01, -8.621898890e-01, 6.411944330e-02, 
            -6.310424209e-02, 4.925667867e-02, 9.549798816e-02, 
            9.213749319e-02, -1.750210971e-01, -7.437457144e-02, 
            1.632542759e-01, -5.972454548e-01, -2.011235431e-02, 
            1.264037639e-01, -3.571617883e-03, 2.709350586e-01, 
            -3.732582182e-02, 1.066923440e-01, -2.279269546e-01, 
            6.054117084e-01},
        {5.806015730e-01, 2.084259987e-01, -7.365585119e-02, 
            5.255746096e-02, 2.898727730e-02, 4.489075020e-02, 
            -3.186199069e-02, 3.367231488e-01, -1.402930170e-01, 
            -1.161337830e-02, 6.743475199e-01, 2.200750560e-01, 
            -3.004282713e-02, -1.608093083e-01, -7.374430448e-02, 
            1.745826751e-01, -3.892387450e-01, 1.208232120e-01, 
            -2.332148850e-01, -6.921441555e-01, 1.959635317e-01, 
            -9.080686569e-01, -1.228547215e+00, -1.220417857e+00, 
            -1.304836512e+00, 5.038318038e-01, -6.677610874e-01, 
            -1.108839750e+00, 2.441626489e-01, 9.858284146e-02, 
            -1.085699439e+00, -1.122833416e-01, 2.246768922e-01, 
            3.789026663e-02, -1.304655820e-01, -4.014503956e-01, 
            -2.700365707e-02, 3.762907386e-01, -1.176303267e+00, 
            2.733840346e-01, -2.709325552e+00, 2.040704340e-01, 
            -1.658429742e+00, -1.391396999e+00, -8.696269393e-01, 
            2.566453815e-01, -1.920564771e-01, 3.094117045e-01, 
            3.957756162e-01, -2.860269248e-01, 1.920389831e-01, 
            2.933963835e-01, 1.865718365e-01, -8.756145835e-01, 
            3.646785617e-01, -1.825089902e-01, -1.066866964e-01, 
            -3.557434082e-01, -2.281216085e-01, 2.381563038e-01, 
            1.386099458e-01, -5.074142814e-01, 4.603735507e-01, 
            3.660493493e-01, -3.311369196e-02, 1.122398004e-01, 
            1.356188059e-01, -8.350394368e-01, 4.679409564e-01, 
            2.114525139e-01, -5.867651477e-02, 8.936696500e-02, 
            -1.736680627e+00, -4.507812560e-01, 5.512873456e-02, 
            -2.829884179e-02, -8.104643822e-01, -1.457803547e-01, 
            -6.691742688e-02, 2.328134328e-02, -1.811831072e-02, 
            4.591608942e-01, 6.315370798e-01, -3.702863157e-01, 
            3.254021704e-01, -1.427012086e-01, 2.827424705e-01, 
            -2.492705593e-03, -9.742482007e-02, 2.096737474e-01, 
            -1.712935090e+00, 1.872342080e-01, -3.246322274e-01, 
            -3.890870139e-02, -1.720789224e-01, -2.530868724e-02, 
            1.190195903e-01, 2.968263626e-01, 3.556550145e-01, 
            1.504075974e-01},
        {-1.860890031e+00, -2.276102751e-01, 3.848299086e-01, 
            4.444168508e-01, 2.595701218e-01, 1.014581919e-01, 
            1.052792192e+00, -2.319154263e+00, -8.294670284e-02, 
            3.227640688e-01, 1.094134688e+00, -1.871636748e+00, 
            -2.468429565e+00, -3.625251353e-01, -8.433597088e-01, 
            1.626956090e-02, -9.971445203e-01, 8.849479258e-02, 
            -1.411450744e+00, 2.698203325e-01, 4.678286240e-02, 
            -2.047741413e+00, 9.059388638e-01, -2.405804694e-01, 
            7.102310658e-01, -3.320864737e-01, -1.784441948e+00, 
            -9.670302868e-01, 2.920539677e-01, -3.676566601e+00, 
            -6.969894171e-01, 2.101584077e-01, -1.670850515e-01, 
            -1.729633212e+00, -4.872964621e-01, -1.844796538e+00, 
            1.015869737e+00, 2.994645536e-01, 1.186802611e-01, 
            1.371354237e-02, 8.017852902e-01, -1.308545917e-01, 
            -6.217445135e-01, -7.976447940e-01, 2.880984247e-01, 
            -6.556899846e-02, 1.790979207e-01, 9.661406279e-02, 
            3.297537267e-01, -1.516139269e+00, 4.149497449e-01, 
            -4.152021110e-01, 1.457110524e+00, 1.616608739e+00, 
            -7.562267780e-01, 3.455676734e-01, -2.842477083e+00, 
            -1.557124496e+00, -2.020906925e+00, 3.170816302e-01, 
            -2.582374811e+00, -1.825328946e+00, -9.273389578e-01, 
            2.050593942e-01, 1.059470177e-01, 3.759427369e-02, 
            1.028999910e-01, 7.104461193e-01, -7.896352410e-01, 
            -3.038877249e-02, -3.309396267e+00, 2.189242691e-01, 
            3.172869384e-01, -6.852141619e-01, -1.970039845e+00, 
            -2.845199347e+00, -1.260672092e+00, -1.038730264e+00, 
            1.145573139e+00, -1.815036893e+00, -3.152088404e+00, 
            -3.358407259e+00, -2.727874279e+00, -2.211391211e+00, 
            -2.289216071e-01, -3.367131650e-01, -9.176201373e-02, 
            8.166733980e-01, -2.122206211e+00, -6.267514080e-02, 
            3.951260820e-02, -2.777832150e-01, -2.736385822e+00, 
            1.428072453e-01, -1.380535960e+00, 1.472517550e-01, 
            -1.625189424e+00, 2.904345095e-01, -3.115503788e+00, 
            2.014294118e-01},
        {-8.316907287e-01, 3.474145532e-01, 2.965006232e-01, 
            -2.928592861e-01, -2.541124523e-01, -5.680964589e-01, 
            1.219621226e-01, -2.180876397e-02, 6.079649925e-01, 
            -1.587059796e-01, -8.097808361e-01, 4.349604845e-01, 
            1.547130942e-01, 3.392704427e-01, 5.829660296e-01, 
            3.009753525e-01, -2.885845117e-02, -1.822585762e-01, 
            5.096207857e-01, 2.645758688e-01, -7.524646074e-02, 
            -2.550329864e-01, 2.926775515e-01, 5.292467475e-01, 
            -5.226556659e-01, -1.044556856e+00, -7.563823462e-02, 
            2.952581048e-01, 1.841957718e-01, 1.205260456e-01, 
            2.837922275e-01, 1.412406713e-01, -6.409239173e-01, 
            3.273624778e-01, 4.116051495e-01, 1.309926659e-01, 
            1.620369777e-02, 6.882110983e-02, -2.859987020e-01, 
            -5.130483508e-01, -7.043898106e-01, -4.137490690e-01, 
            6.125915423e-02, -7.712820172e-02, -2.047003210e-01, 
            4.717172682e-01, -5.654693246e-01, 5.914587155e-02, 
            -3.220845163e-01, 4.284932017e-01, 1.826952696e-01, 
            -1.052608490e+00, -4.869116247e-01, -5.695449114e-01, 
            -7.720964961e-03, -2.260069996e-01, -1.598020047e-01, 
            2.587751448e-01, -3.746201396e-01, 8.830672503e-02, 
            -3.043446243e-01, 1.702017188e-01, 2.589587867e-02, 
            -1.814247519e-01, 5.233322978e-01, -8.696624041e-01, 
            -8.343812227e-01, 3.768994808e-01, 3.174041510e-01, 
            -2.208606005e+00, 5.260819569e-02, -8.259268999e-01, 
            1.317864284e-02, 2.308428288e-01, 5.537284613e-01, 
            3.131660819e-01, 4.539468586e-01, 4.395297170e-01, 
            -2.390755415e-01, 6.160978675e-01, 8.440311253e-02, 
            -1.586254537e-01, -6.514628530e-01, -2.334951609e-02, 
            -6.570912004e-01, 1.378182024e-01, 7.871751674e-03, 
            5.699893236e-01, 4.662978351e-01, -1.386510372e+00, 
            5.453675985e-01, 1.217492297e-01, -2.066369951e-01, 
            -2.532450259e-01, 5.244775414e-01, -3.640445173e-01, 
            1.721438020e-01, -1.818999946e-01, 2.026496828e-01, 
            -1.245738029e+00},
        {-9.787018299e-01, -2.103521228e-01, 3.351087868e-01, 
            -2.851770222e-01, -9.974174201e-02, 3.069852293e-01, 
            4.929100871e-01, 7.480974495e-02, 2.433456481e-01, 
            -3.472560346e-01, -4.181856215e-01, -1.544718146e-01, 
            -6.334040314e-02, -2.282861918e-01, 2.116014808e-01, 
            -5.395403504e-02, 1.866786778e-01, -1.767230481e-01, 
            2.425686270e-01, -3.375266492e-01, -3.738059998e-01, 
            -1.270825714e-01, -6.450955868e-01, -1.316213310e-01, 
            -5.500364900e-01, 1.675706953e-01, -1.354657859e-02, 
            2.968605459e-01, -3.024883866e-01, -1.608160883e-01, 
            -2.576182224e-02, 6.085318513e-03, -6.362923980e-01, 
            1.198351234e-01, -1.911073029e-01, -1.811105991e-03, 
            2.225481868e-01, -6.365033388e-01, -1.535278410e-01, 
            -1.457686424e+00, -3.412118256e-01, 5.919890106e-02, 
            2.121474594e-02, -6.038826704e-02, -7.054375410e-01, 
            9.752795100e-02, 3.392371237e-01, -3.901756406e-01, 
            3.451232612e-02, -9.264092892e-02, -1.485667676e-01, 
            -9.754423499e-01, 8.349673450e-02, -5.375548005e-01, 
            3.726536036e-01, -5.826731026e-02, -2.240270078e-01, 
            -2.127769887e-01, 1.807698011e-01, 1.914904714e-01, 
            2.702745199e-01, 9.587910026e-02, 2.115230858e-01, 
            -1.798921227e-01, -9.678146243e-02, -4.595747292e-01, 
            1.863128245e-01, -2.999760807e-01, 3.167899698e-02, 
            -2.701426744e+00, 3.346512020e-01, 4.002178013e-01, 
            -6.774505377e-01, 1.888967007e-01, 2.378966808e-01, 
            2.743234634e-01, -1.734963804e-01, -1.047741920e-01, 
            -4.932070524e-02, 9.319519997e-02, 2.264797539e-01, 
            -2.587956786e-01, -9.540369511e-01, 7.347719371e-02, 
            -6.581978798e-01, -3.329521045e-02, -1.037913442e+00, 
            5.088923126e-02, -6.194489077e-02, -1.567809939e+00, 
            1.203054711e-01, -6.452798843e-01, -1.099083945e-01, 
            -1.833393723e-01, 8.459734917e-02, 8.136112243e-02, 
            1.181589812e-01, 2.652839720e-01, 8.113215119e-02, 
            3.455054760e-01},
        {-2.542524040e-01, -5.959053040e-01, 1.497686096e-02, 
            2.567273378e-01, 2.003506571e-02, -4.893360138e-01, 
            -4.565345943e-01, -1.933842599e-01, -1.011649147e-01, 
            8.090090007e-02, -9.155406952e-01, -9.776338190e-02, 
            -1.159709916e-01, -1.370641403e-02, -9.114068747e-02, 
            -9.721491486e-02, -7.262611389e-02, 4.627532884e-02, 
            3.870029747e-02, -4.092082381e-02, -2.472825646e-01, 
            -4.450630248e-01, 7.002320886e-02, -8.557974547e-02, 
            -4.791144431e-01, -6.670413017e-01, -2.061625719e-01, 
            -9.273789078e-02, 1.255639046e-01, -1.995440722e-01, 
            -1.695665419e-01, 1.307672709e-01, 3.855382651e-02, 
            1.211897135e-01, -3.035956025e-01, -2.981396317e-01, 
            -9.872188419e-02, 5.816919804e-01, -5.790575743e-01, 
            5.067991018e-01, -3.820121586e-01, 3.149286807e-01, 
            -7.496810704e-02, -3.207705319e-01, -2.563540637e-01, 
            -1.321412772e-01, -7.309568524e-01, -4.685763717e-01, 
            -3.277365565e-01, 1.224705949e-01, 2.995067835e-01, 
            -7.252136469e-01, -6.230732203e-01, -4.625535309e-01, 
            -6.467636228e-01, 2.471045256e-01, -1.503758281e-01, 
            -4.262359142e-01, -1.963187903e-01, 1.043007299e-01, 
            -1.497541368e-01, -1.405682564e-01, 1.038022246e-02, 
            -1.938968003e-01, -6.625247598e-01, -9.348717928e-01, 
            -2.977977991e-01, 6.334309578e-01, -2.249736339e-01, 
            4.469861090e-01, 4.827776551e-02, -3.199762702e-01, 
            -4.171212614e-01, -2.874135375e-01, -1.267483109e-03, 
            -4.212490842e-02, -1.517153252e-02, -1.444134414e-01, 
            -2.110435218e-01, -3.613068908e-02, -1.113504097e-01, 
            -3.388076425e-01, -3.833063841e-01, -2.841151655e-01, 
            7.787365913e-01, 4.323065281e-02, 1.871742159e-01, 
            3.506180272e-02, 2.425643802e-02, -2.039903551e-01, 
            -1.727808565e-01, -1.411299109e+00, -2.272364944e-01, 
            -6.056867242e-01, -1.070209444e-01, -1.016263887e-01, 
            -1.393039078e-01, 1.699759811e-01, -1.642714590e-01, 
            -6.340143681e-01},
        {-1.018088579e+00, 1.605614722e-01, -1.766447574e-01, 
            6.399295330e-01, 7.416446805e-01, 8.467308283e-01, 
            -6.776208282e-01, -1.234757453e-01, 5.407341942e-02, 
            -4.117444754e-01, -1.592367738e-01, 1.409754008e-01, 
            -1.874205470e-01, 1.854688078e-01, -2.483536489e-02, 
            -1.020071134e-01, -3.269331157e-01, 2.219650447e-01, 
            -2.384634167e-01, 6.456172466e-02, 7.136157751e-01, 
            -1.250202358e-01, 2.188499570e-01, 1.501602381e-01, 
            -6.742049009e-02, -9.508199096e-01, -1.932992488e-01, 
            -1.187329516e-01, 4.366076887e-01, -2.158841342e-01, 
            1.337700710e-02, -3.095172942e-01, -5.203197002e-01, 
            -3.556355536e-01, -3.544817865e-02, -4.009518325e-01, 
            -3.331821859e-01, -7.109584752e-03, 1.550621390e-01, 
            4.654659927e-01, -4.706707317e-03, -4.238588810e-01, 
            -1.018661261e-02, -1.142874956e-01, -2.994871140e-01, 
            -2.053043572e-03, 1.254249513e-01, 8.366058767e-02, 
            2.239893824e-01, 8.913681656e-02, -3.071999550e-01, 
            -8.428292722e-02, -3.463608027e-01, 1.339031458e-01, 
            -2.129861899e-02, -2.098626457e-03, -3.321330845e-01, 
            -3.121368289e-01, -2.996850014e-01, 8.170418143e-01, 
            -6.982005835e-01, -4.059096575e-01, -2.039306164e-01, 
            5.661826730e-01, -6.633523852e-02, -2.783252001e-01, 
            2.935666144e-01, 6.560877562e-01, -5.843748152e-02, 
            2.928249352e-02, -4.832201302e-01, 4.305793047e-01, 
            3.118588030e-01, -4.568920285e-02, 5.235878634e-04, 
            -9.068570286e-02, 4.674104601e-02, 1.968580112e-02, 
            4.382732809e-01, -1.521274820e-02, -3.309564292e-01, 
            -5.400388837e-01, -7.748255730e-01, -3.189498484e-01, 
            -3.071797192e-01, -4.548155069e-01, 6.326703429e-01, 
            3.778401613e-01, -2.962522805e-01, 3.348745704e-01, 
            1.208597869e-01, 1.563168019e-01, -3.305555582e-01, 
            6.153597832e-01, 4.109593853e-02, -3.771257401e-02, 
            -5.464347824e-02, -1.136118054e+00, -1.238541231e-01, 
            2.229659706e-01},
        {-2.511993945e-01, 4.637387097e-01, -1.010072351e+00, 
            4.050012231e-01, 1.030261517e-01, -6.881643087e-02, 
            -2.053956509e+00, 2.078691274e-01, 1.030636430e-01, 
            -6.154752374e-01, 2.045750767e-01, -1.339584142e-01, 
            -5.618757606e-01, -1.013721108e+00, -3.731745780e-01, 
            4.833096862e-01, -1.366782546e+00, 1.548703015e-01, 
            -4.378076196e-01, 1.066213846e-01, 1.879114807e-01, 
            -1.262793303e+00, -2.322817087e+00, -9.629077315e-01, 
            1.190521717e-01, 5.866303295e-02, -2.522659898e-01, 
            -1.632426500e+00, 1.073730215e-01, 1.565166861e-01, 
            -1.221569657e+00, -4.102670848e-01, -2.988493443e-01, 
            1.201671660e-01, 3.871666268e-02, 1.698020101e-01, 
            -1.263284326e+00, 2.758683264e-01, -1.952800989e+00, 
            -5.689421669e-02, -1.243969724e-01, 1.857171208e-02, 
            -1.180026054e+00, -1.117052078e+00, 2.794245183e-01, 
            -8.055837154e-01, -3.054647744e-01, 2.013056129e-01, 
            4.138704836e-01, -5.079157948e-01, 3.092118204e-01, 
            5.917093754e-01, -3.222591579e-01, -4.361406565e-01, 
            -2.910691202e-01, -6.856743097e-01, 3.364131451e-01, 
            1.086721420e-01, -8.783524632e-01, 4.668861032e-01, 
            -3.505347669e-02, 1.056688055e-01, -1.706088036e-01, 
            2.942879498e-01, 2.566578686e-01, 5.206738710e-01, 
            -1.274099648e-01, -7.656486630e-01, 2.320732027e-01, 
            7.334777713e-01, -4.588278234e-01, -1.965171248e-01, 
            -2.839302719e-01, -1.012653470e+00, -4.201279581e-01, 
            -6.455419660e-01, -1.235546350e+00, 3.411403596e-01, 
            1.811677665e-01, -4.724808335e-01, -3.300220370e-01, 
            6.478788257e-01, 4.830005467e-01, -6.655316949e-01, 
            3.126495779e-01, -1.096528769e+00, 5.692299604e-01, 
            -1.674571037e-01, -4.631741345e-01, 7.315294147e-01, 
            -1.114382625e+00, 7.230301499e-01, -4.397902191e-01, 
            8.521056920e-02, -4.326483011e-01, -4.240629375e-01, 
            -4.885615408e-02, -6.466041207e-01, -1.613088995e-01, 
            -5.096725821e-01},
        {-8.391209245e-01, 4.075072408e-01, -1.619557142e-01, 
            -2.408425808e-01, 4.599547684e-01, 9.634765983e-01, 
            -5.093746819e-03, -3.557878314e-03, 9.801650792e-02, 
            2.655442059e-02, -2.620142996e-01, 5.133541226e-01, 
            5.422309041e-01, 3.497255221e-02, 6.457410008e-02, 
            -2.058067769e-01, -5.847230554e-01, -5.837221742e-01, 
            -1.607167423e-01, 3.180029094e-01, -3.062523305e-01, 
            5.199295282e-01, -7.743254900e-01, -1.463325173e-01, 
            -2.729406655e-01, -1.209206462e+00, -1.378756715e-03, 
            -1.224766299e-01, 1.814827472e-01, 3.400389850e-01, 
            -9.140515327e-02, -8.798326254e-01, -1.166247487e+00, 
            -6.786324382e-01, 1.761550605e-01, 4.353538752e-01, 
            -6.076185107e-01, -5.852145553e-01, 6.983131915e-02, 
            -6.360490918e-01, -3.240839764e-02, -1.136619329e+00, 
            -9.948079288e-02, 4.229741693e-01, -1.282069206e+00, 
            -3.483002186e-01, -6.575666368e-02, -4.798293486e-02, 
            3.698818851e-03, 2.790490687e-01, -6.870880127e-01, 
            -1.096670747e+00, -2.259850688e-02, -5.157608986e-01, 
            6.509907246e-01, -1.634813249e-01, -2.017845958e-01, 
            2.071972042e-01, 3.316937089e-01, 4.240205586e-01, 
            -1.510191709e-01, -2.242266387e-01, -1.296534538e-01, 
            4.983144403e-01, 6.520351768e-01, -1.220937014e+00, 
            -2.286069542e-01, 7.443482876e-01, 1.382075101e-01, 
            -2.393131495e+00, -1.225722507e-01, 3.452088237e-01, 
            -1.230483130e-01, 3.899924755e-01, 3.119064569e-01, 
            -2.247772738e-02, -1.043877844e-02, 2.636461556e-01, 
            -1.219851971e+00, -2.483014204e-02, 2.434523404e-01, 
            -2.087175287e-02, -1.248687878e-01, 1.650638580e-01, 
            -2.058645487e+00, -5.058907270e-01, -6.992533207e-01, 
            -7.047808915e-02, -1.905214856e-03, -2.639493048e-01, 
            -5.602537394e-01, 4.921667278e-01, 2.149882913e-01, 
            -2.113855332e-01, 5.805168152e-01, -2.574412227e-01, 
            1.652438641e-01, -1.460729122e+00, 2.787832916e-01, 
            -8.998147845e-01},
        {-4.034062922e-01, 3.368166089e-01, -5.481715798e-01, 
            -2.289614975e-01, -6.630001217e-02, 5.806802511e-01, 
            -9.799177051e-01, -1.385454535e-01, 5.193514004e-02, 
            -1.727883369e-01, -2.103552520e-01, -1.649316698e-01, 
            -3.046757877e-01, -7.946977764e-02, 3.930408955e-01, 
            1.713447720e-01, 1.254591532e-02, -5.414618850e-01, 
            1.307465434e-01, -2.678440511e-01, 1.767808497e-01, 
            -2.280933857e-01, -3.108629957e-02, 2.838752419e-02, 
            -1.693942845e-01, 4.465286434e-01, 7.573403418e-02, 
            6.090919673e-02, 1.858265549e-01, 6.230809912e-02, 
            -2.018023431e-01, 1.584684253e-01, -5.094578266e-01, 
            1.265666634e-01, 2.243676037e-01, 2.508896291e-01, 
            -1.632740349e-02, 4.260886312e-01, -3.036498129e-01, 
            -7.092036009e-01, -1.964497417e-01, -9.564156532e-01, 
            -2.311027050e-02, -1.573518664e-01, 6.357890368e-01, 
            6.156272069e-02, 5.656741858e-01, -1.016901992e-02, 
            -4.115493298e-01, -1.274164766e-01, -8.331323415e-02, 
            -2.207012177e-01, 1.529878825e-01, -4.313795269e-01, 
            4.417068362e-01, -8.724420667e-01, -2.111021616e-02, 
            1.544776708e-01, -1.353446543e-01, 2.833144069e-01, 
            -8.445160836e-02, 3.258954585e-01, -4.894560669e-03, 
            2.288656831e-01, 8.109014481e-02, 4.410129040e-02, 
            1.064373016e+00, -1.956461817e-01, 1.931058019e-01, 
            -9.750432372e-01, 9.377189912e-03, 9.461621642e-01, 
            -3.466087580e-01, -3.268530369e-01, 1.095973253e-01, 
            -5.460141227e-02, -3.835137188e-02, 3.046658337e-01, 
            -3.920843899e-01, 2.561105788e-02, -2.423180640e-01, 
            1.664132923e-01, -2.358480841e-01, -1.999573857e-01, 
            -5.113008022e-01, -1.554345638e-01, -3.780436516e-01, 
            1.094102934e-01, 1.774326414e-01, -3.678312004e-01, 
            -1.612356454e-01, 1.767596304e-01, -1.981318891e-01, 
            -7.758733630e-02, 2.311620116e-02, -5.482226610e-02, 
            -1.287199408e-01, 3.650790779e-03, -4.619216919e-02, 
            7.205260992e-01},
        {1.793163829e-02, -4.816903546e-02, 3.526896238e-01, 
            -4.888007641e-01, -3.802704811e-01, 2.873674035e-01, 
            -3.325116932e-01, -1.059499830e-01, -3.494531512e-01, 
            -4.974983931e-01, -1.062164083e-02, -5.553033948e-01, 
            -5.541865826e-01, -8.083670735e-01, -6.550484337e-03, 
            2.199299783e-01, 3.893797845e-02, -9.700070322e-02, 
            -1.217231676e-01, -1.001057744e+00, -7.430585474e-02, 
            -1.003666878e+00, -1.044352293e+00, -4.772484899e-01, 
            -8.197486401e-01, 3.826121092e-01, -3.880176544e-01, 
            -3.379730880e-01, 7.439429313e-02, -2.372377366e-01, 
            -3.232280016e-01, -2.523510158e-01, -1.584451944e-01, 
            -7.887363434e-02, -3.503409028e-01, -2.118064016e-01, 
            1.389262676e-01, -3.604611009e-02, -1.502896667e+00, 
            -1.968564987e+00, -1.574246407e+00, 3.655470610e-01, 
            -6.626912951e-01, -1.065262198e+00, 3.764567077e-01, 
            -6.784403920e-01, 2.360639870e-01, 5.160301924e-02, 
            -2.783052623e-01, -5.740044713e-01, 1.102036890e-02, 
            -4.487443864e-01, -1.983408071e-02, -1.375294805e+00, 
            -3.602942824e-01, -1.490777731e-01, 2.427360415e-01, 
            -4.915888011e-01, -4.579934478e-01, 2.507540882e-01, 
            2.064735442e-01, 3.035010025e-02, -2.402263880e-01, 
            1.825210452e-01, -4.524136186e-01, 1.690936685e-01, 
            5.584283471e-01, -8.325318098e-01, -2.481516004e-01, 
            -9.661177397e-01, -7.319108397e-02, 4.498052299e-01, 
            -1.434902668e+00, -7.068066597e-01, -2.354141325e-01, 
            -3.234589696e-01, -5.154390335e-01, -1.896409690e-01, 
            -2.302780896e-01, -3.942362964e-01, -3.285122290e-02, 
            2.488639057e-01, 1.886906028e-01, -2.271046489e-01, 
            -8.906918764e-01, 1.264722645e-01, -7.693147063e-01, 
            -8.253247738e-01, -3.636181653e-01, -2.436265469e+00, 
            -3.576553166e-01, -5.608416200e-01, -2.632474899e-01, 
            -1.882547289e-01, -7.634468675e-01, -5.800158903e-02, 
            -4.656798542e-01, 5.050718784e-01, -7.966571301e-02, 
            6.226010323e-01},
        {3.896836340e-01, 2.975717485e-01, -6.098768711e-01, 
            -5.750952661e-02, -1.256312877e-01, 2.216786593e-01, 
            -3.932912946e-01, -4.230940342e-01, 1.094874889e-01, 
            -9.330760837e-01, 1.894759685e-01, -8.097616583e-02, 
            -3.380694687e-01, -3.593310714e-01, 9.230973572e-02, 
            2.596456707e-01, -1.534855068e-01, -3.068705276e-02, 
            1.167926118e-01, -1.070090532e-01, 1.974684000e-01, 
            -5.132225156e-01, -1.037111044e+00, -2.351163775e-01, 
            -2.620135807e-02, 5.343948007e-01, -2.416108996e-01, 
            -7.773146033e-01, -4.391997680e-02, -3.413182795e-01, 
            -4.481375813e-01, -4.017898738e-01, 2.244306952e-01, 
            1.155907810e-01, 1.540772617e-01, -2.746286690e-01, 
            -6.970072389e-01, 6.796582043e-02, -1.177248597e+00, 
            5.536015630e-01, -6.637933850e-01, 4.782525897e-01, 
            -6.422563195e-01, -4.751445949e-01, 7.655233145e-01, 
            -2.158865891e-02, 3.403692245e-01, 4.762705266e-01, 
            -1.635851860e-01, -2.124861777e-01, -4.322443008e-01, 
            6.826655865e-01, -2.512199432e-02, -1.418575168e+00, 
            -3.426144421e-01, -1.304333005e-02, -2.706948817e-01, 
            -1.505923457e-02, -6.204277873e-01, -1.683560908e-01, 
            -7.428256869e-01, 9.484815598e-02, 1.877031326e-01, 
            3.056350946e-01, 7.713501900e-02, 7.676057220e-01, 
            3.606447279e-01, -1.385226488e+00, -1.634911746e-01, 
            3.897681832e-01, -7.815409452e-02, 3.666658998e-01, 
            -4.091290832e-01, -2.603015602e-01, 9.691277891e-02, 
            -3.844041824e-01, -6.859493852e-01, -5.759251118e-02, 
            -8.716422319e-01, -6.184044760e-04, -6.050732136e-01, 
            -5.827980638e-01, -2.881646454e-01, -4.585769773e-01, 
            4.276089370e-01, -4.792582095e-01, 5.699882507e-01, 
            -5.992437005e-01, 1.028375402e-01, 5.929686427e-01, 
            -8.016324639e-01, 4.052452147e-01, -7.571535707e-01, 
            2.845044136e-01, -1.604636461e-01, -1.105265319e-01, 
            -5.175712705e-01, 1.125832796e-01, -5.040866137e-01, 
            6.846315414e-02},
        {4.718577266e-01, 2.183066905e-01, 2.274209857e-01, 
            6.844816804e-01, -1.361134201e-01, -3.083249331e-01, 
            1.427245587e-01, -1.097128391e+00, -1.859619399e-03, 
            -1.018561840e+00, 3.305246532e-01, -2.334102541e-01, 
            -2.427325100e-01, -1.204647869e-01, -2.395328879e-02, 
            1.975269243e-02, -1.434285760e+00, 2.019770890e-01, 
            -6.577056646e-01, 1.155882701e-01, 8.452245966e-03, 
            -2.064458877e-01, -2.495016098e+00, -4.390003979e-01, 
            9.158848524e-01, -2.916778624e-01, -3.743733168e-01, 
            -5.805181861e-01, -4.820087552e-01, -4.787278175e-01, 
            -4.807813168e-01, -1.744900823e+00, 3.509340286e-01, 
            -1.318395257e+00, -3.425420523e-01, 1.745861322e-01, 
            -1.699117780e+00, -3.656880930e-02, -2.489539981e-01, 
            3.015087247e-01, 4.694374800e-01, 1.331682801e-01, 
            -4.664801955e-01, -1.657047272e-01, -2.654903829e-01, 
            1.574802995e-01, -1.049203634e+00, 7.038171887e-01, 
            8.470267057e-01, -4.070768356e-01, -2.044096231e+00, 
            6.240212917e-01, -6.596945524e-01, 1.766990572e-01, 
            1.060447216e+00, 2.946145236e-01, -1.030187845e+00, 
            -1.295862198e-01, -4.387676716e-01, 6.494500488e-02, 
            -1.606058240e+00, -4.621035159e-01, 1.849269569e-01, 
            -5.468624234e-01, 6.609587669e-01, 4.390462041e-01, 
            6.194774806e-02, -5.780869722e-01, 2.262895107e-01, 
            -1.587068141e-01, -4.495800138e-01, -1.391316950e-01, 
            -2.913866639e-01, 1.725362837e-01, -1.654923558e-01, 
            -7.022351623e-01, -9.215130210e-01, -4.478033781e-01, 
            1.367728561e-01, -8.958751708e-02, -7.896509767e-01, 
            4.131361097e-02, 3.203650117e-01, -3.021939695e-01, 
            6.509128958e-02, -2.061054230e+00, 3.476348221e-01, 
            -2.513196766e-01, -3.693343401e-01, 1.572363079e-01, 
            -6.912506819e-01, 1.646188200e-01, -8.251641393e-01, 
            1.677229255e-02, 1.738784648e-02, -1.556169689e-01, 
            -8.664168715e-01, -2.463188171e-01, -3.050216138e-01, 
            -1.617554128e-01},
        {3.745089844e-02, -2.911623418e-01, 5.947781801e-01, 
            -1.108710840e-01, 1.894894540e-01, -1.529853940e-01, 
            2.678232193e-01, 3.924336433e-01, -8.445031047e-01, 
            1.126670018e-01, 7.725369930e-01, 1.240486354e-01, 
            -1.582933068e-01, 1.664105356e-01, 1.745331734e-01, 
            -1.418247461e+00, -4.434258342e-01, -3.805411234e-02, 
            -1.377256811e-01, -8.054583073e-01, -4.887840748e-01, 
            -4.515837133e-01, -2.162816823e-01, -5.564898252e-01, 
            -3.035109758e+00, 2.292913795e-01, -7.228173018e-01, 
            -3.138339520e-01, -7.209923863e-01, 4.845345020e-02, 
            -4.697012603e-01, 2.634503245e-01, -1.076192409e-01, 
            4.330410063e-01, 1.544817351e-02, -2.284484655e-01, 
            -1.863911748e-01, -3.121389747e-01, 4.094210863e-01, 
            -3.869564533e-01, -1.257338524e+00, -3.124377131e-01, 
            -9.925764203e-01, -1.066309452e+00, 2.071718872e-01, 
            1.019797474e-01, 7.666910291e-01, -1.119493127e+00, 
            -6.673928499e-01, -2.145857736e-02, 3.257102370e-01, 
            -4.546845257e-01, 8.267853856e-01, -2.464460209e-03, 
            6.732199341e-02, -2.614101768e-01, -2.258187532e-01, 
            -2.982713282e-01, 7.037777454e-03, -8.574966788e-01, 
            5.695307255e-02, -2.929975986e-01, 3.573591411e-01, 
            -5.465239882e-01, -6.498152018e-01, -1.351214647e+00, 
            -1.474081129e-01, 5.544224977e-01, 4.628428817e-01, 
            -2.048984468e-01, 6.166356802e-02, 5.126308203e-01, 
            -7.445713878e-01, -3.918217421e-01, 6.900783628e-02, 
            1.212492865e-02, -3.463895917e-01, -2.109968476e-02, 
            4.782662913e-02, -1.242446303e-01, -2.001944929e-02, 
            1.106993929e-01, 1.462099403e-01, -3.920940161e-01, 
            -6.265302002e-02, -2.355866283e-01, -9.043223262e-01, 
            1.621913761e-01, 5.144889653e-02, -2.809804082e-01, 
            -4.359163046e-01, -1.576113850e-01, -3.530251682e-01, 
            -7.387471795e-01, -1.823184043e-01, -3.845520690e-02, 
            3.462186754e-01, 1.754746586e-01, 1.316815466e-01, 
            -5.143514276e-01},
        {-1.716548920e+00, -6.000489369e-02, 1.946107000e-01, 
            -1.559932530e-01, -2.954598069e-01, -4.265948534e-01, 
            -3.601716459e-02, 1.730041355e-01, 4.300376475e-01, 
            -9.922240973e-01, -3.327310085e-01, 2.153971493e-01, 
            -2.351505011e-01, 5.105569959e-01, 5.183610916e-01, 
            2.155955732e-01, -3.676492870e-01, 4.139705300e-01, 
            2.321291864e-01, 4.709318876e-01, 2.866695821e-01, 
            1.499469951e-02, 1.449309289e-01, 4.291608930e-01, 
            -1.090486646e+00, 3.024285734e-01, -6.195336953e-02, 
            1.095455140e-01, 8.821451664e-02, 1.503876410e-02, 
            5.644946173e-02, -6.336703897e-01, -6.978802085e-01, 
            2.831957042e-01, 2.363881618e-01, -1.319487765e-02, 
            -4.129840434e-02, -2.812024951e-01, 1.893270314e-01, 
            6.111652255e-01, -2.782508135e-01, -4.790027440e-01, 
            -6.552198529e-02, 8.076415211e-02, -1.386387646e-01, 
            5.113465786e-01, -6.356671453e-01, -1.616009027e-01, 
            -2.461678535e-01, 1.014780998e-01, -4.089989513e-02, 
            -8.516013622e-01, 1.270607859e-01, -3.705043793e-01, 
            -8.991603255e-01, 2.159508616e-01, -1.440841407e-01, 
            1.133959666e-01, -3.630654141e-02, -4.371423125e-01, 
            -5.354484916e-01, 2.718043625e-01, 1.326449662e-01, 
            -1.514643729e-01, -6.221938133e-01, -1.714432240e-01, 
            -7.753225565e-01, 3.052745759e-01, 2.817260288e-02, 
            -8.781661838e-02, -2.749287188e-01, -1.416976094e+00, 
            -1.122485381e-02, 2.362481207e-01, 1.990829706e-01, 
            2.066402137e-02, 3.509510458e-01, 2.598297596e-01, 
            -1.369705349e-01, 3.028796315e-01, -1.300505847e-01, 
            -2.201806456e-01, -1.207234502e+00, -1.279955655e-01, 
            7.062247396e-02, -3.521328568e-01, -3.850253299e-02, 
            6.508832425e-02, 2.810730338e-01, -2.096839249e-01, 
            1.767280996e-01, -9.464777708e-01, 2.483411878e-02, 
            5.375173688e-01, 2.404009849e-01, 6.075058505e-02, 
            2.951247990e-01, -1.748981714e+00, -5.359521136e-02, 
            -2.279121578e-01},
        {-8.059515953e-01, 9.212473780e-02, 3.091407716e-01, 
            -1.272784770e-01, -1.947188675e-01, 7.715842128e-02, 
            -1.961928904e-01, -1.108615279e+00, -3.306993246e-01, 
            5.279006362e-01, -4.944381237e+00, -1.828768969e+00, 
            -9.657492638e-01, -1.981941581e+00, -4.950319827e-01, 
            -1.248695627e-01, 2.575607002e-01, 2.985806465e-01, 
            1.649830639e-01, 4.191281274e-02, 1.385238618e-01, 
            3.912843764e-02, 4.270778596e-01, -2.786130309e-01, 
            8.395581841e-01, -5.290296674e-01, 2.889651656e-01, 
            -3.302085400e-01, 5.464759097e-02, -9.211760759e-01, 
            -1.715536565e-01, 5.119528770e-01, -3.857401013e-02, 
            -4.099242389e-01, -8.695517480e-02, 4.122313857e-02, 
            1.566611528e-01, 2.749612033e-01, -6.001290679e-01, 
            -1.474517137e-01, 3.358753622e-01, 4.748246968e-01, 
            5.050085858e-02, -1.213484034e-01, 1.208549619e+00, 
            -1.969514608e+00, 2.431093156e-01, 1.257130504e-01, 
            -3.730180562e-01, -8.296200037e-01, 3.827952743e-01, 
            9.212502837e-02, 1.173209697e-01, -1.947771944e-02, 
            -1.121109962e+00, -5.749859288e-02, -1.309486926e-01, 
            2.474638671e-01, 1.860446185e-01, 2.246235907e-01, 
            3.488556668e-02, 3.008172512e-01, -2.661383152e+00, 
            1.114825755e-01, -9.974484891e-02, 3.888165057e-01, 
            3.203205764e-01, 8.630522341e-02, -2.721611738e+00, 
            -1.018385291e+00, -4.749624431e-01, 2.583001852e-01, 
            -1.598554850e-01, -7.942807078e-01, -1.536170363e+00, 
            -5.444452763e-01, -5.617833138e-01, -2.330849916e-01, 
            -2.278951555e-01, -1.208558440e+00, -4.537483454e-01, 
            -8.245836496e-01, -7.947161198e-01, -2.559393644e-03, 
            -1.142287031e-01, 3.035963476e-01, 2.779059112e-01, 
            -1.352944970e+00, -4.999084771e-01, 2.504540682e-01, 
            -7.764945179e-02, -4.057230055e-01, 9.845547378e-02, 
            -1.142981835e-02, -1.450497866e+00, 1.048959717e-01, 
            -7.930369377e-01, -5.808957815e-01, -1.225054741e+00, 
            5.284199119e-02},
        {-9.968973994e-01, -9.608348608e-01, 1.037445664e-01, 
            -8.386142254e-01, -4.576063156e-01, -6.368743777e-01, 
            -7.263143659e-01, 6.892146915e-02, 3.415260091e-02, 
            -2.940629721e-01, -2.871682346e-01, -6.736858934e-02, 
            -3.591332436e-01, 6.896811724e-02, -1.748864353e-01, 
            -3.098774254e-01, 7.788719982e-02, -3.465300798e-01, 
            3.547565043e-01, 6.253718138e-01, 1.715025008e-01, 
            -2.410478294e-01, 6.374833584e-01, 5.076904297e-01, 
            -4.270376265e-01, -6.922998428e-01, -1.905806810e-01, 
            1.028656662e-01, 1.125013679e-01, -2.134175971e-02, 
            -1.285817195e-02, 2.282457612e-02, -2.212243527e-01, 
            5.125377178e-01, -2.459712625e-01, -4.420936704e-01, 
            2.817212045e-01, 9.780097604e-01, -4.790342748e-01, 
            1.576259434e-01, -1.047810316e+00, -1.349385858e+00, 
            4.871522635e-02, -3.849878907e-01, 2.457200736e-02, 
            4.344989955e-01, -1.254554838e-01, -9.807108045e-01, 
            -1.164310217e+00, 1.838791817e-01, 4.115072787e-01, 
            -5.201744437e-01, -1.066439450e-01, -7.561406493e-01, 
            -1.235962510e+00, -8.952991962e-01, 2.546730340e-01, 
            -9.521034360e-02, -4.833755791e-01, 8.590140194e-02, 
            -2.676919997e-01, -8.392103016e-03, 9.973228723e-02, 
            9.194544703e-02, -8.268283606e-01, -7.849043608e-01, 
            -3.241117597e-01, -3.563224524e-02, 2.099214047e-01, 
            6.275689602e-01, -2.523174286e-01, -2.323224247e-01, 
            1.302936375e-01, -1.098650843e-01, 1.473838240e-01, 
            1.367377788e-01, 3.118937910e-01, 1.078270450e-01, 
            1.099750400e-01, 5.241555721e-02, -3.352240324e-01, 
            -4.727914035e-01, -7.900391817e-01, -4.849443138e-01, 
            2.212152630e-01, 2.255642414e-02, -6.938388199e-02, 
            1.001650989e-01, -5.043745041e-02, 2.014872879e-01, 
            1.693637818e-01, -1.033943534e+00, -4.128158689e-01, 
            -2.768491805e-01, -5.814299732e-02, 5.832280517e-01, 
            4.970088974e-02, 7.127144933e-01, -2.514595985e-01, 
            -2.617019117e-01},
        {1.163395718e-01, -5.854900479e-01, 3.640034199e-01, 
            -8.098234236e-02, -4.138590693e-01, 2.546901107e-01, 
            -1.095964760e-01, -5.779437721e-02, -1.579238772e-01, 
            -1.109995842e+00, 3.931121528e-02, -2.011763155e-01, 
            -5.018528551e-02, 2.396751195e-01, -2.834353149e-01, 
            -9.390101582e-02, -1.861679554e-01, 8.398139477e-01, 
            -5.343803018e-02, -5.826279521e-02, 7.672734857e-01, 
            -3.275346756e-02, 2.572095692e-01, 2.826030850e-01, 
            -4.161391780e-02, 4.464859068e-01, -7.109878212e-02, 
            1.782595664e-01, -6.172220707e-01, -1.799104959e-01, 
            1.520310342e-01, -5.406583548e-01, -6.755454466e-03, 
            1.164207309e-01, -2.154466063e-01, -1.862849146e-01, 
            -3.007651269e-01, -9.107537270e-01, 4.794956744e-01, 
            1.082309484e+00, 9.387283027e-02, 2.335564941e-01, 
            -1.301042736e-01, 9.437782317e-02, 3.434098363e-01, 
            4.056016803e-01, 8.004998416e-02, -5.681778789e-01, 
            -1.885490417e-01, 1.151841059e-01, -2.412099391e-01, 
            -1.749128252e-01, -2.009273171e-01, -3.354160190e-01, 
            -6.492496133e-01, 5.673251152e-01, 2.038265318e-01, 
            -1.139657870e-01, -4.625325203e-01, 1.899577826e-01, 
            -4.965774119e-01, -5.362603441e-02, -1.029344648e-01, 
            -7.271596789e-01, -7.337849736e-01, 2.709246576e-01, 
            3.775667846e-01, 5.101553202e-01, -1.973226964e-01, 
            3.995507956e-01, -1.263153702e-01, 5.352836847e-01, 
            2.179798186e-01, -3.245676309e-02, -1.072358117e-01, 
            -2.824422121e-01, 1.045941040e-01, 1.532851253e-03, 
            -5.614861250e-01, -1.358832419e-02, -2.186107785e-01, 
            -4.749442637e-02, -1.539276633e-02, -1.527435631e-01, 
            2.316482663e-01, -3.525627553e-01, 2.436111569e-01, 
            -4.343269765e-02, 1.396521628e-01, -1.629939228e-01, 
            1.217704639e-01, -5.995861888e-01, -2.595053017e-01, 
            6.006492376e-01, 8.063033968e-02, 6.556712985e-01, 
            -8.679969609e-02, -1.662695259e-01, -3.842023909e-01, 
            1.116427898e+00},
        {-8.534327149e-01, 5.925342068e-02, 2.015236765e-01, 
            6.022690535e-01, 2.068897039e-01, 4.602020979e-02, 
            -1.386902928e-01, -1.720572829e+00, 2.723798621e-03, 
            1.120739430e-01, -1.133306623e+00, -1.045753717e+00, 
            -7.086192369e-01, -6.808808446e-01, -8.647589087e-01, 
            -3.283815086e-02, -2.777226567e-01, 8.588671684e-02, 
            -2.189854681e-01, 3.518596292e-01, 1.374606788e-01, 
            -2.614064515e-01, 5.099915266e-01, 4.467840791e-01, 
            6.497646570e-01, -1.845288396e+00, 8.727673441e-02, 
            -2.337489426e-01, 2.324348390e-01, -6.097865701e-01, 
            1.720387861e-02, -1.193947271e-01, -3.151969612e-01, 
            -9.283841252e-01, -2.207779586e-01, 2.214883119e-01, 
            -2.859022617e-01, -1.174037755e-01, -1.213915944e-01, 
            3.070380092e-01, 3.386977315e-01, -1.811430901e-01, 
            3.500212729e-01, -2.825788781e-02, 1.000273705e+00, 
            -8.247368932e-01, -5.399759859e-02, 4.758697748e-01, 
            6.059687138e-01, -3.172527850e-01, -5.726461411e-01, 
            -6.127388775e-02, -1.426319838e+00, 3.217642605e-01, 
            -6.557557583e-01, 2.863388658e-01, 2.251501828e-01, 
            1.365272552e-01, -6.273645759e-01, 4.554740787e-01, 
            -7.617916465e-01, 3.486720473e-02, -2.090792656e+00, 
            3.132597804e-01, 4.933260381e-01, -3.229586035e-02, 
            3.560780361e-02, 6.739199758e-01, -1.807763934e+00, 
            -5.722607374e-01, -7.342750430e-01, 6.883254647e-02, 
            5.635666251e-01, -2.495557815e-01, -9.404309988e-01, 
            -5.422107577e-01, -2.806299031e-01, -3.995381761e-03, 
            3.536874950e-01, -7.605582476e-01, -9.495388865e-01, 
            -7.155840993e-01, 1.346204430e-01, -4.497480989e-01, 
            -1.879055202e-01, -2.871574163e-01, 3.688656092e-01, 
            -7.289402485e-01, -4.745333791e-01, -3.926560879e-01, 
            1.512777209e-01, -2.987844646e-01, -3.305321634e-01, 
            6.020736322e-02, -5.826535821e-01, 1.760853231e-01, 
            -1.437687516e+00, 2.289284021e-01, -1.273458719e+00, 
            1.531390846e-01},
        {-7.486887574e-01, -5.392652154e-01, 7.646204233e-01, 
            -1.278052330e+00, -6.400123239e-01, 1.502794772e-01, 
            4.075928330e-01, 4.132806510e-02, -1.457787026e-02, 
            4.280630872e-02, -7.082875371e-01, -2.628731132e-01, 
            -3.232435882e-01, 9.966353327e-02, 3.069332102e-03, 
            1.594011188e-01, 2.673068643e-01, -1.755884588e-01, 
            1.162056476e-01, -2.681662738e-01, 1.024246663e-01, 
            -3.730841279e-01, 1.818725616e-01, 9.431640804e-02, 
            -4.832266271e-01, 3.160077035e-01, -4.819495603e-02, 
            2.640479803e-01, -1.232019901e+00, -3.833746165e-02, 
            2.175995111e-01, 5.845674276e-01, -2.464698255e-01, 
            3.614002168e-01, 5.258502066e-02, -3.882000595e-02, 
            3.929710984e-01, -2.968056202e-01, -4.947799742e-01, 
            -5.978371501e-01, -5.863652825e-01, -5.504835844e-01, 
            2.623086050e-02, -7.704962790e-02, -2.948398888e-01, 
            1.305706650e-01, 3.298037946e-01, -9.168871045e-01, 
            -9.533403516e-01, -6.930332631e-02, 7.461831719e-02, 
            -5.406573415e-01, -9.245284647e-02, -4.704042673e-01, 
            2.549163401e-01, 3.113052249e-01, 1.506292373e-01, 
            -1.701037437e-01, -2.057345957e-01, -9.731670022e-01, 
            -6.813099608e-03, 2.447700500e-01, 1.874469370e-01, 
            -1.619715452e+00, -4.165008664e-01, -1.007086992e+00, 
            2.384150177e-01, 6.324501634e-01, -2.966764383e-02, 
