#include "nn_params.h"

const unsigned short LAYER_DIMS[] = {
    5, 100, 100, 100, 100, 100, 2
};

const Layer LAYER_TYPES[] = {
    DENSE, SOFTPLUS, DENSE, SOFTPLUS, DENSE, SOFTPLUS, DENSE, SOFTPLUS, DENSE, SOFTPLUS, 
    DENSE, TANH
};

const float STATE_BIAS[NUM_STATE_VARS] = {
    -2.996335427e-04, 0.000000000e+00, -3.042531048e-02, 
        0.000000000e+00, 0.000000000e+00  
};

const float INPUT_SCALER_PARAMS[2][NUM_STATE_VARS] = {
    {4.356060429e-03, -2.521281418e-03, 3.926649610e-01, 
        7.274292832e-01, -4.913922521e-04},
    {3.562636253e+00, 3.400206688e+00, 3.751146463e+00, 
        3.770377420e+00, 3.996782894e-01}
};

const float OUTPUT_SCALER_PARAMS[4][NUM_CONTROL_VARS] = {
    {-1.486455258e-01, -4.194841543e-02},
    {9.776010469e-01, 6.030349257e-02},
    {4.448084763e+00, 1.244606028e+00},
    {3.873662857e+00, -3.465050678e-04}
};

const float BIASES[NUM_DENSE_LAYERS][MAX_LAYER_DIMS] = {
    {3.325162828e-01, -2.747467458e-01, -3.265261352e-01, 
        -4.597086832e-02, -4.070138335e-01, -6.574903131e-01, 
        5.284199119e-02, -2.634890676e-01, 2.415899001e-02, 
        -2.523743808e-01, -1.052352190e+00, -5.036597699e-02, 
        -8.769077063e-02, -6.334179640e-02, 1.356335431e-01, 
        -5.392801166e-01, -1.355398446e-01, -4.386554658e-01, 
        -3.330837563e-02, -4.428226054e-01, -3.083067834e-01, 
        -4.161772132e-02, 5.031884909e-01, 3.117824197e-01, 
        4.006594121e-01, -4.045921937e-02, -1.343471855e-01, 
        -3.921641037e-02, -2.552497089e-01, -2.608942799e-02, 
        -4.719913006e-01, -4.295118749e-01, -6.219388247e-01, 
        2.760355733e-02, 2.477435768e-02, -6.025519967e-01, 
        -1.383475307e-02, -4.248233140e-01, -3.629263043e-01, 
        -2.846027315e-01, -2.157102227e-01, -9.253801703e-01, 
        -1.047897264e-01, 2.398805171e-01, -4.666504264e-01, 
        -3.720024228e-01, -4.283382893e-01, -4.576084614e-01, 
        -4.972943962e-01, -2.805586457e-01, -1.946610808e-01, 
        -7.429704070e-02, -8.185236454e-01, -6.501057744e-01, 
        -3.539153934e-01, -7.553696036e-01, -5.895733833e-01, 
        -2.428769469e-01, -2.622619795e-04, -9.834465384e-02, 
        -3.813918531e-01, -8.823879361e-01, -1.774587631e-01, 
        -2.179221511e-01, -3.358820975e-01, -2.301021479e-02, 
        -3.039878607e-01, -3.100051545e-02, -3.796680644e-02, 
        -9.229205847e-01, -2.211989611e-01, -3.810112178e-01, 
        -8.517163992e-02, 9.787327796e-02, -3.582439721e-01, 
        -3.676893115e-01, -1.530532986e-01, -2.538868189e-01, 
        -3.014383912e-01, -5.911220908e-01, -3.860042691e-01, 
        2.069987506e-01, 5.395964384e-01, -2.199142426e-01, 
        -2.483070493e-01, -5.357339382e-01, -2.462053150e-01, 
        -5.662971735e-01, 1.130526885e-01, -4.237087667e-01, 
        9.079310298e-02, -5.033065677e-01, -1.423948109e-01, 
        -9.050317854e-02, 5.411993247e-03, -4.922817051e-01, 
        -1.394070685e-01, -5.284709334e-01, -2.933581471e-01, 
        -1.255047023e-01},
    {-2.892950475e-01, 2.820752561e-01, 2.153378874e-01, 
        4.442049265e-01, -2.192844748e-01, 1.160610989e-01, 
        -2.199697495e-01, -7.776656151e-01, 5.941050649e-01, 
        -1.089708447e+00, 4.344441742e-02, 6.327587962e-01, 
        1.346627623e-01, -1.101143956e+00, 6.926976889e-02, 
        1.221660525e-01, -3.289943933e-01, 2.772470713e-01, 
        4.135511816e-02, -1.305776000e+00, -1.084289432e+00, 
        -3.973545507e-02, -7.941663265e-01, 3.487689421e-02, 
        3.399888575e-01, 2.402912229e-01, 1.631711870e-01, 
        -2.039652467e-01, -3.345595002e-01, -3.578860462e-01, 
        1.629419029e-01, 5.177493691e-01, 8.530503511e-02, 
        1.764207780e-01, -8.106989264e-01, 2.022090256e-01, 
        -2.778685987e-01, -1.308379650e+00, 1.374566257e-01, 
        -4.236005843e-01, -5.185603499e-01, 4.290190041e-01, 
        -7.846243680e-02, -3.892058507e-02, 1.515983045e-01, 
        5.732536912e-01, 1.821243018e-01, 4.537358582e-01, 
        6.424800307e-02, 5.490500331e-01, 1.716435999e-01, 
        5.580077767e-01, -2.218076028e-02, -1.487981528e-01, 
        -9.254245162e-01, 6.483610272e-01, 7.292363644e-01, 
        3.890878260e-01, 1.349407881e-01, -6.163010001e-01, 
        7.742818594e-01, -1.644656360e-01, 7.469322681e-01, 
        4.448908865e-01, 6.484169364e-01, -2.671339512e-01, 
        6.332526207e-01, -2.192020789e-02, 7.127800584e-01, 
        -2.583088875e-01, 6.841784716e-01, 1.047401130e-01, 
        6.155870557e-01, 5.677660182e-02, 1.982567832e-02, 
        -1.226226330e+00, -6.116069555e-01, -3.668857515e-01, 
        -9.147049189e-01, 6.930564046e-01, -4.409812093e-01, 
        -4.870605171e-01, 7.021774054e-01, 4.993927777e-01, 
        6.283656359e-01, 5.627658963e-01, -3.181938529e-01, 
        -4.820942581e-01, -3.285565674e-01, -3.663242161e-01, 
        -2.785659954e-02, 1.447274387e-01, 4.162844718e-01, 
        5.178105459e-02, 5.964745283e-01, 1.907580793e-01, 
        7.248815894e-02, 2.771639824e-01, -9.576871395e-01, 
        6.861832738e-01},
    {5.300328135e-01, 4.869197905e-01, 4.914775491e-01, 
        5.406561494e-02, 2.180352062e-01, 5.110487342e-01, 
        -1.033357024e+00, -7.585867494e-02, 2.420384251e-02, 
        -7.462293506e-01, -3.355994225e-01, -1.417772621e-01, 
        4.433182478e-01, 3.700262010e-01, 1.058460400e-02, 
        4.763273597e-01, 7.787543535e-01, -2.337739944e+00, 
        8.847465366e-02, 4.894194603e-01, 8.364488184e-02, 
        6.991752386e-01, 3.819024265e-01, 5.357887745e-01, 
        -2.554543316e-01, 5.367532969e-01, 4.592781961e-01, 
        1.342303157e-01, 9.411297441e-01, 2.563610673e-01, 
        -1.661235094e+00, -6.899262965e-02, 3.824651614e-02, 
        -2.294430882e-02, 3.663997948e-01, 8.198654652e-02, 
        5.969672203e-01, 1.936002169e-03, -8.404980302e-01, 
        6.238020062e-01, -6.481022835e-01, 5.060382485e-01, 
        -1.236965060e+00, 4.234059751e-01, 3.939202130e-01, 
        1.822022200e-01, 1.535308510e-01, 6.129873395e-01, 
        -9.154378176e-01, 3.509867489e-01, -1.020636261e-01, 
        4.240425229e-01, 2.765365839e-01, 7.222727537e-01, 
        4.563946649e-02, -9.139522314e-01, -2.303574979e-01, 
        -2.451924682e-01, -7.389646173e-01, 4.123393893e-01, 
        6.940718889e-01, 6.765567660e-01, 5.419704914e-01, 
        5.815787315e-01, -1.169712022e-01, 5.367928743e-01, 
        9.543507695e-01, -1.776482016e-01, 1.190834865e-01, 
        -2.483601719e-01, 3.199364617e-02, 4.636460543e-01, 
        1.037574053e+00, 9.928588867e-01, 7.232663035e-01, 
        -6.681956053e-01, 7.290357351e-01, 1.694128104e-02, 
        8.241368532e-01, 1.002028212e-02, 4.337711632e-01, 
        8.354591727e-01, 6.389055252e-01, 5.506398678e-01, 
        1.166844368e-01, 7.598882914e-01, -7.688486576e-01, 
        8.223255165e-03, 8.610411286e-01, -9.778962135e-01, 
        6.509535909e-01, 1.393341720e-01, -3.644058406e-01, 
        3.024743199e-01, 1.537317634e-01, 4.534654319e-01, 
        -3.825643063e-01, 5.592144728e-01, 4.727605581e-01, 
        -3.254070580e-01},
    {4.503071010e-01, 5.993186235e-01, 3.924774006e-02, 
        4.613969028e-01, 8.186058402e-01, 8.473851085e-01, 
        5.040673614e-01, 1.722409576e-01, 4.903669357e-01, 
        7.872170806e-01, 1.371586323e-01, -6.453980803e-01, 
        1.435969472e-01, 8.779091239e-01, -8.528185636e-02, 
        1.064618468e+00, 1.333726645e-01, -2.667429745e-01, 
        5.621066689e-01, 1.776480675e-01, 6.178359389e-01, 
        5.505204797e-01, 9.741776437e-02, -2.843165584e-02, 
        6.680793762e-01, 6.684690118e-01, 8.007569313e-01, 
        6.209062338e-01, 6.888707876e-01, 5.345901251e-01, 
        9.036282897e-01, 8.059547544e-01, 7.169964910e-01, 
        1.595983058e-01, 6.824253798e-01, 2.235083729e-01, 
        7.568643894e-03, 9.759730101e-01, 3.758005798e-01, 
        2.373653650e-01, 1.296864450e-01, 1.151503697e-01, 
        -4.310899079e-01, 8.321563005e-01, -1.464427233e+00, 
        8.355912566e-01, 8.024867773e-01, -4.394064248e-01, 
        4.710865915e-01, 9.938103557e-01, -6.152926087e-01, 
        -1.179234982e+00, -3.249877691e-01, 9.987004399e-01, 
        9.305009246e-01, 5.118037462e-01, -3.081527948e-01, 
        3.259158731e-01, 1.501417398e+00, 3.372995257e-01, 
        -6.379672885e-02, 3.331031501e-01, 1.046229005e+00, 
        2.325615287e-01, -1.877296925e+00, -1.354812086e-01, 
        -1.737345338e+00, -7.348830104e-01, 5.768757463e-01, 
        4.544919431e-01, 1.154668450e+00, 8.950577378e-01, 
        5.887289047e-01, 1.203194022e+00, 6.193956137e-01, 
        4.875778854e-01, 1.082003832e+00, 1.007477880e+00, 
        3.342960775e-02, -1.703489274e-01, 8.343685865e-01, 
        8.395162970e-02, -1.576710194e-01, -1.636697769e+00, 
        -1.035877228e+00, -3.044731021e-01, -1.964813471e-01, 
        3.789948821e-01, 6.396911144e-01, 1.032012224e+00, 
        4.147630632e-01, -7.980030775e-01, 4.308633804e-01, 
        -6.289733648e-01, 9.929530025e-01, -8.832917809e-01, 
        -9.884511828e-01, -1.745643854e+00, 4.972853065e-01, 
        6.576653123e-01},
    {-5.147663504e-02, -2.598051429e-01, -3.330353200e-01, 
        -3.526175022e-01, 4.503297210e-01, 8.313599229e-02, 
        3.149274588e-01, 1.290353388e-01, 2.351652235e-01, 
        -4.930293858e-01, -2.261271626e-01, 2.226666361e-01, 
        1.409057950e-05, -1.252201319e+00, 9.270155430e-01, 
        -1.514913559e+00, -6.642171741e-01, -9.753001928e-01, 
        -1.194041729e+00, -4.896378219e-01, 4.051961899e-01, 
        -6.641613245e-01, 2.257182151e-01, 3.726245463e-01, 
        3.709898889e-02, 2.030355781e-01, -1.268602490e+00, 
        -1.323975325e+00, -6.125422716e-01, 1.369287670e-01, 
        -6.613082886e-01, 2.447755337e-01, 9.022697061e-02, 
        -3.871826828e-01, 2.928013802e-01, -3.214605153e-01, 
        6.754790992e-02, -9.661649466e-01, -5.164690614e-01, 
        -7.490898669e-02, 5.657962561e-01, -4.491797686e-01, 
        -1.234456301e+00, -1.014670610e+00, -5.416741967e-01, 
        2.399024665e-01, 4.762182236e-01, -5.738924742e-01, 
        2.155060023e-01, 2.531731129e-01, 2.052021176e-01, 
        1.806987263e-02, -1.366401196e+00, 4.143200219e-01, 
        3.996852636e-01, 3.304386139e-01, 8.657197952e-01, 
        1.629876532e-02, -2.135547400e-01, 2.764489651e-01, 
        1.750189364e-01, -2.043543458e-01, -3.161032498e-01, 
        1.485543605e-02, 4.874586761e-01, 3.040332496e-01, 
        3.104846478e-01, -8.651325107e-01, 1.857360601e-01, 
        3.917296529e-01, 5.834258795e-01, 2.604265511e-02, 
        1.542776972e-01, 1.008884832e-01, 5.445345044e-01, 
        -3.826475739e-01, -1.985645175e+00, 1.307430267e-01, 
        1.013269067e+00, 9.133662581e-01, -3.172245324e-01, 
        2.044564188e-01, 2.122458369e-01, -5.559327602e-01, 
        -1.212255478e+00, -8.886156231e-02, -4.941279292e-01, 
        -8.472087979e-01, -3.148976564e-01, -4.344898760e-01, 
        -1.972105205e-01, 8.599454165e-02, -4.031007290e-01, 
        1.904904693e-01, -1.003312945e+00, -1.002956867e+00, 
        -1.820028871e-01, 4.385783672e-01, -7.180842161e-01, 
        -9.311377257e-02},
    {-1.572507471e-01, -4.178449884e-02}
};

const float WEIGHTS[NUM_DENSE_LAYERS][MAX_LAYER_DIMS][MAX_LAYER_DIMS] = {
    {
        {-3.487867832e+00, 3.740610778e-01, -1.768830180e+00, 
            -1.059985042e+00, -2.738264799e-01},
        {1.398337007e+00, -2.728405409e-02, -1.071183085e+00, 
            -7.214915752e-01, -8.590710163e-01},
        {-1.996482611e+00, 3.493010402e-01, -4.599934518e-01, 
            6.935494393e-02, 7.805867195e-01},
        {1.240041375e+00, 2.784821391e-01, -1.556385040e+00, 
            -8.604668975e-01, -3.642278258e-03},
        {6.174934506e-01, -1.133499388e-02, -9.009664059e-01, 
            -6.800414920e-01, -4.579927623e-01},
        {-3.405637145e-01, -1.857812256e-01, -1.988015920e-01, 
            -2.121263370e-02, -3.199499846e-01},
        {1.003049500e-02, 1.001534104e+00, 2.105444670e+00, 
            -5.556693673e-01, 8.960258961e-01},
        {6.230148077e-01, -2.395710535e-02, 2.023541369e-03, 
            7.621557117e-01, 7.222462893e-01},
        {4.745060951e-02, -3.064480424e-02, -2.459083557e+00, 
            -1.052991629e+00, 3.947074413e-01},
        {1.943216026e-01, -2.667503655e-01, 9.688382596e-02, 
            1.956841648e-01, 1.917364746e-01},
        {-5.106457472e-01, 9.015370905e-02, -3.685885072e-01, 
            -8.298582435e-01, 1.540403605e+00},
        {-1.511577845e+00, -1.859290719e+00, 4.025480449e-01, 
            6.180842519e-01, 2.122255266e-01},
        {7.044057846e-01, 3.230291903e-01, 1.002267525e-01, 
            -1.469248384e-01, 4.380103648e-01},
        {-1.642306209e+00, -2.081749678e+00, 1.196223125e-01, 
            8.026384115e-01, 2.228306532e-01},
        {1.675038099e+00, 1.841102242e+00, 2.622408271e-01, 
            7.147302032e-01, 9.677375667e-03},
        {-8.516701311e-02, -1.970971003e-02, -1.202314198e-01, 
            -8.229985833e-02, -1.073110998e-01},
        {-2.707444668e+00, 6.754758954e-01, 9.097535908e-02, 
            5.216885805e-01, -4.357643053e-02},
        {-1.489565611e+00, 1.994473338e-01, -5.354280472e-01, 
            -1.438927352e-01, 1.183626413e+00},
        {-1.873252869e+00, -5.107927918e-01, 1.606820971e-01, 
            2.070924044e-01, -4.501723051e-01},
        {-1.149036050e+00, -1.120890975e-01, -1.326843858e+00, 
            -8.558118343e-01, 6.187959909e-01},
        {3.239312768e-02, -1.065701172e-01, -4.320887625e-01, 
            -3.164407313e-01, -6.460170448e-02},
        {2.376918644e-01, 3.849249184e-01, -5.256407335e-02, 
            -2.945481539e-01, -1.083734334e-01},
        {1.048745871e+00, -1.373014450e-01, 2.516436100e+00, 
            -7.783602476e-01, -4.036836624e-01},
        {2.701661587e+00, 5.686190724e-01, -8.391420245e-01, 
            -3.635849357e-01, 2.903106511e-01},
        {-4.151627541e+00, 2.967582345e-01, -1.608159900e+00, 
            -7.464020848e-01, -3.593955189e-02},
        {-2.949515820e+00, 5.564356446e-01, -4.146284163e-01, 
            1.040477157e-01, 8.093913198e-01},
        {-4.167873561e-01, 9.777225554e-02, 3.339400887e-01, 
            2.508367896e-01, -7.861409783e-01},
        {9.639422297e-01, 3.376609683e-01, -2.291981429e-01, 
            -2.637048997e-02, 6.352141500e-01},
        {-2.767667919e-02, 1.900909841e-02, -2.349913418e-01, 
            -2.505027354e-01, -1.422671080e-01},
        {-2.010470629e+00, -1.629828572e+00, 1.413609266e+00, 
            -5.044564009e-01, 6.525844932e-01},
        {-2.197087854e-01, 1.318074822e+00, 9.531798363e-01, 
            9.024143219e-01, 1.103841290e-01},
        {-6.565877199e-01, -1.432709575e+00, 6.048614979e-01, 
            8.921903968e-01, -3.729526699e-01},
        {-6.411660910e-01, 9.105240703e-01, -6.928248703e-02, 
            4.106926024e-01, -2.761909366e-01},
        {2.189347506e+00, 4.136992693e-01, -3.559637666e-01, 
            3.720863461e-01, 4.094712436e-01},
        {-1.732746124e+00, -1.482433319e+00, -7.378768176e-02, 
            3.120953441e-01, -3.155499399e-01},
        {1.953655295e-02, -6.396653652e-01, 7.698261142e-01, 
            4.974591732e-01, -1.087072611e+00},
        {-7.503689528e-01, 6.405041218e-01, 1.786679864e+00, 
            -2.697772682e-01, 8.663225174e-01},
        {8.767902106e-02, -3.726827204e-01, 7.544836402e-01, 
            2.044454664e-01, -9.249538779e-01},
        {-3.135580942e-02, -1.600349098e-01, -4.650751650e-01, 
            -6.732071042e-01, -5.597567931e-02},
        {-1.380464673e+00, -1.926358640e-01, -1.501228571e+00, 
            -7.480860353e-01, 1.107405782e+00},
        {3.729195595e-01, 4.838247001e-01, 1.390980780e-01, 
            -1.308916062e-01, -1.913439184e-01},
        {-5.021319985e-01, 1.536484063e-01, -3.456230760e-01, 
            -1.171644554e-01, 3.865195811e-01},
        {6.227464080e-01, -4.023766518e-01, -6.339194775e-01, 
            -8.314855695e-01, 3.533188105e-01},
        {2.758576870e+00, -1.418730617e-01, -5.802005157e-02, 
            -3.089092970e-01, 7.934117317e-01},
        {6.554396749e-01, 1.261894226e+00, 5.281568766e-01, 
            -4.139940441e-02, -7.930208445e-01},
        {1.146148890e-01, 5.347095728e-01, 4.847532511e-01, 
            5.022209287e-01, 8.972991705e-01},
        {1.542134047e+00, -2.156439275e-01, -5.602211952e-01, 
            2.067543194e-02, -1.067844510e+00},
        {1.209732533e+00, 1.528529823e-01, -1.090878963e+00, 
            -1.131931663e+00, -9.834770560e-01},
        {2.632153034e-01, 2.372385859e-01, -7.264591008e-02, 
            -5.502769947e-01, -3.813950419e-01},
        {-8.530077934e-01, -1.269941092e+00, 5.209592581e-01, 
            4.011341631e-01, 2.119376883e-02},
        {1.630392313e+00, -4.292505682e-01, -8.039874583e-02, 
            8.051769137e-01, 8.544061780e-01},
        {-1.234553099e+00, -3.577200770e-01, -2.052263975e+00, 
            -7.469114065e-01, -3.698050082e-01},
        {-6.259548068e-01, 7.347273231e-01, 6.098413467e-01, 
            4.063905478e-01, 9.914284945e-01},
        {-4.219047725e-01, 6.433993578e-02, -1.381422162e+00, 
            -9.075062871e-01, 5.214079618e-01},
        {-2.141564935e-01, 1.951036304e-01, 4.124060273e-02, 
            -6.754482538e-02, -4.239781201e-01},
        {-7.140674591e-01, -2.686892264e-02, -1.191277981e+00, 
            -1.083786011e+00, 5.298365951e-01},
        {-1.333024144e+00, 6.820559502e-02, -4.717708007e-02, 
            1.382419586e+00, -6.777546406e-01},
        {1.323845983e-01, -6.295516621e-03, -1.146189123e-01, 
            -2.303043902e-01, 1.725166738e-01},
        {9.369445443e-01, 6.459195018e-01, 1.638279669e-02, 
            2.135782987e-01, 4.507913291e-01},
        {1.168678164e+00, 2.538982332e-01, -1.552812219e+00, 
            -7.092745900e-01, -1.077799872e-01},
        {-7.695639133e-01, 6.829667687e-01, 6.761590242e-01, 
            6.696447134e-01, -6.922484636e-01},
        {3.507250845e-01, -6.684051156e-01, 2.840432227e-01, 
            9.411429167e-01, -1.165663838e+00},
        {-1.313166976e+00, 4.748045504e-01, 6.344860196e-01, 
            -1.605577208e-02, -9.702925384e-02},
        {1.414559126e+00, 1.155904382e-01, -1.141631365e+00, 
            -7.714326978e-01, -9.175879359e-01},
        {-1.169226289e+00, -1.774657816e-01, -1.300773025e+00, 
            -8.776596189e-01, 3.674583435e-01},
        {1.299967885e+00, 2.504127026e-01, -2.206931353e+00, 
            -1.053355813e+00, -3.681343794e-01},
        {7.382679582e-01, 2.816643417e-01, -1.877738118e+00, 
            -3.597716987e-01, -3.978295326e-01},
        {1.196589470e+00, 3.856256604e-01, -1.350767732e+00, 
            -3.070365787e-01, 3.622537553e-01},
        {-1.257350922e+00, -1.183649421e+00, 2.144049853e-02, 
            2.450908870e-01, -1.239083186e-01},
        {-6.843029261e-01, 2.113255411e-01, 3.922291696e-01, 
            3.633726016e-02, 5.812226534e-01},
        {1.343207061e-01, 7.703163624e-01, 5.995067358e-01, 
            4.466522336e-01, -3.614247739e-01},
        {1.342314243e+00, -2.665298879e-01, -4.375457168e-01, 
            -1.974234544e-02, -9.524435401e-01},
        {4.703204334e-01, -1.531017274e-01, -1.277411729e-01, 
            -3.510741889e-01, 5.945338011e-01},
        {9.963998199e-01, 1.040566564e+00, 1.517323703e-01, 
            1.514632255e-01, 2.981767058e-01},
        {-2.473732978e-01, -6.627432108e-01, 3.927618265e-01, 
            4.499739036e-02, 3.109516203e-01},
        {-4.232119024e-02, 1.843314171e-01, 3.679762408e-02, 
            2.903819457e-02, 5.376483314e-04},
        {-1.231108427e+00, -1.755541444e+00, 4.375571609e-01, 
            6.161658168e-01, 2.127465159e-01},
        {3.545491397e-01, -5.079576969e-01, 9.635701776e-01, 
            5.300960317e-02, -9.175710082e-01},
        {6.489403844e-01, 5.186048150e-01, 6.498245057e-03, 
            -2.662399709e-01, -8.805197477e-02},
        {2.395639718e-01, 1.285478354e+00, 4.265317023e-01, 
            1.120956659e+00, -1.042567194e-01},
        {-2.242590934e-01, 8.925129771e-01, 3.899289370e-01, 
            7.742308378e-01, -7.014697790e-02},
        {-2.702717543e+00, -1.504207015e+00, -3.697990179e-01, 
            4.015360400e-02, -3.029799759e-01},
        {-4.465665817e+00, -1.430525184e+00, -1.178303212e-01, 
            -3.955395520e-01, -7.551029921e-01},
        {4.884572327e-02, 1.681463569e-01, 9.627648443e-02, 
            9.206566960e-02, 1.438976079e-01},
        {-5.445329547e-01, -3.859588206e-01, -3.034483790e-01, 
            -1.355559975e-01, -5.070251822e-01},
        {1.278193593e-01, -4.054891765e-01, 3.191508949e-01, 
            5.015888214e-01, 4.704944491e-01},
        {-6.910774708e-01, -1.017586216e-01, -1.996888876e+00, 
            -9.612123370e-01, 5.751123428e-01},
        {3.848520219e-01, -2.108057588e-01, 5.157877803e-01, 
            1.666283011e-01, -6.437653899e-01},
        {1.911431789e+00, 1.508399963e+00, 7.816515118e-02, 
            4.135888517e-01, 3.377201855e-01},
        {-2.757291794e-01, -8.458101004e-02, -1.001895443e-01, 
            -1.732566953e-01, -3.725567162e-01},
        {1.145215273e+00, 6.023797393e-01, 2.253945172e-01, 
            1.287043393e-01, 9.761787057e-01},
        {7.973164320e-01, -1.030874699e-01, -1.374894381e+00, 
            -1.022845864e+00, -7.221204638e-01},
        {3.297411799e-01, 1.262938380e-01, 5.565541238e-02, 
            8.224554360e-02, 4.209368825e-01},
        {6.736839414e-01, 1.807341725e-01, -1.874953747e+00, 
            -8.829926848e-01, 4.786972702e-02},
        {-2.048458338e+00, 3.963923156e-01, -4.978759214e-03, 
            -9.153430462e-01, -6.599544287e-01},
        {-1.148871899e+00, -1.631776989e-01, -7.741282582e-01, 
            -2.225587070e-01, 6.781450510e-01},
        {-3.673858475e-03, -1.262519598e+00, 1.043238521e+00, 
            6.833660603e-01, 4.986647367e-01},
        {-1.028973103e+00, 5.223239064e-01, 2.287508249e-01, 
            2.020677328e-01, 8.263966441e-01},
        {1.832628995e-01, -7.108662724e-01, 4.708848000e-01, 
            5.165396333e-01, 3.817549348e-01},
        {-2.571974993e+00, -3.476585448e-01, -9.749714732e-01, 
            3.103179298e-02, 4.553075433e-01}
    },
    {
        {-3.722458184e-01, -5.406689644e-01, 2.810677886e-01, 
            -1.306368589e+00, -1.039808154e+00, -3.814704120e-01, 
            -7.588869929e-01, 3.978070319e-01, -8.367979527e-01, 
            -8.110675216e-02, -4.206067324e-01, -1.473303437e-01, 
            -6.867281795e-01, 3.601932228e-01, 4.239358902e-01, 
            -2.050238103e-01, 5.384570360e-01, 2.838840485e-01, 
            2.875000238e-01, -3.009538949e-01, -7.761065960e-01, 
            -7.672222853e-01, 1.303804159e+00, -4.493649900e-01, 
            -2.017802149e-01, 3.206276298e-01, -2.871689200e-01, 
            -2.950577140e-01, -6.867249012e-01, -1.893508196e+00, 
            4.289972484e-01, -1.448699087e-02, 4.381194115e-01, 
            2.776907682e-01, 2.498738840e-02, -4.651278723e-03, 
            -8.203713298e-01, -2.346315086e-01, -1.356265068e+00, 
            7.975460589e-02, -4.207899868e-01, 3.983768076e-02, 
            -9.767066836e-01, -5.163893700e-01, -8.359593749e-01, 
            6.273934841e-01, -2.389117628e-01, -1.113601208e+00, 
            -1.343550324e+00, -4.254179001e-01, 7.921967655e-02, 
            -4.615491331e-01, 2.987339199e-01, -5.337052345e-01, 
            -4.653196037e-01, -6.484060287e-01, 8.905935884e-01, 
            -5.316992998e-01, 2.842077911e-01, -7.078161836e-01, 
            3.946829140e-01, 4.775130153e-01, -1.805748791e-01, 
            -8.469407558e-01, -4.971731901e-01, -9.733891487e-01, 
            -3.408086300e-01, -2.954228222e-01, -1.174404919e-01, 
            -4.340106249e-02, -6.707797199e-02, -2.787222564e-01, 
            -6.359670758e-01, 5.304709077e-02, -5.312024951e-01, 
            8.121107705e-03, -4.874991253e-02, -9.415570647e-02, 
            -6.817744374e-01, 5.420679450e-01, 4.437316060e-01, 
            3.165769204e-02, -3.619852364e-01, 5.937610939e-02, 
            -5.712754726e-01, 1.343076229e-01, -5.622910261e-01, 
            -1.271262318e-01, 2.461140901e-01, -5.784520507e-01, 
            -2.519831657e-01, -1.136492133e+00, -2.850797772e-01, 
            -1.051316023e+00, -6.783102751e-01, 2.991385758e-01, 
            -1.624958366e-01, 3.099614978e-01, -1.334170252e-01, 
            4.639263749e-01},
        {1.009464711e-01, -2.509481609e-01, -1.834883839e-01, 
            -2.136799097e-01, -2.507240474e-01, 1.546454523e-02, 
            2.292883247e-01, -8.269279264e-03, -5.456573963e-01, 
            4.304532707e-02, 1.352090836e-01, -3.037597835e-01, 
            4.486396909e-01, -7.573720217e-01, -7.206822932e-02, 
            6.422235072e-02, 2.457082868e-01, -1.892596334e-01, 
            3.982612789e-01, -1.818614751e-01, -1.332608610e-01, 
            1.541143060e-01, -2.040828168e-01, 4.875583574e-02, 
            1.595482975e-01, -6.757760886e-03, 1.869788468e-01, 
            1.815260798e-01, 3.793892264e-02, -8.203072101e-02, 
            7.441762090e-02, -7.161325812e-01, -1.188162565e-01, 
            -4.711830989e-02, -2.545411885e-01, -6.882388592e-01, 
            1.654641926e-01, -4.692078829e-01, 3.486829996e-02, 
            -2.583503425e-01, 2.246212214e-03, 9.208236635e-02, 
            3.397085071e-01, 3.550134301e-01, -9.503943473e-02, 
            5.773722008e-02, -2.013336569e-01, -2.744369805e-01, 
            -7.911890000e-02, -2.829391956e-01, -2.450008988e-01, 
            -4.332373142e-01, 1.126744300e-01, -1.091251075e-01, 
            1.630663276e-01, 1.352072805e-01, 1.064823847e-02, 
            4.296125770e-01, 1.857786328e-01, -4.134882987e-01, 
            1.332395971e-01, -4.620999694e-01, 2.100756764e-01, 
            -1.183743030e-01, -5.854242295e-02, -6.170967817e-01, 
            -5.607209802e-01, -2.990902066e-01, -2.236236185e-01, 
            2.889609039e-01, 1.158899590e-01, -4.896410555e-02, 
            3.881779313e-01, 3.318433166e-01, -5.896627903e-02, 
            3.429018259e-01, -5.244358778e-01, -3.296737671e-01, 
            7.236080617e-02, -1.580420583e-01, 1.148617864e-01, 
            1.933102310e-01, 3.779142201e-01, 1.724423468e-01, 
            -1.191469561e-02, -2.875162363e-01, -4.700981379e-01, 
            -1.531503052e-01, 1.831205189e-01, 1.311321706e-01, 
            4.343132973e-01, -2.451509237e-01, 1.456913948e-01, 
            -4.005404711e-01, 3.878763616e-01, -1.505609155e-01, 
            -4.114658833e-01, 2.301365137e-01, -4.130323529e-01, 
            -2.251562178e-01},
        {-4.939340055e-01, 1.728494763e-01, -2.350120842e-01, 
            6.161581278e-01, 3.220091462e-01, 1.989704669e-01, 
            -7.821286917e-01, -3.723629564e-02, 5.429391861e-01, 
            -9.978220798e-03, 1.407107115e-01, -3.175418973e-01, 
            2.496652305e-01, -6.156666875e-01, 2.853040397e-01, 
            2.819428146e-01, -6.136803627e-01, -1.416723281e-01, 
            -4.711692929e-01, 5.543576181e-02, 2.740921676e-01, 
            3.218590021e-01, -8.186380267e-01, 4.641861320e-01, 
            -3.646256030e-01, -4.379957020e-01, 1.550015900e-02, 
            4.384991825e-01, 1.263153702e-01, -7.322754860e-01, 
            -1.909709126e-01, -2.688643932e-01, 1.568451710e-02, 
            -2.802550560e-03, -3.796066344e-01, -2.809596658e-01, 
            -1.182842255e+00, -9.504002333e-02, 3.336904049e-01, 
            4.846646264e-02, 6.188423187e-02, 5.854899436e-02, 
            4.330101013e-01, 6.471145749e-01, 5.533060804e-02, 
            -1.362657100e-01, -1.394082755e-01, 1.709340215e-01, 
            1.766212136e-01, -1.243858933e-01, 2.024068683e-01, 
            3.026666939e-01, -3.500061333e-01, 3.824268878e-01, 
            1.001212448e-01, 3.368863761e-01, -5.971608162e-01, 
            2.019434720e-01, 3.171961904e-01, 2.930686176e-01, 
            -5.929767713e-02, -5.991162062e-01, -5.609251857e-01, 
            2.781515419e-01, 2.542785406e-01, 3.640931845e-01, 
            2.541547175e-03, 2.634119987e-01, -4.028461576e-01, 
            -2.915906906e-01, 1.748204604e-02, -1.988140047e-01, 
            5.238171220e-01, 3.262971938e-01, 4.213825241e-02, 
            -2.048431709e-02, -4.069108665e-01, -2.451417893e-01, 
            4.129592776e-01, -1.892280132e-01, -1.568948627e-01, 
            -5.804593563e-01, -1.429369807e+00, -4.938674718e-02, 
            8.235534187e-04, 6.728725880e-02, 4.834112227e-01, 
            -4.926198348e-02, 1.974553764e-01, 1.714875549e-01, 
            3.145964146e-01, 2.392333448e-01, 1.393450648e-01, 
            3.315269351e-01, -5.104647875e-01, 1.149429604e-01, 
            7.788152248e-02, -3.156710267e-01, 1.741527766e-01, 
            -1.496685296e-01},
        {4.918900132e-02, -2.641525865e-01, -3.717327118e-02, 
            -2.007596046e-01, -5.035686493e-02, -1.107789725e-01, 
            -3.387075663e-01, -1.520897895e-01, -7.778100371e-01, 
            2.263086885e-01, -7.342261672e-01, -1.336011738e-01, 
            2.113696784e-01, -3.188853264e-01, 1.474048346e-01, 
            3.341957629e-01, 2.005076855e-01, -9.147284180e-02, 
            9.172125161e-02, -4.834507406e-01, -1.864969730e-02, 
            1.230212077e-01, -1.532121599e-01, 2.245745808e-01, 
            8.022447675e-02, 2.017455995e-01, -1.057940945e-01, 
            6.251597404e-02, 2.531443834e-01, 3.698148206e-02, 
            -5.538589321e-03, -2.740515582e-02, -2.735714912e-01, 
            9.076019377e-02, -1.536773145e-01, -2.193991095e-01, 
            -1.689582765e-01, -3.822262883e-01, 1.941559762e-01, 
            -5.234381557e-01, 1.348943263e-01, -2.205670476e-01, 
            1.289340407e-01, 3.641076386e-01, -1.766963899e-01, 
            -9.948533028e-02, 3.291441500e-02, -2.077062130e-01, 
            -1.242924333e-01, 6.908910722e-02, -3.087148964e-01, 
            -8.807075620e-01, 5.689731613e-02, -2.649619877e-01, 
            1.007303502e-02, -1.937523633e-01, -4.366466105e-01, 
            1.970818639e-01, 2.844485044e-01, -2.574651241e-01, 
            -2.071545720e-01, -4.453818798e-01, 1.463941485e-01, 
            -3.163377345e-01, -3.098659813e-01, -2.661576271e-01, 
            -6.987921596e-01, -6.167215109e-01, -4.838003591e-02, 
            3.007515669e-01, -9.167132527e-02, -4.600659385e-02, 
            -2.268032916e-02, -1.717688749e-03, -1.333392225e-03, 
            1.073965803e-02, -1.503428677e-03, -1.342289746e-01, 
            1.045382321e-01, -2.814643681e-01, -2.466039918e-02, 
            2.994235158e-01, 4.125343561e-01, 8.996651322e-02, 
            -2.943508327e-01, -3.267280012e-02, -7.831526995e-01, 
            1.028780788e-01, 1.584240347e-01, 1.607241929e-01, 
            -5.231854320e-02, -2.254770249e-01, 1.642719209e-01, 
            -3.891011775e-01, -1.351231039e-01, -3.297158480e-01, 
            1.199779753e-02, 1.027993672e-02, 4.266110063e-02, 
            -1.463827789e-01},
        {-1.062207073e-01, 3.672722280e-01, -5.017130375e-01, 
            4.266380668e-01, 3.727424145e-01, 1.148244217e-01, 
            -5.827968717e-01, -5.833917856e-01, 5.507131815e-01, 
            -1.146108955e-01, 1.770422310e-01, 2.446819842e-01, 
            -4.270812571e-01, 2.755864263e-01, -1.888201952e+00, 
            -3.555202857e-02, -1.086067200e+00, -9.897506237e-02, 
            -3.855774403e-01, 3.343451917e-01, 5.060197711e-01, 
            -2.531471550e-01, -5.347118974e-01, -2.989834845e-01, 
            -3.534320891e-01, -4.645823836e-01, -7.913405895e-01, 
            -3.963804841e-01, 1.131188348e-01, 2.150901705e-01, 
            -1.071550012e+00, -1.680066586e-01, -1.328088045e+00, 
            -5.368207693e-01, 3.159901500e-01, -4.274416566e-01, 
            -6.276738048e-01, -8.070086837e-01, 6.406099200e-01, 
            1.630771607e-01, -6.711336374e-01, -2.355405688e-02, 
            8.181401491e-01, -2.703277767e-01, -1.462651134e+00, 
            -8.357008100e-01, -5.645839032e-03, 7.283205390e-01, 
            2.284718901e-01, 5.085055251e-03, -4.396480918e-01, 
            3.143305182e-01, -6.104365587e-01, 2.612958252e-01, 
            -5.968570709e-01, 3.331238627e-01, -6.751844883e-01, 
            3.170127273e-01, -1.059684515e+00, 2.172151804e-01, 
            -1.193665624e+00, -4.020713642e-02, -7.256236672e-01, 
            2.979460061e-01, 3.595338762e-01, 3.289317489e-01, 
            2.798245521e-03, 1.737528443e-01, 3.962436020e-01, 
            -2.348704785e-01, -1.490967393e+00, 1.987190098e-01, 
            2.469938397e-01, -1.319355845e+00, 3.179211318e-01, 
            -7.030630112e-01, 2.379336059e-01, -4.510034919e-01, 
            -2.917467058e-01, -6.050746441e-01, -1.151569486e+00, 
            4.612226188e-01, 3.040081263e-01, -6.069770455e-01, 
            4.463807940e-01, -2.992458344e-01, 6.108318567e-01, 
            -2.431385368e-01, -1.663592100e+00, 2.218069732e-01, 
            -8.623597026e-01, 7.916588187e-01, -3.639433086e-01, 
            5.045708418e-01, -4.395279586e-01, -3.906783089e-02, 
            -2.221398950e-01, -4.738058448e-01, -2.688952684e-01, 
            5.374883488e-02},
        {5.130728483e-01, -4.054398835e-01, -1.952579431e-02, 
            -1.559745818e-01, -1.417175680e-01, 2.376527935e-01, 
            -1.278504878e-01, 2.745495141e-01, -2.013467848e-01, 
            1.315864027e-01, -4.432427883e-01, 7.408938408e-01, 
            4.571637139e-02, 5.240028501e-01, -5.469240546e-01, 
            1.305210441e-01, 2.622071207e-01, -9.412739426e-02, 
            6.189409494e-01, -5.587143078e-02, -8.621659130e-02, 
            -1.768519729e-01, 5.743423477e-02, -6.578028798e-01, 
            5.262622237e-01, 1.554966867e-01, 2.576492131e-01, 
            -2.748966217e-01, 1.110653430e-01, 5.306397676e-01, 
            -1.886554807e-01, 4.901333749e-01, -9.368540347e-02, 
            -1.237424314e-01, 5.991671681e-01, 8.767265826e-02, 
            9.407066554e-02, 7.099434733e-02, -1.166027784e-01, 
            4.771011323e-02, -1.882010847e-01, 1.920369267e-01, 
            -3.151884973e-01, -4.239111245e-01, -1.031543128e-02, 
            -5.473877769e-03, -3.722326756e-01, -2.571816146e-01, 
            4.144032672e-02, 5.079413056e-01, 4.441364110e-02, 
            3.075469732e-01, -1.877784133e-01, 3.198031709e-02, 
            1.833843291e-01, -1.973628551e-01, 4.176115692e-01, 
            -5.370958894e-02, -2.445395291e-01, -3.224207759e-01, 
            1.062959060e-01, 5.850584060e-02, 1.747285426e-01, 
            -2.753455341e-01, 1.200921908e-01, -3.480706215e-01, 
            9.967536479e-02, -3.383443952e-01, 4.042603970e-01, 
            1.802383177e-02, 8.407569677e-02, -1.987614334e-01, 
            -1.472659707e-01, -3.112036288e-01, 2.141225785e-01, 
            1.048890054e-01, 6.321419477e-01, 1.942464411e-01, 
            -1.767589301e-01, -2.041781247e-01, 1.023713350e-01, 
            7.398684621e-01, 1.379227877e+00, 1.884702593e-01, 
            2.447055727e-01, 1.735469103e-01, -1.914535612e-01, 
            3.208392859e-02, -4.854518771e-01, 5.542543158e-02, 
            -9.379462898e-02, -2.983311005e-02, 1.705244742e-02, 
            -3.109699190e-01, 3.793531060e-01, 3.268275782e-02, 
            4.884447753e-01, 6.165197119e-02, 1.788695604e-01, 
            2.229427397e-01},
        {-9.938072413e-02, 6.215279698e-01, -1.312603801e-01, 
            3.839263618e-01, 4.827384353e-01, 5.088909343e-02, 
            5.380065180e-03, -1.245134830e+00, -9.038755298e-02, 
            -6.974554062e-01, -6.430370212e-01, -5.196674466e-01, 
            2.574199438e-01, 2.203627117e-02, -7.151634991e-02, 
            -8.106317371e-02, -1.452217251e-01, -3.954008222e-01, 
            -5.471047163e-01, -3.113436997e-01, 2.267517745e-01, 
            5.014901161e-01, 1.340604126e-01, 2.800851502e-02, 
            3.120097704e-02, -3.256713748e-01, -4.181823507e-02, 
            -2.616964877e-01, 4.102309346e-01, -1.279710770e+00, 
            -6.383591145e-02, -9.411533475e-01, 3.352142274e-01, 
            -7.148009539e-01, -4.523694217e-01, -6.704260707e-01, 
            -9.003871083e-01, -1.778022051e-01, 2.676465511e-01, 
            -3.562069833e-01, 2.423267812e-01, -2.483358979e-01, 
            3.483752012e-01, -1.773251742e-01, 6.321313977e-01, 
            -5.101266503e-01, -3.097173199e-02, 8.349245787e-01, 
            6.196409464e-01, -8.789216876e-01, -1.248977900e+00, 
            3.462594151e-01, -2.636563778e-01, -3.439448774e-02, 
            3.040442765e-01, -3.738854080e-02, -3.996610045e-01, 
            1.450909395e-02, -4.893060625e-01, 2.455806136e-01, 
            -1.053064764e-01, -7.889308333e-01, -4.014267027e-01, 
            6.795113087e-01, -2.166638374e-01, 5.566028357e-01, 
            1.969134957e-01, -2.441481352e-01, -3.587186933e-01, 
            -4.977977872e-01, -1.744380444e-01, 1.405020654e-01, 
            -3.451709077e-02, 3.433484957e-02, -8.737917542e-01, 
            1.149098054e-01, -5.068867803e-01, -1.162647307e-01, 
            3.175412118e-01, -7.661367059e-01, -1.234482080e-01, 
            -4.812637866e-01, -1.172655344e+00, -3.328911960e-01, 
            3.359639272e-02, -1.355141521e+00, -6.158877164e-03, 
            5.625999719e-02, -9.781266004e-02, 3.458862007e-01, 
            -1.413812190e-01, 6.314995885e-01, -2.816286683e-01, 
            3.241467476e-01, -2.285367250e-01, -4.873803258e-01, 
            -1.264372349e+00, -4.375762045e-01, -9.767225981e-01, 
            -2.010085434e-01},
        {1.463449001e-01, -3.001751006e-01, 4.770412743e-01, 
            3.371917605e-01, -2.237298340e-01, -8.009666204e-01, 
            2.713809609e-01, -1.920955330e-01, 4.592080116e-01, 
            -4.505525827e-01, 8.553601503e-01, 8.978281170e-02, 
            -4.648019969e-01, -4.517766461e-02, -7.791495323e-01, 
            -6.465548873e-01, -1.814097166e-01, 4.406211674e-01, 
            -3.169139326e-01, 5.277897716e-01, -2.934270799e-01, 
            -8.427928090e-01, -1.131989136e-01, -8.746045828e-02, 
            -7.315903902e-03, 3.336031139e-01, -1.483093262e+00, 
            -5.053710341e-01, -5.229618549e-01, 5.070601106e-01, 
            -2.496459633e-01, -6.151406169e-01, -4.773682952e-01, 
            -2.368575037e-01, -2.160923183e-01, -2.020082235e+00, 
            3.552013636e-01, -1.738043427e+00, 3.829640150e-02, 
            6.835138798e-01, -1.327291250e+00, 4.300081134e-01, 
            3.417323232e-01, -2.586170286e-02, -1.499438167e+00, 
            9.476875514e-02, -3.211008310e-01, -4.693890810e-01, 
            -1.056386352e+00, 3.721137345e-02, -9.832910448e-02, 
            8.837096393e-02, 3.750112653e-01, 2.467608303e-01, 
            -1.060849786e+00, 3.588298857e-01, -9.381663203e-01, 
            -2.587125301e-01, -5.936156511e-01, 5.941001698e-02, 
            -8.500799537e-01, -2.508667469e+00, 2.008025050e-01, 
            -2.362772673e-01, 5.271133780e-01, 1.533759832e-01, 
            -2.116693184e-03, 2.096833438e-01, -6.170979515e-02, 
            3.800313175e-01, -7.253632545e-01, -5.735172629e-01, 
            9.995462745e-02, -4.994149506e-01, 9.631703049e-02, 
            -6.119982600e-01, 1.151799560e-01, -1.295168638e+00, 
            -1.145010114e+00, -5.267866254e-01, -7.666900158e-01, 
            8.332134783e-02, -7.684643567e-02, -3.986903727e-01, 
            -5.736914873e-01, -2.549305558e-01, 3.656393886e-01, 
            -1.865019917e+00, -9.123400450e-01, -6.306803823e-01, 
            1.201491803e-01, -1.173049398e-02, -2.246263921e-01, 
            1.988970190e-01, -1.873507947e-01, 2.946038842e-01, 
            -6.378962100e-02, 3.761983514e-01, -6.581585854e-02, 
            3.800810128e-02},
        {-8.023464084e-01, -1.428508461e-01, -6.707155108e-01, 
            -4.558913410e-02, -1.200534031e-01, 1.817951351e-01, 
            -1.212661341e-01, 3.077535033e-01, 1.419219673e-01, 
            2.724736929e-01, 1.017699912e-01, -4.516976774e-01, 
            1.173371524e-01, -4.813985229e-01, -2.720896006e-01, 
            1.877194047e-01, -6.026288271e-01, -5.846427083e-01, 
            -2.091494948e-01, 4.896180704e-02, 2.836047113e-01, 
            1.094357073e-01, 9.000399709e-02, 1.679423749e-01, 
            -6.512348652e-01, -6.572507620e-01, 5.826629698e-03, 
            2.278135419e-01, 2.044576854e-01, -5.934317708e-01, 
            3.035452068e-01, -1.802450716e-01, -1.523254067e-01, 
            -2.505771257e-02, -2.283512354e-01, -1.221526042e-01, 
            -1.074361652e-01, -7.838405669e-02, 3.233293295e-01, 
            1.683678925e-01, -1.126001403e-01, 1.162892208e-01, 
            3.261135519e-01, 2.019336820e-01, -4.023874179e-02, 
            5.732290819e-02, -2.508882582e-01, -3.323593438e-01, 
            -2.328749895e-01, -2.214168198e-02, 1.869740151e-02, 
            9.801919013e-02, -4.802563787e-01, 2.352886796e-01, 
            -2.402047068e-02, 1.140880026e-02, -3.414827883e-01, 
            3.058798015e-01, -5.927743390e-02, 6.937432289e-02, 
            -8.584633470e-02, -1.799626648e-01, 3.377644718e-02, 
            -3.581244946e-01, 1.414616406e-01, 7.358565181e-02, 
            -4.199411869e-01, -8.102168143e-02, -2.896489948e-02, 
            -2.072972059e-01, 1.176966280e-01, -3.565345705e-01, 
            2.883000672e-01, 1.083546206e-01, 2.057829201e-01, 
            1.933036447e-01, -3.293772042e-01, 5.386327952e-02, 
            -1.777899414e-01, -1.017099991e-01, 4.740264267e-02, 
            -3.477732539e-01, -1.139864087e+00, 3.054673970e-01, 
            -9.831247479e-02, 1.058760360e-01, 3.298878968e-01, 
            -2.578615546e-01, -1.372204423e-01, 5.270946026e-02, 
            3.217982352e-01, -1.399913151e-02, 2.187670022e-01, 
            -3.744422272e-02, -4.780831933e-01, -1.057816073e-01, 
            -2.083668299e-02, -2.566123307e-01, 1.762843579e-01, 
            -2.950395048e-01},
        {-6.871330738e-02, -3.832007945e-01, 1.847148687e-01, 
            -8.870202899e-01, -1.279062629e+00, -7.206805944e-01, 
            -2.434733510e-02, -7.017612457e-02, -3.062869012e-01, 
            -9.922197461e-01, 9.431602061e-02, 5.670471117e-02, 
            -8.623476624e-01, 3.460776210e-01, 4.713081121e-01, 
            -1.246553540e+00, 3.428986967e-01, 1.647982001e-01, 
            3.154231012e-01, -2.113233507e-01, -1.303156137e+00, 
            -1.476163507e+00, 8.463293910e-01, 6.599017978e-01, 
            2.778785862e-02, 1.442381144e-01, -3.271634877e-01, 
            -9.075971246e-01, -1.650692463e+00, 1.351783425e-01, 
            1.484980285e-01, 8.293390274e-02, 1.340485960e-01, 
            1.000976205e+00, 2.099393755e-01, -1.357652783e+00, 
            -4.787711799e-02, -1.363085032e+00, -1.667554140e+00, 
            -1.253830194e-01, -9.562922716e-01, 2.199832536e-02, 
            -1.322240829e+00, 1.016792178e+00, -2.127728015e-01, 
            2.057680935e-01, 1.143623233e+00, -1.266664505e+00, 
            -2.053154469e+00, -2.413149195e-04, 7.897175550e-01, 
            -1.395793557e-01, 1.278950572e-01, -4.796749353e-01, 
            -7.731095552e-01, -4.433462620e-01, 4.802764356e-01, 
            -1.427391052e+00, -3.315597177e-01, -6.377215981e-01, 
            1.268064827e-01, 5.030207038e-01, 1.536143273e-01, 
            -4.415499270e-01, -4.012718797e-01, -7.436853051e-01, 
            4.411536753e-01, 1.632523537e-01, -5.139795318e-02, 
            1.201239303e-01, 6.599376351e-02, 5.447065234e-01, 
            -1.097181439e+00, -2.602495551e-01, -3.421856463e-01, 
            -4.614461362e-01, 8.711766452e-02, -1.202293515e+00, 
            -1.211439490e+00, 6.461493373e-01, 4.732919633e-01, 
            2.272547632e-01, 4.090878665e-01, -4.086871445e-01, 
            -8.287196755e-01, -1.738470644e-01, -3.718206882e-01, 
            -1.786911964e+00, 3.745580316e-01, -1.410119653e+00, 
            -2.387834638e-01, -1.252661943e+00, -6.831252575e-01, 
            -6.781963706e-01, -3.532806411e-02, 1.366968900e-01, 
            -2.395138294e-01, 2.089919150e-01, -3.670075834e-01, 
            1.322269887e-01},
        {3.606447875e-01, -1.998036914e-02, -3.182745874e-01, 
            -3.686025143e-01, 9.549179673e-02, 1.114140004e-01, 
            -3.956084251e-01, -5.848534703e-01, -1.672260612e-01, 
            -2.749176323e-01, -1.187808156e+00, 7.028551400e-02, 
            -2.983598411e-01, 9.005557746e-02, -5.582205653e-01, 
            1.869749874e-01, 5.257567763e-01, -7.470129728e-01, 
            4.887391627e-01, -4.236935973e-01, -1.161891744e-01, 
            4.062104970e-02, -2.929192185e-01, -3.740983903e-01, 
            3.245966434e-01, -1.289789975e-01, 5.516279340e-01, 
            -3.538593948e-01, 4.733462259e-02, -6.585293915e-03, 
            9.987080097e-02, -6.117294729e-02, 4.019873738e-01, 
            -6.182839870e-01, 3.242821991e-01, 5.788559839e-02, 
            -6.120273471e-02, 1.557671577e-01, 1.170503125e-01, 
            -6.556780934e-01, 3.656210378e-02, -5.723022819e-01, 
            -2.687211335e-01, -2.233189046e-01, 8.415791392e-02, 
            -4.130054414e-01, -5.327610970e-01, -1.119927168e-01, 
            1.809614897e-01, -3.433011100e-02, -5.305962563e-01, 
            2.206862867e-01, -4.007067382e-01, -3.167715669e-01, 
            2.419264317e-01, -3.995527327e-01, 5.663564801e-01, 
            -1.177023277e-01, -5.610013008e-01, -1.983160228e-01, 
            6.256926656e-01, -2.353409976e-01, 7.463204116e-02, 
            -3.165352941e-01, -4.761682451e-01, -1.198701710e-01, 
            -1.172509789e-01, -6.555585265e-01, 2.323090583e-01, 
            -1.797625422e-01, -3.842578456e-02, -3.038038015e-01, 
            -4.294277728e-01, -3.810159862e-01, -2.641619742e-01, 
            2.200443596e-01, -1.847169176e-02, -1.375666112e-01, 
            -2.203702927e-01, -1.608206183e-01, 8.768829284e-04, 
            5.678817630e-01, 7.455399036e-01, -8.476808667e-02, 
            1.753603071e-01, -3.119376600e-01, -2.593694329e-01, 
            -4.034537077e-01, -5.175223947e-01, 3.549913466e-01, 
            -6.512425542e-01, 6.841658056e-02, -2.635206580e-01, 
            -3.032263517e-01, 4.144181609e-01, -6.643610597e-01, 
            -6.050109267e-01, -4.630952179e-01, -5.966793895e-01, 
            -1.630369276e-01},
        {-9.923179448e-02, -3.803068101e-01, -5.327932239e-01, 
            5.417186022e-02, -1.060541905e-02, 1.304262877e-01, 
            -2.422738671e-01, 1.427684724e-01, -4.835323095e-01, 
            3.830107450e-01, -3.475231230e-01, -3.021500409e-01, 
            1.635531895e-02, -7.391368151e-01, 1.125398558e-02, 
            2.367556840e-01, 1.591605693e-01, -8.273437023e-01, 
            1.250119209e-01, -3.456238806e-01, 2.153257281e-01, 
            6.631920487e-02, -2.755858563e-02, 1.847871095e-01, 
            8.740189672e-02, -4.286323488e-01, 5.223118141e-02, 
            5.686236918e-02, 2.164592296e-01, -1.996308118e-01, 
            2.936388925e-02, -1.438317001e-01, -1.659375131e-01, 
            -2.374947257e-02, -2.034234703e-01, -3.790159523e-01, 
            -1.249379814e-01, -2.591663599e-01, 3.805092871e-01, 
            -6.036235690e-01, 8.631896973e-02, -9.118991345e-02, 
            3.103815019e-01, 2.795891762e-01, -2.072232962e-01, 
            -2.160509676e-02, -9.333160520e-02, -4.526311755e-01, 
            6.813157350e-02, 3.423671471e-03, 8.546571434e-02, 
            -4.177362919e-01, -2.843215466e-01, -3.952213749e-02, 
            -2.129107900e-02, 2.446511686e-01, -5.757132173e-01, 
            3.516635895e-01, 1.079795808e-01, 7.283146679e-02, 
            -9.323749691e-02, -2.056968063e-01, -3.368493542e-02, 
            -1.707792282e-01, -2.018588185e-01, -3.874826729e-01, 
            -7.263966799e-01, -2.933381684e-02, -3.589899838e-02, 
            1.299005747e-01, -1.537145674e-01, -1.761643440e-01, 
            4.177857041e-01, 2.330797315e-01, 3.799628019e-01, 
            3.262529075e-01, -3.321821094e-01, -1.682431996e-01, 
            9.858503006e-03, -1.100568101e-01, 1.455819756e-01, 
            -3.727042675e-01, 4.722563177e-02, 4.178211093e-01, 
            1.183275282e-01, 5.489119142e-02, -3.898642361e-01, 
            -1.649313122e-01, 4.925262183e-02, 2.061565369e-01, 
            1.679248065e-01, -2.993045151e-01, 2.765278518e-01, 
            -3.764323592e-01, 7.089940459e-02, -5.396760702e-01, 
            1.115155444e-01, -2.692832947e-01, 1.114981696e-01, 
            -4.826403856e-01},
        {5.266320705e-01, -2.388853431e-01, 2.593937516e-01, 
            -4.700181484e-01, -7.236445695e-02, 1.895999461e-01, 
            2.459002472e-02, 1.711628586e-01, -3.253597617e-01, 
            1.729156822e-01, -7.421942800e-02, 5.781727433e-01, 
            4.471629485e-02, 5.405030847e-01, -5.819792747e-01, 
            6.749437749e-02, 3.557737172e-01, 2.408223785e-02, 
            6.077817082e-01, -8.887775987e-02, 1.033839304e-02, 
            1.331836078e-02, 3.172787130e-01, -5.464711189e-01, 
            5.931485295e-01, 2.979979217e-01, 3.604960442e-02, 
            -1.359268278e-01, 3.071528859e-02, 5.201636553e-01, 
            -2.550947368e-01, 3.913932145e-01, 1.838797480e-01, 
            -4.571305811e-01, 6.026484370e-01, 9.163528681e-03, 
            2.449284941e-01, 1.487545073e-01, -1.082203537e-01, 
            -1.487064362e-01, 2.131860517e-02, 1.570851952e-01, 
            -2.743055522e-01, -1.779864430e-01, 2.025976079e-03, 
            1.489293575e-01, -3.558667302e-01, -1.827940196e-01, 
            1.058261693e-01, 2.562915683e-01, 5.881350115e-02, 
            1.852151304e-01, -1.388159692e-01, -2.982829809e-01, 
            9.270775318e-02, -2.642188668e-01, 7.837056369e-02, 
            7.323755324e-02, -1.458046585e-01, -2.561034262e-01, 
            1.168046445e-01, -2.611705065e-01, 2.198433727e-01, 
            -2.842814624e-01, -4.429162480e-03, -3.969589770e-01, 
            -6.827935576e-02, -4.101709127e-01, 4.496583045e-01, 
            -1.698635146e-02, -1.883674711e-01, -1.205823869e-01, 
            5.469041690e-02, -1.503860056e-01, 1.529680192e-01, 
            1.237079576e-01, 3.150865436e-01, 2.102604359e-01, 
            -2.119061649e-01, -1.222253665e-01, -1.641673148e-01, 
            8.253816962e-01, 1.398124099e+00, 1.257184446e-01, 
            2.737599611e-01, 1.470339596e-01, -5.663570389e-02, 
            -5.686938390e-02, -3.536914885e-01, 1.997489333e-01, 
            -1.932819039e-01, -2.833972275e-01, -1.806082577e-02, 
            -3.135332167e-01, 2.365459055e-01, -4.228072241e-03, 
            2.598486841e-01, 1.266658604e-01, 3.601377010e-01, 
            3.584631979e-01},
        {3.095912337e-01, 1.897954345e-01, -1.081197023e+00, 
            3.436333239e-01, -3.712109476e-02, -9.018617868e-01, 
            2.285572141e-01, -1.208364725e+00, 3.060416281e-01, 
            -7.997014523e-01, 3.941358328e-01, -8.028801680e-01, 
            -1.498599201e-01, -6.129013300e-01, 2.640309930e-01, 
            -6.250584722e-01, -3.592457473e-01, -7.243069410e-01, 
            -3.143061697e-01, 1.946446598e-01, -1.007792592e+00, 
            1.043344140e-01, 5.767480135e-01, -2.266584635e-01, 
            1.057788879e-01, -7.443777323e-01, 3.078833222e-01, 
            -9.944786429e-01, -5.299778581e-01, 5.494569540e-01, 
            1.760716885e-01, 1.505270898e-01, -7.267920300e-03, 
            -1.247685924e-01, -4.329825342e-01, 7.424031496e-01, 
            1.132111810e-02, 6.405985951e-01, 8.676660806e-02, 
            3.882779777e-01, 1.212396920e-01, -8.216832280e-01, 
            -3.298451304e-01, -1.523390561e-01, 7.573611736e-01, 
            -2.200311899e+00, 4.959191978e-01, 5.966855884e-01, 
            4.780666232e-01, -5.757625103e-01, -7.068523020e-02, 
            -3.877468705e-01, -1.664702058e+00, 3.399115503e-01, 
            3.284893334e-01, 5.512223840e-01, -5.074040592e-02, 
            -7.709032893e-01, -4.095894992e-01, -1.181140691e-01, 
            5.246707797e-01, 6.488476396e-01, 2.460459024e-01, 
            3.105513453e-01, 3.570761681e-01, 5.505848527e-01, 
            -1.728187203e-01, -6.971102357e-01, -1.073322296e+00, 
            -1.016955853e+00, 2.849447727e-01, 4.491806030e-01, 
            -8.965299129e-01, -1.776828468e-01, -1.113305092e+00, 
            -2.339882851e-01, -8.960634470e-01, 6.070479155e-01, 
            1.070389375e-01, 4.188657925e-02, 5.610632151e-02, 
            -5.528574586e-01, 6.904931366e-02, -5.166180730e-01, 
            -6.648091078e-01, -1.206324816e+00, 1.241046190e-01, 
            3.848659992e-01, 2.084175497e-02, -5.234416202e-02, 
            -7.771203518e-01, -1.247967500e-02, -1.100849032e+00, 
            -6.210407242e-02, 5.355457664e-01, -9.210689068e-01, 
            -5.745506287e-01, -1.381945491e+00, -8.464671373e-01, 
            -1.304613233e+00},
        {6.630347967e-01, -5.438082293e-02, -5.404656380e-02, 
            -3.428318352e-02, -8.385622501e-02, 1.826092452e-01, 
            -3.955903947e-01, -2.666086853e-01, 1.569019258e-01, 
            -8.590182662e-02, -3.786959946e-01, 5.013519526e-01, 
            -1.811254472e-01, 2.396987528e-01, -4.681937397e-01, 
            -8.531791717e-02, -1.986513846e-02, -8.482028544e-02, 
            3.292309344e-01, 1.250801831e-01, 1.183049306e-01, 
            -2.093269676e-02, -4.085028172e-01, -7.666575313e-01, 
            3.298981786e-01, -2.677532472e-02, -1.076085120e-02, 
            -3.550166488e-01, -1.260567605e-01, -2.088035829e-02, 
            -1.675966084e-01, 2.500717640e-01, -9.493602440e-03, 
            -3.851543069e-01, 4.226999283e-01, -2.068440467e-01, 
            -4.102405906e-01, -2.048134655e-01, 1.425333023e-01, 
            1.073622704e-01, -2.551389039e-01, -1.315421462e-01, 
            -1.888246834e-01, -6.763272882e-01, -1.090531573e-01, 
            -1.751759648e-01, -2.610166073e-01, -2.866611183e-01, 
            -6.056518480e-02, 1.381429434e-01, -2.923328578e-01, 
            5.198043585e-01, -4.447667599e-01, 1.053303927e-01, 
            -9.439304471e-03, -1.111618802e-01, -2.292400226e-02, 
            1.449317187e-01, -3.295537531e-01, -9.280676022e-03, 
            -2.000069916e-01, -1.857420355e-01, -1.677503139e-01, 
            -2.169698626e-01, 1.166533679e-01, -2.971350029e-02, 
            1.542959660e-01, -1.074695215e-01, 3.676714897e-01, 
            -1.200444475e-01, -2.084160596e-01, -2.733366191e-01, 
            -1.613862664e-01, -3.848230839e-01, 1.201461330e-01, 
            1.064000651e-01, 3.848483264e-01, -2.881052792e-01, 
            -2.700883746e-01, -4.764922336e-02, -5.714538321e-02, 
            5.463012457e-01, 1.108742476e+00, 5.680919066e-02, 
            3.430620730e-01, 1.599888951e-01, 1.058621705e-01, 
            -2.463547736e-01, -5.151384473e-01, 1.109679118e-01, 
            -2.172663212e-01, 1.191118360e-01, 1.341142412e-02, 
            -6.340420246e-02, 1.925353557e-01, -1.119212806e-01, 
            4.248454049e-02, -3.845088780e-01, 6.028425321e-02, 
            2.671108544e-01},
        {8.417523652e-02, -2.747089863e-01, 2.241684124e-02, 
            -3.352447748e-01, -2.254500836e-01, 1.316906065e-01, 
            -4.352847040e-01, 2.732114196e-01, -7.807994485e-01, 
            -9.044758976e-02, -7.466203570e-01, 1.186927184e-01, 
            -7.788503170e-02, 1.877949014e-02, 5.306076258e-02, 
            -7.861303538e-02, 3.625830412e-01, -3.613370061e-01, 
            3.602944613e-01, -5.236929059e-01, -2.938518226e-01, 
            -1.527869403e-01, -5.235365033e-01, -1.527402252e-01, 
            9.076780826e-02, 1.773820221e-01, 9.566117823e-02, 
            1.605065018e-01, -1.307001263e-01, -1.449464858e-01, 
            -7.083918154e-02, 1.059419960e-01, 8.184746653e-02, 
            1.548367143e-01, 4.740525782e-02, -1.282769889e-01, 
            -4.147869647e-01, -9.416815639e-02, 1.971524358e-01, 
            -7.936415672e-01, -7.535465062e-02, -3.777197897e-01, 
            -9.832621552e-03, 1.045287997e-01, -5.711624864e-03, 
            8.831065148e-02, -4.007152319e-01, -2.500901520e-01, 
            -1.189738214e-01, -1.069868281e-01, 1.746049672e-01, 
            -4.505522549e-01, -1.840126216e-01, -5.501506329e-01, 
            1.181431636e-01, -5.981802940e-01, 3.086739182e-01, 
            -2.927294560e-02, 1.548694819e-01, -2.931289673e-01, 
            2.087519020e-01, -2.189441472e-01, 6.415370107e-02, 
            -4.086877406e-01, -3.847119510e-01, -4.593207836e-01, 
            -5.885902047e-01, -4.678576887e-01, 7.928560674e-02, 
            -1.691856980e-01, 7.951316983e-02, -3.889687657e-01, 
            -1.344136298e-01, 7.967863232e-02, 1.364430063e-03, 
            1.496530175e-01, -4.019999132e-02, -2.487968057e-01, 
            -1.765314043e-01, 3.413550556e-02, 2.225724310e-01, 
            3.122052848e-01, 4.122779965e-01, -6.788840145e-02, 
            2.181015722e-02, -1.027670950e-01, -7.841650844e-01, 
            -2.504423559e-01, -7.471489161e-02, 1.675671637e-01, 
            6.813055277e-02, -3.504761159e-01, -1.757042110e-02, 
            -4.184260666e-01, 5.470259860e-02, -2.604728043e-01, 
            3.419277072e-02, 3.677611426e-02, -2.815653384e-02, 
            1.210021302e-01},
        {-6.992498636e-01, 1.969808787e-01, 3.740766644e-02, 
            -1.000362486e-01, 2.330075577e-02, 1.997651458e-01, 
            -2.517809570e-01, 3.071975410e-01, 3.554315493e-02, 
            2.027775645e-01, -6.761160493e-02, 6.980487704e-01, 
            -2.538914084e-01, 8.592720628e-01, -5.845156908e-01, 
            -2.923174500e-01, -6.305680275e-01, -1.910195500e-02, 
            1.004150137e-01, -1.756954044e-01, 2.584050298e-01, 
            -7.875311971e-01, -1.239247322e-01, -4.876827076e-02, 
            -5.898021460e-01, -1.954340637e-01, -4.230294824e-01, 
            1.451101154e-01, -2.355635762e-01, -5.703754351e-02, 
            -5.260525346e-01, 6.891495585e-01, -9.825828075e-01, 
            4.672892094e-01, 6.038593650e-01, 4.922166765e-01, 
            4.271521792e-02, 2.842143178e-01, -3.467704058e-01, 
            6.090915203e-02, -6.375317574e-01, -7.276429981e-02, 
            -5.826354399e-02, 2.569066547e-02, -8.255094886e-01, 
            8.581437916e-02, 1.961509883e-01, -2.726032734e-01, 
            -2.685309649e-01, 4.555644691e-01, 7.353464961e-01, 
            -1.238894016e-01, 4.947495461e-02, -1.428352594e-01, 
            -8.574404120e-01, -1.550414413e-01, -2.891216055e-02, 
            -4.689565897e-01, -4.390349612e-02, 5.425704643e-02, 
            -8.982146978e-01, 4.740946293e-01, -2.358081937e-01, 
            3.353540227e-02, -1.911738329e-02, -1.528055072e-01, 
            2.008803636e-01, 2.565001547e-01, 3.945692778e-01, 
            -2.077455521e-01, -6.750385761e-01, 2.792485654e-01, 
            -3.483430445e-01, -6.999021769e-01, 9.318859130e-02, 
            -5.054748654e-01, 5.995758772e-01, 2.090497315e-01, 
            -4.607497752e-01, -5.022630692e-01, -6.373868585e-01, 
            4.791098535e-01, 5.297197700e-01, -3.994083703e-01, 
            1.846005172e-01, 5.285389423e-01, 1.405309439e-01, 
            2.223231345e-01, -3.586679399e-01, -4.189437926e-01, 
            -1.142856926e-01, -1.072055846e-01, -6.531750411e-02, 
            -1.078231782e-01, -1.306831241e-01, 1.493352801e-01, 
            3.201547563e-01, -1.089513749e-01, 4.886464775e-01, 
            2.034625709e-01},
        {-1.080083847e+00, 2.416186184e-01, -5.226301551e-01, 
            2.495742738e-01, 3.754116893e-01, 3.503499031e-01, 
            -2.854340374e-01, 2.272137254e-01, 2.635212056e-02, 
            2.331047207e-01, -3.997248709e-01, 2.407821417e-01, 
            1.717337221e-01, 3.012301922e-01, -1.426500082e-01, 
            2.642059922e-01, -5.704762340e-01, -4.311271012e-01, 
            -7.200593501e-02, -3.448464870e-01, 2.928769290e-01, 
            2.189146876e-01, 5.777283907e-01, 3.527259827e-01, 
            -1.011588335e+00, -8.022825122e-01, 7.730109245e-02, 
            1.120373085e-01, 3.390390575e-01, 2.154157609e-01, 
            -4.366559982e-01, 4.029600024e-01, -2.678190470e-01, 
            1.167392656e-01, 3.608932197e-01, -6.875355542e-02, 
            -8.948148787e-02, 1.604114175e-01, 3.121753335e-01, 
            -4.347787201e-01, 1.676344126e-01, -2.435219288e-01, 
            2.292903513e-01, 9.573480487e-02, -1.027963385e-01, 
            -2.887943983e-01, 2.416456342e-01, 1.858333349e-01, 
            3.404956758e-01, 1.939693540e-01, 4.840753973e-02, 
            7.184829563e-02, -5.737565160e-01, -1.319554150e-01, 
            2.331440002e-01, -1.889050752e-01, 1.992169917e-01, 
            1.085248813e-01, 1.061319839e-02, 2.515948415e-01, 
            -3.928338587e-01, 3.209563717e-02, -3.855901361e-01, 
            3.164011240e-01, -2.451269627e-01, 1.129763722e-01, 
            2.444028258e-01, 2.632225454e-01, 1.111224517e-01, 
            -1.989060491e-01, -3.078224361e-01, 1.731930971e-01, 
            3.363338709e-01, -1.528324485e-01, 1.710894257e-01, 
            2.140606642e-01, 2.577511966e-01, 3.936439157e-01, 
            3.720731735e-01, -2.504561841e-01, -2.180159092e-01, 
            -6.281436980e-02, -7.030528784e-01, 3.113069944e-02, 
            1.015661359e-01, 6.527730078e-02, 4.970693495e-03, 
            3.105505109e-01, -2.304590046e-01, 4.176825285e-01, 
            2.250300944e-01, 2.383304089e-01, 1.721161753e-01, 
            1.817460656e-01, -2.618631423e-01, -2.103799582e-01, 
            1.229382157e-01, -4.736450911e-01, 1.591324508e-01, 
            -1.195506528e-01},
        {5.558675155e-02, -3.195963800e-01, 1.708000898e-01, 
            -7.918617129e-02, -2.525321543e-01, -4.926800355e-02, 
            1.287549287e-01, -1.707680337e-02, 3.145340458e-02, 
            -1.412490159e-01, 8.438110817e-04, -2.929574847e-01, 
            3.260620683e-02, -2.875503302e-01, -3.590917587e-01, 
            -8.463193476e-02, -3.320398033e-01, 2.044623792e-01, 
            -1.581473947e-01, 1.691388339e-01, 6.471785903e-02, 
            -4.775255173e-02, -5.573672056e-01, -3.968299627e-01, 
            2.401110679e-01, 6.856281310e-02, 1.533562243e-01, 
            -7.282877713e-02, -1.325059384e-01, -8.213912137e-03, 
            -4.067908823e-01, -2.681806684e-01, -3.384342194e-01, 
            -2.461093068e-01, -2.651011348e-01, -1.616624296e-01, 
            1.413256526e-01, -1.417502463e-01, -1.119543612e-01, 
            1.797661632e-01, 2.472735345e-01, -8.045765013e-02, 
            -3.675153553e-01, -4.432388544e-01, 3.664622456e-02, 
            1.689700037e-01, -4.592071772e-01, -4.096137881e-01, 
            1.133828312e-01, -1.652044356e-01, -2.164452225e-01, 
            -2.705690265e-02, 1.687248237e-02, 8.585914224e-02, 
            -2.179846726e-02, -7.944853604e-02, -5.169907808e-01, 
            5.912286043e-02, -3.601645352e-03, -6.551218033e-02, 
            -1.239084899e-01, -1.747701317e-01, -2.229829282e-01, 
            -3.665695786e-01, 1.951535195e-01, -3.994190395e-01, 
            -3.078796566e-01, -2.654455900e-01, -3.713227808e-02, 
            1.205774844e-01, -7.140326500e-02, -3.690273762e-01, 
            -2.457731515e-01, 2.873723768e-02, -2.744448483e-01, 
            -8.735092729e-02, -3.064684868e-01, -1.417677253e-01, 
            -3.335912898e-02, -2.216769457e-01, -1.240537241e-01, 
            -4.308173805e-02, 1.234102026e-01, 2.670970932e-02, 
            -7.800611667e-03, -2.375665456e-01, 3.944061697e-02, 
            -2.065635473e-01, -2.785995603e-01, -1.582739949e-01, 
            1.669597030e-01, -1.449799240e-01, -7.686366886e-02, 
            -2.916762531e-01, 2.052590251e-01, 4.493631795e-02, 
            -1.844733357e-01, 6.564094126e-02, -3.193602264e-01, 
            -4.531458765e-02},
        {-5.427758694e-01, -1.286624074e+00, 3.468584418e-01, 
            -5.417511463e-01, -1.931042552e+00, -1.274715781e+00, 
            3.821627498e-01, 2.492429018e-01, 2.988435030e-01, 
            -2.668753266e-01, 6.527841687e-01, 2.882094085e-01, 
            -2.241423726e-01, 2.791423202e-01, -5.283528566e-01, 
            -1.341412067e+00, 2.852777839e-01, 5.719007850e-01, 
            -5.732344463e-02, 1.911500394e-01, -1.578357339e+00, 
            -2.337630272e+00, 5.759189650e-02, 5.117866993e-01, 
            -1.391981244e-01, 3.387317061e-01, -1.525112391e+00, 
            1.995351352e-02, -2.394219875e+00, 3.639317453e-01, 
            1.778790951e-01, 7.905136049e-02, -3.574155271e-01, 
            3.606882691e-01, -2.323178649e-01, -1.846843004e+00, 
            3.994935155e-01, -1.798185587e+00, -1.870506048e+00, 
            5.764792562e-01, -1.855440736e+00, 7.423508167e-02, 
            -3.701718748e-01, 1.072385550e+00, -2.512904167e+00, 
            5.469891429e-01, -1.724429369e+00, -1.988434553e+00, 
            -2.808374166e+00, 7.863757759e-02, 6.704802513e-01, 
            -1.281784009e-02, 5.461686254e-01, -2.162082642e-01, 
            -1.784120917e+00, -3.413660228e-01, 3.653302789e-01, 
            -7.896268368e-01, -4.242055118e-01, -2.628192902e-01, 
            -4.503735602e-01, -2.951517105e+00, -5.951339751e-02, 
            -1.343115568e+00, -1.694284081e-01, -2.879793346e-01, 
            5.166653991e-01, 7.163034081e-01, -2.979195863e-02, 
            2.873547971e-01, -8.042882085e-01, -1.905328274e+00, 
            -1.188350618e-01, -5.758525133e-01, 6.683578342e-02, 
            -7.714143991e-01, 1.741057038e-01, -1.216161132e+00, 
            -1.983286142e+00, -6.830548495e-02, 1.705916040e-02, 
            -3.656592071e-01, -4.783245325e-01, -3.741186857e-01, 
            -1.926232934e+00, 4.346923232e-01, 2.708663642e-01, 
            -2.331064463e+00, -3.544075787e-01, -2.359696627e+00, 
            2.810135484e-01, -1.726317048e+00, -1.711428165e-01, 
            -3.064273000e-01, -6.644267440e-01, 2.679668963e-01, 
            4.514296055e-01, 4.270499647e-01, 1.874735355e-01, 
            2.406955212e-01},
        {-6.688461453e-02, 3.668822050e-01, -9.529507160e-01, 
            3.363947272e-01, 1.436623782e-01, -6.738964319e-01, 
            -1.943190396e-01, -1.282253265e+00, 4.530384541e-01, 
            -9.018089771e-01, -1.106787205e+00, -1.088589549e+00, 
            -3.415489197e-01, -5.896176100e-01, 3.281244636e-01, 
            -7.660017610e-01, -1.289096475e-01, -8.773629665e-01, 
            -3.030558825e-01, -1.167869493e-01, -7.359104156e-01, 
            -3.436300438e-03, 2.144981325e-01, 1.855966002e-01, 
            -3.088283241e-01, -6.822060943e-01, 3.075195253e-01, 
            -5.142918229e-01, -1.486198455e-01, -6.613398194e-01, 
            2.418609336e-02, -7.361102104e-02, 6.004609540e-02, 
            -2.053627074e-01, -6.946039200e-01, 5.621744394e-01, 
            -2.884207666e-01, 3.490746617e-01, -5.650761724e-01, 
            -3.833360970e-02, 2.782578766e-01, -1.176744342e+00, 
            -4.950761199e-01, -1.784240305e-01, 7.428033948e-01, 
            -1.957842588e+00, 5.117962956e-01, 5.896989703e-01, 
            2.790395617e-01, -8.957435489e-01, -5.311608911e-01, 
            -3.194904327e-01, -1.819146991e+00, 1.429220438e-01, 
            1.770484447e-01, -6.366456300e-02, 1.938759089e-01, 
            -8.849273920e-01, -3.646886647e-01, 1.390926540e-01, 
            3.253408372e-01, 7.052110434e-01, -6.951612234e-02, 
            6.158844829e-01, -2.554066181e-01, 4.781421423e-01, 
            1.397550404e-01, -3.360702991e-01, -9.811942577e-01, 
            -1.481676221e+00, 2.973195910e-01, 5.528869033e-01, 
            -1.178870082e+00, -1.668495834e-01, -1.077634931e+00, 
            -4.180763364e-01, -8.566560149e-01, 5.061605573e-01, 
            1.737217307e-01, 1.973458380e-01, -1.609550118e-01, 
            -9.748499393e-01, -5.295047760e-01, -6.696408391e-01, 
            -6.377103925e-01, -1.126625776e+00, 2.093139738e-01, 
            3.940517902e-01, 2.207323909e-01, -6.908245385e-02, 
            -7.410141826e-01, 3.730252981e-01, -1.074599743e+00, 
            6.035203114e-02, 4.040387571e-01, -1.117276907e+00, 
            -7.272434831e-01, -1.482111573e+00, -7.701601982e-01, 
            -9.780015945e-01},
        {-2.145026922e-01, 9.482890368e-02, 3.180088699e-01, 
            -4.319024980e-01, 3.550070152e-02, 3.630782962e-01, 
            -5.270199180e-01, -4.388999194e-02, -5.385575891e-01, 
            1.464596242e-01, -8.141734004e-01, 2.696656883e-01, 
            -2.501561940e-01, 2.805417776e-01, 3.514075279e-01, 
            -7.270214707e-02, 4.590229988e-01, -1.140645742e-01, 
            5.928686857e-01, -2.691161335e-01, 7.266746368e-03, 
            -2.368570417e-01, -5.457727313e-01, -4.880069196e-02, 
            9.414626285e-03, 4.434651509e-02, 1.555392444e-01, 
            -1.415974498e-01, -1.822799742e-01, -1.074607015e+00, 
            3.863202035e-01, 4.024784565e-01, 2.060124725e-01, 
            -1.499393582e-01, 4.309320450e-01, 1.582995206e-01, 
            -5.585600138e-01, -9.123582393e-02, -6.774418354e-01, 
            -2.839345634e-01, -1.325184554e-01, 3.963084891e-02, 
            -5.714167356e-01, -8.198399097e-02, -9.791823477e-02, 
            1.407625377e-01, 9.201277792e-02, 6.822894514e-02, 
            -2.192962021e-01, 1.493420154e-01, -1.858747602e-01, 
            1.861665547e-01, 3.016533256e-01, -5.990455747e-01, 
            -1.464511007e-01, -6.715556979e-01, 6.960342526e-01, 
            -5.973039269e-01, 1.714116633e-01, -2.844039798e-01, 
            3.282058835e-01, 1.651719213e-01, -1.647443622e-01, 
            -1.605331898e-02, -4.169624746e-01, -3.269502521e-01, 
            -1.531864516e-02, -3.989178538e-01, 4.640398324e-01, 
            3.614508780e-03, 1.492959261e-01, 7.385005802e-02, 
            -6.828771234e-01, 1.006769761e-01, -5.714935716e-03, 
            -4.639974236e-02, 2.718361914e-01, 1.373937875e-01, 
            -1.175316647e-01, 1.393723041e-01, 3.193973601e-01, 
            6.726542711e-01, 7.035483122e-01, 1.301150322e-01, 
            3.009130061e-01, 1.794660240e-01, -1.830502898e-01, 
            4.536009580e-02, -1.610897481e-03, -1.278993785e-01, 
            -2.911609411e-02, 1.251171082e-01, -8.228174597e-02, 
            -4.118592441e-01, -5.337960124e-01, 1.124889683e-02, 
            -2.472858131e-01, 1.818760782e-01, 1.696353108e-01, 
            3.729898930e-01},
        {-9.608753920e-01, 4.161019251e-02, 1.363215148e-01, 
            -6.998759508e-01, -2.853517234e-01, -3.562367558e-01, 
            1.304025054e-01, 5.306371450e-01, -6.390498877e-01, 
            1.051496565e-01, 5.595521927e-01, 4.096232355e-01, 
            -3.367918432e-01, 5.501351357e-01, 3.851205409e-01, 
            -7.033616900e-01, -4.963832498e-01, 2.182693779e-01, 
            7.223442942e-02, -3.983503580e-01, -3.368103206e-01, 
            -7.814789414e-01, -4.000229016e-02, 3.128509820e-01, 
            -1.178308249e+00, -9.454868734e-02, -2.650624812e-01, 
            -4.716563970e-03, -7.851845622e-01, 4.142848849e-01, 
            -9.584851563e-02, 4.218574762e-01, -1.084348679e+00, 
            8.791701794e-01, 3.244209290e-01, 3.321539164e-01, 
            8.583229780e-02, 2.025105357e-01, -1.473207712e+00, 
            2.072139978e-01, -4.347804487e-01, -4.446402937e-02, 
            -8.500349522e-01, 3.193328679e-01, 1.253475398e-01, 
            1.253913343e-01, 5.852544308e-01, -1.043947265e-01, 
            -6.943513155e-01, 7.963940501e-02, 8.165469170e-01, 
            -6.953798532e-01, 1.547483802e-01, -6.283792853e-01, 
            -9.625861645e-01, -2.167252898e-01, 3.053861558e-01, 
            -7.824195623e-01, 1.384236962e-01, -4.071714282e-01, 
            -3.841026127e-01, 8.794513345e-01, -2.385099381e-01, 
            2.749351040e-02, -4.331551194e-01, -5.294954777e-01, 
            -5.130055919e-02, -5.425353348e-02, 6.406619400e-02, 
            2.208624631e-01, 1.920015179e-02, 5.312017798e-01, 
            -2.900680900e-01, -2.696355879e-01, -2.813638933e-02, 
            -8.289965987e-01, 3.000902236e-01, -2.694216743e-02, 
            -2.315830886e-01, 2.036933154e-01, -2.877101302e-01, 
            -4.728843644e-02, 5.102144480e-01, -5.667915940e-01, 
            -4.723604620e-01, 2.854445875e-01, -3.943156898e-01, 
            3.371068835e-01, 4.668942392e-01, -8.068380952e-01, 
            1.725869924e-01, -2.463899255e-01, -2.359325141e-01, 
            -5.204954743e-01, 1.963213235e-01, -8.543545008e-02, 
            1.491210014e-01, 6.325531006e-02, 3.069824278e-01, 
            -1.162293330e-01},
        {4.533820450e-01, -1.700929105e-01, 5.581055880e-01, 
            7.980152220e-02, -1.059129238e-01, 3.364476264e-01, 
            -4.909786582e-01, -1.276780665e-01, 2.389637083e-01, 
            -2.562134862e-01, -8.895121515e-02, -2.132121325e-01, 
            -3.578189015e-01, -5.455470528e-04, 2.770828307e-01, 
            1.043904573e-01, 5.138282180e-01, 5.736444592e-01, 
            2.930179834e-01, 2.946176231e-01, 2.445138246e-01, 
            -1.940564364e-01, -1.173803091e+00, -2.786984444e-01, 
            5.253873467e-01, 6.248319745e-01, -1.101020817e-02, 
            4.126018286e-02, -8.476083726e-02, -8.305468559e-01, 
            3.398911357e-01, -3.554455042e-01, 3.812769949e-01, 
            -9.565454721e-02, -1.528021544e-01, -4.836195409e-01, 
            -5.657162517e-02, -5.120909214e-01, -2.232608050e-01, 
            4.196058214e-01, -6.362602115e-02, 2.124581337e-01, 
            -5.624077916e-01, -5.521552563e-01, -2.336849123e-01, 
            3.998551369e-01, -5.358502865e-01, -3.252568245e-01, 
            -3.205161691e-01, -1.788360626e-01, -3.041514754e-01, 
            3.862690628e-01, 2.240920514e-01, 1.904915869e-01, 
            1.423889548e-01, -1.392368972e-02, 4.591221809e-01, 
            -2.801054716e-01, 4.614709318e-02, 9.945987165e-02, 
            1.879596710e-01, -4.076110721e-01, 3.272446990e-01, 
            -1.618635952e-01, 2.900022566e-01, 2.234895527e-02, 
            8.834859729e-02, 3.875168562e-01, 1.404154897e-01, 
            2.079107761e-01, 3.534324169e-01, -5.362105370e-01, 
            -4.800055921e-01, 1.868349314e-01, -3.439660072e-01, 
            2.563811839e-02, -2.477413416e-01, -8.091073632e-01, 
            -1.074050590e-01, 4.938082099e-01, 4.826392531e-01, 
            2.456817478e-01, 3.868947327e-01, 1.713016778e-01, 
            1.387847960e-01, -1.027253121e-01, 4.510777593e-01, 
            -3.529757857e-01, 1.219240203e-01, -2.110248059e-01, 
            -6.299781054e-02, -3.401482403e-01, 1.479774714e-01, 
            2.907120883e-01, -1.657286845e-02, 4.049124718e-01, 
            -4.898160100e-01, 3.716934025e-01, -2.955625355e-01, 
            4.650397599e-01},
        {-8.168472052e-01, 1.328573376e-01, -4.669618607e-01, 
            -1.077011041e-02, 7.734944671e-02, 1.005028486e-01, 
            1.841938347e-01, 2.704102695e-01, -4.682807028e-01, 
            3.412975371e-01, -4.006012902e-02, -3.490209579e-02, 
            4.753612280e-01, -3.040026687e-02, -9.705816954e-02, 
            1.705526561e-01, -7.195305228e-01, -3.103329837e-01, 
            6.402208656e-02, -1.874583215e-01, 1.059954241e-01, 
            4.897274673e-01, 7.648147345e-01, 4.491908848e-01, 
            -9.848428965e-01, -6.898669004e-01, 9.919422120e-02, 
            4.532807767e-01, 2.778834999e-01, 1.061210185e-01, 
            -1.825730205e-01, 1.042058319e-01, -4.447501600e-01, 
            3.609057665e-01, 2.069436572e-02, 4.118559361e-01, 
            8.101069182e-02, 4.939555228e-01, 1.862480342e-01, 
            -3.545031846e-01, 3.188647926e-01, -1.908548176e-01, 
            1.916834563e-01, 3.777588904e-01, 1.662292331e-01, 
            -5.443387479e-02, 1.074792817e-01, 3.060593456e-02, 
            2.360717356e-01, 3.355490565e-01, 5.076119900e-01, 
            -4.754991829e-01, -5.643173307e-02, -2.867899537e-01, 
            8.124006540e-02, -2.812147737e-01, -6.518907547e-01, 
            3.637319207e-01, 3.265688419e-01, 4.926426709e-02, 
            -1.469724625e-01, -1.040926501e-01, 2.038426995e-01, 
            1.531076133e-01, -1.971845627e-01, -3.777084351e-01, 
            -3.739510179e-01, -1.770748496e-01, 2.268015891e-01, 
            2.787622809e-02, 1.169689298e-01, -2.202184871e-02, 
            2.270171046e-01, 3.530377448e-01, 3.422268629e-01, 
            3.765860796e-01, 6.727599353e-02, 5.734341145e-01, 
            2.578486204e-01, -6.418201923e-01, -3.815418184e-01, 
            -2.679263353e-01, -1.664630324e-01, 4.066872001e-01, 
            1.954101920e-01, 8.149330318e-02, -3.922429383e-01, 
            4.591487944e-01, 3.211714625e-01, 3.226747513e-01, 
            4.744509161e-01, -8.823475242e-02, 2.305139601e-01, 
            -2.227729410e-01, 2.395467162e-01, -2.359133214e-01, 
            3.676423728e-01, -1.475010514e-01, 1.238948330e-01, 
            -5.457395911e-01},
        {-8.682044744e-01, 4.157272577e-01, -5.963167548e-01, 
            7.166202068e-01, 4.199490547e-01, 7.006323338e-02, 
            -5.204272866e-01, 1.570398211e-01, 5.309587121e-01, 
            1.919406950e-01, 7.388543338e-02, -1.850465685e-01, 
            2.974378765e-01, -2.063553780e-01, 5.393229723e-01, 
            5.867755041e-02, -7.774389982e-01, -4.830302596e-01, 
            -5.586062074e-01, -1.113320794e-02, 2.980544865e-01, 
            3.255997002e-01, -3.689307272e-01, 9.296391606e-01, 
            -1.056356072e+00, -7.629693151e-01, -2.016546205e-02, 
            4.230039418e-01, 2.149752378e-01, -4.818513989e-01, 
            -3.544197977e-01, -2.762533724e-01, -1.215368435e-01, 
            3.542599082e-01, -3.004511595e-01, -1.476298273e-01, 
            -6.031946540e-01, -1.969124079e-01, 9.926000237e-02, 
            -7.407806814e-02, 2.525145411e-01, 8.322624862e-02, 
            4.613345563e-01, 7.350221276e-01, 1.824504435e-01, 
            -2.550017647e-02, 8.585066348e-02, 4.137475491e-01, 
            3.078558743e-01, -2.708612978e-01, 2.901057601e-01, 
            9.112620354e-02, -5.086780787e-01, 7.806535065e-02, 
            -4.407631978e-02, -1.235176027e-01, -4.392139614e-01, 
            3.130983710e-01, 3.751405180e-01, 4.651384056e-01, 
            -2.025426924e-01, 2.214654349e-03, -3.395157754e-01, 
            3.962054849e-01, -1.672104746e-01, 7.450512052e-01, 
            4.857093990e-01, 4.988893867e-01, -1.096129864e-01, 
            -2.640778422e-01, -9.030562639e-02, 2.085304856e-01, 
            3.708208203e-01, 4.080004096e-01, 1.786973774e-01, 
            1.077023149e-02, -9.285663068e-02, -4.885036126e-02, 
            4.304949641e-01, -1.577917039e-01, -1.377665102e-01, 
            -5.657269955e-01, -1.474930525e+00, 1.902694255e-01, 
            2.372442782e-01, -6.879386306e-02, 1.210500002e-01, 
            1.793171912e-01, 5.398830175e-01, 2.100315839e-01, 
            4.617759585e-01, 2.982175648e-01, 3.262233436e-01, 
            5.972972512e-01, -3.682903349e-01, -2.604407370e-01, 
            1.491556615e-01, -5.905188918e-01, 1.143064275e-01, 
            -5.145608783e-01},
        {-5.317925811e-01, 2.353684753e-01, 7.774236798e-02, 
            3.244620860e-01, 5.933623016e-02, 1.982618272e-01, 
            3.415422738e-01, -1.473830193e-01, -1.903159358e-02, 
            -1.269660145e-01, 9.616017342e-02, -8.381759524e-01, 
            3.639562130e-01, -1.026112556e+00, 1.199972034e+00, 
            -2.917548828e-02, 6.999234855e-02, -1.079412773e-01, 
            -4.674473777e-02, -1.909887195e-01, 5.157230794e-02, 
            3.636228442e-01, 2.336421013e-01, 5.426307321e-01, 
            -5.070002675e-01, -1.840390414e-01, 3.129597008e-01, 
            2.481877357e-01, 7.899972796e-02, -8.476879597e-01, 
            5.603218675e-01, -4.742023051e-01, 3.929057419e-01, 
            4.299756885e-01, -6.959122419e-01, 5.792344920e-03, 
            2.497306019e-01, 9.122658521e-02, -3.449270502e-02, 
            -4.193722606e-01, 3.475663662e-01, 5.648620427e-02, 
            5.758279562e-02, 3.676927984e-01, 5.332539678e-01, 
            2.463854551e-01, 2.455024868e-01, 2.410553247e-01, 
            7.585757226e-02, -4.621988833e-01, -9.306453913e-02, 
            -6.627239287e-02, 1.172210723e-01, -1.129888818e-01, 
            2.034807503e-01, -2.191512883e-01, 3.571004570e-01, 
            1.139625087e-01, 4.126602411e-01, 3.755241334e-01, 
            3.603945374e-01, 1.196779534e-01, 2.892794311e-01, 
            1.162282377e-01, -3.438628018e-01, 3.746439815e-01, 
            3.118444383e-01, 4.200279415e-01, -5.825735331e-01, 
            1.228152439e-01, 4.969573319e-01, 2.428890914e-01, 
            -7.175803185e-02, 7.703490257e-01, -4.699901342e-01, 
            1.427261680e-01, -7.823137045e-01, -1.405463666e-01, 
            1.956544369e-01, 4.916364849e-01, 5.637422800e-01, 
            -8.527667522e-01, -9.853991866e-01, 3.040632010e-01, 
            -9.027142078e-02, -1.488143653e-01, -4.925161228e-02, 
            1.112049669e-01, 1.051017761e+00, 3.600661084e-02, 
            4.501718879e-01, 1.505511254e-01, 1.024269909e-01, 
            3.388290480e-02, -1.376597136e-01, -2.514566481e-01, 
            -7.022411823e-01, 5.772477388e-02, -4.129098356e-01, 
            -2.003680021e-01},
        {2.668671906e-01, 1.845618039e-01, 6.099376827e-03, 
            1.977213323e-01, 2.832269967e-01, 9.700736403e-02, 
            -5.064755082e-01, -7.420098782e-01, 3.220585883e-01, 
            -6.188511848e-01, -3.276036680e-01, -6.567811370e-01, 
            -5.332472324e-01, -6.325228810e-01, -3.640015125e-01, 
            -1.945145130e-01, -3.392757177e-01, -1.781596690e-01, 
            -2.962668240e-01, -1.005210541e-02, 8.789275587e-02, 
            9.043293446e-02, -6.223271489e-01, -1.374190897e-01, 
            3.675442040e-01, 4.769743979e-02, -2.625518143e-01, 
            -5.006294250e-01, -1.142415181e-01, -4.285548329e-01, 
            -4.672993124e-01, -5.646135211e-01, 5.581959337e-02, 
            -5.516444445e-01, -4.122728705e-01, -5.868745446e-01, 
            -1.740671992e-01, -4.736445844e-01, 9.829875082e-02, 
            2.079650611e-01, -2.250258327e-01, -1.873041391e-01, 
            -1.160930842e-01, -9.952654839e-01, -4.564606585e-03, 
            -2.786238194e-01, 8.522994816e-02, 3.110001981e-01, 
            -2.325809002e-02, -6.169887781e-01, -1.077784657e+00, 
            1.848560423e-01, -2.099650353e-01, 2.626952231e-01, 
            -1.459437162e-01, -3.508314490e-02, -4.466994405e-01, 
            -1.899199635e-01, -5.836971998e-01, 2.055473477e-01, 
            -3.096839190e-01, -3.365319669e-01, -1.506563276e-01, 
            2.695839703e-01, 2.795514762e-01, 3.108458221e-01, 
            9.063613415e-02, -1.610184312e-01, -2.064699680e-01, 
            -7.950123399e-02, -2.943440080e-01, 1.859211326e-01, 
            -4.887139201e-01, -3.416613936e-01, -4.916568696e-01, 
            -1.265248805e-01, -3.901998699e-01, -6.889426112e-01, 
            3.085078858e-02, -5.690289140e-01, -4.972541034e-01, 
            -1.501484066e-01, -3.207609653e-01, -4.941985905e-01, 
            1.253921390e-01, -7.671145797e-01, 1.122222543e-01, 
            -2.746742964e-01, -6.096954942e-01, 4.836077616e-02, 
            -6.716983914e-01, 1.154411435e-01, -6.490896344e-01, 
            1.146698520e-01, 1.178328916e-01, -2.546375692e-01, 
            -8.638543487e-01, -9.670975804e-02, -6.716371775e-01, 
            8.398421854e-02},
        {-1.497018188e-01, -3.899933398e-01, 1.666243523e-01, 
            -8.943364955e-03, -3.371027112e-01, -3.254669607e-01, 
            5.603333712e-01, 3.976121843e-01, 2.311205268e-01, 
            -4.225286543e-01, 3.287808597e-01, -1.010871410e+00, 
            -1.154623702e-01, -6.932190061e-01, 6.425198317e-01, 
            -2.854476869e-01, 2.613514066e-01, 3.318791389e-01, 
            -3.681845665e-01, 5.644491408e-03, -3.791718930e-02, 
            -5.628809929e-01, -3.686797321e-01, 3.287087083e-01, 
            -1.974253505e-01, 1.953596771e-01, -1.688039005e-01, 
            3.331015706e-01, -3.746729493e-01, -2.900382280e-01, 
            5.789239407e-01, -3.158358335e-01, 3.486895859e-01, 
            5.647315383e-01, -7.878305316e-01, -1.919917166e-01, 
            3.467830122e-01, -6.825050712e-01, -5.850422978e-01, 
            2.877518237e-01, -5.483860373e-01, 2.069801986e-01, 
            -3.592326939e-01, 2.479215264e-01, -5.603249669e-01, 
            4.285404384e-01, -8.603956550e-02, -9.832841158e-01, 
            -1.432313204e+00, -6.185073853e-01, 2.813868523e-01, 
            1.171359345e-01, 1.792689413e-01, 7.887192816e-02, 
            -6.514149904e-01, -4.905791208e-02, 6.003113389e-01, 
            -5.530222058e-01, 3.235125840e-01, 2.120305747e-01, 
            1.851044446e-01, 2.245616764e-01, -1.479517817e-01, 
            -4.886692762e-01, -1.576066017e-01, 1.215898395e-01, 
            2.857961059e-01, 5.312945843e-01, -6.943191886e-01, 
            1.246245578e-01, 2.133874297e-01, -4.094665349e-01, 
            -3.035722971e-01, 2.077056170e-01, -6.822880507e-01, 
            -3.437661529e-01, -7.709131837e-01, -7.040504813e-01, 
            -6.376029849e-01, 7.470552921e-01, 5.955303311e-01, 
            -8.631730676e-01, -1.268886209e+00, -8.419601619e-02, 
            -5.804769993e-01, -1.952894032e-01, 2.920430601e-01, 
            -6.440944672e-01, 7.842696309e-01, -9.203568101e-01, 
            3.633680642e-01, -4.406601489e-01, 6.843912415e-03, 
            2.923995554e-01, -2.953099608e-01, 2.751142681e-01, 
            -4.243084192e-01, 1.064815149e-01, -4.854261279e-01, 
            -3.626290709e-02},
        {-2.489476055e-01, 5.507673621e-01, -2.431123517e-03, 
            5.020378232e-01, 3.023692369e-01, 3.088336065e-02, 
            -6.482935548e-01, -1.248202324e+00, 3.899426162e-01, 
            -3.310385048e-01, -2.930496931e-01, 5.338689312e-02, 
            -2.445791960e-01, -9.091157466e-02, -1.248316020e-01, 
            -9.092663229e-02, -5.478988886e-01, -2.151332796e-01, 
            -5.185847282e-01, 1.321810037e-01, 1.363772247e-02, 
            2.462754846e-01, 3.140083551e-01, 1.813496351e-01, 
            -2.163746059e-01, -3.799683154e-01, 3.138579801e-02, 
            -5.821916461e-01, 1.786477715e-01, -7.714783400e-02, 
            -4.147569835e-01, 5.073745176e-02, 4.478838667e-02, 
            -3.176835775e-01, -8.170085400e-02, 3.207170665e-01, 
            -9.329634309e-01, 7.543537021e-02, 6.569347531e-02, 
            4.107233509e-02, 2.462898791e-01, -2.481281161e-01, 
            3.279660940e-01, -3.356004357e-01, 3.839244843e-01, 
            -9.650250673e-01, 4.593603015e-01, 8.734679222e-01, 
            5.557883382e-01, 6.335493643e-03, -8.907800317e-01, 
            5.698884726e-01, -1.012331605e+00, 5.483721849e-03, 
            -1.480069607e-01, 1.554259509e-01, 4.205898941e-01, 
            -1.539510041e-01, -2.608805001e-01, 4.758824408e-01, 
            -2.089293003e-01, 1.158715039e-01, -6.358362436e-01, 
            6.422808766e-01, 2.375030220e-01, 5.452455282e-01, 
            3.823556602e-01, 1.152060367e-02, -1.482572258e-01, 
            -5.500937700e-01, -5.659139156e-02, 3.643200696e-01, 
            -2.680444121e-01, -2.357419282e-01, -3.452510834e-01, 
            -1.459372491e-01, -1.004938856e-01, 2.187369466e-01, 
            4.325181246e-01, -3.055399656e-02, -2.606982291e-01, 
            -2.814792395e-01, -1.313788414e+00, -4.996972680e-01, 
            1.689157039e-01, -8.350280523e-01, 2.446598560e-01, 
            1.507024914e-01, -1.531252563e-01, -1.384930313e-01, 
            -6.577813625e-01, 5.226756334e-01, -4.442324042e-01, 
            1.553423107e-01, -5.031042099e-01, -3.478472680e-02, 
            -4.928157032e-01, -2.205958217e-01, -5.615555644e-01, 
            2.234005183e-01},
        {1.198511273e-01, -1.344780773e-01, -4.854661226e-02, 
            -7.596947998e-02, 2.292784490e-02, 5.717588961e-02, 
            -1.082562730e-01, 2.148191072e-02, -4.117830992e-01, 
            -1.542899013e-01, -7.170631289e-01, 7.723548263e-02, 
            4.065118730e-02, 1.054396853e-01, -3.987756968e-01, 
            3.739068285e-02, 2.329015434e-01, -3.827877939e-01, 
            -8.010908961e-02, -3.611842692e-01, 4.593058676e-02, 
            1.764542013e-01, 1.334592793e-02, -4.209498763e-01, 
            1.194872111e-01, -7.397935539e-02, -6.038967520e-02, 
            -1.925789565e-02, 1.768427789e-01, 7.099477202e-02, 
            -1.207336336e-01, -1.854680926e-01, -1.266291291e-01, 
            -4.383948147e-01, -6.507526338e-02, -4.633931518e-01, 
            -1.005114838e-01, -3.719390929e-01, 1.325976253e-01, 
            -6.331005096e-01, -6.875513494e-02, -2.446228564e-01, 
            2.527173609e-02, -1.019125134e-01, -2.093085796e-01, 
            7.156946510e-02, -5.088649392e-01, -5.146561190e-02, 
            1.405146718e-01, -1.535731703e-01, -5.041143894e-01, 
            -1.969902515e-01, -2.357285619e-01, -1.507668644e-01, 
            1.677443236e-01, -1.419754326e-01, -6.926410645e-02, 
            6.139383838e-02, 1.278156764e-03, -1.959559768e-01, 
            -1.649132073e-01, -7.292594910e-01, -3.153459355e-02, 
            -3.305606246e-01, -1.332085431e-01, -4.276573360e-01, 
            -4.196467996e-01, -3.633592129e-01, -2.577722073e-02, 
            -1.081396192e-01, -3.156442344e-01, -3.472975194e-01, 
            -6.791695207e-02, -8.303666860e-02, -3.531713486e-01, 
            -4.171410948e-02, -1.028750762e-01, -3.974778056e-01, 
            -8.703234605e-03, -9.880111367e-02, 7.481613755e-02, 
            1.249243692e-01, 2.344221771e-01, -3.119355813e-02, 
            -1.004192233e-02, -7.124146447e-03, -4.955162406e-01, 
            -3.542049527e-01, -2.557380199e-01, -2.180633694e-02, 
            -6.197864562e-02, -2.147453576e-01, 7.279217988e-02, 
            -1.936266571e-01, 1.150282621e-01, -1.001977995e-01, 
            -1.530372649e-01, -1.876416989e-02, -9.030154347e-02, 
            1.313365996e-01},
        {-1.618841290e-01, -3.008162677e-01, -5.065190792e-01, 
            1.927249581e-01, -2.324906588e-01, 6.185517460e-02, 
            -1.512190253e-01, 5.619987845e-02, -1.454683244e-01, 
            2.071836442e-01, -2.479054332e-01, -5.772669315e-01, 
            9.666521847e-02, -9.427534342e-01, -1.124961004e-01, 
            3.445250094e-01, -4.717992246e-01, -5.246360302e-01, 
            -4.122892618e-01, 7.564866543e-02, 3.547941148e-01, 
            3.776566684e-02, -1.973130181e-02, 2.248102427e-01, 
            -2.406382114e-01, -7.541154623e-01, -4.114080220e-02, 
            8.804940432e-02, 3.014003038e-01, -2.348430753e-01, 
            4.935144633e-02, -1.450625956e-01, 1.612227708e-01, 
            -1.522589475e-01, -4.698202014e-01, 2.401774545e-04, 
            -4.148167372e-02, -2.460874170e-01, 6.785000116e-02, 
            -4.056679830e-02, -4.666855186e-02, 9.642581642e-02, 
            9.526880085e-02, 1.055593044e-01, -2.604345381e-01, 
            2.236033827e-01, -1.332141012e-01, -4.538214803e-01, 
            -2.430562675e-01, -1.546018850e-02, -2.940736152e-02, 
            -2.408646643e-01, -2.812132239e-01, 6.907329708e-02, 
            -8.110217750e-04, 1.677150726e-01, -7.353667617e-01, 
            3.990484774e-01, -8.087675087e-03, -7.289574482e-03, 
            -3.074416816e-01, -1.463120580e-01, 5.288980529e-02, 
            -6.074493751e-02, 1.115519740e-02, -1.477861404e-01, 
            -4.821000993e-01, 1.146065518e-01, -4.013997912e-01, 
            -2.867873386e-02, 1.458592862e-01, -8.926603198e-02, 
            2.230324894e-01, 5.290407687e-02, 2.230264395e-01, 
            2.610031068e-01, -2.474682927e-01, -6.769289821e-02, 
            7.982054353e-02, 6.624711677e-03, -1.687548012e-01, 
            -6.900052428e-01, -7.010108232e-01, 3.572832644e-01, 
            -2.951381728e-02, 1.714138836e-01, -4.355189949e-02, 
            -2.377812564e-01, 1.789807528e-01, 1.808813959e-01, 
            5.868007243e-02, -3.692702055e-01, 1.855353862e-01, 
            2.966743708e-02, -3.105400503e-01, -3.768445551e-01, 
            7.731951773e-02, -4.629612565e-01, 3.844708437e-03, 
            -5.747051239e-01},
        {2.209310979e-01, -2.338541448e-01, -7.538155913e-01, 
            6.297260523e-02, -1.648805737e-01, 5.718818679e-02, 
            3.202214241e-01, -6.210269332e-01, -3.087621033e-01, 
            4.625036567e-02, -2.378901392e-01, 2.714580297e-01, 
            1.153570861e-01, 1.991822869e-01, -4.371448159e-01, 
            4.219171032e-02, -1.516924649e-01, -7.262995839e-01, 
            1.338196546e-01, -9.538903087e-02, 1.733455956e-01, 
            1.529398710e-01, 5.011193156e-01, -3.885924518e-01, 
            3.109205663e-01, -7.234460115e-01, 1.254416704e-01, 
            -3.441395164e-01, 1.609900445e-01, 5.217190385e-01, 
            -2.422593534e-01, 5.808143690e-02, -1.100923344e-01, 
            -7.962586880e-01, 1.316683888e-01, -6.135368720e-02, 
            2.840737067e-02, 7.596462965e-02, 4.449226856e-01, 
            -5.572187901e-01, 2.065372020e-01, -3.207903504e-01, 
            2.794669569e-01, -1.462084204e-01, -1.607119441e-01, 
            -8.103832603e-01, -5.738766789e-01, -2.406715006e-01, 
            2.870589495e-01, 2.134799957e-01, -6.276307702e-01, 
            -1.462459862e-01, -5.498152375e-01, -1.985540986e-01, 
            1.786065549e-01, -3.297870979e-02, -4.159152210e-01, 
            3.870054483e-01, -2.161316425e-01, -3.539501876e-02, 
            -1.959495395e-01, -4.008689523e-01, 3.004372120e-01, 
            -3.861634731e-01, 1.090849712e-01, -9.432523698e-02, 
            -2.482419312e-01, -1.225013658e-01, 9.349071980e-02, 
            -3.060242534e-02, -2.051778436e-01, -5.962144732e-01, 
            2.572190464e-01, -1.483180970e-01, 1.476336569e-01, 
            4.235797003e-02, 1.525873095e-01, 1.357089281e-01, 
            1.783746481e-01, -1.777786911e-01, -6.194242463e-02, 
            4.159438610e-01, 6.825712323e-01, -1.394334435e-01, 
            2.383860052e-01, -2.285889536e-01, -1.817409545e-01, 
            -2.645969689e-01, -5.625109076e-01, 3.938678503e-01, 
            -4.046734869e-01, -1.178337112e-01, -1.116153449e-01, 
            -1.584673971e-01, 4.939331114e-01, -5.196339488e-01, 
            -2.760715596e-02, -6.028558612e-01, -1.457006335e-01, 
            -4.006060660e-01},
        {-8.174686432e-01, 4.370625019e-01, -6.223258376e-01, 
            4.878724813e-01, 2.936669588e-01, 2.337733209e-01, 
            -4.766053259e-01, 5.128172636e-01, 2.275581509e-01, 
            6.088858247e-01, -2.427960336e-01, 2.964740098e-01, 
            5.700485781e-02, 3.486241102e-01, 9.965191036e-02, 
            2.389826775e-01, -5.840035081e-01, -5.746188164e-01, 
            5.759301782e-02, -4.955419302e-01, 4.511808753e-01, 
            -6.433357950e-03, -1.598310657e-02, 6.975048780e-01, 
            -1.019853473e+00, -9.725724459e-01, -6.773126125e-02, 
            3.886569440e-01, 2.338435352e-01, -4.545115530e-01, 
            -5.873158574e-01, 5.002800226e-01, -5.290057659e-01, 
            4.915080667e-01, 2.721652687e-01, 4.779912233e-01, 
            -5.310453176e-01, 3.443161547e-01, -1.965851337e-02, 
            -5.818452239e-01, -1.464956850e-01, -3.460832238e-01, 
            4.444922209e-01, 8.487378359e-01, -4.355826974e-01, 
            -3.253753781e-01, 5.945728421e-01, 2.684005797e-01, 
            -1.312486380e-01, 2.739742696e-01, 7.963755727e-01, 
            2.937200367e-01, -6.273674369e-01, -3.506581485e-01, 
            -2.624010146e-01, -4.860100150e-01, -9.326042607e-03, 
            1.414024234e-01, 7.485903054e-02, 4.647659063e-01, 
            -2.423482686e-01, 6.199613810e-01, -6.151033640e-01, 
            5.428230762e-01, -3.952507675e-01, 2.969472706e-01, 
            4.771532714e-01, 5.634270906e-01, 1.285387874e-01, 
            -3.007491231e-01, -9.015949816e-02, 6.409965158e-01, 
            1.015059426e-01, -2.352280915e-01, 1.554616392e-01, 
            -2.220362723e-01, 7.667935640e-02, 3.819524050e-01, 
            -1.635177992e-02, -3.409401178e-01, -1.015746966e-01, 
            1.418980770e-02, -7.294390798e-01, 1.200321242e-01, 
            2.997932434e-01, 4.641221464e-01, -1.863417774e-02, 
            3.495876193e-01, 6.423141062e-02, 1.031881794e-01, 
            1.210142374e-01, 2.976390421e-01, 2.121909708e-01, 
            1.727068424e-01, -8.350421786e-01, -3.787640631e-01, 
            4.633048475e-01, -4.744622707e-01, 5.548376441e-01, 
            -4.832787216e-01},
        {-3.038291335e-01, 5.226663128e-02, 3.184770942e-01, 
            -4.382242262e-01, -4.021911621e-01, -5.276079774e-01, 
            3.440051526e-02, 7.870714366e-02, -6.218658686e-01, 
            -5.297994018e-01, -2.181320488e-01, 6.809647381e-02, 
            -5.508520007e-01, 1.786958873e-01, 7.521566749e-01, 
            -8.770759702e-01, 4.062604606e-01, 5.389335006e-02, 
            4.447284620e-03, -3.915354908e-01, -7.478138804e-01, 
            -1.170361876e+00, 3.624207973e-01, 1.030350327e-01, 
            -1.262024343e-01, 2.876187563e-01, -1.487040371e-01, 
            -3.531382978e-01, -1.103764653e+00, 9.837468714e-02, 
            6.154622436e-01, 2.891378701e-01, 3.146020472e-01, 
            3.189069331e-01, -2.685925663e-01, -3.461349308e-01, 
            1.039219201e-01, -5.589193702e-01, -1.870836854e+00, 
            -1.804248840e-01, -8.629806638e-01, 6.304225326e-02, 
            -1.415222287e+00, 3.562685847e-01, -3.874490857e-01, 
            6.226519942e-01, 2.559624612e-01, 3.456463292e-02, 
            -1.626495004e+00, 1.288377345e-01, 1.131063141e-02, 
            -3.107727468e-01, 5.371038318e-01, -5.223333836e-01, 
            -7.473621964e-01, -8.475937843e-01, 6.867284179e-01, 
            -1.044469476e+00, -5.196791887e-02, -9.759326279e-02, 
            5.326598883e-01, 1.585927606e-01, 5.395838246e-02, 
            3.045718372e-01, -5.902131796e-01, -1.125923693e-01, 
            3.487638757e-02, 1.697196811e-01, -1.293041408e-01, 
            2.955800593e-01, 2.180685699e-01, -5.336076021e-02, 
            -9.309366941e-01, -1.112327054e-01, -3.464532197e-01, 
            -8.713021129e-02, 1.437721103e-01, -5.551645160e-01, 
            -7.642874122e-01, 8.975204229e-01, 5.621997118e-01, 
            -7.637920231e-02, -1.773131341e-01, -9.806139767e-02, 
            -9.186119437e-01, 2.193603516e-01, -2.823938131e-01, 
            -6.431326866e-01, 5.817859769e-01, -1.322314501e+00, 
            4.492109641e-03, -1.830110401e-01, -1.769639850e-01, 
            -3.481186628e-01, -6.127600074e-01, 2.235392854e-02, 
            2.121803164e-01, 1.892608106e-01, 7.386699319e-02, 
            1.197724044e-01},
        {-2.874583304e-01, -3.656891882e-01, -2.398758195e-02, 
            1.027176157e-01, -2.631756663e-01, -7.898168638e-03, 
            7.846246362e-01, 1.345266700e-01, -1.519840062e-01, 
            1.266052276e-01, 3.329533041e-01, -7.612244487e-01, 
            2.815344632e-01, -8.483827114e-01, 6.874845028e-01, 
            3.997184336e-02, 3.204572499e-01, 4.600844905e-02, 
            -1.618660986e-01, 6.271645427e-02, -1.797770523e-02, 
            1.667927206e-01, 2.222381085e-01, 4.995987713e-01, 
            -4.151487052e-01, -1.053374261e-01, -1.156795695e-01, 
            3.884859979e-01, 9.713941067e-02, 7.255743444e-02, 
            4.884350002e-01, -5.462370515e-01, 2.903732955e-01, 
            5.550011992e-01, -7.023912072e-01, -2.960376441e-01, 
            5.580566525e-01, -2.895631194e-01, 5.528526381e-02, 
