#include "nn_params.h"

const unsigned short LAYER_DIMS[] = {
    6, 100, 100, 100, 2
};

const Layer LAYER_TYPES[] = {
    DENSE, SOFTPLUS, DENSE, SOFTPLUS, DENSE, SOFTPLUS, DENSE, TANH
};

const float STATE_BIAS[NUM_STATE_VARS] = {
    6.955465390e-05, 0.000000000e+00, -2.956860420e-05, 
        0.000000000e+00, 0.000000000e+00, 0.000000000e+00  
};

const float INPUT_SCALER_PARAMS[2][NUM_STATE_VARS] = {
    {4.466668704e-03, -3.595873103e-03, -1.534284595e-01, 
        -1.245763859e-01, 8.779623095e-05, -1.849153515e-04},
    {4.000563521e+00, 2.309445787e+00, 3.815029563e+00, 
        1.833987367e+00, 3.807503990e-01, 1.130262649e+00}
};

const float OUTPUT_SCALER_PARAMS[4][NUM_CONTROL_VARS] = {
    {-1.349105803e-01, -1.348949288e-01},
    {6.262605467e-01, 6.262892894e-01},
    {3.131304228e-01, 3.131449090e-01},
    {4.325444391e-01, 4.325523890e-01}
};

const float BIASES[NUM_DENSE_LAYERS][MAX_LAYER_DIMS] = {
    {-6.196416020e-01, -7.422899008e-01, -2.846128643e-01, 
        5.058036447e-01, 2.211998701e-01, -7.032099366e-01, 
        -2.956659496e-01, -4.147720039e-01, -1.961221695e-01, 
        -1.416572183e-01, 3.012043536e-01, -2.741619945e-01, 
        -3.125673831e-01, 8.110648394e-01, 4.255139083e-02, 
        1.375190318e-01, -6.227450371e-01, -3.785094023e-01, 
        -8.050980419e-02, -3.523158729e-01, -4.343786836e-01, 
        -3.659918904e-01, 3.063967917e-03, -3.561381400e-01, 
        -1.484296083e+00, -9.252829552e-01, -2.206759006e-01, 
        -2.184746712e-01, -6.946570873e-01, -9.205520898e-02, 
        1.424858212e+00, -5.387020484e-02, -7.682145238e-01, 
        -3.134867251e-01, -2.263840288e-01, 1.950307190e-01, 
        2.255236804e-01, -2.144697607e-01, -4.140853882e-01, 
        -6.839935184e-01, -1.628411114e-01, 3.288069963e-01, 
        3.486360237e-02, -4.572453797e-01, -1.182005644e+00, 
        -1.898156404e+00, 8.385530114e-01, -6.520083547e-01, 
        -8.272300959e-01, -1.604578048e-01, 6.548863649e-01, 
        -3.295371234e-01, -7.017669082e-01, -2.755639851e-01, 
        2.968515456e-01, -1.122751832e-01, -1.282809526e-01, 
        -5.767348409e-01, -1.274964333e+00, 4.349049926e-01, 
        -4.192155600e-01, -4.954524636e-01, 2.028132789e-02, 
        2.492217571e-01, -5.447533727e-01, -1.087033629e+00, 
        -2.623569667e-01, -1.472285092e-01, 2.933069468e-01, 
        4.068357348e-01, -2.520673573e-01, 1.564608365e-01, 
        -1.289557219e+00, 2.882782519e-01, -5.411503315e-01, 
        -2.115948051e-01, -2.087614536e-01, -3.537407517e-01, 
        -7.422400117e-01, -9.805485010e-01, -2.073199600e-01, 
        6.657668948e-01, -2.751121759e+00, -1.381175313e-02, 
        -1.096090794e+00, -2.761703730e-01, 2.731789351e-01, 
        -1.891622543e-01, -2.604114115e-01, -7.317531109e-01, 
        -2.420852423e+00, 1.956653893e-01, -1.054706052e-01, 
        3.000156879e-01, 3.367075026e-01, -9.175699204e-02, 
        -3.013035059e-01, 1.493236870e-01, -2.259068191e-01, 
        5.613189340e-01},
    {-2.199535817e-01, -9.345249087e-02, -1.308556676e+00, 
        4.764016271e-01, 8.215458691e-02, 7.056754231e-01, 
        2.779425383e-01, 7.313767076e-01, 3.030861020e-01, 
        2.944409549e-01, -4.049657285e-02, 3.828172386e-01, 
        -3.374841213e-01, 3.030054867e-01, -3.343353868e-01, 
        -6.801680326e-01, 7.300457358e-01, -1.929177046e-01, 
        5.670053363e-01, 7.760722637e-01, 1.284846216e-01, 
        -7.914684415e-01, 3.510920107e-01, -4.294963479e-01, 
        2.133677602e-01, 9.704245925e-01, 8.357555866e-01, 
        3.885042071e-01, 3.974780440e-01, 5.587354898e-01, 
        8.281456679e-02, 1.313428164e+00, -7.745593786e-01, 
        6.741431952e-01, 9.835033119e-02, 9.543733597e-01, 
        4.354400933e-01, -1.695335284e-02, -7.002130151e-02, 
        6.513690352e-01, 1.257147431e+00, 5.797534585e-01, 
        2.627451420e-01, 8.584741950e-01, -5.769074559e-01, 
        5.661407709e-01, -4.828184843e-01, 1.715927720e-01, 
        3.770474195e-01, 8.117479156e-04, 5.172156692e-01, 
        -1.004999951e-01, -1.325528473e-01, 7.615787983e-01, 
        4.031038284e-01, 4.903421998e-01, 8.191693425e-01, 
        4.724316001e-01, 8.615719676e-01, 3.434470296e-01, 
        -1.791203141e+00, 2.494406253e-01, 3.546353281e-01, 
        4.659767449e-01, 3.637543917e-01, 3.217352927e-01, 
        9.349782467e-01, 1.918165684e-01, 4.950913787e-01, 
        -2.086513281e+00, 4.387743771e-02, -1.060738564e-01, 
        -9.427112937e-01, -2.630793750e-01, 2.316819727e-01, 
        5.104987025e-01, 2.567378283e-01, 7.950573415e-02, 
        3.044549227e-01, 3.870585561e-01, 3.142271638e-01, 
        4.171503782e-01, 2.063203305e-01, -7.327978611e-01, 
        -3.489733487e-02, 1.072104216e+00, 2.611996792e-02, 
        1.448485851e-01, -2.217630625e+00, -1.074132696e-01, 
        1.472702473e-01, 4.272171855e-01, 2.791026533e-01, 
        2.152521759e-01, 4.909578860e-01, -2.757143974e-01, 
        -3.142205775e-01, -1.122089624e-01, 2.142482847e-01, 
        3.694089055e-01},
    {3.164795041e-01, 4.986892939e-01, -4.108992815e-01, 
        -5.872386694e-01, 9.969003797e-01, 3.355082572e-01, 
        -1.677879810e+00, -1.384888530e+00, -1.786231637e+00, 
        -1.509581655e-01, -3.908242583e-01, -4.513007104e-01, 
        -4.472399950e-01, -3.107436299e-01, -3.101492882e+00, 
        4.435006976e-01, 1.271638989e+00, -6.511633396e-01, 
        -1.707861662e+00, 2.023236752e+00, 4.651613906e-02, 
        -1.089294553e-01, -2.256657332e-01, -2.104922295e+00, 
        -1.597666144e-01, -1.661734104e+00, 8.917596340e-01, 
        1.390512586e-01, -2.674371004e+00, 4.858116508e-01, 
        5.050023794e-01, -1.789039075e-01, 5.092892051e-02, 
        -2.643310070e+00, 3.073951416e-02, -1.822741985e+00, 
        -1.285511404e-01, -2.492216974e-01, 3.673316836e-01, 
        -9.814202785e-01, -6.961014867e-01, -8.646006584e-01, 
        1.583849490e-01, 3.281047046e-01, -1.186539888e+00, 
        2.343801707e-01, 8.448947072e-01, -2.456575818e-02, 
        -5.338634253e-01, -1.513003469e+00, 1.175089955e+00, 
        4.775623083e-01, -1.818786979e+00, 2.488778353e+00, 
        9.107911587e-01, 9.772012830e-01, 1.534001343e-02, 
        3.173578382e-01, -2.166263342e+00, -1.883383393e+00, 
        2.152743638e-01, -1.263229847e+00, 2.948646545e-01, 
        -1.413930416e+00, -1.497511566e-01, -2.085110664e+00, 
        -3.967367411e-01, 1.490690112e-01, -3.556195498e-01, 
        -1.820636839e-01, 9.994457662e-02, 1.444233060e+00, 
        3.494257629e-01, -1.271745920e+00, 2.328069359e-01, 
        -3.730281591e-01, 2.577433735e-02, 1.726901978e-01, 
        -2.041272402e+00, -4.950044155e-01, 2.902071774e-01, 
        3.019223511e-01, 1.174389243e+00, 1.150659919e+00, 
        1.565078795e-01, -3.751268148e+00, 1.970118582e-01, 
        -1.548658490e+00, -9.461775422e-02, 5.034645796e-01, 
        4.417031705e-01, 1.893151999e+00, -5.543786883e-01, 
        -1.985864788e-01, -3.827230632e-01, -2.957926750e+00, 
        -1.124140574e-03, -6.376697421e-01, -1.456660748e+00, 
        1.159689948e-01},
    {-2.183732688e-01, -1.668493897e-01}
};

const float WEIGHTS[NUM_DENSE_LAYERS][MAX_LAYER_DIMS][MAX_LAYER_DIMS] = {
    {
        {-7.364774495e-02, 4.198985994e-01, -1.217400432e+00, 
            -9.986925125e-01, -1.501786709e+00, -1.307703137e+00},
        {2.916216254e-01, 1.755317301e-01, -1.835738778e+00, 
            2.392803282e-01, -3.766038418e-01, -2.282015383e-01},
        {6.421726346e-01, 2.274369635e-02, -1.363534570e+00, 
            1.409405284e-02, -7.903599739e-02, 1.232838184e-01},
        {1.054440141e+00, -4.252068400e-01, -4.224600792e+00, 
            -1.056810021e+00, -4.056547284e-01, -9.455508739e-02},
        {3.700556278e+00, 1.458738089e+00, -4.792084217e+00, 
            -1.239499688e+00, -4.769204929e-02, 2.600215375e-01},
        {8.628746867e-02, 1.375997160e-02, -3.112989068e-01, 
            -1.197893992e-01, 2.101598307e-02, 2.366379090e-02},
        {-1.995382667e+00, -2.978631556e-01, 2.667305246e-02, 
            7.378817070e-03, 1.235853806e-01, -7.212704420e-02},
        {7.020975947e-01, 3.304374218e-01, 3.473269641e-01, 
            3.798133507e-02, -4.054981470e-01, -6.075540185e-01},
        {4.300067574e-02, -4.186580777e-01, -1.352887452e-01, 
            -7.773428559e-01, -6.166085601e-02, -1.381715685e-01},
        {4.026995301e-01, 2.634844482e-01, 1.371008277e+00, 
            9.175356030e-01, -5.056034327e-01, -3.631232679e-01},
        {3.078333475e-02, 1.193745341e-02, -2.510898411e-01, 
            -1.984634995e-01, -3.987529501e-02, -8.941899985e-02},
        {-3.187783480e+00, -3.849634886e+00, -3.017880321e-01, 
            -1.539005041e+00, 1.307077169e+00, -1.588459462e-01},
        {-6.098647416e-02, 2.837531827e-02, 1.570438594e-02, 
            -2.669781148e-01, 1.281574667e-01, 2.316577174e-02},
        {-6.954123974e-01, 8.112230897e-01, -1.346079350e+00, 
            4.151408195e+00, -1.405907273e+00, -3.243992031e-01},
        {8.781831264e-01, 8.423521519e-01, 1.288164496e+00, 
            1.155606866e+00, -2.157058418e-01, -1.523655057e-01},
        {2.295647562e-02, 1.971995272e-02, -2.924573123e-01, 
            -1.777819991e-01, 1.748824306e-02, -4.684077203e-02},
        {2.148721516e-01, 1.094825193e-01, -5.213360786e-01, 
            1.595445573e-01, -5.056499038e-03, 6.634578854e-02},
        {-1.244521379e+00, -1.136189222e+00, -1.605590463e+00, 
            -1.848840564e-01, 3.304583430e-01, 4.967620373e-01},
        {4.030600190e-03, -6.892239675e-03, -2.570130229e-01, 
            -4.070005193e-02, -1.454399317e-04, -1.679406874e-02},
        {-1.331082582e+00, -1.672327518e-01, -1.838992953e+00, 
            -5.610336065e-01, 3.228061497e-01, 6.000558734e-01},
        {6.405211240e-02, 1.590054296e-02, -3.158093691e-01, 
            -1.690334082e-01, 3.688041493e-02, 2.913046395e-03},
        {2.462438308e-02, 3.844468156e-03, -2.320136577e-01, 
            -1.908477992e-01, -4.426902533e-02, -5.850338936e-02},
        {2.591261625e+00, -5.624882579e-01, -1.921530068e-01, 
            -4.888277352e-01, -4.611201286e-01, -1.343382001e-01},
        {2.646085024e-01, 5.074695349e-01, 9.702070057e-02, 
            7.401322722e-01, 3.760412931e-01, -1.246047765e-01},
        {1.512682587e-01, 1.200412631e+00, 4.981360734e-01, 
            6.360464096e-01, -1.134349704e+00, -8.069410920e-01},
        {-4.931461066e-02, 4.993361235e-02, -6.751754880e-01, 
            -8.825333416e-02, -5.402597599e-04, 6.521040201e-02},
        {-2.064813077e-01, 3.075877726e-01, 9.554821253e-02, 
            4.185697809e-02, -2.634936869e-01, 4.506220222e-01},
        {-3.951168954e-01, -1.198722571e-01, 9.626517445e-02, 
            3.352238238e-01, 2.478960454e-01, 1.577002555e-01},
        {2.172721624e+00, 9.711483121e-01, -1.000836492e+00, 
            -1.757108212e+00, 1.088272810e+00, 8.498798013e-01},
        {4.901615903e-02, -5.145083182e-03, -2.555883527e-01, 
            -3.577699885e-02, 2.051519975e-02, -1.870650053e-02},
        {-6.572765350e+00, -3.104301691e-01, -1.332953167e+01, 
            4.488375485e-01, -3.591971993e-01, -1.549779326e-01},
        {2.198813677e+00, 8.262328506e-01, 7.923334241e-01, 
            9.635568857e-01, -8.964812160e-01, -1.900346875e-01},
        {-1.849627018e+00, -9.324574471e-01, -1.197922111e+00, 
            3.773118258e-01, -1.272940397e+00, -4.618906677e-01},
        {1.119854748e-01, -1.240762067e-03, -2.411149144e-01, 
            1.053387448e-01, -1.073761210e-01, -7.909058779e-02},
        {5.736418813e-02, -1.240326464e-02, -3.020198047e-01, 
            -2.245401889e-01, -4.750394449e-02, -7.403046638e-02},
        {3.725919407e-03, 7.738711429e-04, -2.968490124e-01, 
            -1.228861064e-01, 3.264231607e-02, 4.257204477e-03},
        {-1.947848916e+00, -9.406592846e-01, 2.167202473e+00, 
            1.490686774e+00, 4.951097071e-01, 3.833273947e-01},
        {4.764630795e+00, 2.610562325e+00, -1.816626668e+00, 
            -8.986393809e-01, -4.945084155e-01, 3.942224011e-02},
        {-1.550813794e+00, -5.569264889e-01, 1.408190131e+00, 
            -2.425950170e-01, 1.510176539e+00, 4.640981853e-01},
        {-2.881201267e+00, -2.587299824e+00, -1.752161980e+00, 
            -1.251986027e+00, 4.138058126e-01, 2.572745383e-01},
        {-6.845314987e-03, -6.998195499e-02, -2.930448949e-01, 
            -2.633944713e-02, -2.388481796e-02, -2.046989091e-02},
        {-4.819843769e+00, -2.663047552e+00, -1.541557193e+00, 
            -2.252604485e+00, 8.124834895e-01, -2.393431216e-01},
        {-1.123729467e+00, -6.304159760e-01, 1.462669373e-01, 
            -5.716274977e-01, 5.021882057e-01, 1.046378851e+00},
        {-3.803665638e-01, -6.392117739e-01, 1.125428319e+00, 
            5.226778388e-01, 7.502222061e-01, 4.514228106e-01},
        {-1.060922816e-01, 5.812566876e-01, -2.652129857e-03, 
            2.202259302e+00, 3.696043044e-02, 5.531113148e-01},
        {1.438752711e-01, -7.401730120e-02, 5.040719509e-01, 
            3.358512819e-01, 5.467440486e-01, -1.440227270e+00},
        {1.787831664e+00, 1.167278662e-01, -9.266173363e+00, 
            -1.052692175e+00, 1.512527615e-01, 1.281539351e-01},
        {9.580706358e-01, 8.436170816e-01, -3.135214090e+00, 
            -7.791594267e-01, 7.254961729e-01, 2.419700325e-01},
        {-1.479977071e-01, -3.701405227e-01, -2.371440887e+00, 
            -3.652681708e-01, -2.684421241e-01, -6.828734279e-01},
        {3.574036062e-02, 2.567501797e-04, -2.606122792e-01, 
            -1.737501621e-01, 1.562463876e-05, -7.243739069e-02},
        {1.041415811e+00, -9.294978976e-01, -2.495082378e+00, 
            6.875097752e+00, 6.571092010e-01, 1.978236139e-01},
        {1.810533111e-03, -2.002166025e-02, -2.222512960e-01, 
            -4.032622874e-01, -6.964790635e-03, -7.471839339e-02},
        {-1.044989228e+00, -2.058664858e-01, 1.186038136e+00, 
            1.891008854e+00, 5.648241043e-01, -6.777932644e-01},
        {3.131929874e+00, 3.409312963e+00, -5.855346918e-01, 
            -1.435587645e+00, -6.700502038e-01, 2.462673932e-01},
        {1.880227566e+00, 1.436833858e+00, -2.119935751e+00, 
            -2.323162794e+00, -1.136035919e+00, -5.345354676e-01},
        {-1.302787066e-01, 1.665379107e-01, -2.399789095e-01, 
            -4.426452518e-01, 1.276623737e-02, -9.492495097e-03},
        {3.922276199e-02, -1.674197265e-03, -2.592944205e-01, 
            -3.855495900e-02, -2.597957104e-02, -4.401534423e-02},
        {-3.789838791e+00, -1.081454828e-01, -2.029011011e+00, 
            -1.289247513e+00, -1.466059566e+00, -5.123488903e-01},
        {6.052376032e-01, -3.399334252e-01, 3.034964949e-02, 
            1.471073747e+00, 1.831733346e+00, 1.554635525e+00},
        {2.573734522e+00, 1.381741643e+00, -5.536950111e+00, 
            -1.489119649e+00, -1.104613170e-01, -4.360805452e-01},
        {-1.649259627e-01, 4.605225027e-01, 3.890800476e-01, 
            2.759978175e-01, -3.109458983e-01, -1.437174976e-01},
        {8.323941827e-01, 9.876251221e-01, -5.108594894e-01, 
            1.674502730e+00, -2.414980412e+00, 2.421511561e-01},
        {3.060937673e-02, -4.231771827e-02, 1.883060187e-01, 
            1.021076739e-01, -2.699793577e-01, -5.578081608e+00},
        {2.057387352e+00, 1.703365803e+00, -2.778502703e+00, 
            -1.502162457e+00, -4.866546392e-01, -2.052111179e-01},
        {-1.183624193e-02, -9.507200867e-02, -1.244271874e+00, 
            -9.476955533e-01, 2.535057783e+00, 1.103170991e+00},
        {1.673011631e-01, -1.025215760e-01, -1.105308533e+00, 
            -5.840832591e-01, -1.953900337e+00, -6.556298137e-01},
        {1.176496983e+00, 2.427381575e-01, -1.728942394e+00, 
            -6.480344534e-01, -7.051450610e-01, -4.451267719e-01},
        {1.413745284e+00, -5.046829581e-01, -4.314701080e+00, 
            -2.041394949e+00, 1.166869044e+00, 1.745177805e-01},
        {-2.370295286e+00, -7.504352927e-01, -2.753934383e+00, 
            -4.178098142e-01, 8.502412438e-01, 1.770410389e-01},
        {-2.143244505e+00, -1.915526986e+00, -2.283579350e+00, 
            -1.878054857e+00, 1.082380295e+00, 2.458737642e-01},
        {-3.545616940e-02, 4.324265569e-02, -2.064971179e-01, 
            -1.799528897e-01, -2.874902450e-02, -7.925822586e-02},
        {1.219883561e+00, 3.232356012e-01, -2.164222717e+00, 
            -6.668353677e-01, -9.907730818e-01, 1.106027514e-01},
        {3.079004884e-01, -1.111032963e+00, 7.078386545e-01, 
            8.271397948e-01, -9.534097314e-01, 1.056567673e-02},
        {1.370407045e-01, 6.426882148e-01, 4.515782595e-01, 
            -1.996920347e+00, 1.422779202e+00, -3.828999996e-01},
        {-6.517717242e-01, -2.598483562e-01, -4.725554883e-01, 
            -5.110416412e-01, 6.035095081e-02, -1.921422035e-01},
        {-5.373674911e-03, 2.376851812e-02, -2.040371299e-01, 
            -1.287435442e-01, -7.165521383e-02, -1.335774213e-01},
        {-1.486439556e-01, -2.319746166e-01, -6.518234313e-02, 
            2.302298248e-01, 1.235123500e-01, 1.402245015e-01},
        {5.240076780e-01, -9.831389040e-02, -2.137285709e+00, 
            -2.366544008e+00, 1.341388673e-01, 4.887793064e-01},
        {5.261589289e-01, 3.213237226e-01, -1.406607389e+00, 
            -7.503256202e-01, 2.155914068e+00, -3.472064808e-02},
        {-8.897675276e-01, 1.089247689e-01, -8.474545479e-01, 
            -1.718275398e-01, 5.983496904e-01, 2.741941996e-02},
        {1.563351043e-02, 1.353209186e-02, -2.448250502e-01, 
            -9.270766377e-02, -3.420665860e-02, -7.263720036e-02},
        {7.841882855e-02, 1.096089125e+00, 1.099036932e+00, 
            -3.110224247e+00, -3.497886658e+00, 4.125460051e-03},
        {-6.980981827e-01, -6.379289031e-01, 1.753540933e-01, 
            4.333961755e-02, -1.920370340e+00, -1.199056983e+00},
        {1.627041399e-01, -6.895483285e-02, -4.908045828e-01, 
            1.040242165e-01, -6.549473852e-03, 5.063417926e-02},
        {-1.558830380e+00, -1.074273944e+00, -2.724516869e+00, 
            -1.132885814e+00, -2.105211765e-01, -3.093149960e-01},
        {-6.620458961e-01, -6.869531274e-01, 5.963749886e-01, 
            1.516154289e+00, -3.622309566e-01, 3.778082505e-02},
        {-2.148791313e+00, -8.760015368e-01, -6.684696674e+00, 
            -1.904989004e+00, -4.318400621e-01, 1.340521034e-02},
        {2.950566769e+00, -2.674933374e-01, 1.740013003e+00, 
            -3.894928396e-01, 9.088810682e-01, 3.624982238e-01},
        {6.026146933e-02, -5.074486881e-02, -3.023848236e-01, 
            -5.336311460e-02, 5.855340883e-02, 5.453995243e-02},
        {-1.678051472e+00, -7.569345832e-01, -3.109908819e+00, 
            -1.322071075e+00, -1.164563060e+00, -4.443298280e-02},
        {-1.826139688e-01, -1.323974580e-01, 8.756620884e-01, 
            5.732634068e-01, 7.101976871e-01, 1.940239787e+00},
        {-5.125476718e-01, 8.575464599e-04, -3.224527836e+00, 
            -2.634827137e+00, 7.965667248e-01, -1.586809456e-01},
        {-1.723094136e-01, -4.122423828e-01, 1.137832403e-01, 
            5.413230658e-01, 9.745527059e-03, 3.118258119e-01},
        {2.740853727e-01, 2.120904475e-01, -7.050589561e+00, 
            -1.855849385e+00, -2.789871693e-01, 2.287174314e-01},
        {-1.642833114e+00, 1.444208264e+00, -3.845357597e-01, 
            -1.233814001e+00, 4.496674836e-01, -1.739031821e-01},
        {1.256270409e-01, -5.484062433e-02, -4.304018915e-01, 
            2.836931683e-02, 4.679787531e-02, 9.933807701e-02},
        {-1.361366749e+00, -1.099189878e+00, 1.860955119e+00, 
            1.390399814e+00, -2.580284178e-01, -3.647108376e-01},
        {-5.553173423e-01, -1.916789293e+00, -8.563733697e-01, 
            1.886869073e+00, 2.330238104e+00, -2.319111824e-01},
        {1.774452999e-02, -8.146923035e-03, -1.885752380e-01, 
            -5.434635095e-03, -3.362310678e-02, -3.351263329e-02},
        {-4.422258854e+00, -1.621263981e+00, -5.861282349e+00, 
            -1.882461190e+00, 7.769777626e-02, -2.490677834e-01}
    },
    {
        {-1.360875726e+00, 5.206873417e-01, 2.859200835e-01, 
            -1.604207635e+00, -1.219837904e+00, -2.961790860e-01, 
            7.474068999e-01, 4.396558404e-01, -1.006588340e+00, 
            9.213838577e-01, 1.208968461e-01, -8.037652373e-01, 
            -3.431695327e-02, 1.967491359e-01, 4.500934184e-01, 
            1.252923906e-01, 5.225586891e-01, 9.240499735e-01, 
            4.125301242e-01, 1.158700228e+00, -1.802165955e-01, 
            1.578251868e-01, 8.764696121e-01, 2.231802940e-01, 
            5.618602037e-01, 3.055916131e-01, 3.048824966e-01, 
            3.180539012e-01, 7.164401561e-02, 1.453806013e-01, 
            6.884071976e-02, 7.475423217e-01, -4.419741333e-01, 
            8.170590997e-01, -1.255885065e-01, 1.003767997e-01, 
            5.684904456e-01, -1.350893259e+00, -2.517783046e-01, 
            -7.466359138e-01, 4.572469294e-01, -6.581981778e-01, 
            1.128991008e+00, 2.192091793e-01, 2.806026256e-03, 
            2.277860790e-01, -1.940275311e+00, -1.447910190e+00, 
            -8.271536231e-01, -9.718441963e-02, 8.126903325e-02, 
            -8.063106537e-01, 9.475437403e-01, -9.751923680e-01, 
            -1.520551085e+00, 4.511697590e-02, 5.559226274e-01, 
            -5.451475382e-01, 7.380305976e-02, -3.088888645e+00, 
            5.204522610e-01, 8.969830275e-01, 3.833844364e-01, 
            -2.138108730e+00, 2.107071131e-01, -8.284150362e-01, 
            -9.224839211e-01, -1.294141293e+00, 1.421901584e+00, 
            3.058094084e-01, 9.365281463e-02, -8.511283398e-01, 
            1.350627899e+00, -1.236926690e-01, 1.298478097e-01, 
            4.295038879e-01, 5.241227746e-01, 1.646733284e-01, 
            -1.229597926e+00, 7.912933826e-01, 2.327998877e-01, 
            3.187893033e-01, -2.838725448e-01, 4.663387537e-01, 
            -2.209346771e+00, 1.026225805e+00, -5.696662426e+00, 
            1.357467771e-01, 2.297128290e-01, -1.544929862e+00, 
            -1.230511189e+00, 1.919501722e-01, 6.097219586e-01, 
            -3.999999762e+00, 5.765568018e-01, 3.745088279e-01, 
            9.976836443e-01, -4.043248668e-02, 5.218455195e-01, 
            -2.035543680e+00},
        {5.058398843e-01, -1.952398717e-01, -4.428035915e-01, 
            3.559460640e-01, 1.743867644e-03, -1.497526318e-01, 
            -5.093797669e-02, 2.428809106e-01, 6.039203405e-01, 
            -3.135201335e-01, -2.357214838e-01, 1.709191322e+00, 
            5.238937736e-01, -2.659266233e+00, -5.113756657e-01, 
            -2.283052355e-01, -7.499805093e-01, -1.863221675e-01, 
            -2.310002223e-02, 3.184181079e-02, -1.874116212e-01, 
            4.786612093e-01, 1.054715276e+00, -9.039579034e-01, 
            -1.144855320e-01, -3.507358134e-01, 3.393997848e-01, 
            -4.623606205e-01, 9.569961429e-01, -3.210436404e-01, 
            -2.119056702e+00, -4.585435987e-01, -3.059363067e-01, 
            -2.142593116e-01, 1.892890930e-01, -1.874071509e-01, 
            -1.239336491e+00, 5.028203130e-01, 6.065596342e-01, 
            6.961287260e-01, -4.575939849e-02, 1.774283051e+00, 
            7.609436512e-01, -2.000651062e-01, -1.583894968e+00, 
            5.543714389e-03, 3.858718788e-03, 2.312286198e-01, 
            -4.562165961e-02, 1.502408534e-01, -3.169388771e+00, 
            2.553920150e-01, -8.484871387e-01, 1.852693796e+00, 
            1.556966305e+00, 4.486758113e-01, 2.546089143e-02, 
            6.626979709e-01, -1.234010100e+00, 3.565001190e-01, 
            -6.994096935e-02, -6.280233860e-01, -2.524778843e-01, 
            8.352850080e-01, 5.957081318e-01, -2.576896846e-01, 
            1.687496156e-01, 8.423606753e-01, -3.400900662e-01, 
            1.044193149e+00, 2.650613189e-01, 1.639173329e-01, 
            9.448442459e-01, 1.671248555e+00, 7.300375104e-01, 
            3.713373244e-01, -2.247237712e-01, 1.004811883e+00, 
            1.225751519e+00, 3.023552895e-01, 7.145841420e-02, 
            2.558002949e+00, -8.175163716e-02, -6.277232170e-01, 
            4.686637223e-02, -1.277279139e+00, 2.848991156e-01, 
            -1.368713528e-01, -2.990608811e-01, 2.234643549e-01, 
            -1.371885389e-01, 1.297810555e+00, -6.688182354e-01, 
            1.410738975e-01, 1.436628580e+00, -4.058418572e-01, 
            -4.496066272e-02, -1.275399208e+00, -1.357464939e-01, 
            6.332790107e-02},
        {-1.166952252e-01, 4.345781207e-01, -3.239470422e-01, 
            5.477609113e-02, 4.955816641e-02, -3.507556915e-01, 
            -6.062992811e-01, -8.912328482e-01, -8.572138846e-02, 
            -1.513101459e-01, -9.417548776e-01, -5.375617743e-02, 
            -8.159931749e-02, -1.440486014e-01, 4.140090942e-02, 
            -6.225256324e-01, -1.104009524e-02, -3.315733075e-01, 
            -5.621002316e-01, -1.200431958e-01, -5.404274464e-01, 
            -2.804264240e-02, 1.417872608e-01, 8.430177718e-02, 
            -4.302548617e-02, 1.954736747e-02, 3.267063797e-01, 
            -9.953697771e-02, 9.746808559e-02, -7.606788278e-01, 
            -4.715435579e-02, -7.182635367e-02, 6.069249511e-01, 
            -8.568465710e-01, -6.092669368e-01, -6.805529594e-01, 
            -1.786465943e-01, 2.860023081e-01, 1.956731826e-01, 
            7.775002122e-01, -8.826776147e-01, -3.389983624e-02, 
            -2.365329303e-02, 1.661952138e-01, 3.465012908e-01, 
            -4.319452047e-01, -2.104563266e-01, -5.503163487e-02, 
            1.350348473e+00, -7.215498090e-01, 1.242006104e-02, 
            -3.474369347e-01, 2.248725295e-01, 8.327692747e-02, 
            3.010761738e-01, -2.767605186e-01, -7.959221601e-01, 
            -1.372071356e-01, 3.118523955e-01, 1.106278747e-01, 
            3.548063338e-01, -7.416707277e-02, 2.186986655e-01, 
            8.000479341e-01, 7.891114354e-01, -7.246918678e-01, 
            -6.904748082e-01, -2.639067471e-01, 2.924163127e-03, 
            1.309283018e+00, -6.654260159e-01, 2.897482514e-01, 
            1.632692814e-01, 2.263503820e-01, -7.812307477e-01, 
            -7.993410826e-01, -3.966650665e-01, -1.509435028e-01, 
            2.832285762e-01, -4.947248697e-01, -8.082713485e-01, 
            -7.231641561e-02, -1.012653589e+00, -5.875381827e-01, 
            -2.199971974e-01, -3.695943058e-01, -5.494521856e-01, 
            3.116445243e-02, -6.776036024e-01, -4.676091075e-01, 
            3.053232729e-01, -1.700230092e-01, -1.528153718e-01, 
            3.683583736e-01, 4.383535087e-01, -2.911178768e-01, 
            -6.697932631e-02, 1.674933881e-01, -6.929591298e-01, 
            2.661038637e-01},
        {-9.039266706e-01, 2.974366844e-01, 3.687886894e-01, 
            -6.909020543e-01, -1.006170273e+00, 3.991279006e-01, 
            4.591036439e-01, -8.066893220e-01, 3.185945749e-01, 
            6.193135306e-02, 2.692594230e-01, -4.688432217e-01, 
            2.804295719e-01, -1.764779836e-01, -3.823367655e-01, 
            6.482616067e-01, 4.677478075e-01, 2.327272296e-01, 
            5.250490904e-01, 4.232293367e-01, 4.410864115e-01, 
            4.115523994e-01, 3.254507184e-01, 3.989263177e-01, 
            -1.990436614e-01, 4.593979120e-01, 4.856036901e-01, 
            3.709924221e-01, 1.837655306e-01, 4.789137840e-01, 
            -4.689942896e-01, 2.327855676e-01, 2.208943069e-01, 
            2.527632415e-01, 2.999015152e-01, 5.922651887e-01, 
            4.454813600e-01, -2.531353831e-01, -2.498518825e-01, 
            -6.822879612e-02, 4.090756774e-01, 1.331967413e-01, 
            7.293184847e-02, 3.467827439e-01, 4.698373675e-01, 
            -3.910191059e-01, -2.280126810e+00, -7.004972547e-02, 
            2.437582016e-01, 5.181876421e-01, 4.607220739e-02, 
            2.722964287e-01, -1.073597670e+00, -2.218400240e-01, 
            -7.438204885e-01, 3.877615035e-01, 5.762839913e-01, 
            -7.147472501e-01, -2.106876373e-01, -9.721363187e-01, 
            1.159267351e-01, -1.914073080e-01, -3.036634251e-02, 
            -7.385934591e-01, -2.572620809e-01, -5.964450240e-01, 
            5.045379996e-01, 1.226764172e-01, 7.947970033e-01, 
            -3.552029133e-01, 3.687181175e-01, -5.862875581e-01, 
            5.278242007e-02, -1.111211926e-01, 3.825164437e-01, 
            2.360679805e-01, 4.969129860e-01, -3.206382990e-01, 
            -2.256338298e-01, 1.800998449e-01, 4.845483899e-01, 
            1.348538846e-01, -4.678924978e-01, 3.414687812e-01, 
            -1.095419526e-01, 5.197660327e-01, -2.931517065e-01, 
            -6.062419340e-02, 3.640423119e-01, -6.072092652e-01, 
            4.905245081e-02, 7.164807916e-01, 3.587229252e-01, 
            -8.775402308e-01, 2.040822953e-01, 5.403276682e-01, 
            -7.910058498e-01, -4.774084091e-01, 4.426051974e-01, 
            -1.660557538e-01},
        {4.585752785e-01, 2.184934169e-01, 4.976275191e-02, 
            1.088312119e-01, 5.188616514e-01, 2.013883889e-01, 
            -5.682995319e-01, -4.512957931e-01, 1.202732325e-01, 
            -8.432877660e-01, -3.002359532e-02, 2.971798368e-02, 
            -4.332518205e-02, 5.952260643e-02, -1.898946881e+00, 
            1.185033545e-01, 1.893376559e-02, 7.319142669e-02, 
            -2.125713974e-02, 2.182951123e-01, 3.628180325e-01, 
            8.858082816e-03, 4.336008728e-01, -6.940549016e-01, 
            1.484170742e-02, 3.089673519e-01, -8.508133888e-02, 
            -2.026346326e-01, -2.288440019e-01, -1.914331503e-02, 
            1.401748061e-01, -2.067408562e+00, -2.028096616e-01, 
            6.420258433e-02, 1.101147756e-01, 2.428690493e-01, 
            -1.725782305e-01, -2.618548572e-01, -4.600131512e-01, 
            -3.040215559e-02, -1.906320080e-02, 1.050615788e+00, 
            -1.194849461e-01, 6.623951253e-03, -6.943333149e-01, 
            -2.010934353e-01, 2.927273512e-01, 7.249620557e-01, 
            -7.728372514e-02, -3.583513945e-02, 2.396801710e-01, 
            -6.753098685e-03, -2.154753357e-01, 5.236128345e-04, 
            -2.415409088e-01, 1.423521638e-01, -1.285713911e-01, 
            -2.508434094e-02, -5.445640534e-02, 7.384547591e-02, 
            -8.615617156e-01, 5.953388214e-01, 2.091230303e-01, 
            3.697068393e-01, 9.494509101e-01, -6.236180663e-01, 
            -3.083347380e-01, 3.661960363e-02, -9.429436177e-03, 
            3.655683398e-01, -1.142701209e-01, -4.675487280e-01, 
            -5.993161798e-01, -4.210275114e-01, -8.870717138e-02, 
            -1.067865565e-01, 3.655759096e-01, 7.213233411e-02, 
            3.154101670e-01, 2.705012262e-01, -1.048641205e-01, 
            -7.519047707e-02, -9.071064591e-01, 1.385149509e-01, 
            -8.518726230e-01, -5.989233777e-02, -2.748152614e-01, 
            -4.469142258e-01, 3.150330484e-01, -7.271077037e-01, 
            -1.016364098e-01, 5.589525104e-01, 5.216462016e-01, 
            -5.041430704e-04, 8.895558864e-02, 2.206783593e-01, 
            1.997011900e-01, -5.696896464e-02, -8.767676353e-02, 
            -7.969567180e-02},
        {-7.257521749e-01, 3.961274028e-01, 2.470558733e-01, 
            6.174570918e-01, 2.542591691e-01, 4.241770804e-01, 
            2.607073868e-03, 3.996478021e-01, 2.400878668e-01, 
            5.779759958e-02, 2.882772982e-01, -2.519506812e-01, 
            4.571166337e-01, -1.132034510e-01, 1.118162647e-01, 
            4.774530232e-01, 8.215982467e-02, -6.564097404e-01, 
            5.380848646e-01, -1.234511957e-01, 2.291230559e-01, 
            2.384469956e-01, -2.501680702e-02, -1.404290497e-01, 
            1.285999268e-01, 2.163169384e-01, 1.103982851e-01, 
            1.132316887e-01, -2.738046944e-01, 5.341283679e-01, 
            -6.832061410e-01, 3.425218761e-01, -1.850231051e+00, 
            4.585309327e-01, 4.302903414e-01, 3.363269866e-01, 
            1.152724400e-01, 1.031975672e-01, 2.133592367e-01, 
            -1.311416864e+00, 1.097940728e-01, -1.172517166e-01, 
            2.608957589e-01, 1.235092580e-01, 1.342108548e-01, 
            -6.386886239e-01, -2.348071635e-01, 4.143380746e-02, 
            2.442290485e-01, 5.834140778e-01, 2.690904588e-02, 
            5.035983920e-01, -1.867662370e-01, -4.240013659e-02, 
            -4.981695712e-01, 3.323907256e-01, 5.662559867e-01, 
            -5.524006486e-01, -3.021484315e-01, 7.210119069e-02, 
            1.300850362e-01, -3.408449888e-01, 1.041282937e-01, 
            3.962649032e-02, -4.855966270e-01, -1.378544927e+00, 
            1.851751506e-01, -2.804393768e-01, -6.706975102e-01, 
            -7.118697166e-01, 6.109330058e-01, -2.458556294e-01, 
            -4.547106624e-01, 1.172197387e-01, 2.683979273e-01, 
            4.634156227e-01, 3.274071217e-01, -4.561509192e-01, 
            -2.577561140e-01, 9.894355200e-03, 5.783932209e-01, 
            -3.854011297e-01, -3.384408712e+00, 5.084798336e-01, 
            -5.115040541e-01, -1.122130603e-01, -5.047328472e-01, 
            1.444132328e-01, 2.788067460e-01, -9.158810377e-01, 
            -5.139985085e-01, -8.249677420e-01, 1.170999408e-01, 
            -5.976477861e-01, -3.399656713e-02, 1.975745112e-01, 
            2.554339767e-01, 1.934611648e-01, 3.104998767e-01, 
            -1.623626709e+00},
        {1.431223005e-01, 3.462903202e-01, 3.117051721e-01, 
            5.695973709e-02, 1.850034297e-02, 1.156521887e-01, 
            3.374386728e-01, 5.480708480e-01, 1.967050321e-02, 
            4.277656078e-01, 3.988733292e-01, 1.434772015e-01, 
            2.447752804e-01, 2.047925740e-01, 5.918878317e-01, 
            5.809526518e-02, 2.711484730e-01, -4.096287787e-01, 
            3.198091984e-01, -4.446177185e-01, 1.195061654e-01, 
            4.093604386e-01, 7.649816871e-01, 3.272782564e-01, 
            4.619543552e-01, -2.287064120e-02, 5.854290724e-01, 
            2.601651847e-01, -3.507177830e-01, 4.042687416e-01, 
            -1.300728321e+00, 4.218717813e-01, -4.893251956e-01, 
            3.521004021e-01, 2.886227667e-01, 6.284607109e-03, 
            -2.935096920e-01, -3.597498834e-01, 3.645854443e-02, 
            -6.739087105e-01, 3.302158415e-02, -4.104486853e-02, 
            -5.283711851e-02, 1.095591933e-01, 4.597763419e-01, 
            3.089409471e-01, -4.233694375e-01, -6.471501291e-02, 
            -1.344936788e-01, 2.840209901e-01, -2.790398896e-02, 
            8.704121411e-02, -2.461698838e-02, 7.400026917e-02, 
            4.688084126e-02, 5.997346714e-02, 4.053658247e-01, 
            -5.733809471e-01, 2.907668948e-01, -4.974366426e-01, 
            4.693871140e-01, 4.797540605e-02, -6.345191598e-02, 
            -2.276760489e-01, -3.004238605e-01, -9.286356717e-02, 
            2.991679013e-01, -2.850324810e-01, -6.314868927e-01, 
            -3.082163632e-01, 3.130058646e-01, 8.385507017e-02, 
            4.629524890e-03, 8.062573522e-02, 2.076762319e-01, 
            6.064050794e-01, -1.990967616e-02, -3.652321100e-01, 
            -2.029827833e-01, -1.452884972e-01, 5.287553072e-01, 
            1.805574298e-01, 4.243449569e-01, 1.272547692e-01, 
            -5.877706409e-01, -6.816966087e-02, -1.148357630e+00, 
            1.655741781e-01, 1.848390400e-01, -4.917280078e-01, 
            4.015098885e-02, -3.606337011e-01, 3.645769060e-01, 
            -5.808513761e-01, 2.390006334e-01, 8.089832962e-02, 
            -1.355172843e-01, -5.083651841e-02, 3.043488562e-01, 
            -1.116713524e+00},
        {-1.879681717e-03, 2.041627467e-01, 7.008173466e-01, 
            5.148611069e-01, 1.294964999e-01, 3.466487527e-01, 
            3.794176877e-01, -2.065023631e-01, 5.679371357e-01, 
            -6.310760230e-02, 4.652801752e-01, -6.232076287e-01, 
            3.063345850e-01, -1.162290812e+00, 4.678021744e-02, 
            6.111991405e-01, 5.309131145e-01, 6.097828150e-01, 
            4.889093339e-01, 5.349927545e-01, 5.478758216e-01, 
            5.437605977e-01, -7.374390960e-01, 4.973850548e-01, 
            -1.916772127e-01, 5.628479123e-01, 2.176118791e-01, 
            1.760647893e-01, -7.172433734e-01, 6.698274612e-01, 
            -7.060134411e-01, -4.230999053e-01, 4.775114357e-01, 
            7.572776079e-02, 4.002639949e-01, 6.232384443e-01, 
            3.623979539e-02, -9.297633767e-01, -4.596571326e-01, 
            3.225193024e-01, 3.133519888e-01, -2.994546294e-01, 
            -1.419903636e-01, -2.357211336e-02, -4.702716768e-01, 
            -4.686401188e-01, -9.064918011e-02, 2.732123733e-01, 
            1.265098304e-01, 5.206652880e-01, -2.008280516e+00, 
            5.645384192e-01, -4.696505889e-02, -3.126115501e-01, 
            -4.592927396e-01, 3.170108199e-01, 4.540261924e-01, 
            -1.707634628e-01, 2.968606651e-01, -8.821652085e-02, 
            5.169233680e-02, -2.668585479e-01, 2.244793773e-01, 
            -1.782147884e-01, 1.811583340e-01, -4.117193818e-01, 
            1.691764444e-01, -3.970320821e-01, 9.067038298e-01, 
            2.837612927e-01, 5.610466003e-01, -2.054839768e-02, 
            4.636529386e-01, 2.412228435e-01, 2.441419214e-01, 
            3.328197300e-01, 5.234773755e-01, -1.696985066e-01, 
            6.867351532e-01, 4.894151390e-01, 3.120814264e-01, 
            4.679233208e-02, 1.565228701e-01, 4.909304380e-01, 
            -1.255331784e-01, -6.219027936e-02, 1.441773176e-01, 
            -1.092466593e+00, 4.568805099e-01, -2.753502503e-02, 
            6.238613129e-01, 5.545070171e-01, 5.695477724e-01, 
            -1.192506962e-02, -1.487879157e-01, 6.407271624e-01, 
            -9.658905268e-01, -7.238174677e-01, 4.431584775e-01, 
            -3.910534680e-01},
        {-7.487719059e-01, -1.544364691e-01, 1.461834013e-01, 
            -1.711187065e-01, 3.541808128e-01, 2.351766229e-01, 
            3.312169015e-01, 6.581838727e-01, 3.353563547e-01, 
            3.367812335e-01, 4.065727293e-01, -2.069424093e-02, 
            -2.726183832e-01, 2.007386982e-01, 2.148166448e-01, 
            -3.270946071e-02, -2.094089836e-01, -1.242540359e+00, 
            6.716805696e-02, -1.078162193e+00, 1.453567594e-01, 
            1.046223864e-01, 5.792449713e-01, 4.490937665e-02, 
            2.526209354e-01, 2.074378878e-01, -5.068721175e-01, 
            -1.155697182e-02, -6.005138159e-01, 2.337869257e-02, 
            2.404295504e-01, 4.103825688e-01, -2.070752382e-01, 
            1.785595268e-01, 2.878493965e-01, 8.942291886e-02, 
            1.465680264e-02, -6.134888530e-01, -4.301628470e-01, 
            -1.557514966e-01, 2.915504156e-04, -1.306282729e-01, 
            -8.721649647e-01, -6.012348533e-01, 5.465780199e-02, 
            8.751462400e-02, 1.437570900e-01, -9.263560772e-01, 
            -4.514945447e-01, 2.532888949e-01, -7.135683298e-02, 
            2.347526550e-01, 2.413557023e-01, -6.056159735e-01, 
            5.371924043e-01, -1.994852126e-01, 2.086379826e-01, 
            4.299826175e-02, -1.221554041e+00, -9.883164763e-01, 
            1.659633219e-01, 8.919870108e-02, 3.396330178e-01, 
            -7.029801011e-01, -1.917557955e+00, -5.828258991e-01, 
            -3.514411449e-01, 7.320710421e-01, -1.737672985e-01, 
            -1.642216802e+00, 2.530058324e-01, 3.776279092e-01, 
            1.256018132e-01, -5.530809164e-01, 7.477563024e-01, 
            1.461728662e-01, -4.923743308e-01, -8.792896867e-01, 
            -1.372854114e+00, -6.325303316e-01, 2.131027430e-01, 
            -9.464640915e-02, 3.374204338e-01, 2.855270803e-01, 
            -4.021966159e-01, 1.272314340e-01, -1.432217479e+00, 
            -1.309993118e-01, -2.321700193e-02, -1.407413006e+00, 
            -2.253182650e+00, -1.800866485e+00, -4.509607553e-01, 
            8.803073168e-01, 3.217495680e-01, 1.717256755e-02, 
            3.486664593e-01, -5.880491734e-01, 2.301537842e-01, 
            -6.992125511e-01},
        {2.398644984e-01, -1.456656009e-01, 5.346541405e-01, 
            6.990217566e-01, -7.641522288e-01, 1.956618726e-01, 
            2.308383733e-01, 2.251120359e-01, 1.283730268e-01, 
            -1.323720694e+00, 2.791721225e-01, 1.606994569e-01, 
            -8.232926577e-02, -2.061746269e-02, -2.032171488e+00, 
            6.633890420e-02, 1.998599023e-01, 5.597368479e-01, 
            2.323414087e-01, 3.481068611e-01, -6.326826988e-04, 
            -4.208059013e-01, 4.290334880e-01, 7.912471890e-01, 
            -3.783976436e-01, 3.030804694e-01, -1.462478280e+00, 
            -6.418273449e-01, -7.458105087e-01, 1.612850279e-01, 
            -1.712915301e-01, -6.699768305e-01, 7.882765532e-01, 
            -6.281509995e-02, 9.390710294e-02, 1.800469756e-01, 
            -6.914938688e-01, -3.851574063e-01, 6.538574100e-01, 
            -1.684778184e-01, 4.701179862e-01, -2.985233665e-01, 
            -4.066535085e-02, -6.872073412e-01, -1.166340351e+00, 
            7.553207129e-02, -5.832767487e-01, -4.287608564e-01, 
            4.092769325e-01, 1.072767824e-01, -4.419312999e-02, 
            -1.472856253e-01, 6.076552272e-01, 8.483451605e-02, 
            4.820095301e-01, -1.304667443e-01, 1.376311947e-02, 
            -4.862773046e-02, -4.572096825e+00, 6.060707569e-01, 
            -1.961316228e+00, 1.836746335e-01, 1.194408685e-01, 
            8.690188527e-01, -4.344380379e+00, 6.881404668e-02, 
            -3.482337892e-01, -6.788310409e-01, 6.539825350e-02, 
            -6.758061647e-01, 2.492345124e-02, 1.290862203e+00, 
            1.965654641e-01, -7.594067603e-02, 3.510909975e-01, 
            -8.638517559e-02, 6.237434596e-02, -2.659391761e-01, 
            -6.329798698e-01, -6.302027702e-01, 2.336935699e-01, 
            1.542562153e-02, 6.238949895e-01, 5.338630676e-01, 
            1.685476601e-01, -7.269781232e-01, -1.388049573e-01, 
            1.864060611e-01, 3.712502122e-01, 1.567945331e-01, 
            1.176673844e-01, 1.754435599e-01, -1.545981765e-01, 
            7.552079558e-01, 6.092470884e-02, 3.408763409e-01, 
            -2.979312241e-01, -3.938586116e-01, 2.512500882e-01, 
            -7.234233618e-02},
        {1.500007808e-01, -9.668482840e-02, 5.676457658e-02, 
            -6.546070576e-01, 1.245230883e-01, -5.773378909e-02, 
            -1.874212176e-02, -9.920713902e-01, 3.157588243e-01, 
            -1.173471093e+00, 4.769014940e-02, -3.977827728e-03, 
            -1.481899917e-01, 4.667449296e-01, -4.989506602e-01, 
            2.970630825e-01, 3.213261962e-01, 3.251409531e-01, 
            1.382060200e-01, -4.969325364e-01, 1.415688694e-01, 
            2.184551656e-01, -1.738975406e+00, 4.186984897e-01, 
            6.298659444e-01, 2.028798014e-01, -6.211691722e-02, 
            1.078982204e-01, -1.170017958e+00, 1.755029559e-01, 
            6.588243842e-01, -1.736558914e+00, 4.294801056e-01, 
            -2.964441478e-01, 5.443692952e-02, 3.507387340e-01, 
            2.302576751e-01, -1.016770959e+00, -1.301145554e+00, 
            1.340132952e+00, 3.244277239e-01, 6.433675885e-01, 
            -2.719263136e-01, -3.158604801e-01, -4.755630195e-01, 
            2.243115306e-01, -7.922022939e-01, -1.303680778e+00, 
            2.363574803e-01, 1.271963716e-01, -3.587564230e-01, 
            2.840488851e-01, 1.252882481e-01, 5.285291672e-01, 
            -1.437807977e-01, 2.705742717e-01, -1.741921902e-01, 
            3.616637886e-01, 1.439016700e+00, -6.318404675e-01, 
            6.076302752e-02, -5.956066027e-02, -2.768180519e-02, 
            -2.017935663e-01, 4.832685292e-01, 3.227270246e-01, 
            -2.945023179e-01, 1.888677120e+00, -5.924721360e-01, 
            3.280474246e-01, -5.410524085e-02, 3.300880194e-01, 
            5.547432974e-02, 1.736735851e-01, 5.228694081e-01, 
            3.709540702e-03, 2.477554530e-01, 2.677958310e-01, 
            -1.721257865e-01, -6.020972133e-01, -1.760648191e-01, 
            8.330728859e-02, 4.088971391e-02, -3.794846823e-03, 
            2.284029275e-01, 2.998859286e-01, -1.563594192e-01, 
            -3.414611101e+00, 4.090845287e-01, 8.434216380e-01, 
            -1.503680944e-01, -4.453630149e-01, 1.589363217e-01, 
            -4.882220924e-01, 3.933274746e-01, 5.958710238e-02, 
            -4.257558882e-01, 3.674211502e-01, -2.081196383e-02, 
            6.899656653e-01},
        {3.382906020e-01, 5.254524574e-02, 1.649149805e-01, 
            -1.269272119e-01, -1.296193242e+00, 4.728519619e-01, 
            -6.563789248e-01, 2.607632577e-01, 4.498454034e-01, 
            -3.422895968e-01, 2.336167246e-01, 9.636498243e-02, 
            -1.549925357e-01, 3.867533505e-01, -5.605568290e-01, 
            3.530023396e-01, 3.711044490e-01, -1.582588911e+00, 
            4.613990188e-01, 3.853509724e-01, 5.179232359e-01, 
            2.858506441e-01, 6.001863480e-01, 3.872332871e-01, 
            -1.342552185e+00, 3.879886568e-01, -3.941119909e-01, 
            -6.167224050e-01, 1.102210641e+00, 2.451736629e-01, 
            2.189315110e-01, 1.554452628e-01, 1.054511368e-01, 
            2.312567085e-01, 7.027531862e-01, 3.031393886e-01, 
            -1.648948073e+00, -3.055732250e-01, -1.194101810e+00, 
            -2.485714555e-01, 5.442323685e-01, -6.628768444e-01, 
            1.266283095e-01, -8.257918358e-01, -4.410705268e-01, 
            -2.361619659e-02, -1.590748318e-02, -3.065352440e-01, 
            4.569747746e-01, 4.936753511e-01, 3.986338079e-01, 
            6.220994592e-01, -6.736160070e-02, 5.330354571e-01, 
            -6.621649861e-01, 5.631581545e-01, 3.829312623e-01, 
            -7.196274400e-02, -3.068124950e-01, 3.699281514e-01, 
            -7.259117961e-01, 1.434625536e-01, -1.119071990e-01, 
            -7.745051384e-02, -2.256768703e+00, 6.565634608e-01, 
            7.205120325e-01, -8.889808655e-01, -9.038842320e-01, 
            2.125380337e-01, 2.751664817e-01, 1.913782656e-01, 
            3.772843182e-01, -4.281611741e-01, 4.345116019e-01, 
            4.919700921e-01, -4.903149009e-01, 1.040270686e+00, 
            1.874338686e-01, -1.943002641e-01, 5.001938343e-01, 
            -6.461725235e-01, -9.362203479e-01, 4.524720609e-01, 
            -2.389027365e-02, -9.073734283e-01, -6.236600876e-02, 
            -6.486154795e-01, 1.418148279e-01, 8.955338597e-01, 
            2.093047053e-01, 1.030507684e+00, -7.101134658e-01, 
            -3.819870576e-02, -2.560353577e-01, 2.035412490e-01, 
            -1.169142604e+00, 3.612993956e-01, 1.465127766e-01, 
            -2.625262737e-01},
        {4.008034244e-03, -1.580727398e-01, 6.940538436e-02, 
            -2.528024316e-01, 5.665095448e-01, -3.601392731e-02, 
            8.803620934e-02, -5.005404949e-01, 1.472376883e-01, 
            -2.545921206e-01, -4.528520629e-02, 2.492845654e-01, 
            -1.263715327e-01, 1.956253499e-01, 4.779708683e-01, 
            -1.726204753e-01, -1.634540558e-01, -9.956420213e-02, 
            -1.422291398e-01, -4.836280048e-01, -4.413212463e-02, 
            -1.853535771e-01, -5.434359312e-01, 4.197610021e-01, 
            3.913254738e-01, -6.908295304e-02, -7.279273272e-01, 
            -1.539884210e-01, 8.044554293e-02, -2.032170296e-01, 
            9.224134684e-02, -1.613345891e-01, -3.334915265e-02, 
            -4.261028171e-01, 2.743691765e-02, -2.165002376e-01, 
            -1.841863841e-01, 9.798078239e-02, -4.388488531e-01, 
            4.357105196e-01, -8.700869232e-02, 2.937990725e-01, 
            1.786780506e-01, -4.148854911e-01, -3.940493464e-01, 
            2.090542167e-01, 1.514118165e-01, -7.238672376e-01, 
            -4.525826871e-01, -2.335826457e-01, 6.866703182e-02, 
            2.280730903e-01, -1.655733734e-01, 3.422556818e-01, 
            2.615610883e-02, -1.114934906e-01, -4.078485668e-01, 
            2.363528609e-01, -7.661005259e-01, 1.215026602e-01, 
            2.698914111e-01, 4.217170551e-02, 2.786621153e-01, 
            -2.165916264e-01, -1.723586172e-01, 5.693978667e-01, 
            -4.508672655e-01, 2.171793394e-02, -5.291049480e-01, 
            1.359365731e-01, -3.110637367e-01, 3.457233012e-01, 
            5.099490881e-01, -1.282434911e-01, 4.025653303e-01, 
            -1.782756150e-01, -4.932630062e-01, 6.824616790e-01, 
            -5.553761721e-01, -1.825699210e-01, -3.565957248e-01, 
            -4.335021973e-02, 9.329528213e-01, -2.793664932e-01, 
            5.328720808e-01, -3.565467149e-02, 2.631580830e-01, 
            6.667815149e-02, -1.915943772e-01, 9.205372930e-01, 
            -7.058925629e-01, -1.420793831e-01, -6.351406574e-01, 
            5.043164492e-01, 6.537268311e-02, -2.771429121e-01, 
            -2.384416461e-01, -8.406891674e-02, -4.194042832e-02, 
            1.809902191e-01},
        {-4.568624794e-01, -2.696788013e-01, 1.439960152e-01, 
            -1.721648425e-01, 1.280378103e-01, 2.591738701e-01, 
            8.301842809e-01, 8.281645924e-02, -3.452253342e-01, 
            3.692052662e-01, 2.715690434e-01, -4.177567065e-01, 
            2.570308447e-01, 3.715369701e-01, 1.301141232e-01, 
            2.779248953e-01, 1.277733594e-01, 1.476209909e-01, 
            3.530421257e-01, 1.520538181e-01, 3.033979535e-01, 
            3.111844659e-01, 2.643509805e-01, -6.164034829e-02, 
            1.206676662e-01, 3.282321990e-01, 3.236435354e-01, 
            1.777996421e-01, -8.574460745e-01, 1.920647323e-01, 
            1.594893187e-01, 2.463508397e-01, 4.361748993e-01, 
            2.843115926e-01, 2.754999995e-01, 3.341701329e-01, 
            3.329121172e-01, -1.009597301e+00, -8.752858043e-01, 
            -1.674043983e-01, 1.631503254e-01, -1.176241398e+00, 
            -1.882190108e-01, -1.096056476e-01, -8.146088123e-01, 
            1.186125427e-01, -1.073978347e-04, 7.684761882e-01, 
            2.702227533e-01, 3.086919188e-01, 1.357827894e-02, 
            1.342805624e-01, 5.313011631e-02, -5.857628584e-01, 
            -6.918172240e-01, 2.643979192e-01, 1.779155731e-01, 
            -1.631054133e-01, -4.549629390e-01, -1.239015982e-01, 
            3.866584599e-01, 1.761395186e-01, 8.810076863e-02, 
            -2.426137030e-01, 5.971965566e-02, 6.548251957e-02, 
            9.648955613e-02, 8.590840548e-02, 2.634591460e-01, 
            -4.302596673e-02, 1.599325687e-01, 5.114119127e-02, 
            -3.840579987e-01, -1.917481542e+00, -6.773662567e-02, 
            2.312386930e-01, 1.320257932e-01, 2.285321504e-01, 
            2.554728687e-01, -4.713431597e-01, 1.768622249e-01, 
            -9.804875851e-01, 8.884363621e-02, 2.216933966e-01, 
            -6.820008904e-02, 1.196947843e-01, -3.960757554e-01, 
            -7.946862578e-01, 9.248776734e-02, -2.463998795e-01, 
            -1.002083942e-01, -5.911545828e-02, 2.273457944e-01, 
            -2.222590148e-01, -4.006902874e-01, 1.199749336e-01, 
            2.121720910e-01, 5.543813705e-01, 2.761660814e-01, 
            4.552625120e-01},
        {-4.681094587e-01, -5.525895953e-01, -4.464823008e-01, 
            -3.686432540e-02, 5.756351352e-01, -1.521472186e-01, 
            -2.863636017e-01, -3.498649299e-01, 5.241698623e-01, 
            -1.730500937e+00, -2.186427116e-01, 1.140468046e-01, 
            2.769753039e-01, 1.521027386e-01, -1.073803544e+00, 
            -1.545592546e-01, -4.845876694e-01, 1.403549790e+00, 
            5.605832487e-02, -6.270675063e-01, -7.632236183e-02, 
            -8.737353235e-02, -3.582268059e-01, -6.209767461e-01, 
            1.636045694e+00, -6.417214870e-03, -7.868888974e-01, 
            -3.678007126e-01, 5.121963024e-01, -1.156497374e-01, 
            -1.406559050e-01, -1.591846228e+00, -4.957333803e-01, 
            -4.636741877e-01, -1.445663422e-01, 3.261882439e-02, 
            -1.115421280e-01, 1.027131796e+00, -9.118644148e-02, 
            8.999397755e-01, 2.617026493e-02, 5.247580409e-01, 
            5.941967368e-01, -3.246307075e-01, -1.520778053e-03, 
            1.083306968e-01, 3.548876345e-01, -5.420961976e-01, 
            7.354940772e-01, 1.145788189e-02, 9.854377061e-02, 
            3.557248414e-01, -5.937429667e-01, 2.386332005e-01, 
            -8.193284273e-01, 1.957537979e-01, -3.569041789e-01, 
            -2.103435695e-01, -1.981319338e-01, 8.719884157e-01, 
            -2.547700107e-01, 2.338336557e-01, -1.642791927e-01, 
            -1.073691726e+00, 4.476137459e-01, -2.229772329e+00, 
            -1.727206469e+00, 4.117809236e-01, 5.422630906e-01, 
            8.668326139e-01, -1.170739010e-01, -9.597222209e-01, 
            1.666634977e-01, 1.247018203e-01, 8.404214978e-01, 
            1.814939431e-03, 3.016272485e-01, -5.232971907e-01, 
            5.131242275e-01, 4.947828352e-01, -1.005086675e-01, 
            2.715731040e-02, -9.037736893e+00, -2.163469046e-01, 
            2.577709556e-01, 1.083431840e+00, -5.027737617e-01, 
            2.517462373e-01, 2.235663682e-01, -1.771712780e+00, 
            3.249553144e-01, -1.004336119e+00, 1.710674316e-01, 
            -3.191993833e-01, -2.766163647e-01, -2.967455983e-01, 
            3.066523932e-02, -2.418077886e-01, -6.075760350e-02, 
            2.935011983e-01},
        {3.980607688e-01, 2.149554528e-02, 1.395905018e-01, 
            2.358777225e-01, -7.609412074e-01, -2.845446169e-01, 
            -3.215765357e-01, 7.796829939e-02, -5.906573534e-01, 
            -5.721721053e-01, -6.692613959e-01, 5.220044255e-01, 
            -9.656202197e-01, 2.460139245e-01, -4.758350849e-01, 
            -7.602788210e-01, 7.979169488e-02, -5.179811120e-01, 
            -3.589779437e-01, -8.337249607e-02, -7.052986622e-01, 
            -8.653497696e-01, 3.050667346e-01, -1.029296219e-01, 
            -6.781615019e-01, -3.138861805e-02, -3.685782850e-01, 
            3.776690457e-03, -2.892119884e+00, -4.487548769e-01, 
            3.665690720e-01, -2.609323561e-01, -1.077925116e-01, 
            -1.977411956e-01, -5.673029423e-01, -4.607704580e-01, 
            7.397427410e-02, -1.332873225e+00, 6.433145404e-01, 
            -1.705858231e+00, -5.431473255e-01, -7.255163789e-01, 
            -1.277027726e+00, -3.430864811e-01, 4.245108068e-01, 
            2.871013880e-01, 8.314855099e-01, -4.103873372e-01, 
            3.790686727e-01, -7.447928190e-01, 5.449188948e-01, 
            -9.114396572e-01, -1.902285665e-01, 2.966091931e-01, 
            1.939321876e+00, -1.103041530e+00, -5.248655081e-01, 
            -2.748437524e-01, 1.922604144e-01, -4.713853300e-01, 
            -4.345787466e-01, 6.991579533e-01, 3.653006256e-01, 
            8.003183007e-01, -6.541697383e-01, 4.399960935e-01, 
            7.196503282e-01, -1.462756991e+00, -1.065685153e-01, 
            -8.346323967e-01, -5.088054538e-01, 1.184466004e+00, 
            -6.437156796e-01, 1.300739527e+00, -2.360015959e-01, 
            -3.666164279e-01, -4.046338797e-01, -2.859606028e+00, 
            -1.516826600e-01, -4.428405315e-02, -4.265116155e-01, 
            -8.254421949e-01, -1.385191977e-01, -6.382288039e-02, 
            -4.008174241e-01, -2.082457244e-01, -1.260511875e+00, 
            1.560058743e-01, -4.453774393e-01, -3.569219410e-01, 
            -6.261128783e-01, -1.317506075e+00, -2.637288868e-01, 
            2.464417741e-02, 5.791310072e-01, -2.191738188e-01, 
            -2.592177689e-01, 2.428119630e-01, -4.875333011e-01, 
            -2.211428881e+00},
        {-7.800298929e-02, 6.558845043e-01, 4.759111106e-01, 
            4.096549749e-01, 1.895442232e-02, 6.279421449e-01, 
            -3.198026493e-02, 2.336330861e-01, 7.418987155e-01, 
            -1.621026695e-01, 5.432577729e-01, -3.401605189e-01, 
            3.540325165e-01, 6.181573868e-01, 3.133566380e-01, 
            6.181433201e-01, 7.216835022e-02, 2.469765097e-01, 
            4.456498027e-01, 3.342097625e-02, 6.045597792e-01, 
            2.154864222e-01, 2.744763196e-01, 2.480754852e-01, 
            -3.339481056e-01, 2.390796840e-01, 7.434768230e-02, 
            1.793742180e-01, -1.514847428e-01, 4.575170279e-01, 
            -3.109905005e+00, 1.163479909e-01, 2.186405957e-01, 
            6.315332055e-01, 7.727770805e-01, 6.370027661e-01, 
            -2.405169010e-01, -1.302028596e-01, -8.789478242e-02, 
            -1.974017471e-01, 7.958297729e-01, -8.112267256e-01, 
            2.184742875e-02, -1.132182851e-01, -4.188918471e-01, 
            2.291971445e-01, -1.225487113e+00, -1.598927677e-01, 
            5.851122737e-01, 7.393933535e-01, -1.397897303e-01, 
            4.948756099e-01, 1.962762326e-01, -8.628894091e-01, 
            3.903043866e-01, 4.784599245e-01, 4.090586305e-01, 
            -1.783536434e+00, -3.875612319e-01, -2.314364016e-01, 
            8.366145939e-02, -1.524783671e-01, 1.803118363e-02, 
            -1.884052157e-01, -3.059891760e-01, 3.484126031e-01, 
            7.455775142e-01, -6.685742736e-01, -2.729761600e-01, 
            -4.260778427e-01, 6.198177934e-01, 7.085900307e-01, 
            -3.454871178e-01, 2.271661609e-01, 2.478773892e-01, 
            5.920426250e-01, 2.976042628e-01, 3.317359686e-01, 
            -1.267436743e-01, 1.834121794e-01, 5.376112461e-01, 
            -1.836016476e-01, 1.027852893e-01, 6.058470607e-01, 
            3.152201176e-01, 9.852311015e-02, -4.140362442e-01, 
            -5.178574920e-01, 3.823456168e-01, -1.090672314e-01, 
            1.692125350e-01, -5.298708081e-01, 2.300367802e-01, 
            -5.772773027e-01, 8.016488701e-02, 4.819672406e-01, 
            -5.157333612e-01, -4.773270190e-01, 4.292508066e-01, 
            -1.178963542e+00},
        {-1.125920005e-02, 1.706548333e-01, 3.408860266e-01, 
            2.445237339e-01, 1.057750344e+00, 2.440794408e-01, 
            -1.367630839e+00, -1.717531830e-01, 5.317080393e-02, 
            9.104545228e-03, -2.735747993e-01, 1.876210272e-01, 
            -2.587167323e-01, -2.352723479e-02, -6.068086252e-03, 
            -2.846446447e-02, -4.590123892e-02, -1.474740505e-01, 
            -2.762471437e-01, -4.126054347e-01, 1.366840750e-01, 
            -2.829313874e-01, -6.618030667e-01, 1.497062743e-01, 
            5.987224579e-01, -2.391096056e-01, -1.072546989e-01, 
            -5.753325224e-01, 1.203616858e+00, -7.375748362e-03, 
            1.432287097e-01, 3.558849543e-02, -3.334417343e-01, 
            -1.129729226e-01, 1.696992517e-01, -2.912089825e-01, 
            -1.111594319e+00, 1.794964969e-01, -5.957029462e-01, 
            5.231969953e-01, -2.654465102e-02, -2.679440677e-01, 
            -2.287991345e-01, -5.806635618e-01, -5.141883492e-01, 
            -2.979514897e-01, 5.465853810e-01, 5.901536345e-01, 
            -1.636097282e-01, -1.724985056e-02, 2.412544936e-01, 
            1.403648257e-01, -8.077266216e-01, 1.068252102e-01, 
            -2.032439709e-01, -1.969061643e-01, 4.434923083e-02, 
            4.092331529e-01, -5.628922209e-02, 3.268736005e-01, 
            -4.998239875e-01, 2.562902868e-02, 1.705669910e-01, 
            3.335269988e-01, 1.933895200e-01, -5.063896775e-01, 
            -6.643000245e-02, 7.499038577e-01, -7.201193571e-01, 
            3.427444994e-01, -2.297943383e-01, 2.568210661e-01, 
            4.939987063e-01, -2.008329332e-01, -2.296222001e-01, 
            5.277927965e-02, -7.041180134e-02, 1.555974633e-01, 
            9.597898722e-01, -2.421802878e-01, 4.145728890e-03, 
            -2.328792065e-01, -1.234461308e+00, 5.477658659e-02, 
            -1.825304478e-01, -9.409846365e-02, 3.820654154e-01, 
            3.774099648e-01, -1.459189057e-01, 1.984363049e-01, 
            1.143847704e-01, 7.619704306e-02, 7.895357907e-02, 
            3.067534268e-01, -7.352080941e-01, -3.856008500e-02, 
            2.049693763e-01, 3.381402418e-02, -2.324518710e-01, 
            5.588983297e-01},
        {3.964008391e-01, 9.177372456e-01, 5.183258057e-01, 
            -3.354026973e-01, -2.090513945e+00, 4.463068843e-01, 
            -1.541035771e-01, -9.680870175e-02, 3.408690989e-01, 
            -6.594686508e-01, 2.675514817e-01, 2.158315331e-01, 
            2.278218418e-01, 6.838065386e-02, -1.761761427e+00, 
            4.710559249e-01, -2.829695046e-01, 9.998543859e-01, 
            3.479019403e-01, 1.310551882e+00, 6.852638125e-01, 
            1.456580162e-01, -5.302448198e-02, -8.991186023e-01, 
            1.990541667e-01, 7.340464592e-01, -6.215035543e-02, 
            -1.595298499e-01, -6.345337033e-01, 4.720057547e-01, 
            8.239396848e-03, -1.106581211e+00, -8.359161615e-01, 
            6.317166239e-02, 2.097856402e-01, 6.267274022e-01, 
            9.479911998e-03, -8.412702680e-01, 7.268574089e-02, 
            1.463254690e-01, 5.888738036e-01, -4.443461895e-01, 
            7.522211671e-01, 3.888927400e-01, -3.796014190e-01, 
            -1.349613350e-02, -2.041335553e-01, 5.402935147e-01, 
            2.638044357e-01, 4.960878491e-01, -9.056655318e-02, 
            4.890260994e-01, -4.633428156e-01, -6.187145039e-02, 
            -7.306243777e-01, 4.621483088e-01, 2.505489588e-01, 
            -5.449478030e-01, -2.226089537e-01, 2.161418200e-01, 
            -6.369205713e-01, -6.737957597e-01, -3.511584550e-02, 
            -3.066601753e-01, 1.331578940e-01, 5.330943465e-01, 
            -2.160910964e-01, -1.472524166e+00, 1.042959809e+00, 
            1.175706983e-01, 3.067145944e-01, -1.312592864e+00, 
            4.762780070e-01, -2.195175551e-02, 3.336867690e-02, 
            1.481754780e-01, 4.725083411e-01, 2.224739194e-01, 
            -5.326701403e-01, 2.143661976e-01, 4.273741245e-01, 
            -2.252330631e-01, -3.792412579e-01, 5.637654662e-01, 
            -7.737131119e-01, -5.066504329e-02, -7.730606198e-01, 
            -4.968843162e-01, 4.643552005e-01, -4.502328932e-01, 
            -6.253542844e-03, 8.640680909e-01, 4.088788033e-01, 
            -2.474480718e-01, 3.876279294e-01, 5.950748920e-01, 
            -1.175444946e-01, 3.458566666e-01, 6.006682664e-02, 
            3.764010221e-02},
        {-5.800263286e-01, 5.956202745e-01, 1.706722975e-01, 
            -1.511876285e-01, -1.003892064e+00, 4.478212297e-01, 
            3.768263757e-01, 5.604279041e-01, 4.788742065e-01, 
            1.874215603e-01, 3.886912465e-01, 1.152848601e-01, 
            2.506257594e-01, 1.618269235e-01, 3.751748204e-01, 
            5.433616042e-01, 3.721005917e-01, -3.136796653e-01, 
            3.801474571e-01, 2.757903337e-01, 1.651666462e-01, 
            2.173029184e-01, 2.751668543e-02, 1.668059230e-01, 
            -1.687666625e-01, 2.863698602e-01, -2.515848279e-01, 
            8.925297111e-02, -1.239264846e+00, 4.089250565e-01, 
            -1.050307695e-02, 4.803558588e-01, 2.235910743e-01, 
            3.324461579e-01, 2.375129163e-01, 4.246491492e-01, 
            -4.362142459e-02, -1.983725578e-01, -6.116934493e-02, 
            8.171222359e-02, 4.432748556e-01, -7.921577990e-02, 
            1.448037922e-01, -7.093705237e-02, -2.837027907e-01, 
            -4.431925714e-01, -1.414624691e+00, -8.725246191e-01, 
            3.217034936e-01, 4.332566559e-01, 1.777196825e-01, 
            4.622184634e-01, 2.540572286e-01, -8.133188486e-01, 
            -2.569715381e-01, 4.973624349e-01, 4.822169244e-01, 
            2.345114350e-01, -1.105025172e+00, 1.058291197e-01, 
            5.367054604e-03, -7.545005530e-02, -4.562024400e-02, 
            -1.142898083e+00, -1.190219045e+00, -1.660054624e-01, 
            3.857235312e-01, -1.848594427e+00, -3.453420848e-02, 
            -4.752784967e-01, 2.063911557e-01, 1.640170366e-01, 
            -3.133312762e-01, -1.488685794e-02, 1.042987406e-01, 
            2.520384490e-01, -9.117803723e-02, -4.389756024e-01, 
            -1.207538605e+00, 1.669363491e-02, 5.342671871e-01, 
            -1.125399023e-01, -9.243879914e-01, 5.400923491e-01, 
            9.891022742e-02, 2.578334324e-02, -8.005268574e-01, 
            -1.481974870e-01, 1.221285611e-01, 3.576358082e-03, 
            -2.979625225e+00, -1.092819333e+00, -8.487430215e-02, 
            -1.425061703e+00, -2.106709033e-02, 2.410326302e-01, 
            2.768028714e-02, 2.852477133e-01, 1.161931828e-01, 
            -8.526220918e-01},
        {-3.455050290e-02, 2.127880305e-01, 3.627679348e-01, 
            2.045216858e-01, 3.380528688e-01, 4.060068429e-01, 
            -5.487430692e-01, -5.847299844e-02, -1.410422623e-01, 
            8.578395098e-02, -1.687078923e-01, -1.103588492e-01, 
            -3.740426302e-01, 2.244073302e-01, 2.943511903e-01, 
            2.581135556e-02, 3.237824738e-01, 1.993854642e-01, 
            2.587523758e-01, 2.730448842e-01, 3.925107121e-01, 
            -2.420829684e-01, -7.772714496e-01, 3.384903669e-01, 
            -1.055944204e+00, 2.770652771e-01, 2.602847219e-01, 
            1.224502027e-01, -4.521468282e-01, 2.924715877e-01, 
            1.474171162e+00, 4.222967625e-01, -2.885048976e-03, 
            2.339728624e-01, 2.232627869e-01, 8.861561865e-02, 
            -9.545370191e-02, 8.391330391e-02, -1.452384830e+00, 
            -9.757418185e-02, 1.070254445e-01, -1.210376263e+00, 
            -3.068449497e-01, -7.586604357e-02, -9.545500278e-01, 
            1.028048038e+00, 7.939652801e-01, 3.003443182e-01, 
            4.348608553e-01, 4.661468416e-02, 2.303374857e-01, 
            -4.538903013e-02, -3.520207405e-01, -2.635825872e-01, 
            -7.806807756e-01, -3.621264696e-01, 2.426596284e-01, 
            4.863800704e-01, 6.628208756e-01, 4.969246984e-01, 
            -1.020461693e-01, 1.021822929e+00, -1.064184159e-01, 
            3.234757781e-01, -7.404788136e-01, -6.048455089e-02, 
            1.473660469e-01, 2.437109053e-01, 1.926157475e-01, 
            -5.377867222e-01, 1.890369654e-01, 4.554472864e-01, 
            -8.308287859e-01, -1.216931462e+00, -3.246478438e-01, 
            1.751064211e-01, 8.889052272e-02, -5.827939510e-01, 
            4.872414768e-01, -1.745909266e-02, 1.296795905e-01, 
            -1.392216325e+00, -1.289223433e+00, 3.364624977e-01, 
            5.567481369e-02, 4.764910322e-03, -1.928193718e-01, 
            -1.498724073e-01, 4.144969583e-01, 2.372971028e-01, 
            3.286725655e-02, -4.519704282e-01, 1.881775260e-01, 
            -1.280830801e-01, -1.160754800e+00, 3.458951712e-01, 
            -5.775547028e-01, 1.181086183e+00, -8.028431982e-02, 
            1.276990026e-01},
        {3.645559847e-01, -2.766816020e-01, -2.480693161e-01, 
            -5.914487839e-01, 7.065469772e-02, -3.114522994e-01, 
            -2.875736654e-01, -1.367508173e-01, -5.198287964e-01, 
            1.960280687e-01, -2.162693739e-01, -7.564128935e-02, 
            -6.102913022e-01, 2.438346297e-02, 2.888980806e-01, 
            -4.939812720e-01, -1.680746824e-01, 6.376433969e-01, 
            -2.556115985e-01, -4.764709175e-01, -4.913408458e-01, 
            -4.145469666e-01, 8.657145500e-02, -8.402628452e-02, 
            -9.776628762e-02, -2.963351011e-01, 2.292054445e-01, 
            9.726559371e-02, 3.096115291e-01, -4.761594236e-01, 
            9.275823832e-03, 1.826290488e-01, 2.927173674e-01, 
            3.521434963e-02, -4.749915302e-01, -2.929299176e-01, 
            1.369843036e-01, -1.852732748e-01, 2.969460189e-01, 
            -1.337971538e-01, -7.583204657e-02, -1.103168875e-01, 
            5.597459078e-01, -8.970108815e-03, 3.445313573e-01, 
            -7.711855173e-01, -1.049525142e-01, 4.167452082e-02, 
            6.421034336e-01, -5.868620276e-01, -5.606399477e-02, 
            -4.420222938e-01, -7.814451456e-01, -3.548543751e-01, 
            -3.169205785e-01, -6.454622149e-01, -9.826409072e-02, 
            1.399895549e-01, 3.841423988e-01, -7.278701663e-02, 
            8.215324581e-02, 3.951241970e-01, -1.330854058e+00, 
            -7.487373948e-01, -1.259273529e+00, 3.977511525e-01, 
            3.969552815e-01, 2.457588911e-01, 7.951086760e-01, 
            1.544474006e+00, -3.966440856e-01, -1.229245663e+00, 
            7.713192701e-01, -2.235789448e-01, 4.752047360e-02, 
            -4.660430253e-01, 2.312161028e-01, 2.480214983e-01, 
            7.671003342e-01, -6.977024674e-02, -3.646874130e-01, 
            1.499131620e-01, 4.249497354e-01, 2.176091820e-02, 
            -7.489666939e-01, 2.268695235e-01, 3.466073871e-01, 
            -6.477041543e-02, -3.258047998e-01, -3.081426919e-01, 
            1.016167551e-01, -4.366737604e-01, 3.613739610e-01, 
            5.697002411e-01, 1.700745076e-01, -1.353628337e-01, 
            -2.717362642e-01, -1.323544830e-01, 3.858542070e-02, 
            -5.443469286e-01},
        {-8.447648287e-01, 4.565109685e-02, 4.465424418e-01, 
            1.412302554e-01, -1.480866671e-01, 2.894597352e-01, 
            3.580298722e-01, 4.028845578e-02, 3.281861842e-01, 
            7.789196372e-01, 4.462031722e-01, 7.289770991e-02, 
            1.957972199e-01, -8.295982480e-01, 6.774654239e-02, 
            2.232334167e-01, -3.902733922e-01, -4.358851016e-01, 
            3.667997122e-01, 7.119711488e-02, 4.091016650e-01, 
            2.004394829e-01, -3.559131175e-02, -3.400641382e-01, 
            -8.251332641e-01, 1.936248988e-01, -3.577149212e-01, 
            -9.481255896e-03, -5.126626492e-01, 3.298736513e-01, 
            -3.822703063e-01, -7.574187964e-02, -1.315754652e+00, 
            3.863454461e-01, 3.473840952e-01, 1.188166887e-01, 
            -5.174953341e-01, -2.130037397e-01, -7.091357112e-01, 
            -2.055684030e-01, 1.761487722e-01, 2.548138201e-01, 
            -1.972928524e+00, -2.642688751e-01, 1.194214076e-02, 
            -7.605185509e-01, 3.546805084e-01, 1.059173465e+00, 
            2.947422564e-01, 2.525266409e-01, -3.492072225e-01, 
            2.927448750e-01, -1.103893399e+00, -8.845307827e-01, 
            3.499659151e-02, 6.237825751e-01, 3.447353840e-01, 
            -1.967232525e-01, -3.334898949e+00, -2.762192786e-01, 
            1.886282861e-01, -3.119138956e+00, 8.729664236e-02, 
            4.945110083e-01, -1.709455252e-01, -1.528031826e+00, 
            -4.610436410e-02, -1.162819937e-01, 3.234031200e-01, 
            -5.040342212e-01, 4.399588108e-01, -7.408453226e-01, 
            5.453021824e-02, 4.399705231e-01, 4.349934161e-01, 
            1.219995618e-01, -1.933021545e-01, -6.301986985e-03, 
            -4.412809610e-01, 2.248110622e-01, 1.470675617e-01, 
            -3.522314727e-01, 9.820226580e-02, -9.576196782e-03, 
            3.018580377e-01, 6.501329541e-01, 1.991206408e-01, 
            9.345009923e-02, 3.730866313e-01, -5.683358908e-01, 
            -6.789908886e+00, 3.489563763e-01, -1.655386537e-01, 
            6.240915060e-01, 3.329835236e-01, -2.630968520e-04, 
            6.763373613e-01, -2.324173898e-01, 2.685348392e-01, 
            6.474161744e-01},
        {1.850106865e-01, 8.433481455e-01, -3.343683183e-01, 
            3.076834381e-01, -6.281033903e-02, 7.565383613e-02, 
            -2.902788818e-01, -1.656492591e+00, 1.304539889e-01, 
            -1.609165549e+00, -4.165509045e-01, -1.736705303e-01, 
            -7.195121646e-01, -3.059733473e-02, -9.904506058e-02, 
            -3.241024166e-02, 1.762790382e-01, -3.678381443e-02, 
            -2.811281979e-01, 5.897411704e-01, 1.053394303e-01, 
            -2.311755270e-01, 2.464436740e-01, 4.601778984e-01, 
            -8.758410066e-02, 5.364537835e-01, 2.696669847e-02, 
            -2.579148114e-01, -2.605125010e-01, -3.738648295e-01, 
            -7.275332212e-01, -5.512951612e-01, 4.454512596e-01, 
            -4.869756997e-01, -2.270762026e-01, -1.396637410e-01, 
            -3.277329206e-01, 3.957894742e-01, -3.681045771e-01, 
            4.845442176e-01, -6.080890074e-02, 1.383996755e-01, 
            3.402692676e-01, -7.250686288e-01, 1.293244481e+00, 
            3.544191420e-01, -7.054889798e-01, 3.044219911e-01, 
            1.002081513e+00, -1.524213701e-01, -2.322600335e-01, 
            1.693239808e-01, 3.440413773e-01, -2.509376109e-01, 
            1.011899561e-01, 1.456414461e-01, -1.767318249e-01, 
            3.077146411e-01, -3.513664603e-01, 4.846191406e-01, 
            -4.159907997e-02, -1.248713806e-01, 3.063361049e-01, 
            9.531849623e-01, -1.923932284e-01, 2.824066877e-01, 
            6.166425943e-01, 2.266385406e-01, 1.884066761e-01, 
            -2.146579325e-02, -9.242810309e-02, -7.296165228e-01, 
            7.465531826e-01, -4.839616418e-01, -1.104501337e-01, 
            -4.412486255e-01, -1.466681063e-01, 8.294982314e-01, 
            -1.501460671e-01, 1.043830156e+00, -2.099773586e-01, 
            3.725842237e-01, 1.064451709e-01, -4.997530952e-02, 
            3.483901322e-01, 4.548036456e-01, 5.722665191e-01, 
            -9.012364745e-01, -1.643307060e-01, 9.506335855e-02, 
            -2.776581526e+00, 2.560467720e-01, 3.413124084e-01, 
            1.811318249e-01, 2.107422352e-01, -1.585838497e-01, 
            -1.195951104e+00, -7.933084853e-03, -3.323423862e-01, 
            9.179974347e-02},
        {-1.326172709e+00, 1.060919091e-01, 4.200793505e-01, 
            -1.232672483e-01, -7.741152644e-01, 1.158259362e-01, 
            9.714397043e-02, 9.422381520e-01, -2.454343736e-01, 
            6.729525924e-01, 2.386379093e-01, -7.028073072e-02, 
            2.453179210e-01, -3.015125990e-01, 4.280010462e-01, 
            3.153302893e-02, 3.832018375e-02, 1.035499573e+00, 
            1.844556779e-01, 7.539396882e-01, 1.213095784e-01, 
            3.108520508e-01, 1.987054199e-01, 1.747182459e-01, 
            4.556863755e-02, 7.046145853e-03, -2.864767313e-01, 
            2.738498151e-01, -1.266284227e+00, 2.246644497e-01, 
            2.866066992e-01, 2.554592788e-01, 1.605980545e-01, 
            3.221788406e-01, 9.168751538e-02, 2.471238673e-01, 
            1.681623161e-01, -5.757738352e-01, -4.283057749e-01, 
            -1.006786704e+00, 1.152877882e-01, -1.823204160e+00, 
            -1.317596197e+00, -2.642116845e-01, 1.728622466e-01, 
            -4.333464205e-01, 2.454878837e-01, -1.080161780e-01, 
            -9.841293693e-01, 2.966403663e-01, 3.740191460e-02, 
            4.909943417e-02, 2.054706812e-01, -4.633600116e-01, 
            -9.290302992e-01, -9.676240385e-02, 4.406968504e-02, 
            -1.158826705e-02, -8.336480260e-01, -1.460926533e+00, 
            4.206786454e-01, -7.649128437e-01, 4.930089712e-01, 
            -1.335478663e+00, -3.763165325e-02, 8.150526136e-02, 
            8.362900466e-02, -8.013597131e-02, 7.448884845e-02, 
            -7.458393574e-01, 2.422902137e-01, 1.084432658e-02, 
            -1.887813359e-01, 1.992307156e-01, 2.963339388e-01, 
            3.560701013e-01, 2.161444575e-01, -9.648105502e-01, 
            -1.040600091e-01, -1.353570372e-01, 1.714704782e-01, 
            -7.569316030e-01, -4.012346566e-01, 2.870953977e-01, 
            -5.075966716e-01, 2.937023342e-01, 2.366295010e-01, 
            -2.499161363e-01, 3.520594537e-01, 6.569731832e-01, 
            -2.340253353e+00, 1.434479803e-01, 6.968501955e-02, 
            4.158149064e-01, 1.798574477e-01, 1.696038842e-01, 
            6.452746987e-01, -2.797392011e-01, 1.092591509e-01, 
            -1.413395524e+00},
        {-7.957574725e-02, 8.235454559e-01, 5.935744047e-01, 
            4.224006236e-01, 1.257864088e-01, 6.290122271e-01, 
            3.297483325e-01, -1.357789151e-02, 9.148672819e-01, 
            7.076282054e-02, 9.654397964e-01, -2.465075970e+00, 
            3.593868017e-01, 6.825769693e-02, 4.891043603e-01, 
            7.942709923e-01, 4.663590789e-01, 7.583812475e-01, 
            5.744305253e-01, 9.279393554e-01, 7.988244891e-01, 
            5.813670754e-01, -5.093891025e-01, 7.033620477e-01, 
            2.716216147e-01, 7.213889956e-01, 1.568608582e-01, 
            4.126928151e-01, -4.517953098e-01, 7.518800497e-01, 
            -1.704794049e+00, 3.434829041e-02, 2.439490892e-02, 
            3.623749316e-01, 7.298744917e-01, 8.304726481e-01, 
            1.814881116e-01, -1.461554527e+00, -2.333561927e-01, 
            2.650402486e-02, 7.200655341e-01, -8.931789994e-01, 
            2.465934157e-01, 2.312164903e-01, -2.457831204e-01, 
            -6.299143285e-02, -7.990075350e-01, 5.080363750e-01, 
            6.999537349e-01, 6.500600576e-01, -2.176324129e+00, 
            6.615310907e-01, 6.213423610e-01, -2.850630045e+00, 
            4.758756459e-01, 6.366567612e-01, 4.950956702e-01, 
            -1.220564365e+00, -1.578138232e+00, -6.128983200e-02, 
            4.460363686e-01, -2.932656288e+00, -1.882392168e-01, 
            -1.088379100e-01, -2.442421317e-01, 2.152553499e-01, 
            8.436557651e-01, -5.681973100e-01, 7.696744800e-01, 
            4.751300812e-02, 6.023895144e-01, 1.995312572e-01, 
            -1.855855137e-01, 6.669594347e-02, 3.759636581e-01, 
            5.949285626e-01, 6.988791823e-01, 8.411491513e-01, 
            1.581996828e-01, 6.503152251e-01, 7.286402583e-01, 
            -9.654862285e-01, -2.774001598e+00, 8.758051991e-01, 
            3.827905953e-01, 3.241221011e-01, 3.544268012e-01, 
            -1.328790069e+00, 8.188943267e-01, 3.685729504e-01, 
            -3.483799398e-01, 3.162712976e-02, 6.345484853e-01, 
            1.558394730e-01, 1.663453281e-01, 6.226568818e-01, 
            -5.073809028e-01, -1.215143442e+00, 5.546877980e-01, 
            -2.809710801e-01},
        {3.679707646e-01, 6.480868459e-01, 9.034187794e-01, 
            6.583259106e-01, -2.740033865e-01, 6.746312976e-01, 
            -8.952019215e-01, 1.604643911e-01, 3.088776171e-01, 
            9.644515067e-02, 5.910406709e-01, -3.021562845e-02, 
            8.758299798e-02, 1.550266636e-03, 4.622309655e-02, 
            4.704504311e-01, 6.910163909e-02, 8.020245433e-01, 
            4.631893039e-01, 5.889675021e-01, 4.656397998e-01, 
            2.950557768e-01, 1.272584777e-02, -4.821699113e-02, 
            -1.425595999e+00, 3.261022866e-01, -3.407133818e-01, 
            -7.391887158e-02, -6.317524910e-01, 3.008342683e-01, 
            -1.331242919e+00, 3.869980872e-01, 1.999409497e-01, 
            3.472258747e-01, 3.249812424e-01, 6.033308506e-01, 
            -2.363385409e-01, -1.471883710e-02, -1.202125624e-01, 
            -8.356057405e-01, 6.700667739e-01, -8.543015122e-01, 
            1.049701050e-01, 2.847214602e-02, -1.331218481e-01, 
            4.633945972e-02, -4.487167001e-01, 3.895376623e-01, 
            8.058381081e-01, 6.179648042e-01, -7.837533206e-02, 
            4.401932955e-01, -1.845880747e-01, -7.340339571e-02, 
            2.017298788e-01, 2.175853103e-01, 5.680345893e-01, 
            -2.779110432e+00, 2.582615241e-03, -4.653883576e-01, 
            -7.248145342e-01, -5.660440326e-01, -5.065988004e-02, 
            -2.687878311e-01, -5.503763556e-01, 6.007168293e-01, 
            3.785854578e-01, 5.827791616e-02, -6.783573329e-02, 
            -1.260953695e-01, 3.495783210e-01, 5.613196492e-01, 
            -4.718549550e-01, 3.180343509e-01, -5.074549839e-02, 
            2.360952944e-01, 1.288109571e-01, -2.997921705e-01, 
            -2.831868529e-01, -3.887660503e-01, 4.089632034e-01, 
            -2.243828177e-01, -4.585149288e-01, 7.002634406e-01, 
            6.479893923e-01, -9.394087642e-02, 1.944230050e-01, 
            -7.704214007e-02, 4.805470705e-01, 9.738221169e-01, 
            -3.258338571e-01, 2.067854553e-01, 1.752381772e-01, 
            -1.045009971e+00, -2.112353444e-01, 3.999268413e-01, 
            -3.116184659e-02, 1.095652431e-01, 8.443575352e-02, 
            -1.531980395e+00},
        {-2.691865340e-02, 2.546498775e-01, -5.980905890e-02, 
            3.799569011e-01, 8.674176931e-01, 3.605771363e-01, 
            -6.143401861e-01, 4.303914905e-01, 5.150982141e-01, 
            1.742924005e-01, 1.549267322e-01, 1.601489931e-01, 
            2.622725070e-01, -1.772985011e-01, 2.536768615e-01, 
            2.474911958e-01, -9.635593742e-02, -5.120928884e-01, 
            1.450238973e-01, 4.251736999e-01, 3.658975065e-01, 
            4.477272332e-01, 3.348467126e-02, -1.530892104e-01, 
            1.227914691e-01, 2.315683216e-01, -1.970182806e-01, 
            -2.988516986e-01, -1.285989761e+00, 3.540796638e-01, 
            -7.752198577e-01, 3.391177356e-01, 7.103503346e-01, 
            2.208570540e-01, 1.397498548e-01, 2.324097976e-02, 
            -6.703138351e-01, -7.321414351e-01, -1.910761446e-01, 
            -2.346548140e-01, 3.625692427e-02, -1.703960538e+00, 
            -2.967225909e-01, -1.490551978e-01, -4.597180188e-01, 
            5.542930961e-01, 2.055602521e-01, 6.436028481e-01, 
            -6.780271232e-02, 2.504338026e-01, -5.846709386e-02, 
            3.903487027e-01, -2.512362897e-01, -1.895116717e-01, 
            -7.503030896e-01, 2.383394688e-01, 2.927322984e-01, 
            -1.203359008e+00, -1.210184455e+00, 1.249675304e-01, 
            1.042457074e-01, 6.433192641e-02, 6.940396130e-02, 
            6.888652444e-01, -4.647258222e-01, -7.017803937e-02, 
            -2.722933888e-01, -7.805736065e-01, 7.614240050e-02, 
            -4.936345816e-01, 3.709631860e-01, 3.311926126e-01, 
            -3.036621511e-01, 5.233716369e-01, 5.441760421e-01, 
            5.264597535e-01, -1.818882823e-01, -8.381131887e-01, 
            -5.950036049e-01, -3.392609656e-01, 2.183745354e-01, 
            1.466851532e-01, -6.629291177e-01, 5.538345501e-02, 
            1.072600007e+00, -4.106007516e-01, 2.738599479e-01, 
            1.951484382e-01, -1.567024440e-01, 8.875311613e-01, 
            -2.472107172e+00, -5.707118511e-01, -4.099244475e-01, 
            5.607986450e-01, 4.324463382e-02, -1.064751670e-01, 
            2.879115641e-01, 4.946536571e-02, 2.110200077e-01, 
            -1.734163463e-01},
        {2.583737969e-01, -3.869243264e-01, 1.238090843e-01, 
            -7.896598428e-02, -5.432427302e-02, 3.080648184e-01, 
            5.251235962e-01, -1.955514308e-03, 2.699533999e-01, 
            -2.662849240e-02, 4.396463633e-01, -6.877982616e-01, 
            2.785463035e-01, 7.975260913e-02, -9.888642281e-02, 
            5.960910916e-01, 1.720295101e-01, 2.126451433e-01, 
            2.866818607e-01, -1.672980040e-01, 4.743462205e-01, 
            4.506614804e-01, 3.921029270e-01, 2.012329251e-01, 
            -6.275922060e-02, 1.295450181e-01, 5.764762759e-01, 
            3.231044412e-01, -4.602950513e-01, 2.323901504e-01, 
            1.431929320e-02, -4.091692567e-01, -9.336542487e-01, 
            3.971020281e-01, 1.477689445e-01, 3.245861232e-01, 
            3.799260259e-01, -7.078089118e-01, -6.509748697e-01, 
            2.420371473e-01, 4.140550494e-01, -6.732652783e-01, 
            -2.997730374e-01, -1.095182151e-01, -4.384013414e-01, 
            -1.345811784e-01, -1.267792098e-02, -1.913946420e-01, 
            2.715446986e-02, 6.326559782e-01, -1.711473800e-02, 
            5.125778317e-01, -1.688733399e-01, -1.451480985e+00, 
            -9.149553776e-01, 4.395574629e-01, 4.925296605e-01, 
            -2.538277507e-01, 6.538918018e-01, 9.676723182e-02, 
            1.767945290e-01, -1.226603985e+00, -2.644745708e-01, 
            -5.126105547e-01, -6.360628605e-01, -7.782046795e-01, 
            5.911256187e-03, 4.416968524e-01, -5.091791749e-01, 
            7.438266873e-01, 4.524419308e-01, -3.093540370e-01, 
            4.819951952e-01, -3.109405637e-01, 4.812181294e-01, 
            1.662153602e-01, 2.597690523e-01, 4.181050956e-01, 
            -7.492808104e-01, -4.164821506e-01, 4.544032216e-01, 
            -9.083159566e-01, 8.030437678e-02, 2.598965466e-01, 
            -4.275389388e-02, 1.527134776e-01, 5.328024626e-01, 
            -1.624073982e+00, 4.011425972e-01, -6.246578097e-01, 
            5.430404097e-02, 5.025501251e-01, 4.840161204e-01, 
            2.696144879e-01, 3.070859015e-01, 2.642121911e-01, 
            5.469193459e-01, -6.156969070e-01, 1.976551116e-01, 
            3.522697687e-01},
        {2.988071144e-01, -2.100610733e-01, 5.540057421e-01, 
            -7.896555960e-02, -1.687778592e+00, 4.522433877e-01, 
            -9.192045033e-02, -8.033242226e-01, -3.614698350e-01, 
            -4.618599415e-01, 3.930704892e-01, -2.441697717e-01, 
            -3.185039759e-01, 8.667670190e-02, -3.775714040e-01, 
            5.442133546e-01, -1.361150146e-01, 4.648883045e-01, 
            2.128354758e-01, -4.117247835e-02, 4.730658829e-01, 
            4.356926680e-01, 2.634235620e-01, -7.068705745e-04, 
            -6.211049110e-02, 2.071309388e-01, 8.356365561e-01, 
            -1.254275888e-01, 1.112998009e+00, 3.092487454e-01, 
            -2.604157031e-01, -3.328053653e-01, -5.252048969e-01, 
            1.423595473e-02, 2.022855580e-01, 6.460951567e-01, 
            3.172822893e-01, -2.285993099e+00, -9.538650513e-01, 
            -6.681262851e-01, 5.437263846e-01, -1.368855000e+00, 
            -4.489310682e-01, -7.977646589e-01, -4.849044979e-02, 
            -2.545063198e-01, -1.240890175e-01, 1.313527375e-01, 
            7.264797091e-01, 5.800840855e-01, 2.487916350e-01, 
            3.584433496e-01, -4.868255556e-01, 4.429717362e-01, 
            2.803218365e-01, 2.311672270e-01, 4.282327294e-01, 
            2.656844445e-02, 5.037267208e-01, -5.868951678e-01, 
            3.218766451e-01, 3.528921902e-01, 1.836348474e-01, 
            -1.029602170e+00, 8.383543789e-02, 3.592461348e-01, 
            6.004623175e-01, 9.660466909e-01, -4.217941463e-01, 
            2.702091336e-01, 4.310300648e-01, 1.865127385e-01, 
            -2.359324396e-01, -6.501467228e-01, -2.456685454e-01, 
            2.968727648e-01, 9.825059026e-02, -4.685420990e-01, 
            -4.345822632e-01, -1.640710682e-01, 2.608779967e-01, 
            -4.822219610e-01, -6.689963937e-01, 1.961898506e-01, 
            7.959313989e-01, -2.381839454e-01, 6.367011070e-01, 
            -3.415131092e+00, 4.502660036e-01, 1.858283132e-01, 
            -1.358032584e+00, 3.903707564e-01, 2.395502180e-01, 
            2.251514196e-01, 2.356638014e-02, 4.546822608e-01, 
            -1.485209823e+00, 7.519665360e-01, 1.143856719e-01, 
            4.055192471e-01},
        {-1.398809195e+00, 7.400431037e-01, 3.088065684e-01, 
            2.812842131e-01, 6.171787977e-01, 2.441182882e-01, 
            4.991957545e-01, -5.795359612e-01, 1.414996833e-01, 
            -4.210957885e-01, -9.277287871e-02, 6.847442389e-01, 
            1.586211920e-01, -2.720185518e-01, 3.462001085e-01, 
            1.128991917e-01, 6.575175524e-01, -7.725257874e-01, 
            2.188453916e-03, 5.753493682e-02, 2.620743513e-01, 
            1.438470185e-01, 8.738223910e-01, 7.006036639e-01, 
            -4.957920015e-01, 2.364608794e-01, 2.846764624e-01, 
            3.715505078e-02, -1.195077151e-01, 2.573013902e-01, 
            -5.244393945e-01, 5.853151530e-02, 9.049600363e-01, 
            -7.990357280e-02, 1.093248501e-01, 2.012374401e-01, 
            -6.310321689e-01, 8.795685172e-01, 6.532081366e-01, 
            7.818628848e-02, -1.774578691e-01, -1.456243843e-01, 
            -9.967607260e-02, -7.834912091e-02, 9.580460191e-01, 
            -7.609272599e-01, -2.415935695e-01, 8.260720968e-01, 
            8.300941437e-02, 6.041454896e-02, -1.544829011e+00, 
            1.007699370e-01, -3.194067478e-01, 8.042251468e-01, 
            -2.150973082e+00, 1.989958882e-01, -1.174688991e-02, 
            -3.696100116e-01, -1.462263763e-01, 6.416732073e-01, 
            5.726023912e-01, 7.140047848e-02, -2.634252049e-02, 
            2.906253934e-01, 4.940864444e-01, 7.159792185e-01, 
            2.420286536e-01, -4.395154119e-01, -1.881899983e-01, 
            -5.008579493e-01, -7.244308293e-02, 2.003566921e-01, 
            -1.678150445e-01, 1.718255132e-01, -1.227781847e-01, 
            1.876940206e-02, -1.699883640e-01, -7.231731415e-01, 
            1.197894096e+00, 3.364021480e-01, 2.208523899e-01, 
            1.261384785e-01, 6.602339447e-02, 1.278010309e-01, 
            2.561355829e-01, -1.220740795e+00, 5.342384577e-01, 
            -1.046542287e+00, 1.803562231e-02, 6.643025875e-01, 
            -7.995588779e-01, 4.120919481e-02, -3.698064685e-01, 
            1.833129227e-01, 1.132468581e+00, 1.794484407e-01, 
            -1.222673416e+00, -1.229187489e+00, 5.715154856e-02, 
            -2.421701550e-01},
        {-1.921939291e-02, -2.328855842e-01, 8.785521239e-02, 
            -1.942940354e-01, -2.328867614e-01, 6.203302741e-01, 
            5.247128755e-02, -1.570597589e-01, 1.612191796e-01, 
            2.614285797e-02, 4.850033224e-01, 3.944737092e-02, 
            1.025669500e-01, -1.127285957e-01, -1.023647711e-01, 
            8.720123768e-01, 9.427286685e-02, 1.089659054e-03, 
            3.134780824e-01, 8.953803778e-01, 8.284584284e-01, 
            2.880298197e-01, 7.683862746e-02, 1.836790890e-01, 
            1.189606935e-01, 3.932503164e-01, -1.915543228e-01, 
            1.692557782e-01, -3.106645644e-01, 5.711172223e-01, 
            2.369270287e-02, 7.180672139e-02, -1.110305041e-01, 
            8.914516866e-02, 4.661343396e-01, 8.550574780e-01, 
            1.568725854e-01, -4.891944304e-02, -2.312680781e-01, 
            -1.287190914e-01, 3.114528656e-01, -1.342810988e-01, 
            -4.121903330e-03, 2.204255462e-01, -1.411020160e-01, 
            -7.230259180e-01, -1.917458653e+00, -5.168511868e-01, 
            -4.609425962e-01, 8.004587889e-01, -1.375906751e-03, 
            6.885411143e-01, 3.409535438e-02, -1.099458523e-02, 
            7.591572404e-02, 9.980453253e-01, 5.301079154e-01, 
            3.373368457e-02, -2.348365784e-01, -6.619288325e-01, 
            -1.963138729e-01, -9.714256972e-02, 2.284969576e-02, 
            -1.155945882e-01, -1.092003345e+00, -6.694849133e-01, 
            -2.018225789e-01, -1.898776591e-01, 1.407212615e-01, 
            -3.463299274e-01, 6.145028472e-01, 9.587892890e-02, 
            -2.775243819e-01, 1.961097717e-01, 3.309054375e-01, 
            3.633971810e-01, 3.998132050e-01, -5.650370717e-01, 
            -2.615234256e-01, -4.203686491e-02, 3.869061172e-01, 
            -2.074151337e-01, -4.118852913e-01, 4.892056584e-01, 
            2.376353554e-02, 1.556972712e-01, -1.691820979e+00, 
            3.915822506e-02, 6.228251457e-01, 1.875162572e-01, 
            -8.293522596e-01, -2.896527350e-01, 3.557170630e-01, 
            -1.838408709e+00, -2.522824518e-02, 4.440504909e-01, 
            -4.980172589e-02, 9.894219227e-03, 1.774580181e-01, 
            -2.829575837e-01},
        {4.444599450e-01, 7.068270445e-01, -1.783841252e-01, 
            1.038789675e-01, 7.012277246e-01, -2.349940836e-01, 
            -1.799191465e-03, -4.586944580e-01, 3.386440873e-01, 
            -8.800557256e-01, -3.953812122e-01, 3.056933284e-01, 
            -3.914092779e-01, 2.416715212e-02, -9.308204055e-01, 
            -4.003932774e-01, 7.772186399e-01, 2.657400072e-01, 
            -4.149789214e-01, 5.523837209e-01, -3.499729792e-03, 
            -2.332665175e-01, 2.428033352e-01, 1.958004475e+00, 
            1.140676066e-02, 3.170226216e-01, -7.299370170e-01, 
            -5.920529962e-01, -6.479727626e-01, -3.587782681e-01, 
            -1.473376006e-01, -1.433775783e+00, 8.725251257e-02, 
            -5.091975927e-01, -4.076145589e-01, -1.475017518e-01, 
            -5.709180832e-01, -1.588683426e-01, -1.630909145e-01, 
            1.156340390e-01, 7.904895395e-02, 9.988532960e-02, 
            8.316217065e-01, -1.841239482e-01, -4.567381740e-01, 
            1.214042827e-01, -8.945686221e-01, -6.226890087e-01, 
            -1.539630592e-01, -3.794379830e-01, 5.844175816e-02, 
            -7.512299716e-02, -2.857683897e-01, 2.510447241e-02, 
            6.853579730e-02, -7.877207361e-03, -5.823365450e-01, 
            4.064023495e-01, 3.063118551e-03, 1.995442659e-01, 
            -6.907020807e-01, 2.234548926e-01, 1.562675089e-01, 
            1.096670270e+00, 1.104443073e+00, 4.670641422e-01, 
            -2.321248353e-01, 2.680623829e-01, -8.181379437e-01, 
            -8.853265643e-02, -5.152995586e-01, 4.495649338e-01, 
            6.128308177e-01, 2.291598469e-01, -1.870855838e-01, 
            -4.649785757e-01, -2.297113836e-01, 4.266425073e-01, 
            3.703497350e-01, 5.513997748e-02, -3.694195449e-01, 
            7.207714953e-03, 9.276320338e-01, -5.527712703e-01, 
            4.357046485e-01, 4.712349921e-02, 7.166052461e-01, 
            -1.973663867e-01, -3.112584949e-01, 7.739917636e-01, 
            5.379805341e-02, -3.969145417e-01, -2.847141325e-01, 
            -2.043754905e-01, 8.560448140e-02, -2.777045667e-01, 
            -4.094122350e-01, -2.107947320e-01, -3.013975024e-01, 
            4.826652706e-01},
        {1.711594343e+00, 7.074695826e-01, 5.275573134e-01, 
            4.129717350e-01, 2.243458182e-01, 4.885517955e-01, 
            -6.187022924e-01, 1.114922762e-01, 1.026319861e+00, 
            2.191233486e-01, 7.433594465e-01, -1.727033734e+00, 
            3.680678606e-01, 1.589136869e-01, 4.139043391e-01, 
            6.521516442e-01, 2.044591457e-01, -2.486060709e-01, 
            5.781717896e-01, -6.200473309e-01, 6.020942330e-01, 
            5.163020492e-01, 3.125637770e-01, 2.483333945e-01, 
            2.249406874e-01, 3.301376700e-01, 3.825305775e-02, 
            -4.148039818e-01, -9.253475666e-01, 4.142141044e-01, 
            -9.706708044e-02, 1.705770791e-01, 5.212937668e-02, 
            1.903809309e-01, 8.003431559e-01, 5.964159966e-01, 
            -1.838462114e+00, 3.356828988e-01, -8.903626204e-01, 
            -1.158453226e+00, 3.888701499e-01, -1.734347224e+00, 
            -1.015368581e+00, -1.567468792e-01, 1.128344387e-01, 
            -2.374518663e-01, 4.561385885e-02, -7.563769817e-01, 
            6.746987104e-01, 6.555526257e-01, -7.078903168e-02, 
            7.801963687e-01, -2.961614728e-01, 2.708652914e-01, 
            1.177476496e-01, 6.867128611e-02, 6.342078447e-01, 
            -1.059034586e+00, -6.171560287e-01, 2.544212937e-01, 
            5.491145849e-01, -2.181254178e-01, 4.453685880e-02, 
            -4.552923441e-01, -2.160972655e-01, 8.947540075e-02, 
            5.606946945e-01, -1.387260318e+00, -8.036857843e-01, 
            -9.836941957e-01, 7.278395891e-01, 5.971634984e-01, 
            -9.481559992e-01, 1.683018953e-01, -1.177546531e-01, 
            5.163752437e-01, -2.183830440e-01, 3.432295918e-01, 
            -2.189390421e+00, -8.052426577e-01, 6.725308895e-01, 
            6.365577132e-02, -1.790637970e+00, 7.158025503e-01, 
            3.416325524e-02, -1.051129222e+00, 2.602513134e-01, 
            -2.280711383e-02, 3.607671559e-01, -3.547417223e-01, 
            -8.915495872e-01, -1.061511993e+00, -5.466778874e-01, 
            -9.012947977e-02, 5.022644401e-01, 3.279544413e-01, 
            -1.818290591e+00, -6.143832803e-01, 3.680965900e-01, 
            -1.196874142e+00},
        {-1.559451342e+00, -6.063362956e-01, 4.472590238e-02, 
            1.398327798e-01, 6.048569083e-01, 1.110486612e-01, 
            1.286936998e-01, -5.205616951e-01, 3.778845072e-01, 
            -4.914823174e-01, -2.645703964e-02, -6.331767421e-03, 
            -1.850688010e-01, 1.815858781e-01, -3.259923458e-01, 
            1.376091391e-01, -1.599743068e-01, -7.521694303e-01, 
            -7.051452994e-02, -3.601554334e-01, 1.474497169e-01, 
            -1.263557225e-01, 1.056338310e+00, -7.156826556e-02, 
            -7.354657650e-01, 4.542503059e-01, -2.660976648e-01, 
            3.837632015e-02, -3.009279072e-01, 2.250639498e-01, 
            5.300952122e-02, -1.183009446e-01, -9.950678796e-02, 
            -2.254404575e-01, -7.524224371e-02, 2.079546899e-01, 
            -5.627404898e-02, -1.303388737e-02, -3.729813695e-01, 
            5.065041184e-01, -1.949215084e-01, 3.508160412e-01, 
            -2.121961117e+00, -6.020746827e-01, 3.925452009e-02, 
            -1.763230115e-01, -2.490386814e-01, 5.559939742e-01, 
            1.475186646e-01, 2.475415766e-01, 2.770716324e-03, 
            1.178600118e-01, 1.508350074e-01, 1.173206270e-01, 
            -7.358000278e-01, 2.221540660e-01, -4.305700958e-02, 
            -8.293071389e-01, 4.239091575e-01, -2.092473507e-01, 
            1.439163834e-01, -6.038836241e-01, 1.027485430e-01, 
            5.137344599e-01, -3.195070922e-01, -8.899402022e-01, 
            -1.056910872e+00, -3.071062267e-01, 6.617332101e-01, 
            2.368353605e-01, 8.610091358e-02, -7.548224926e-01, 
            -2.122210264e+00, 4.499284327e-01, -1.336537749e-01, 
            1.003888473e-01, -1.906346977e-01, -5.052903891e-01, 
            -3.302048445e-01, 2.434861511e-01, 6.832670420e-02, 
            -1.880789846e-01, 4.945422709e-01, 1.811456978e-01, 
            5.319972038e-01, 5.187801719e-01, -4.825789034e-01, 
            -1.560440302e+00, 3.913343549e-01, -3.883178160e-02, 
            9.204012901e-02, 6.880502105e-01, -4.590610564e-01, 
            2.963941991e-01, 6.535499692e-01, 4.631525278e-02, 
            2.043293417e-01, -7.441338617e-03, 1.217504442e-01, 
            -1.745168716e-01},
        {-1.449937820e+00, -1.291482896e-01, 1.757564023e-02, 
            -1.963892579e-01, -4.558603168e-01, 3.518174887e-01, 
            3.393439651e-01, 3.447737694e-01, 1.938318014e-01, 
            3.450075388e-01, 7.332907915e-01, -4.064411223e-01, 
            -1.341019943e-02, 3.395485878e-02, 3.713261485e-01, 
            4.615956545e-01, 2.845004201e-01, -2.395590954e-02, 
            4.372573197e-01, -3.673769832e-01, 2.964361906e-01, 
            4.195859432e-01, 3.521122932e-01, 1.854432821e-01, 
            -9.238318354e-02, 1.089346483e-01, -8.112967014e-02, 
            3.055250943e-01, 5.226541311e-02, 5.521098971e-01, 
            2.456846982e-01, -5.417492986e-02, -6.742054224e-02, 
            3.885986209e-01, 7.162312418e-02, 5.847368836e-01, 
            3.498764038e-01, -2.343873680e-01, 8.624081314e-02, 
            2.386470884e-01, 2.448442429e-01, 6.340195984e-02, 
            -3.339009583e-01, 2.312260717e-01, 2.373214066e-01, 
            -3.466895521e-01, -1.597098410e-01, -8.155315518e-01, 
            -3.541799486e-01, 5.028681755e-01, 5.003204197e-02, 
            3.297064006e-01, -2.552729249e-01, -5.556539819e-02, 
            -1.216133475e+00, 3.597470224e-01, 3.147150576e-01, 
            9.848180413e-02, -1.665462106e-01, -9.679875374e-01, 
            3.595743477e-01, -4.793356359e-01, -2.636544704e+00, 
            -1.648531556e+00, -1.077852368e+00, -1.414588213e+00, 
            -5.737981796e-01, 3.740061224e-01, -2.748525441e-01, 
            -1.164618015e+00, 3.155901134e-01, -3.209663630e-01, 
            -3.370306268e-02, 1.198228896e-01, 3.069677651e-01, 
            4.530503750e-01, 1.040179059e-01, -1.782677174e+00, 
            -7.640212774e-02, -1.979340464e-01, 3.379123807e-01, 
            -7.632539421e-02, -1.834422708e+00, 4.330765307e-01, 
            1.713173836e-01, 4.579694867e-01, 4.277606308e-01, 
            1.137754843e-01, 2.386636883e-01, 1.872917861e-01, 
            -3.222430348e-01, 8.970014751e-02, 4.161500931e-01, 
            -8.387717009e-01, -1.687623002e-02, 3.184155524e-01, 
            9.615118057e-02, 8.798763156e-02, 4.523571134e-01, 
            -1.474778354e-01},
        {-1.170485020e+00, 7.206092589e-03, 3.137170374e-01, 
            5.570176840e-01, 2.053728849e-01, 4.504595101e-01, 
            3.548375666e-01, 2.052547187e-01, 1.535616368e-01, 
            6.891290545e-01, 1.827597767e-01, -3.339510038e-02, 
            2.526294887e-01, -3.998618722e-01, 4.804199189e-02, 
            4.883159399e-01, -1.673292667e-01, 3.458859622e-01, 
            2.388609946e-01, 2.685119808e-01, 4.335294068e-01, 
            2.030880749e-01, -6.214684844e-01, -4.328143299e-01, 
            -2.319998592e-01, 3.064772785e-01, 4.183099270e-01, 
            5.234135315e-02, -1.423642486e-01, 1.525258720e-01, 
            -2.021818638e+00, 1.512820274e-01, 6.320385337e-01, 
            2.055559605e-01, 4.510605335e-01, 1.724577993e-01, 
            -1.158637032e-01, 1.418793947e-02, -2.051736712e-01, 
            -1.494531184e-01, 2.435738444e-01, -1.895893067e-01, 
            -2.239139676e-01, -4.814646766e-02, -8.943623304e-01, 
            -5.151788145e-02, 8.733347654e-01, -2.726368606e-01, 
            6.966527104e-01, 4.455267489e-01, 2.140188515e-01, 
            3.292535543e-01, -1.454410791e+00, -4.753670469e-02, 
            -5.220947266e-01, 3.264799416e-01, 3.171468675e-01, 
