#include "nn_params.h"

const unsigned short LAYER_DIMS[] = {
    5, 100, 100, 100, 100, 100, 2
};

const Layer LAYER_TYPES[] = {
    DENSE, SOFTPLUS, DENSE, SOFTPLUS, DENSE, SOFTPLUS, DENSE, SOFTPLUS, DENSE, SOFTPLUS, 
    DENSE, TANH
};

const float STATE_BIAS[NUM_STATE_VARS] = {
    1.173174087e-05, 0.000000000e+00, -3.297776532e-05, 
        0.000000000e+00, 0.000000000e+00  
};

const float INPUT_SCALER_PARAMS[2][NUM_STATE_VARS] = {
    {-1.285279887e-02, 8.536060203e-03, 1.803716438e-02, 
        6.538635030e-02, 2.845977484e-04},
    {3.689762625e+00, 2.425667685e+00, 3.585677160e+00, 
        2.292289040e+00, 3.522626417e-01}
};

const float OUTPUT_SCALER_PARAMS[4][NUM_CONTROL_VARS] = {
    {4.686210173e-01, -1.599299685e-04},
    {4.715582741e-01, 4.385353967e-01},
    {1.249629426e+00, 8.770707935e-01},
    {3.891845696e+00, -3.198599370e-04}
};

const float BIASES[NUM_DENSE_LAYERS][MAX_LAYER_DIMS] = {
    {7.325971127e-01, -8.269327879e-02, -1.066697836e-01, 
        1.598082334e-01, -2.280595303e-01, -2.049214989e-01, 
        5.638497472e-01, 1.901023649e-02, 4.363542423e-02, 
        1.529391408e-01, -4.764454812e-02, 1.139418781e-01, 
        3.770851791e-01, -5.042751320e-03, 2.962563336e-01, 
        -1.283311099e-01, -1.059365422e-01, -2.666154206e-01, 
        -1.481585391e-02, 1.849948317e-01, 8.857762814e-02, 
        -1.884624958e-01, 5.199388862e-01, 7.484113425e-02, 
        -1.611814201e-01, -5.123049617e-01, -2.290537059e-01, 
        3.306739032e-02, 2.722584009e-01, -6.362767518e-02, 
        -3.771614656e-02, -1.037590429e-01, -1.446431279e-01, 
        -1.175916344e-01, -8.583793044e-02, -1.289952360e-02, 
        -2.608115375e-01, 1.480147094e-01, -6.632680446e-02, 
        -1.543126255e-01, -7.284925133e-02, -2.379714847e-01, 
        -1.796436757e-01, 6.454514805e-03, 2.542766975e-03, 
        -1.404355317e-01, -2.080707848e-01, -5.010907352e-02, 
        2.753247879e-02, -1.889887638e-02, 5.995418876e-02, 
        9.247951210e-02, -3.805343807e-02, -8.104375005e-02, 
        1.161351725e-01, -2.738785744e-01, -2.266722620e-01, 
        -3.551374376e-02, -1.199256396e-03, 1.830168217e-01, 
        4.365879670e-02, 2.370001227e-01, -9.843528271e-02, 
        3.495169571e-03, -1.094158292e-01, 5.537565798e-02, 
        1.452091336e-01, 1.456594765e-01, 8.816285990e-03, 
        1.404102445e-01, -1.563033313e-01, -2.305929512e-01, 
        3.168467581e-01, -8.601026237e-02, -9.303487092e-02, 
        9.416206181e-02, 4.267378151e-02, -5.450681448e-01, 
        1.172846109e-01, -1.457939148e-01, -2.702227794e-02, 
        6.908493489e-02, 5.361258984e-02, -6.302297115e-02, 
        1.705064811e-02, -1.829504780e-02, 1.676040441e-01, 
        -1.962091029e-01, -6.390235387e-03, -6.157879904e-02, 
        2.021294087e-01, -1.013868302e-01, -2.386591025e-02, 
        -1.588772610e-02, -1.546879113e-01, -1.502515674e-01, 
        7.972846180e-02, -6.174133420e-01, 5.656361207e-02, 
        3.522193134e-01},
    {-3.606659174e-01, -9.594288468e-01, 2.091352046e-01, 
        2.115291953e-01, -8.812867850e-02, -5.958126783e-01, 
        -1.009607911e-01, 7.581073791e-02, 6.686048955e-02, 
        -1.021289974e-01, 1.372548938e-01, -8.576250821e-02, 
        1.491945833e-01, 1.649648100e-01, -3.399212360e-01, 
        2.721455991e-01, 1.590310484e-01, -3.968015611e-01, 
        1.236349493e-01, 1.684202552e-01, 9.881550819e-02, 
        2.771305144e-01, -5.745346546e-01, 1.848585308e-01, 
        5.069602132e-01, 7.277406007e-02, 4.556017518e-01, 
        3.140787408e-02, -1.061145306e+00, 1.794614457e-02, 
        -6.896033138e-02, -5.036348104e-01, 6.493426561e-01, 
        -5.408618227e-02, 6.308913231e-01, 8.065949380e-02, 
        -3.002497256e-01, 1.098702028e-01, 1.840273291e-01, 
        1.938253492e-01, -4.532730281e-01, 2.227658629e-01, 
        1.611996442e-01, 1.536257863e-01, -4.628032446e-01, 
        2.137237489e-01, -5.279475451e-01, 3.619133830e-01, 
        1.044999957e-01, 4.562208802e-02, -8.478892595e-02, 
        2.239323556e-01, -8.041135967e-02, 1.141970456e-01, 
        -1.649841070e-01, 4.344080389e-01, 7.804257870e-01, 
        1.530358568e-02, 2.108346075e-01, -1.917129755e-01, 
        -1.615617797e-02, -8.377251029e-01, 8.063812554e-02, 
        1.655295342e-01, -1.315315127e+00, -1.637208909e-01, 
        1.054278687e-01, -1.039845467e+00, 1.109167635e-01, 
        -3.798144311e-02, -3.201968074e-01, 2.444112003e-01, 
        5.149654746e-01, -3.560737073e-01, -3.212767839e-01, 
        8.820905536e-02, 1.685379297e-01, -3.102967441e-01, 
        2.612698637e-02, 4.003637135e-01, -1.334894001e-01, 
        4.332084656e-01, 1.457261760e-02, 1.659218669e-01, 
        -1.085498333e+00, 1.549913287e-01, -3.465435505e-01, 
        3.457870483e-01, 1.184320003e-01, 4.924875870e-02, 
        -8.796692640e-02, 2.732636593e-02, -8.065773845e-01, 
        9.417897463e-02, -9.169101119e-01, 3.244604468e-01, 
        8.472347260e-02, -2.222999558e-02, 1.287253797e-01, 
        -1.057416648e-01},
    {2.942288518e-01, 1.632227562e-02, 4.815692604e-01, 
        -2.673182487e-01, 2.843018174e-01, 2.400742285e-02, 
        -2.240580618e-01, 3.865696788e-01, 7.928540111e-01, 
        3.315482140e-01, 4.583464563e-01, 6.928773522e-01, 
        2.291900665e-01, 1.184493601e-01, -4.008714557e-01, 
        -5.559950471e-01, -1.451537013e+00, 3.395396471e-01, 
        -6.672834754e-01, -3.255971968e-01, -3.607398272e-02, 
        5.220541954e-01, 2.229798138e-01, 1.597344130e-01, 
        -2.221957147e-01, 3.971898258e-01, -6.779109836e-01, 
        1.902327389e-01, -1.876729727e-01, 1.773242503e-01, 
        -6.283608079e-01, 3.149307966e-01, -1.242153764e+00, 
        1.700984091e-01, -4.012967646e-02, 1.410932988e-01, 
        1.073104218e-01, -2.196600102e-02, -3.714805543e-01, 
        9.203062654e-01, 1.733558923e-01, 2.379374355e-01, 
        1.556324512e-01, -9.455341101e-02, 5.606290102e-01, 
        4.295748472e-01, 7.336098552e-01, 1.185499579e-01, 
        -2.118806913e-02, 7.517382503e-01, 3.837970197e-01, 
        7.145499438e-02, 1.127998233e-01, 7.645910978e-01, 
        -1.438292954e-02, 2.062958032e-01, 5.325850844e-01, 
        1.716267131e-02, 1.368799657e-01, 4.433347285e-02, 
        1.970095336e-01, 2.691224813e-01, 3.215554953e-01, 
        4.325586259e-01, 5.384036303e-01, 3.858624101e-01, 
        5.101504326e-01, -2.810324132e-01, -5.759945512e-01, 
        5.754000545e-01, -3.415580988e-01, 7.134368420e-01, 
        2.669913694e-02, -9.728599787e-01, 3.301305771e-01, 
        -5.144625902e-01, 2.528552115e-01, 3.385591209e-01, 
        3.131164312e-01, 3.867338598e-01, 1.672486216e-01, 
        7.165164948e-01, 1.873099506e-01, -3.014444709e-01, 
        -5.277576447e-01, 1.123070046e-01, -3.462603092e-01, 
        3.111028075e-01, -1.550809979e+00, 2.199892253e-01, 
        4.793004096e-01, -4.876403511e-01, 2.993351519e-01, 
        2.381208390e-01, 1.896367967e-01, 4.249444306e-01, 
        -3.811292350e-02, 3.446232975e-01, 5.230724066e-02, 
        -5.069890618e-01},
    {-2.065537870e-01, -1.647440158e-02, -2.156406082e-02, 
        1.532942504e-01, -1.011913538e+00, 4.793014228e-01, 
        5.481052995e-01, 1.085212469e+00, 4.548324049e-01, 
        1.750952154e-01, -1.589350253e-01, -2.293113321e-01, 
        1.617647111e-01, 3.719473183e-01, -3.847927749e-01, 
        3.187253699e-02, -1.163103133e-01, 1.979446262e-01, 
        3.832601011e-02, 4.610318542e-01, 3.594910502e-01, 
        6.444662064e-02, 6.965796947e-01, 2.325900495e-01, 
        -6.021209359e-01, 1.804140583e-02, 3.379819691e-01, 
        1.799826026e-01, 8.161820173e-01, 7.480854392e-01, 
        -1.144681096e+00, 8.009361476e-02, -8.815140128e-01, 
        3.579091281e-02, 4.408310652e-01, -6.056544371e-03, 
        3.287543654e-01, 2.675495744e-01, 1.284984648e-01, 
        1.780693382e-01, -7.282800972e-02, -2.057961673e-01, 
        3.787086606e-01, 6.820333600e-01, -1.176532507e+00, 
        6.623989344e-01, 1.264873743e-01, 1.275449544e-01, 
        -4.989224672e-01, 1.012002602e-01, 9.387754649e-02, 
        1.437053680e-01, -9.674771428e-01, 5.030879378e-01, 
        7.782858610e-01, -6.714472175e-01, -2.637118660e-02, 
        2.122296691e-01, -4.514581263e-01, 3.571673334e-01, 
        6.299661994e-01, 2.502836585e-01, 3.621854782e-01, 
        -2.039607167e-01, 2.398226559e-01, 3.538721055e-02, 
        -8.277340233e-02, 3.034421206e-01, 6.861053109e-01, 
        3.425188363e-01, -7.428811491e-02, 2.888304591e-01, 
        1.975556761e-01, 1.843493581e-01, 1.431701630e-01, 
        -7.777347416e-02, 2.847936703e-03, 1.480577588e-01, 
        5.604470372e-01, 2.919441760e-01, 4.397517443e-01, 
        7.759166956e-01, -6.683856249e-01, 1.674865484e-01, 
        6.933872700e-01, -3.393044472e-01, -3.059182763e-01, 
        -5.889416933e-01, 2.022404037e-02, 1.073804736e+00, 
        1.082654670e-01, -5.934860110e-01, -1.793029308e-01, 
        5.733336210e-01, 3.306439221e-01, 3.974581063e-01, 
        1.162166372e-01, 6.396563053e-01, -6.923655421e-02, 
        1.166967377e-01},
    {-1.010906219e+00, -1.434881240e-01, 1.879947931e-01, 
        4.787079692e-01, 2.808456123e-01, -4.130057618e-02, 
        -6.630754471e-01, -9.324663877e-02, 2.426672578e-01, 
        4.149090648e-01, -4.925720394e-01, -3.572272956e-01, 
        4.807190597e-02, -1.302850127e+00, -3.211479187e-01, 
        1.837975383e-01, -9.093214869e-01, -1.526748687e-01, 
        7.948487401e-01, 3.458775580e-02, 3.173103929e-02, 
        -8.403943181e-01, -8.171504736e-02, -6.064494252e-01, 
        3.817856312e-01, 2.832078040e-01, -5.576803684e-01, 
        -8.522549272e-02, -3.314247131e-01, -1.673824668e+00, 
        8.656917512e-02, 6.724148989e-02, 1.900115013e-01, 
        5.079090223e-02, -7.055804878e-02, 2.046202719e-01, 
        -6.723713279e-01, 1.833408028e-01, -3.700288758e-02, 
        -2.524060309e-01, -1.770636290e-01, -5.603682995e-01, 
        -2.960501313e-01, -1.001710445e-01, -2.002985179e-01, 
        -3.283732384e-02, 4.436139762e-01, -6.741860509e-01, 
        8.141870797e-02, -6.636373997e-01, -1.962563992e-01, 
        2.911904752e-01, -2.392127961e-01, -1.121232867e+00, 
        -3.866455331e-02, 2.396860868e-01, 3.881290853e-01, 
        -3.111308217e-01, -1.031068683e+00, 5.159021914e-02, 
        2.278320044e-01, -1.136513799e-01, -5.134362578e-01, 
        -1.738961935e+00, -2.247598618e-01, 4.532164633e-01, 
        2.133523822e-01, -5.964869261e-01, 2.683386207e-01, 
        -1.733714193e-01, -7.548609376e-01, -4.871874675e-02, 
        -4.364713430e-01, 5.843828246e-02, -1.124306023e-02, 
        4.309000075e-01, -2.572630346e-01, 3.855302334e-01, 
        1.321146935e-01, -1.503511906e+00, -3.247725368e-01, 
        -4.527446628e-01, -8.133943677e-01, -5.864328742e-01, 
        5.385184884e-01, -1.887810230e-01, -7.286348939e-02, 
        4.670189917e-01, -4.701619148e-01, 1.569302380e-01, 
        5.229687095e-01, -7.918951660e-02, -1.361287832e-01, 
        -5.241176486e-01, 4.063737690e-01, 8.671880364e-01, 
        -1.317316294e-01, 6.235852838e-02, 1.855195910e-01, 
        -4.582974017e-01},
    {2.204835564e-01, -2.172290906e-02}
};

const float WEIGHTS[NUM_DENSE_LAYERS][MAX_LAYER_DIMS][MAX_LAYER_DIMS] = {
    {
        {-2.148756504e+00, 6.002284050e+00, -6.101184845e+00, 
            2.452558041e+00, -2.475284636e-01},
        {1.504974961e+00, -1.534278411e-02, -1.655903816e+00, 
            -1.025981665e+00, -6.565304399e-01},
        {-1.693918824e+00, -1.090074897e+00, -7.773588300e-01, 
            2.809820175e-01, 7.831634879e-01},
        {3.038559437e+00, 4.109342694e-01, -2.512130499e+00, 
            -1.028163433e+00, 4.783301651e-01},
        {1.504922956e-01, 4.672473669e-01, -1.169600964e+00, 
            -9.204391241e-01, -5.663983226e-01},
        {-4.925235808e-01, -7.013513446e-01, -6.194296479e-01, 
            -3.812635243e-01, -4.393288493e-01},
        {-1.473577142e+00, 2.464829445e+00, 4.844481468e+00, 
            -7.729445696e-01, 7.199905515e-01},
        {-9.806584567e-03, -2.299167514e-01, 1.238329887e+00, 
            9.752866626e-01, 1.149569154e-01},
        {-1.801081747e-01, 1.755983531e-01, -2.071955681e+00, 
            -9.015466571e-01, 1.709303409e-01},
        {2.139449596e+00, -7.928031683e-01, 2.864434004e+00, 
            8.027336001e-01, -2.617429495e-01},
        {9.835864305e-01, 7.544502616e-01, -5.168346763e-01, 
            -4.658608437e-01, 8.192978501e-01},
        {-2.530721664e+00, -1.362612009e+00, 3.593487442e-01, 
            2.415288240e-01, -5.646582842e-01},
        {-2.532981157e+00, -3.048655689e-01, 4.197422981e+00, 
            -9.905477613e-02, 6.470925361e-02},
        {-2.447930574e+00, -1.717531562e+00, -3.269749880e-01, 
            7.203548551e-01, -3.167019784e-01},
        {4.811437130e+00, 2.026740789e+00, 5.048089027e-01, 
            3.666284978e-01, -1.145031974e-01},
        {9.351497889e-02, 1.785471886e-01, 6.542756408e-02, 
            1.672658920e-01, 9.416966140e-02},
        {-2.999748662e-02, 1.796073437e+00, 4.558772147e-01, 
            8.622981906e-01, 6.512409449e-01},
        {-1.593742967e+00, -1.126255631e+00, -1.630513370e-01, 
            1.050443426e-01, 1.098596215e+00},
        {-6.397389770e-01, -4.516978860e-01, 1.295907330e-02, 
            2.535517812e-01, -6.946441531e-01},
        {-2.765049458e+00, -3.503964245e-01, -2.578301668e+00, 
            -6.512447596e-01, 6.487192214e-02},
        {-1.904580474e+00, -5.064372420e-01, -1.776039958e+00, 
            -4.268473387e-01, -4.881947041e-01},
        {7.312852889e-02, -1.123769760e+00, 1.518489361e+00, 
            6.853059530e-01, 6.467991322e-02},
        {2.862752438e+00, -2.398935556e+00, 1.205938101e+00, 
            -2.057325989e-01, -1.076063156e+00},
        {2.094137669e+00, 1.819225669e+00, -9.356834292e-01, 
            1.144717485e-01, 3.819580078e-01},
        {6.702054292e-02, 2.943374813e-01, -5.157074332e-02, 
            -1.744026542e-01, 7.147144526e-02},
        {-9.011744261e-01, 1.245338440e+00, -3.496700227e-01, 
            -4.166622180e-03, 1.107214451e+00},
        {3.236354589e-01, 2.713287175e-01, 8.249634504e-01, 
            3.375746012e-01, -3.051016331e-01},
        {2.473716736e-01, 3.031673841e-02, 5.881755799e-02, 
            2.193297744e-01, 2.905691862e-01},
        {5.105138779e+00, 9.075013399e-01, -1.313984156e+00, 
            -5.867452621e-01, -2.060580812e-02},
        {-1.159806848e+00, -5.936012268e-01, -6.808414459e-01, 
            -9.520871192e-02, -7.364485264e-01},
        {1.516357362e-01, 1.878812462e-01, 6.248650327e-02, 
            2.262632251e-01, 2.084834427e-01},
        {-2.322445214e-01, -3.026019931e-01, 2.782255877e-03, 
            2.737423405e-02, -2.686921358e-01},
        {4.765281379e-01, 1.403010249e+00, -3.277946413e-01, 
            -2.271808088e-01, 6.240274906e-01},
        {1.640264988e+00, -2.748750150e-02, -3.259176612e-01, 
            4.263349473e-01, 3.670084178e-01},
        {-4.948009551e-01, -2.732937634e-01, 9.716369212e-02, 
            1.585601270e-01, -4.713480771e-01},
        {-7.227864265e-01, -4.886183143e-01, -2.043892592e-01, 
            -1.512368321e-01, -7.071041465e-01},
        {7.688817382e-01, 8.569761515e-01, 1.415537894e-01, 
            9.757417440e-01, 1.366528988e+00},
        {2.546962261e+00, 1.725479364e+00, 1.290851712e+00, 
            -5.717604607e-02, -7.590360641e-01},
        {-2.048409700e+00, -6.032159328e-01, 7.318195701e-01, 
            -3.358456492e-01, -6.254247427e-01},
        {-1.125758886e+00, -1.082799554e+00, -1.282697797e+00, 
            -9.751743674e-01, 9.368954897e-01},
        {6.521151662e-01, 1.059048533e+00, -2.766117686e-03, 
            -1.280263662e-01, 5.082267523e-01},
        {-1.380437970e+00, 3.298250139e-01, -8.965286613e-01, 
            -1.169256091e+00, 4.196671844e-01},
        {-4.149816632e-01, -3.659280539e-01, -5.748708546e-02, 
            -1.504143327e-01, -4.997151494e-01},
        {1.594111919e+00, 2.097506523e-01, -1.310875565e-01, 
            -8.241549134e-02, 1.022859693e+00},
        {2.004782200e+00, 4.450341463e-01, -1.313384891e+00, 
            -5.062535405e-01, 3.606794178e-01},
        {9.642662406e-01, 3.416078910e-02, -7.148532271e-01, 
            -2.533222139e-01, 1.091183662e+00},
        {1.578496575e+00, -9.268435836e-01, -1.371801257e+00, 
            -1.007408462e-02, -7.375581264e-01},
        {2.133512974e+00, 6.861291528e-01, -4.964054823e-01, 
            -1.363323331e+00, -2.732833326e-01},
        {2.136534691e+00, 4.926916957e-01, -1.343354821e+00, 
            -1.117015243e+00, 6.420446634e-01},
        {-1.040333867e+00, -9.755727053e-01, 9.241177887e-02, 
            9.316531569e-02, -4.199682474e-01},
        {8.890791535e-01, -3.545709252e-01, 2.321938515e+00, 
            1.221526861e+00, 5.236794949e-01},
        {-1.958606362e+00, -2.962679863e-01, -2.255198956e+00, 
            -8.827928305e-01, -5.423381925e-01},
        {2.068195105e+00, -1.978570700e+00, 4.986351728e-01, 
            2.181345701e+00, -1.974153332e-02},
        {9.972701222e-02, 1.366968751e+00, -8.666044474e-01, 
            -1.668407679e+00, 3.597588837e-01},
        {2.496366262e+00, 9.816621542e-01, 2.538156033e+00, 
            -1.258058846e-01, -1.104836464e+00},
        {-1.828354478e+00, 2.144163847e-01, 2.934193313e-01, 
            -1.874882460e+00, 1.320069790e+00},
        {6.963102520e-02, 1.779646724e-01, 3.320001364e-01, 
            4.931276441e-01, -1.401789859e-02},
        {-1.625061274e+00, -1.351942569e-01, -1.423498392e+00, 
            -3.725719452e-01, -7.697781324e-01},
        {5.480545759e-01, 3.145135343e-01, 1.453391761e-01, 
            2.670839727e-01, 5.792422891e-01},
        {2.621132612e+00, 8.117677569e-01, -2.275690794e+00, 
            -8.956081867e-01, 5.456444025e-01},
        {1.368802935e-01, 1.725662470e+00, 2.023479939e+00, 
            1.075191855e+00, -1.856076717e-01},
        {4.513309956e+00, 1.283722520e+00, -2.233855247e+00, 
            9.221630096e-01, -1.666548848e-01},
        {-1.308846623e-01, 6.705210358e-02, 2.260442525e-01, 
            4.052095711e-01, -3.515111655e-02},
        {1.771540761e+00, 2.042593479e+00, -7.532284260e-01, 
            -7.178171277e-01, -6.571245790e-01},
        {-1.563275099e+00, 1.537784785e-01, -2.215921164e+00, 
            -9.299690127e-01, -1.182404067e-02},
        {1.046853662e+00, 6.116156578e-01, -1.422034979e+00, 
            -1.185273647e+00, 5.275501609e-01},
        {1.980017781e+00, 8.048269749e-01, -3.944669008e+00, 
            1.877225339e-01, -6.355047971e-02},
        {1.891190886e+00, -6.737396121e-01, -3.704358578e+00, 
            -1.206842661e-01, 8.060307056e-02},
        {-5.776375532e-01, -4.443073869e-01, -5.076696724e-02, 
            -8.422998339e-02, -5.190256238e-01},
        {-3.135216713e+00, -2.249713659e+00, 2.805480659e-01, 
            5.929273367e-01, 2.414161116e-01},
        {4.613033831e-01, 5.109241605e-01, 7.883085012e-01, 
            5.617297888e-01, -6.920208037e-02},
        {1.357185125e+00, 2.008218467e-01, -1.473510742e+00, 
            6.344439387e-01, -1.033200622e+00},
        {-3.711994290e-01, 5.977178216e-01, 4.547441483e+00, 
            -1.046246409e+00, 6.234043241e-01},
        {6.067237854e-01, 4.660044611e-01, 2.631648816e-02, 
            8.642120659e-02, 6.388275623e-01},
        {-7.327000499e-01, -5.690493584e-01, -2.415102124e-01, 
            -2.622265518e-01, -6.120455265e-01},
        {2.584964037e-01, 9.809674025e-01, 2.840917110e+00, 
            8.424761891e-02, -4.651469365e-02},
        {-2.711319447e+00, -1.562739730e+00, 1.905190796e-01, 
            2.721164525e-01, -2.663192749e-01},
        {4.292494059e-01, -9.090495706e-01, -1.488654613e-01, 
            3.153567016e-01, -1.349004149e+00},
        {2.841991901e+00, 4.431747198e-01, -9.850437641e-01, 
            -6.798245311e-01, 6.074264646e-01},
        {6.582770944e-01, 4.120761454e-01, 4.022529125e-01, 
            1.137477979e-01, 4.161961973e-01},
        {-9.387457967e-01, 1.823740244e+00, 2.431792974e+00, 
            1.670044899e+00, -3.414452076e-01},
        {-1.440978646e+00, -1.025441289e+00, -5.999096632e-01, 
            -3.452782631e-01, -9.005346298e-01},
        {-2.379898548e+00, -7.142679691e-01, -2.470334023e-01, 
            -9.382177591e-01, -1.153090715e+00},
        {-3.438130915e-01, -8.566076867e-03, 4.388421774e-01, 
            6.078407764e-01, -9.502213448e-02},
        {-1.790445209e+00, -7.456914783e-01, -1.273516417e+00, 
            -1.556109786e-01, -6.045318842e-01},
        {-4.511340857e-01, -2.390205562e-01, 8.335919976e-01, 
            7.287246585e-01, -1.984651387e-01},
        {-2.070894480e+00, -3.726869524e-01, -2.269681692e+00, 
            -1.001289248e+00, -5.435587168e-01},
        {-5.460537076e-01, -1.176931977e+00, -7.483658940e-02, 
            -2.796300352e-01, -6.351712942e-01},
        {1.397943139e+00, 9.045494199e-01, 3.231762052e-01, 
            -1.779200882e-01, 6.271872520e-01},
        {-1.332648516e+00, -2.432710379e-01, -1.077669978e+00, 
            -7.918065190e-01, -8.509359956e-01},
        {-5.142092705e+00, -6.482068300e-01, -1.050112128e+00, 
            8.715497851e-01, 2.683829367e-01},
        {-3.909407556e-01, -1.215526834e-01, -1.660119176e+00, 
            -1.584204793e+00, -9.228047729e-01},
        {2.315160632e-01, 3.221361339e-01, 1.414429784e+00, 
            7.881591320e-01, 1.415314823e-01},
        {1.935912669e-01, 6.370059401e-02, -2.922689676e+00, 
            -1.034806848e+00, 5.560678840e-01},
        {-2.038226843e+00, -3.455808386e-02, -1.687729061e-01, 
            -3.543148637e-01, -5.477175117e-01},
        {-1.206544161e+00, -5.678483844e-01, -1.555867910e+00, 
            -1.765113138e-02, 5.517192483e-01},
        {-1.329273224e+00, -1.288929462e+00, 2.157480478e+00, 
            9.017366767e-01, -7.431900501e-02},
        {-3.827432096e-01, 4.828237593e-01, -7.182835340e-01, 
            9.002581984e-02, 9.701567888e-01},
        {-4.338430613e-02, -2.423031479e-01, 1.033442318e-01, 
            3.300760388e-01, 4.092067946e-03},
        {-4.665143967e+00, -2.214382738e-01, -2.730440140e+00, 
            1.116559207e-01, 1.486652810e-02}
    },
    {
        {-6.473510265e-01, 5.382237211e-02, 7.772714645e-02, 
            -2.743380964e-01, 1.416340768e-01, -6.172458529e-01, 
            2.481739223e-01, 2.602589726e-01, -8.071321249e-02, 
            1.710611880e-01, 2.463463992e-01, -1.521724164e-01, 
            -2.975810692e-02, 1.605292857e-01, -3.802022338e-01, 
            -1.446582098e-02, 6.265621185e-01, 2.450367063e-01, 
            -1.370839030e-01, -4.549232125e-01, -6.635242701e-01, 
            2.052821368e-01, 1.902792752e-01, 1.065875441e-01, 
            -3.117207587e-01, 4.653025568e-01, -3.354598880e-01, 
            -1.014182791e-01, 6.807522476e-02, -6.224154234e-01, 
            -1.366295014e-02, -4.722724259e-01, 3.697167635e-01, 
            8.097346872e-02, -1.562867910e-01, -6.046248674e-01, 
            4.407634139e-01, -2.050306052e-01, -1.029187441e-01, 
            4.850786645e-03, 2.776657939e-01, -2.118890285e-01, 
            -4.669486880e-01, 2.523733974e-01, -1.669714451e-01, 
            5.286496282e-01, -2.757444084e-01, 7.721466571e-02, 
            -1.032275520e-02, -1.892991215e-01, 3.606891036e-01, 
            -5.329343677e-01, 3.464121521e-01, 9.579037130e-02, 
            -2.792049944e-01, 7.031265646e-02, 2.320244759e-01, 
            -2.715488970e-01, 3.157260418e-01, 1.086331978e-01, 
            1.836051196e-01, -7.437734008e-01, 8.803994954e-02, 
            1.006124243e-01, -2.714023590e-01, 3.126025796e-01, 
            -5.669897795e-01, -2.668832541e-01, -4.707913995e-01, 
            -1.131818742e-01, -1.349033862e-01, -7.517824173e-01, 
            1.173966751e-01, 1.903613210e-01, -5.474092960e-01, 
            1.294583231e-01, 1.515744030e-01, 2.068590522e-01, 
            1.021579057e-01, -5.351499096e-02, 5.411012471e-02, 
            -5.461379886e-01, -4.011557698e-01, 3.841364980e-01, 
            -7.200984359e-01, 9.996572137e-02, -5.661763549e-01, 
            -3.271271288e-01, -2.380533516e-02, -7.998707145e-02, 
            -4.219598696e-02, 4.453403056e-01, 5.040790886e-02, 
            -2.548263967e-01, -8.300972730e-02, -2.186786830e-01, 
            2.724449337e-01, 1.323332489e-01, -7.347431034e-02, 
            -7.771784067e-02},
        {3.253357485e-03, -2.114322037e-01, -5.802217126e-01, 
            -9.283197671e-02, -6.575135589e-01, 3.302092850e-02, 
            -8.483397216e-02, 3.557306156e-02, -3.101046085e-01, 
            1.982324123e-01, -4.041332304e-01, 2.688126564e-01, 
            -1.046479344e-01, 1.506393254e-01, -1.498933733e-01, 
            -8.718609214e-01, 3.246219456e-01, -1.412547946e+00, 
            6.316648722e-01, -2.287433948e-03, 3.144200146e-02, 
            -1.925954521e-01, -7.413234562e-02, -1.521907300e-01, 
            -9.589633346e-01, -1.566794395e+00, 3.261514306e-01, 
            -9.922850132e-01, -1.271767616e-01, 7.818607986e-02, 
            -7.457591891e-01, -3.110827804e-01, -3.342112899e-01, 
            -6.253437996e-01, 8.917333931e-02, 1.621937752e-01, 
            5.118059516e-01, -5.001430586e-02, -3.131350502e-02, 
            -1.113446236e+00, -5.526940227e-01, -5.090120435e-01, 
            2.464372963e-01, -1.338548660e+00, -1.343082264e-02, 
            -1.164708957e-01, 8.850932121e-02, -8.687813580e-02, 
            -2.765160203e-01, 7.534433156e-02, -1.602792889e-01, 
            2.126241326e-01, 1.362786442e-01, -3.707822561e-01, 
            2.237585038e-01, -3.093565702e-01, -4.365933314e-02, 
            2.487283349e-01, -7.458274364e-01, -1.137886345e-01, 
            3.660737872e-01, 1.762487441e-01, -2.997403443e-01, 
            -2.271662233e-03, 1.435494274e-01, -5.797272921e-01, 
            -1.639446616e-02, -2.417543679e-01, -3.616255894e-02, 
            1.959776878e-01, 2.002332807e-01, 3.917102814e-01, 
            -3.890747577e-02, -5.650969744e-01, 1.367326379e-01, 
            3.081725240e-01, -9.596421383e-03, 5.898427963e-01, 
            -5.905547738e-01, -5.149477720e-01, 4.346613884e-01, 
            2.051943392e-01, -7.859788090e-02, -2.778631821e-02, 
            1.318079531e-01, 2.672469243e-02, 9.343666956e-03, 
            4.283203781e-01, -4.831370413e-01, -4.388672113e-02, 
            8.575277030e-02, -8.453018218e-02, -5.400918797e-02, 
            -2.362498343e-01, 8.299498260e-02, 5.942340940e-03, 
            5.058988929e-02, -8.109375834e-01, -7.642777562e-01, 
            2.471792698e-02},
        {-1.309611678e+00, 1.661302894e-01, -1.251337528e-01, 
            1.161795110e-01, 3.533911705e-01, 1.727899909e-01, 
            6.616131961e-02, 2.986178733e-03, 3.320205808e-01, 
            -1.870347559e-01, 2.503732443e-01, -1.546567120e-02, 
            -1.484397501e-01, -4.169428349e-01, -8.246468008e-02, 
            3.435997665e-01, -8.738843352e-02, -4.301062599e-02, 
            -2.078078128e-02, 7.628159225e-02, 1.918193251e-01, 
            1.554116607e-01, -7.081185579e-01, -5.815181136e-02, 
            4.206391871e-01, 1.966760606e-01, 1.641528606e-01, 
            1.893967092e-01, -2.191909105e-01, -3.694887832e-02, 
            2.041109204e-01, 2.177779675e-01, 2.699835598e-01, 
            -2.833682001e-01, 1.659249365e-01, 7.906218618e-02, 
            -1.795739979e-01, 1.065070406e-01, 5.489460379e-02, 
            -6.232799962e-02, 1.774273515e-01, 2.826646343e-02, 
            4.177411273e-02, 1.558537483e-01, 6.174155697e-02, 
            -5.922107026e-03, -1.397237182e-01, -1.715028659e-02, 
            1.830431819e-01, -1.483429107e-03, 2.158882469e-01, 
            3.919313550e-01, -1.271063566e+00, 1.253065467e-01, 
            -1.403048486e-01, -1.930947304e-01, -5.272447690e-02, 
            9.544553608e-02, 2.354293615e-01, -9.772408754e-02, 
            1.237247214e-01, -8.147108555e-01, -1.233162265e-02, 
            2.973417640e-01, 3.618457615e-01, 8.821560442e-02, 
            -4.181846678e-01, -3.280886412e-01, -5.667746812e-02, 
            -3.154797852e-01, 1.587723196e-01, -4.200866222e-01, 
            -1.716474593e-01, 2.827176154e-01, -4.150627926e-02, 
            -5.352203548e-02, -2.579570711e-01, -2.119155973e-01, 
            1.697386801e-01, 1.424258798e-01, -2.294747531e-01, 
            1.149970070e-01, -1.049547493e-01, -1.035913378e-01, 
            3.981479630e-02, 1.604441702e-01, 3.937923908e-01, 
            -3.037567250e-02, 6.355451047e-02, 2.486117631e-01, 
            -3.904446065e-01, 1.189872324e-01, 1.481848657e-01, 
            6.767408550e-02, -8.916331083e-02, 1.141986549e-01, 
            -7.109671831e-02, 3.258488700e-02, 1.567902714e-01, 
            -5.156068504e-02},
        {-9.073016047e-02, -2.828040123e-01, -1.075101346e-01, 
            -5.216711760e-01, 5.720116943e-02, 1.911392957e-01, 
            -2.151604444e-01, 1.593695730e-01, 4.270084202e-02, 
            3.523494601e-01, -1.888044626e-01, 1.031688377e-01, 
            1.823644638e-01, 1.552009583e-01, -4.295689464e-01, 
            3.264861405e-01, -5.038184114e-03, 1.109458320e-02, 
            2.590301633e-01, -5.883756652e-02, 1.380105615e-01, 
            1.308503896e-01, -1.060755402e-01, -3.060377240e-01, 
            1.107627824e-01, -1.679386795e-01, 2.484343797e-01, 
            2.583190799e-01, -4.293003678e-01, 2.247490287e-01, 
            2.578401268e-01, 3.746679723e-01, 4.195997119e-02, 
            -5.795878917e-02, 1.813352704e-01, 3.575369716e-01, 
            1.200221200e-02, -3.079617321e-01, 1.218303517e-01, 
            7.492457516e-03, 6.737713516e-02, -1.447372586e-01, 
            3.771606684e-01, 1.120067239e-01, -1.626597345e-01, 
            -1.328871250e-01, -3.303624690e-02, -1.527536213e-01, 
            -3.718939126e-01, 2.544932067e-01, 5.252007023e-02, 
            7.486768998e-03, -5.484022573e-02, 6.913793832e-02, 
            1.059140190e-01, -3.366111517e-01, 2.838844061e-01, 
            1.734794378e-01, 2.185038626e-01, -5.115854740e-01, 
            -1.402384788e-02, -7.030152678e-01, 3.065973818e-01, 
            -4.480092227e-01, -8.033054473e-05, -1.328018010e-01, 
            -3.383275270e-01, -3.996981978e-01, 2.749906778e-01, 
            1.085036024e-01, 8.011900634e-02, -2.863008380e-01, 
            1.451793611e-01, -9.278844297e-02, 2.777175605e-01, 
            -4.329517111e-02, 2.014356256e-01, 4.818094894e-02, 
            -3.776032329e-01, 6.944183260e-02, -7.900297642e-02, 
            3.151092231e-01, 7.310571522e-02, 2.695936896e-02, 
            7.227309793e-02, 2.331894934e-01, 1.602376103e-01, 
            3.155281544e-01, -1.526669860e-01, 3.446110189e-01, 
            2.872663550e-02, 7.174050063e-02, 6.521295011e-02, 
            -1.819177270e-01, 2.280517295e-02, 8.261131495e-02, 
            2.165302485e-01, -7.701455802e-02, 3.058245778e-01, 
            1.341505442e-02},
        {1.040664986e-01, 5.862059444e-02, -3.688205779e-02, 
            -1.220775321e-01, 1.003558412e-01, 2.021584958e-01, 
            -3.290599957e-02, 1.835879683e-02, -7.613591105e-02, 
            -2.187705189e-01, -5.306517482e-01, 2.224226594e-01, 
            -4.206820726e-01, 3.372842073e-01, -1.098527789e+00, 
            -1.710682660e-01, -5.095463246e-02, -6.596753746e-02, 
            1.454258859e-01, 5.254122429e-03, 2.703430653e-01, 
            1.176855117e-01, -2.999716699e-01, -3.333977163e-01, 
            -3.417418599e-01, -4.516755342e-01, -8.618862927e-02, 
            -1.524271071e-01, -7.096017599e-01, 1.611434966e-01, 
            -1.192327812e-01, -1.830311492e-02, -5.380601883e-01, 
            1.485350430e-01, 1.296578944e-01, 3.027388453e-01, 
            -1.203322262e-01, -6.418720484e-01, 2.166283503e-02, 
            -3.060575724e-01, -5.088383555e-01, -3.123991191e-01, 
            2.938072085e-01, -1.933671981e-01, -1.726862490e-01, 
            -9.948820621e-02, 1.967533231e-01, -1.078438759e-01, 
            -3.544020653e-01, 3.713973239e-02, -3.341400251e-02, 
            -4.394878447e-02, 3.268751502e-01, -3.994360566e-01, 
            -5.065147877e-01, -8.298873901e-01, -1.850619018e-01, 
            3.690587878e-01, -2.378245294e-01, -2.846264839e-01, 
            -2.674047649e-01, 6.208825856e-02, -9.197821468e-02, 
            -1.399650425e-01, -1.343517154e-01, -4.295454919e-01, 
            1.020703539e-01, 3.186239600e-01, 3.045663834e-01, 
            1.795270443e-01, -2.642781436e-01, 3.890422881e-01, 
            -6.858708709e-02, -2.510365248e-01, 2.555134594e-01, 
            -3.218105733e-01, 1.381746083e-01, 3.717945218e-01, 
            -3.776729405e-01, -3.854929283e-02, -3.675371408e-01, 
            2.613970637e-01, 5.712671950e-02, -3.691949695e-02, 
            3.391399384e-01, 3.686097264e-02, 2.234019339e-01, 
            3.060882986e-01, -2.568550110e-01, 2.949294448e-01, 
            -2.518923879e-01, 4.779218435e-01, -1.268695295e-01, 
            6.855851412e-02, -2.604763806e-01, 7.896462083e-02, 
            1.218259335e-01, -8.339480311e-02, -4.278763011e-02, 
            1.471638680e-01},
        {-6.505965441e-02, -2.676439472e-02, -2.760793269e-01, 
            1.760933995e-01, 1.385601759e-01, 3.510555923e-01, 
            1.616220176e-01, 3.740374148e-01, -3.240141571e-01, 
            -1.360035390e-01, -1.309124231e+00, 3.463255167e-01, 
            4.775170237e-02, 2.056162208e-01, -1.032804132e+00, 
            -5.603634715e-01, 1.618292741e-02, -4.088649154e-01, 
            6.034186482e-01, -8.091531694e-02, 7.159515470e-02, 
            -6.010986120e-02, -3.360269964e-01, -8.194688559e-01, 
            -7.695566416e-01, -9.654856473e-02, 1.831394248e-02, 
            -7.880191207e-01, 1.881245971e-01, 5.183601975e-01, 
            -6.715095043e-01, 4.213866964e-02, -1.033246756e+00, 
            -2.017338723e-01, 2.446665466e-01, 3.409811258e-01, 
            5.518707633e-01, -6.980851293e-01, -1.221760288e-01, 
            -5.165798068e-01, -7.188039422e-01, -1.522115171e-01, 
            8.592411131e-02, -3.968630433e-01, -2.134401649e-01, 
            -1.491342664e+00, 7.955972105e-02, 1.735291779e-01, 
            -3.924613595e-01, 2.761181593e-01, 1.477580704e-02, 
            3.284383714e-01, -1.623950899e-01, -4.092784226e-01, 
            -8.726810813e-01, -6.817364693e-01, 1.353109442e-02, 
            2.338160723e-01, -3.810582757e-01, -2.868530452e-01, 
            -2.913143337e-01, 1.808127165e-01, -1.938987672e-01, 
            -1.483141780e-01, 8.633334190e-02, -1.216302276e+00, 
            2.121069133e-01, -4.014138579e-01, 2.304179072e-01, 
            -1.831301721e-03, 1.808667630e-01, 3.075062633e-01, 
            -1.698150039e-01, -5.368775129e-01, 3.059216440e-01, 
            -1.270110458e-01, 2.485782206e-01, 5.173063874e-01, 
            -3.768739104e-01, -1.275593638e-01, 1.955041736e-01, 
            3.787511289e-01, 3.687921762e-01, 9.012630582e-02, 
            3.638788164e-01, -2.141557075e-02, -3.079267032e-02, 
            3.491734862e-01, 3.037186339e-02, 1.952648014e-01, 
            4.575117677e-02, 3.261830211e-01, -3.401602060e-02, 
            -6.222863793e-01, 2.553726435e-01, -1.731883138e-01, 
            3.099579811e-01, -1.053982526e-01, -3.455864489e-01, 
            5.927552283e-02},
        {-1.404823422e+00, 4.480025470e-01, 2.279918641e-01, 
            9.742377698e-02, 2.698350549e-01, 1.443193704e-01, 
            -2.890566364e-02, -3.890654817e-02, 1.014470756e-01, 
            4.800155759e-03, 1.042885259e-01, -8.662112802e-02, 
            -6.163131073e-02, 8.627091348e-02, -1.414929032e-01, 
            -1.986422688e-01, -4.932911098e-01, 2.914346457e-01, 
            -6.908633560e-02, 9.891751409e-02, 2.454565912e-01, 
            9.049990028e-02, 1.855955869e-01, -2.168447673e-01, 
            2.239810526e-01, -4.532056674e-02, 1.148470566e-01, 
            -1.183560863e-01, 5.951088294e-02, 1.046870276e-01, 
            -2.976581752e-01, -6.732486933e-02, -2.503542304e-01, 
            -3.149541914e-01, -1.222187132e-01, 8.626466617e-03, 
            -4.397587776e-01, 2.318148464e-01, 9.154319763e-02, 
            5.174015760e-01, -2.369861007e-01, 2.405616641e-01, 
            2.604337335e-01, -9.526163340e-02, 9.057082236e-02, 
            1.945920475e-02, -7.513257861e-02, 3.797675669e-01, 
            1.238482147e-01, -7.386460435e-03, -3.549433053e-01, 
            3.323456049e-01, -1.474910527e-01, 2.840432227e-01, 
            1.764083505e-01, 3.637879491e-01, -2.618333697e-01, 
            4.940580949e-02, -4.258276820e-01, -2.377726324e-02, 
            -2.817651927e-01, -4.317888618e-01, -3.033701777e-01, 
            3.310965300e-01, 1.935403049e-01, 2.560026348e-01, 
            -1.593918949e-01, -1.447007954e-01, 1.219783574e-01, 
            1.097208112e-01, -2.915637791e-01, -2.449014410e-02, 
            3.452014551e-02, -2.822997868e-01, 1.300461888e-01, 
            8.371608704e-02, -7.500874251e-02, 2.443033606e-01, 
            -1.057668999e-01, -2.502943277e-01, -1.136993915e-01, 
            2.061380297e-01, 4.139845371e-01, -4.365218282e-01, 
            -5.263327062e-02, -2.578758597e-01, 4.073177576e-01, 
            2.234684080e-01, -6.592335552e-02, 4.177034497e-01, 
            -3.190034032e-01, 4.853637516e-01, -1.039465591e-01, 
            3.531171381e-01, -1.997037092e-03, 4.948184267e-02, 
            -2.033976763e-01, -2.487437427e-01, -1.003396139e-01, 
            -1.275687814e-01},
        {1.784146279e-01, 1.264145505e-02, 3.299344480e-01, 
            1.217927188e-01, 2.655619979e-01, -2.159506083e-03, 
            3.122670762e-02, -3.440993652e-02, 5.063815713e-01, 
            -5.542222261e-01, 4.384049401e-02, 8.283694088e-02, 
            -4.139507711e-01, 3.759491816e-02, -3.827753365e-01, 
            1.674616523e-02, 4.503153637e-02, 1.141586378e-01, 
            -4.032000154e-02, 5.055823326e-01, 3.329942822e-01, 
            -1.660122722e-01, -8.523841500e-01, -2.454714663e-02, 
            6.857295334e-02, 2.379303426e-01, -2.967159450e-01, 
            -1.595401466e-01, -2.111527920e-01, 2.651399672e-01, 
            -3.214142926e-04, -1.393382847e-01, 2.120742798e-01, 
            -1.967495531e-01, -6.807480752e-02, 1.432060003e-01, 
            7.101749629e-02, -3.135150075e-01, -6.538582593e-02, 
            3.516756594e-01, -7.915753126e-02, 5.054733157e-01, 
            -5.426410935e-04, -2.988939583e-01, -1.948507428e-01, 
            -1.256815642e-01, 1.325056851e-01, -2.677867115e-01, 
            -2.086496204e-01, 4.119505361e-02, -5.164397955e-01, 
            5.498836637e-01, -1.306395680e-01, 2.610026598e-01, 
            -6.572259665e-01, 7.588222623e-02, -1.391961575e-01, 
            2.804272771e-01, 3.651208058e-02, 1.573376916e-02, 
            -2.681706250e-01, -3.583418950e-02, 1.692153513e-01, 
            2.082236856e-01, 4.936820567e-01, 2.123931199e-01, 
            3.944531679e-01, 2.942883968e-01, 6.601911038e-02, 
            1.130336672e-01, -1.088391691e-01, -6.083160266e-02, 
            -3.551232219e-01, 1.408619583e-01, 8.984802291e-03, 
            -3.574888110e-01, 7.245458663e-02, -2.133128792e-01, 
            -3.259622157e-01, -1.628307104e-01, -3.683748245e-01, 
            2.706002891e-01, 2.348760068e-01, -6.701904535e-02, 
            1.900281757e-01, -1.248335764e-01, 4.452584982e-01, 
            -2.951669693e-02, -2.514204383e-01, 3.475933969e-01, 
            2.552592158e-01, 3.205760419e-01, -5.384470895e-02, 
            3.724427223e-01, -1.900482550e-02, 2.215200812e-01, 
            -3.806191683e-01, 1.900280118e-01, 7.765976340e-02, 
            2.113139927e-01},
        {-8.105069399e-01, 2.436986119e-01, -1.490122229e-01, 
            5.653682351e-02, 4.925632849e-02, 6.104927883e-02, 
            -5.522109270e-01, 3.519126913e-03, 2.361068577e-01, 
            1.616379172e-01, 1.526767164e-01, -2.251612395e-01, 
            -3.815641105e-01, -2.211906761e-01, -2.008396238e-01, 
            -1.226538941e-01, -2.459788322e-01, -2.078685164e-01, 
            -1.195753142e-01, 9.528908879e-02, 7.699149102e-02, 
            6.026664749e-02, 7.888158411e-02, 4.408434406e-02, 
            1.278148144e-01, 5.140672997e-02, -5.830256268e-02, 
            2.856896259e-02, 1.874069422e-01, -2.099202424e-01, 
            1.185771376e-01, 4.814876243e-02, -2.447557636e-02, 
            -1.611131430e-02, 9.541491978e-03, -3.147808835e-02, 
            -2.886042893e-01, -5.680575594e-02, -1.878615841e-02, 
            2.102626264e-01, -1.459043175e-01, 2.070183158e-01, 
            5.847826600e-02, 1.192257479e-01, 1.425355673e-01, 
            -9.881081432e-02, 3.052327223e-02, 2.224384099e-01, 
            4.501203448e-02, 3.887699172e-02, -1.491628736e-01, 
            2.363905311e-01, -2.349771708e-01, 2.113864571e-01, 
            -1.285258085e-01, -3.275183141e-01, -1.461460255e-02, 
            -1.313029230e-01, -2.079198062e-01, 1.675064713e-01, 
            -2.801614404e-01, -2.605379224e-01, -2.057318091e-01, 
            -4.476628825e-02, 2.099110186e-01, 3.270575106e-01, 
            -4.167100489e-01, -1.418013871e-01, 6.495488435e-02, 
            -2.468662411e-01, -6.129947305e-02, -3.965424299e-01, 
            -3.940266967e-01, 3.182566538e-02, 2.522527799e-02, 
            -3.016543984e-01, -1.987567395e-01, -1.840462163e-02, 
            -7.081483491e-04, -6.405905634e-02, -4.219006300e-01, 
            8.216705173e-02, -1.470116824e-01, -1.165721193e-01, 
            -1.969235688e-01, -1.542235613e-01, 2.866746783e-01, 
            -1.415900439e-01, -3.530702367e-02, -1.164538711e-01, 
            1.066772342e-01, 3.045291305e-01, -2.285289317e-01, 
            9.887004644e-02, -7.159748673e-02, -3.029030003e-02, 
            -1.428248733e-01, 1.232715473e-01, 8.963307738e-02, 
            5.269036815e-02},
        {2.941301167e-01, -4.088942111e-01, 5.008108169e-02, 
            1.989232004e-01, -4.369971156e-01, -3.743653297e-01, 
            1.659698188e-01, -2.061484158e-01, -4.860939085e-02, 
            -5.764740109e-01, 3.964406252e-01, -4.432292879e-01, 
            -5.919819698e-02, -3.233497143e-01, 2.587372363e-01, 
            -1.129550636e-01, 3.536189795e-01, 9.235230088e-02, 
            -1.676680744e-01, -1.826722026e-01, -5.668529868e-01, 
            -7.435293198e-01, -1.140764877e-01, 3.638519049e-01, 
            1.278074533e-01, 2.819796801e-01, 3.911714070e-03, 
            -5.930835381e-02, -3.502913564e-02, -5.176870227e-01, 
            -8.470897377e-02, -2.399709076e-01, 1.833758205e-01, 
            -9.846048057e-02, -1.591610909e-01, -4.783982038e-01, 
            1.855154335e-01, 9.643216617e-03, -1.391720474e-01, 
            9.330458194e-02, 3.583216667e-01, 1.676214784e-01, 
            -2.761873305e-01, 4.219809547e-02, 1.057498232e-01, 
            1.965699047e-01, -1.745367944e-01, 4.727819189e-02, 
            1.362428963e-01, -3.323873281e-01, -6.371957064e-01, 
            -7.182333469e-01, -3.643729985e-01, 1.578072011e-01, 
            -8.745155297e-03, 2.408012748e-01, -8.771897107e-02, 
            -6.373471022e-01, 1.416328102e-01, 5.521170050e-02, 
            9.582783282e-02, 1.478750408e-01, 7.749854028e-02, 
            -1.223216206e-01, -2.891531289e-01, 1.477564424e-01, 
            -9.835982323e-02, -9.484450519e-02, -3.924192190e-01, 
            -3.000698984e-01, 5.727376789e-02, -8.024387807e-02, 
            1.029046401e-01, 1.074942127e-01, -4.763123095e-01, 
            -2.999331802e-02, -2.287535965e-01, -3.968772590e-01, 
            2.165397555e-01, 2.204132974e-01, 4.232979417e-01, 
            -4.840886295e-01, -2.456600815e-01, -4.349905625e-02, 
            -4.375651479e-01, -1.650405079e-01, -7.658153176e-01, 
            -4.851453304e-01, 3.340690434e-01, -6.752743721e-01, 
            1.506154686e-01, -7.204475403e-01, 4.984523356e-02, 
            -8.006311953e-02, -1.431979612e-02, 8.031131327e-02, 
            -5.341161489e-01, 2.490266263e-01, -5.504040048e-02, 
            -8.742808551e-02},
        {-2.983567417e-01, -1.063174456e-01, -5.924871564e-01, 
            -2.726897895e-01, 5.829446018e-02, -1.397076547e-01, 
            -1.080874056e-01, -3.011607826e-01, -2.144048810e-01, 
            -2.902535498e-01, -1.155828163e-01, 2.363941073e-01, 
            -2.861935087e-02, -2.366070077e-02, 2.383658439e-01, 
            2.352688164e-01, 2.568742037e-01, -8.502641916e-01, 
            2.009085119e-01, -1.815028042e-01, -1.106441021e-01, 
            -3.583796024e-01, -5.371270180e-01, 1.719718426e-01, 
            1.177056953e-01, -4.487304389e-01, 2.519995868e-01, 
            2.150138468e-01, 2.872559428e-01, 3.219407201e-01, 
            1.664359868e-01, 5.880885571e-02, 1.375881210e-02, 
            -6.943987310e-02, 2.667596638e-01, 2.526284456e-01, 
            1.968999356e-01, 2.372553796e-01, 3.488769531e-01, 
            -4.142995477e-01, 1.873670667e-01, -3.195495605e-01, 
            2.889614403e-01, 1.220137477e-01, 1.630122364e-01, 
            -7.075009495e-02, -8.208752275e-01, 5.223568901e-02, 
            2.010798752e-01, 1.720700562e-01, -4.095112979e-01, 
            -4.674501345e-02, -1.049993753e+00, -1.094425172e-01, 
            1.288977116e-01, -3.975190520e-01, 3.585874289e-02, 
            1.984536052e-01, 6.238946319e-02, -9.159244597e-02, 
            2.505171895e-01, -2.275208235e-01, -2.731734142e-02, 
            -2.248318940e-01, -2.521307170e-01, -1.353694405e-02, 
            -8.697335124e-01, -1.151389837e+00, 3.458606601e-01, 
            -8.422076702e-02, -5.258266348e-03, -5.383483768e-01, 
            -1.111163348e-01, 1.434358656e-01, 4.192311168e-01, 
            1.186779886e-01, 2.622961402e-01, -4.539097548e-01, 
            1.131657213e-01, 1.252429634e-01, -1.172472388e-01, 
            4.114890397e-01, 3.861213624e-01, 3.026207723e-02, 
            -1.292671263e-01, 2.274343558e-02, -6.277957559e-02, 
            -1.349281222e-01, 3.476637900e-01, 3.047933578e-01, 
            2.698876336e-02, 1.457053721e-01, 2.542283386e-02, 
            -8.158388734e-01, 3.260705769e-01, -6.235908866e-01, 
            -3.238582015e-01, -4.624938071e-01, -2.017841637e-01, 
            -1.409614086e-01},
        {1.643054783e-01, -1.905930936e-01, -2.126039267e-01, 
            1.051399186e-01, -1.217295006e-01, -3.142691553e-01, 
            1.448939592e-01, 2.950004041e-01, -3.199157715e-01, 
            -6.367605180e-02, 1.325016376e-02, 1.389924809e-02, 
            -3.530960530e-02, -1.954280771e-02, -4.160949588e-02, 
            -1.158027053e-01, 5.211280584e-01, -4.197675884e-01, 
            3.112995028e-01, -6.309140325e-01, -4.488272071e-01, 
            -2.197607458e-01, -3.325076699e-01, 2.001738995e-01, 
            -5.975359119e-03, 1.945556849e-01, 7.576823235e-02, 
            -1.010418460e-01, -8.158139139e-02, -2.579920888e-01, 
            1.418264210e-01, -1.856312454e-01, 5.346490443e-02, 
            -9.227767587e-02, 1.888384223e-01, -2.612245381e-01, 
            5.413161516e-01, -1.428798139e-01, -5.182935297e-02, 
            -6.544098854e-01, 2.195141912e-01, -2.531210184e-01, 
            -2.021162063e-01, 8.112977445e-02, 6.474893540e-02, 
            3.778643534e-02, -9.751292877e-03, -1.295307875e-01, 
            1.969473064e-01, -1.747725010e-01, 1.043448672e-01, 
            -4.480940998e-01, -2.365123332e-01, -4.249219969e-02, 
            -2.559432387e-01, -1.716922969e-01, 1.501086950e-01, 
            -2.759251297e-01, 1.223604828e-01, 1.759506613e-01, 
            3.585764468e-01, 1.915554255e-01, 9.274648130e-02, 
            2.114126831e-02, -5.050325990e-01, -1.194262728e-01, 
            -1.113299355e-01, 2.337577753e-02, 5.532749929e-03, 
            -1.874323785e-01, 1.105957851e-02, -1.842907071e-02, 
            -6.934216619e-02, 3.416997194e-01, -1.302157938e-01, 
            9.474197030e-02, -1.858889014e-01, 2.028177120e-02, 
            9.132401645e-02, -4.123262316e-02, 6.597903371e-01, 
            -4.244642556e-01, -4.863091111e-01, 4.455633759e-01, 
            -2.790041864e-01, 1.642719656e-01, -5.952222943e-01, 
            -2.505747378e-01, -8.803797537e-04, -3.480551541e-01, 
            2.369868308e-01, -3.955698311e-01, 1.884043068e-01, 
            -5.946469307e-01, 6.458967924e-02, -4.413791597e-01, 
            -3.384498507e-02, 6.009364128e-02, -7.314421237e-02, 
            -7.234165072e-02},
        {-3.699756563e-01, -2.608028054e-01, 1.932315230e-01, 
            -6.252871156e-01, 4.597948492e-02, 1.326505393e-01, 
            -3.885924518e-01, 3.586645424e-01, -8.247077465e-02, 
            1.166173741e-01, 1.065524518e-01, 2.747033536e-01, 
            1.672401279e-01, 2.386145443e-01, -6.455195546e-01, 
            7.466470450e-02, -1.100435853e-01, 8.422392420e-03, 
            3.670949042e-01, -2.062677592e-01, -5.497409776e-02, 
            2.882028222e-01, -1.147923097e-01, -3.085441291e-01, 
            1.525154859e-01, -1.741286218e-01, -6.504865363e-03, 
            1.303647012e-01, -6.460326910e-01, 2.043219358e-01, 
            -2.455640398e-02, 2.500361800e-01, -1.095828880e-02, 
            -2.646250427e-01, 3.461313546e-01, 1.311275363e-01, 
            1.056876332e-01, -2.073484957e-01, 1.028993446e-02, 
            -3.968596831e-02, -7.913386822e-02, 2.196716331e-02, 
            1.188232452e-01, 8.781444281e-02, -2.291081399e-01, 
            1.108001173e-01, -3.822347820e-01, -1.489401907e-01, 
            -2.289054245e-01, 1.424890310e-01, 3.056066334e-01, 
            7.317845523e-02, -1.048015356e-01, -1.495239437e-01, 
            -1.926591247e-01, -1.885588467e-01, 3.576146811e-02, 
            -2.760938741e-02, 1.961813308e-02, -4.300377369e-01, 
            -2.336968035e-01, -7.224312425e-01, 2.371535152e-01, 
            -3.801305890e-01, -8.044922352e-02, -1.797316670e-01, 
            -3.557620049e-01, -6.504388452e-01, 3.272407353e-01, 
            1.055365205e-01, -4.671161622e-02, -1.947930306e-01, 
            2.684203088e-01, 1.203931496e-02, 1.718022823e-01, 
            3.123243572e-03, 8.035359532e-02, 9.830509126e-02, 
            -4.965974987e-01, 1.062212363e-01, -6.102839112e-01, 
            3.569458723e-01, 3.971900940e-01, 2.336785793e-01, 
            1.089076176e-01, 2.118232846e-01, 5.886181816e-02, 
            1.345297843e-01, -7.492666692e-02, 9.881633520e-02, 
            -3.936874866e-01, -3.586975858e-02, -1.378709637e-02, 
            -2.994532585e-01, -1.281706244e-01, -1.131761074e-01, 
            2.485918552e-01, 3.103944659e-02, 3.922980428e-01, 
            -6.927309185e-02},
        {-1.013596177e+00, -3.162631094e-01, 7.387860864e-02, 
            -7.316705585e-02, -8.635959029e-02, -3.154220432e-02, 
            -2.212653607e-01, 2.821622193e-01, -3.288479745e-01, 
            3.571311831e-01, 1.424859464e-02, 1.517646611e-01, 
            2.115715295e-01, 3.267191947e-01, -8.388225734e-02, 
            1.142020151e-01, -6.487602741e-02, -1.549247503e-01, 
            2.300403267e-01, -5.465218797e-02, -1.869218946e-01, 
            2.509966791e-01, 1.571376175e-01, -2.726629674e-01, 
            -1.837835088e-02, -7.778254151e-02, 7.884477079e-02, 
            7.824941725e-02, -2.732100785e-01, 2.020240575e-02, 
            3.335738182e-01, 2.596432567e-01, -3.106008656e-02, 
            2.002704144e-01, 3.699429333e-01, 1.563786715e-01, 
            1.238627285e-01, -6.314459443e-02, 1.986347884e-01, 
            -2.161882818e-01, -1.444363743e-01, -2.176957577e-01, 
            -5.270920228e-04, 1.412453204e-01, -3.975127358e-03, 
            -7.328341156e-02, 7.474562526e-02, -1.483022980e-02, 
            -8.513258770e-03, 2.799013853e-01, 5.565224886e-01, 
            -2.287672907e-01, 5.899149776e-01, -3.077503107e-02, 
            3.253860399e-02, -1.269605905e-01, 1.396046281e-01, 
            -1.245274022e-01, 2.875706851e-01, -3.823691308e-01, 
            -1.070379317e-01, -1.892188936e-01, 3.365456164e-01, 
            -3.825062215e-01, -5.069769546e-02, -4.738793895e-02, 
            -4.533825517e-01, -3.758801520e-01, 9.233342111e-02, 
            3.177969754e-01, 1.047998220e-01, -1.591050252e-02, 
            -2.502442896e-01, -7.556710858e-03, 5.600171164e-03, 
            3.232738376e-02, 1.400830746e-01, 1.210580543e-01, 
            -8.754971623e-02, 4.188641440e-03, -2.781075835e-01, 
            2.302125245e-01, 2.416927814e-01, 2.792966664e-01, 
            1.982611045e-02, 2.453646213e-01, -2.625106871e-01, 
            1.065063253e-01, 1.515813638e-02, 1.598273404e-02, 
            -1.979888231e-02, -2.678950429e-01, 1.361668408e-01, 
            -3.470073640e-01, -6.918041408e-02, -5.071359873e-02, 
            3.163156509e-01, 6.363426894e-02, 2.348930985e-01, 
            -1.437302679e-01},
        {-3.736033142e-01, 7.314562798e-02, 1.520195901e-01, 
            -2.514693653e-03, -1.012514755e-01, 8.005951345e-02, 
            -3.892590404e-01, -1.016627997e-01, 2.001491785e-01, 
            -1.640538275e-01, -1.558643728e-01, 4.183211923e-01, 
            5.259369314e-02, 1.645678580e-01, -6.619388461e-01, 
            -6.152089238e-01, -4.722127616e-01, 2.073279321e-01, 
            1.168694347e-01, -9.916269220e-03, -4.786375165e-02, 
            2.864190936e-01, 3.543297946e-01, -8.074766397e-01, 
            -5.009658933e-01, -1.834192276e-01, -3.282730579e-01, 
            -3.083470762e-01, -6.463557482e-01, 1.883446574e-01, 
            -3.977752328e-01, 1.107197925e-01, -5.718854666e-01, 
            9.842693061e-02, -2.883682610e-04, 2.226046771e-01, 
            -7.772905827e-01, -7.650343329e-02, 2.195740044e-01, 
            3.848451972e-01, -5.368009210e-01, -5.487559736e-02, 
            1.129128337e-01, 2.022833526e-01, -5.472617224e-02, 
            1.260707676e-01, 1.558328792e-02, -1.479689777e-01, 
            -2.035310678e-02, 2.356940657e-01, 1.570686847e-01, 
            1.359580904e-01, 1.759229749e-01, 9.131531417e-02, 
            -4.429713488e-01, -3.681891784e-02, -5.526064634e-01, 
            -5.574613344e-03, -3.496804535e-01, -1.832330972e-01, 
            -2.821281850e-01, -6.991667151e-01, -4.058269858e-01, 
            -4.215652943e-01, 3.595099843e-04, -9.633243084e-03, 
            -5.049721599e-01, 8.838104457e-02, 1.865637600e-01, 
            2.809387147e-01, -4.739114344e-01, -5.332207084e-01, 
            5.969242007e-02, -4.326086342e-01, 3.152890503e-01, 
            1.172616035e-01, 3.307174146e-01, 2.528147101e-01, 
            -2.055494934e-01, -9.247363359e-02, -1.523571610e-01, 
            2.667393088e-01, 5.216342807e-01, -2.159013003e-01, 
            1.066824049e-01, 8.192537725e-02, 3.327240795e-02, 
            2.930580378e-01, -3.466316313e-02, 9.723038971e-02, 
            -2.995282710e-01, 4.037955105e-01, -1.380651444e-01, 
            1.403694004e-01, 1.368797272e-01, -9.777421504e-02, 
            2.829072475e-01, -3.997786045e-01, -5.158319604e-03, 
            -1.652937382e-01},
        {7.554665953e-02, -1.302630305e-01, -3.561369777e-01, 
            -2.066599131e-01, -2.209476680e-01, 1.403650194e-01, 
            1.530796736e-01, 1.313732564e-01, -5.105228722e-02, 
            -4.316490293e-01, -6.426335126e-02, -1.375174709e-02, 
            -6.910697371e-02, -1.243781000e-01, -6.290752888e-01, 
            7.296280563e-02, 2.830388844e-01, -5.849252939e-01, 
            4.428713620e-01, -1.502565444e-01, -3.092827797e-01, 
            -4.428676069e-01, -6.656374335e-01, -3.538736999e-01, 
            6.558808684e-02, 9.122017771e-02, 2.249432951e-01, 
            2.838643491e-01, -3.905840516e-01, 9.449143708e-02, 
            9.201611578e-02, 3.178820312e-01, 1.486973315e-01, 
            7.613716274e-02, 8.262219280e-02, 2.678854167e-01, 
            3.999547567e-03, -5.639079809e-01, 1.695021689e-01, 
            -4.119629264e-01, 6.692813337e-02, -3.588038087e-01, 
            2.458770126e-01, -3.237473071e-01, 1.079826280e-01, 
            -1.253315508e-01, -1.140848696e-01, -3.862517178e-01, 
            -2.255047411e-01, -1.059264690e-01, -1.485355571e-02, 
            -2.780356109e-01, -6.240239143e-01, -9.814063087e-04, 
            -4.184653163e-01, -4.873609245e-01, 1.548394710e-01, 
            -9.982381761e-02, 1.688518524e-01, -8.781781793e-02, 
            2.570312619e-01, -6.894958615e-01, 2.273246497e-01, 
            -7.141800523e-01, 2.524548583e-02, -9.586471319e-02, 
            -3.831419051e-01, -1.615410000e-01, 1.249462813e-01, 
            -2.463147044e-01, 2.974891663e-01, -5.192871094e-01, 
            -1.765334904e-01, 1.640375257e-01, 2.380086184e-01, 
            2.295074910e-01, -1.761021316e-01, -1.386199445e-01, 
            -1.574268639e-01, -8.072079159e-03, 1.989656091e-01, 
            5.461867154e-02, -2.799890004e-02, 8.743287623e-02, 
            -5.064405501e-02, -1.191657130e-02, -2.531266809e-01, 
            5.603590608e-02, -1.409875751e-01, -8.946576715e-02, 
            1.338295192e-01, -3.405042589e-01, 7.344038785e-02, 
            -1.157608628e-01, 3.714736179e-02, -5.602283031e-02, 
            6.545831263e-02, 1.156539842e-01, 1.668502092e-01, 
            5.061836168e-02},
        {-1.225542948e-01, -2.716965973e-02, 1.250276715e-01, 
            -2.252242416e-01, 7.133279741e-02, 3.276401460e-01, 
            -2.525939941e-01, -6.297842413e-02, 1.932872385e-01, 
            -4.045283496e-01, -1.321623027e-01, 3.502270579e-01, 
            1.694027483e-01, 3.359506726e-01, -6.057801843e-01, 
            8.799962699e-02, -1.918663532e-01, -5.505167320e-02, 
            2.783529460e-01, 7.502237707e-02, 4.396346807e-01, 
            -7.325104624e-02, -5.909539461e-01, -2.777123749e-01, 
            6.255388260e-02, -1.593833417e-01, -5.122006685e-02, 
            1.117406487e-01, -6.495049596e-01, 3.022966385e-01, 
            8.221415430e-02, 1.452171654e-01, -1.312817484e-01, 
            -3.305422887e-02, 3.030838370e-01, 3.706974387e-01, 
            2.574917860e-02, -3.285668790e-01, 6.847065687e-02, 
            2.381585725e-02, 1.636566035e-02, 4.302726686e-02, 
            2.340724170e-01, -2.208558172e-01, -1.809538007e-01, 
            -7.648636587e-03, -9.329493344e-02, -4.583261609e-01, 
            -2.144139409e-01, 3.292442858e-01, 1.006808877e-01, 
            2.110386044e-01, -6.693535298e-02, -2.609389462e-02, 
            -6.977256536e-01, -8.933266252e-02, -5.891652405e-02, 
            2.542257905e-01, 1.959764399e-02, -2.078027427e-01, 
            -2.851751447e-01, -2.949151695e-01, 1.626619250e-01, 
            -2.300828397e-01, 2.161992788e-01, 1.415809500e-03, 
            6.387087703e-02, -2.913757786e-02, 2.295873612e-01, 
            6.182761863e-02, 5.578355491e-02, -2.804641239e-02, 
            -2.044400573e-01, -6.377475709e-02, 2.836822867e-01, 
            -2.141795680e-02, 2.642509341e-01, 8.579412103e-02, 
            -3.983933926e-01, -3.187535331e-02, -2.038635015e-01, 
            4.112946093e-01, 3.072241247e-01, 9.066792578e-02, 
            3.633465469e-01, 2.363201678e-01, 4.678596556e-01, 
            2.521317899e-01, -1.360003203e-01, 1.968606412e-01, 
            4.554238915e-02, 3.746921569e-02, -1.136201899e-02, 
            -4.437340051e-02, 1.711776555e-01, 2.036500126e-01, 
            1.037550643e-01, -1.240383387e-01, 2.181785703e-01, 
            4.240185320e-01},
        {-7.645668834e-02, 3.177438676e-01, -3.897494674e-01, 
            -4.427573178e-03, 3.221310079e-01, 2.747146785e-01, 
            -3.403570354e-01, -1.672209799e-01, 9.981818497e-03, 
            7.759565115e-02, -8.309134245e-01, 2.767226696e-01, 
            4.314855859e-02, 2.503685057e-01, 1.409056485e-01, 
            -3.365229070e-01, -3.830085397e-01, -3.201371133e-01, 
            9.651727974e-03, -7.195869088e-02, 2.829702795e-01, 
            -3.821873665e-02, 3.257009685e-01, 3.975773975e-02, 
            -3.329879045e-01, -5.198610425e-01, 1.116665006e-01, 
            -6.222839355e-01, 1.446955651e-01, 2.601743340e-01, 
            -3.969669640e-01, 1.239940152e-02, -3.223579526e-01, 
            -2.445081025e-01, 1.379682571e-01, 2.975707129e-02, 
            -6.997181773e-01, 1.328074336e-01, 1.318627745e-01, 
            -5.705515146e-01, -4.543634057e-01, -3.450295329e-01, 
            -2.396284603e-02, -7.589910626e-01, -4.018667340e-02, 
            -9.263731837e-01, 3.064489663e-01, 1.084767580e-01, 
            -1.365728825e-01, 2.221061103e-02, -3.943605423e-01, 
            3.747262061e-01, -2.514298856e-01, -2.595378160e-01, 
            2.414345890e-01, -1.126441956e-01, -1.015587598e-01, 
            1.341802180e-01, -7.677777410e-01, -6.111468188e-03, 
            -1.386421025e-01, 2.600922994e-02, -5.131563544e-01, 
            4.210120142e-01, -2.612301381e-03, -2.591696978e-01, 
            3.459926546e-01, 1.245708019e-01, -9.849385172e-02, 
            1.721316725e-01, -2.141177356e-01, 3.387498558e-01, 
            6.801594049e-02, -8.074855804e-01, 5.645021424e-02, 
            1.494853646e-01, 1.766390353e-01, 5.541024208e-01, 
            -2.567118220e-02, -3.885751367e-01, 3.649161384e-02, 
            2.067891508e-01, 5.937758461e-02, -4.261569083e-01, 
            1.173967943e-01, -2.478716671e-01, 3.043446541e-01, 
            3.160689473e-01, -4.983916879e-01, 3.578999043e-01, 
            1.947727501e-01, 3.471902907e-01, -2.417158931e-01, 
            9.955076128e-02, -6.389884651e-02, -3.442694545e-01, 
            5.622332171e-02, -4.842659533e-01, -3.248498738e-01, 
            2.633969188e-01},
        {-3.237947822e-01, -2.500024736e-01, 3.757764995e-01, 
            -2.372796983e-01, -1.066082940e-01, 1.866718978e-01, 
            6.025152281e-03, 1.677851826e-01, 2.789269388e-01, 
            -1.286117882e-01, -1.898523420e-01, 3.114447892e-01, 
            1.245736703e-01, 3.566394448e-01, -7.247747183e-01, 
            -5.368879531e-03, -1.614035368e-01, 3.129227161e-01, 
            1.993889660e-01, 4.060980976e-01, 4.060054421e-01, 
            -3.700127080e-02, -6.022357345e-01, -3.357180059e-01, 
            1.288135201e-01, 6.583496183e-02, 1.076766029e-01, 
            6.275543571e-02, -6.714929342e-01, 3.406186104e-01, 
            -5.182614923e-02, 2.402308732e-01, -1.011414304e-01, 
            -1.521362513e-01, 1.542286724e-01, 3.111283779e-01, 
            1.496264786e-01, -4.381532967e-01, 1.137498766e-01, 
            2.288957089e-01, 9.433179349e-02, 6.506966054e-02, 
            3.027679212e-02, -1.387489308e-02, -2.485910058e-01, 
            1.904589981e-01, -2.876436710e-01, -4.928144217e-01, 
            -1.473992020e-01, 3.211573362e-01, 1.242487207e-01, 
            3.893146217e-01, 6.263800710e-02, 9.236197174e-02, 
            -5.113747120e-01, -3.310111910e-02, -4.169895779e-03, 
            3.115262091e-01, 2.836758085e-02, -1.954542547e-01, 
            -6.297392305e-03, -2.578354180e-01, -3.506784886e-02, 
            -4.412891269e-01, 3.572251201e-01, -2.047885060e-01, 
            -1.888315380e-01, -2.658736706e-01, 3.772511780e-01, 
            5.227649212e-01, -4.126174748e-02, -2.920927405e-01, 
            -1.727247238e-01, 5.855350755e-03, 1.473813951e-01, 
            -1.641772091e-01, 2.810896039e-01, 6.751500070e-02, 
            -3.602662683e-01, 6.761413813e-02, -6.164223328e-02, 
            3.563952744e-01, 3.961208165e-01, 1.220988706e-01, 
            3.935546875e-01, 4.148690030e-03, 3.608888984e-01, 
            1.343846023e-01, -2.746468782e-01, 9.382750839e-02, 
            3.827675283e-01, 1.946090311e-01, -8.619845659e-02, 
            -1.342160851e-01, 3.276838362e-01, 2.823283374e-01, 
            3.790309131e-01, 2.117212862e-01, 3.842597827e-02, 
            2.672982216e-01},
        {-5.582619309e-01, 1.713347435e-01, 5.939611420e-02, 
            -1.568687409e-01, 3.126820624e-01, 1.284803152e-01, 
            -9.127102792e-03, -2.276096195e-01, 4.426808953e-01, 
            -9.034495354e-01, 1.680306345e-01, -6.715421379e-02, 
            -4.436718822e-01, -1.530246437e-01, -1.054939851e-01, 
            3.103003204e-01, 2.780688405e-01, 2.803958654e-01, 
            -6.336431950e-02, 4.076717794e-01, -7.738137990e-02, 
            -5.317668319e-01, -8.494844437e-01, 8.595436811e-02, 
            4.438683689e-01, 3.148633242e-01, -4.280422255e-02, 
            1.169047877e-01, -1.619671732e-01, -5.051174015e-02, 
            1.961356252e-01, 8.061978966e-02, 2.081625760e-01, 
            -1.738286614e-01, -8.382835984e-02, 3.414791310e-03, 
            1.210990697e-01, 4.640188441e-02, -1.617270261e-01, 
            3.686330914e-01, 3.595809340e-01, 2.915758491e-01, 
            -6.899549812e-02, -1.599525511e-01, -1.117209196e-01, 
            -1.545071602e-02, -1.987043023e-01, 1.981749199e-02, 
            1.914876327e-02, -8.304082602e-02, -5.608252287e-01, 
            3.034614921e-01, -4.250128269e-01, 4.984918833e-01, 
            -6.484706700e-02, 1.482794136e-01, 1.056785882e-01, 
            8.419598453e-03, -6.670152396e-02, 1.240029782e-01, 
            -1.190341860e-01, -1.365766376e-01, 2.184089720e-01, 
            4.114296734e-01, 2.889043689e-01, 4.077436328e-01, 
            -2.399897389e-02, 1.249146760e-01, 7.148720324e-02, 
            -8.461742848e-02, -2.025422305e-01, -6.922486424e-02, 
            -6.444133520e-01, 1.071634069e-01, -5.887719244e-02, 
            -2.396109402e-01, -1.429960877e-01, -2.160081863e-01, 
            -3.127430379e-01, -2.151848227e-01, -2.327398956e-02, 
            -2.347636670e-01, -3.042398207e-02, 4.304385185e-02, 
            -2.013408989e-01, 7.696400583e-02, 2.077903748e-01, 
            -2.023294419e-01, -9.284123033e-02, 1.908750981e-01, 
            -2.037909627e-01, 2.754436433e-01, -1.463829577e-01, 
            1.044510603e-01, 1.868615746e-01, 8.247216791e-02, 
            -3.194035292e-01, 2.237236798e-01, -1.631470956e-02, 
            4.410821572e-02},
        {1.877634674e-01, 2.068888396e-01, -2.616241276e-01, 
            5.556966066e-01, 2.500546873e-01, 4.252175242e-02, 
            -4.336839318e-01, -2.917498648e-01, 1.857626289e-01, 
            -2.222692072e-01, 5.587910116e-02, -4.698968232e-01, 
            -6.296972632e-01, -2.694536746e-01, 4.762055278e-01, 
            -8.334541693e-03, 1.027033553e-01, -2.437341511e-01, 
            -3.815118223e-02, -1.182021797e-01, 1.165989228e-02, 
            -2.338919938e-01, 7.268674672e-02, 4.298120439e-01, 
            4.834876209e-02, -1.378400177e-01, 1.102854386e-01, 
            1.765688211e-01, 6.130554080e-01, -9.577867389e-02, 
            -1.090929843e-02, 6.728742272e-02, 1.618884355e-01, 
            2.542399988e-02, -8.580832183e-02, 4.695217684e-02, 
            8.504127711e-02, 1.675923765e-01, -3.413996696e-01, 
            1.172219664e-01, 2.324079722e-01, -1.180938706e-01, 
            1.021646187e-01, 1.389009207e-01, 4.171394408e-01, 
            2.577476799e-01, 1.740388870e-01, 3.251663744e-01, 
            3.059923351e-01, -2.271855325e-01, -3.347813487e-01, 
            -1.883658618e-01, -2.642312087e-02, 2.335527092e-01, 
            2.474336326e-01, -3.381682634e-01, -5.978418514e-02, 
            -1.045145243e-01, 4.779152572e-02, 5.046071410e-01, 
            2.110779099e-02, 4.049383998e-01, -3.101780452e-02, 
            4.670945704e-01, -9.652267396e-02, 3.438964486e-01, 
            3.807405233e-01, 1.557794511e-01, 6.294603646e-02, 
            -3.920077384e-01, 1.098711938e-01, 2.677490711e-01, 
            -2.338130772e-01, -1.226878352e-02, 5.038294569e-02, 
            -1.193009689e-01, -1.768043339e-01, 1.214575395e-01, 
            2.805195451e-01, 1.817781478e-01, -2.600136697e-01, 
            -2.071304768e-01, -2.647686899e-01, -1.721405834e-01, 
            -1.773522198e-01, -1.370045990e-01, -9.799998254e-02, 
            4.844160005e-02, 3.656226099e-01, 5.897275358e-02, 
            -5.535548925e-01, 2.196427733e-01, -2.048099637e-01, 
            1.777438819e-01, -1.315907240e-01, 5.421528593e-02, 
            -4.375933707e-01, -6.275750697e-02, -6.551555544e-02, 
            -2.634395659e-01},
        {-4.652623832e-02, 1.293277275e-02, -1.289959401e-01, 
            -4.389201403e-01, 3.452795744e-01, 3.136883080e-01, 
            1.382719427e-01, -9.716444463e-02, -3.787583858e-02, 
            -7.024492025e-01, 5.764948204e-02, -1.515655518e-01, 
            -5.502006039e-02, -1.835579574e-01, -3.713535070e-01, 
            1.839506030e-01, 2.050854638e-02, -5.360625982e-01, 
            3.113605976e-01, -2.480765060e-02, 1.133731529e-01, 
            -2.968042493e-01, -1.344574451e+00, 7.378329337e-02, 
            2.678890824e-01, -2.660768330e-01, -3.712445498e-02, 
            1.898739338e-01, -6.433825493e-01, 1.731395572e-01, 
            2.865019143e-01, 1.130464077e-01, 2.044909596e-01, 
            -2.719993293e-01, 1.861796677e-01, 3.500392437e-01, 
            -3.140735328e-01, -5.006194115e-01, -5.908963829e-02, 
            -3.750891387e-01, 1.130799856e-02, 4.382354091e-04, 
            3.043586016e-01, -5.351415873e-01, 1.995806582e-02, 
            -4.586645961e-01, -1.516015679e-01, -3.704213351e-02, 
            -3.451478183e-01, -2.655442059e-02, -1.620779783e-01, 
            2.774094045e-01, -1.768999547e-01, 7.775755227e-02, 
            -5.275985599e-01, -2.259393036e-01, 2.711398900e-01, 
            1.624254882e-01, 1.804401278e-01, -2.030947208e-01, 
            -5.518111214e-02, -4.078410938e-02, 1.666992456e-01, 
            8.415365964e-02, -3.898818791e-02, 4.617469013e-02, 
            2.842932045e-01, -9.835302085e-02, 2.921372652e-01, 
            -3.399971724e-01, 3.733118251e-02, 8.232542872e-02, 
            -5.417830870e-02, 6.148184091e-02, 3.869657218e-01, 
            -4.379953444e-02, -1.313366592e-01, -9.864176065e-02, 
            -5.493475199e-01, 3.191171587e-02, -2.114862949e-01, 
            4.000437260e-01, 2.452572435e-01, 2.161837816e-01, 
            2.229144871e-01, 1.029014215e-02, 2.691343725e-01, 
            -6.372381747e-02, -1.847582459e-01, 3.023776114e-01, 
            -1.091959924e-01, 4.540004134e-01, -5.519621074e-02, 
            -2.276719809e-01, 2.443378605e-02, -2.452245951e-01, 
            -2.954254448e-01, -2.431369573e-01, 2.813281417e-01, 
            9.251907468e-02},
        {-1.329921037e-01, 1.058004573e-01, 1.342330128e-01, 
            1.024546549e-01, 2.575170435e-02, -1.788807362e-01, 
            2.120244056e-01, -1.863402873e-01, 8.225348592e-02, 
            -2.776284516e-01, 1.422302723e-01, -2.480496317e-01, 
            -1.129587218e-01, -1.995182633e-01, 3.784328103e-01, 
            -4.943445623e-01, -2.258550972e-01, 2.764687836e-01, 
            -6.177542359e-02, -3.195901513e-01, -1.704824269e-01, 
            -2.113319486e-01, 2.128431499e-01, 2.599006593e-01, 
            -3.788044751e-01, -1.683549434e-01, 8.198868483e-02, 
            -6.526619792e-01, 3.732107580e-02, -7.011824846e-02, 
            -5.454723239e-01, -4.699448049e-01, -2.269059122e-01, 
            3.908401821e-03, -2.076436281e-01, -3.303003013e-01, 
            -1.875709742e-01, 3.336779475e-01, -1.867914349e-01, 
            5.390041471e-01, -1.494772136e-01, 3.190247118e-01, 
            -3.673864305e-01, -7.376600057e-02, 1.342562735e-01, 
            -5.918574333e-02, 1.195204183e-01, 3.427205086e-01, 
            1.494132169e-02, -3.768273592e-01, -9.702980518e-02, 
            -1.798551232e-01, -1.815866977e-01, 3.023273312e-02, 
            2.009534389e-01, 5.506684780e-01, 1.432039961e-02, 
            -1.323147714e-01, -4.713082016e-01, 8.018894494e-02, 
            3.594047129e-01, 3.174535036e-01, -2.766263485e-01, 
            3.764842451e-01, -1.121035516e-01, 2.646273673e-01, 
            3.014996648e-03, -1.089137867e-01, -4.101614654e-01, 
            1.043858975e-01, 2.915719748e-01, 4.502632022e-01, 
            2.347631902e-01, -3.592249155e-01, -9.080523998e-02, 
            -7.610627264e-02, -2.844802439e-01, 1.836122125e-01, 
            7.840889692e-02, -9.693637490e-02, 4.448607862e-01, 
            -1.933967471e-01, 1.772707999e-01, -5.313553214e-01, 
            -3.604446054e-01, -3.481613994e-01, -2.516025305e-02, 
            -1.798719466e-01, 1.619492918e-01, 6.463485211e-02, 
            -5.304078460e-01, 4.547710121e-01, -9.825030714e-02, 
            3.434574306e-01, -1.834709346e-01, -3.543058932e-01, 
            -3.655411303e-01, -2.969801128e-01, -6.472104788e-01, 
            -6.734642386e-01},
        {1.820861101e-01, -2.639540732e-01, -2.343380898e-01, 
            2.221924365e-01, -3.117333949e-01, 1.167444605e-02, 
            -1.360677741e-02, -3.148173690e-01, -9.388829023e-02, 
            -3.672176600e-01, 2.485381514e-01, -4.821463525e-01, 
            -9.408734441e-01, -4.059965909e-01, 1.967147291e-01, 
            3.090930581e-01, 4.667412341e-01, -2.381131202e-01, 
            -7.367466390e-02, -4.908133671e-02, -2.950395085e-02, 
            -5.692224503e-01, -2.353120893e-01, 3.724702820e-02, 
            1.262133718e-01, 5.439612269e-01, -1.604284197e-01, 
            3.184176683e-01, -2.461355552e-02, -2.737496793e-01, 
            2.603400648e-01, -2.289458737e-02, 5.281926990e-01, 
            -2.174116485e-02, -1.890338361e-01, -9.889220446e-02, 
            4.997619092e-01, -1.671658307e-01, -2.428074032e-01, 
            -2.506869733e-01, 4.154427946e-01, 6.379760802e-02, 
            -6.325292587e-02, 2.224197984e-01, 1.287127286e-01, 
            2.238257974e-01, -4.353089929e-01, -1.376255751e-01, 
            1.205841526e-01, -1.711955070e-01, -2.479432672e-01, 
            -1.323263794e-01, -7.057796717e-01, 1.092891619e-01, 
            -3.905356163e-03, -2.034986764e-01, 2.541901171e-01, 
            -4.298754632e-01, 2.074203789e-01, 2.605133653e-01, 
            -1.246696264e-01, -1.402795613e-01, 2.601076663e-01, 
            -2.278512567e-01, 6.825662404e-02, 2.278745174e-01, 
            -4.207585454e-01, -1.747071594e-01, 6.390541792e-02, 
            -9.274747968e-01, 2.645733058e-01, -8.556156158e-01, 
            -6.058513522e-01, 3.775304258e-01, -7.540236413e-02, 
            -2.088808119e-01, -5.122192502e-01, -2.689746022e-01, 
            1.965726614e-01, 4.169211090e-01, -9.241102636e-02, 
            -9.139029682e-02, -4.456351399e-01, 8.714599162e-02, 
            -1.679904908e-01, -1.758244336e-01, -2.945756167e-02, 
            -1.597767323e-01, 2.979047894e-01, -3.553392589e-01, 
            -4.985827506e-01, -6.828161478e-01, 1.645308733e-01, 
            -5.161913484e-02, -1.400048882e-01, -5.731667951e-02, 
            -5.868273377e-01, 2.185344845e-01, 2.285649627e-02, 
            -3.571653664e-01},
        {-4.566119611e-01, -7.388088107e-02, -1.647070795e-01, 
            -2.183790207e-01, -2.648411505e-02, 9.906218201e-02, 
            -3.348181844e-01, 9.613232315e-02, -9.544824064e-02, 
            5.004609749e-02, 1.532238126e-01, -9.905701131e-02, 
            3.593065543e-03, -2.099092305e-01, 2.066428959e-01, 
            3.557623327e-01, 1.299002767e-01, -1.746745110e-01, 
            4.285331443e-02, 1.635089666e-01, 1.132670566e-01, 
            6.439662725e-02, -6.119770929e-02, 3.751546144e-01, 
            1.812873781e-01, 1.319550276e-01, 4.379518330e-02, 
            4.705622196e-01, 5.737700686e-02, 8.741717041e-02, 
            5.791918635e-01, 1.474604756e-01, 3.856106102e-01, 
            1.685330570e-01, 2.390871346e-01, 1.130675301e-01, 
            -3.403317034e-01, -6.410477310e-02, 3.215469792e-02, 
            -2.549918890e-01, 2.852697074e-01, -2.227095887e-02, 
            9.393715858e-02, -2.637452483e-01, 1.457293034e-01, 
            -2.049147487e-01, -7.349072397e-02, -3.062209189e-01, 
            -2.688873112e-01, 2.480358481e-01, 1.130031422e-01, 
            3.479956836e-02, -4.443679154e-01, -3.300319314e-01, 
            -3.958664536e-01, -7.645993233e-01, 1.488355994e-01, 
            1.094293222e-01, 2.940066755e-01, 9.179035202e-03, 
            1.578713655e-01, -1.730938107e-01, 3.432046771e-01, 
            -6.727935374e-02, 1.604332626e-01, -2.574854493e-01, 
            -2.058652788e-01, -4.588166177e-01, 3.535344005e-01, 
            -2.085587680e-01, 3.179935515e-01, -4.933009148e-01, 
            -4.695805013e-01, 3.844111264e-01, 2.061491162e-01, 
            2.095636427e-01, -3.164115362e-03, -3.013886213e-01, 
            -1.264950484e-01, 2.671227157e-01, -1.174894348e-01, 
            -1.993966103e-01, -3.312861919e-01, 3.728655279e-01, 
            1.724104881e-01, 1.805366576e-02, -6.627129763e-02, 
            1.153804585e-01, 3.620747924e-01, -7.781037688e-02, 
            6.945354491e-02, -4.357239306e-01, 1.853514761e-01, 
            -1.662385315e-01, 2.707174122e-01, -3.187523782e-02, 
            -6.085715443e-02, 1.712218821e-01, 9.264624864e-02, 
            -1.017476767e-01},
        {-3.602781892e-01, -1.563895494e-01, -1.781000346e-01, 
            1.780712008e-01, -1.836280674e-01, -1.420518905e-01, 
            -5.132866502e-01, 4.160987586e-02, 3.209729195e-01, 
            3.965649009e-01, 4.376994669e-01, -1.952504218e-01, 
            -8.687797785e-01, -2.744556367e-01, 1.439064443e-01, 
            -1.181473061e-01, -1.668865383e-01, -5.830362439e-01, 
            -2.959144413e-01, 5.006929636e-01, 2.279336303e-01, 
            1.338995993e-01, -6.443856657e-02, 1.349912882e-01, 
            -2.053290457e-01, 1.317422092e-01, 2.194189932e-03, 
            9.424846619e-02, -6.392610818e-02, -1.105961874e-01, 
            -1.230793074e-02, -1.468550712e-01, 1.944439858e-01, 
            -1.708487631e-03, -3.842731565e-02, -2.521722019e-01, 
            7.589831948e-02, -2.600508630e-01, -2.168954760e-01, 
            1.699498743e-01, 5.920443684e-02, -6.936435401e-02, 
            -1.574050784e-01, 4.297023714e-01, 1.443165392e-01, 
            6.382098198e-01, -2.293084711e-01, -2.685043514e-01, 
            3.581069410e-01, -3.543925583e-01, 1.649242938e-01, 
            1.161744222e-01, -2.014708668e-01, -2.311618179e-01, 
            8.000877500e-02, -1.075337410e+00, -2.032311112e-01, 
            -7.168831676e-02, 2.781179249e-01, -3.966105636e-03, 
            -9.817361832e-02, -1.104299724e-01, 1.015141327e-02, 
            -6.127622724e-01, 2.254845649e-01, 2.580707967e-01, 
            1.230895054e-03, 5.961756408e-02, -2.412196621e-02, 
            -4.415462017e-01, -1.470826864e-01, -3.296717703e-01, 
            -5.782892108e-01, 3.172622323e-01, -8.535411209e-02, 
            1.922945231e-01, -2.449388951e-01, -3.819758892e-01, 
            2.625047565e-01, 2.011466026e-01, -2.850413620e-01, 
            -1.690392941e-01, -5.911477804e-01, -5.195660889e-02, 
            1.850471199e-01, -1.311250478e-01, 6.273495406e-02, 
            -2.791400068e-02, 1.958709657e-01, -1.554339826e-01, 
            -2.754697204e-01, -5.971361995e-01, 2.954418361e-01, 
            4.299628735e-01, -8.939520270e-02, 2.521077991e-01, 
            -1.874890774e-01, 1.691385508e-01, -6.619036943e-02, 
            -4.441824555e-02},
        {-4.869998395e-01, 1.176579040e-03, 1.420786828e-01, 
            1.646268666e-01, -3.105562553e-02, 2.405373901e-01, 
            -1.537807226e+00, -4.247369245e-02, 1.807462275e-01, 
            -4.784210399e-02, 3.220133483e-01, 9.346896410e-02, 
            -6.370929480e-01, -2.501526177e-01, 1.868157685e-01, 
            2.136817724e-01, -5.015866831e-02, 3.961723763e-03, 
            3.090465963e-01, 1.785313040e-01, 1.386445165e-01, 
            1.968470514e-01, -1.199977994e-01, 1.406556815e-01, 
            2.682887316e-01, 5.018476769e-02, 2.540020049e-01, 
            3.452613652e-01, -7.905574143e-02, 2.251900360e-02, 
            3.289757669e-01, 2.727976441e-01, 1.679314673e-01, 
            1.332418919e-01, 1.903690696e-01, 1.715747714e-01, 
            -1.720360853e-02, -2.667366266e-01, 3.916547820e-02, 
            -1.106455773e-01, 2.306804210e-01, 8.185055107e-02, 
            1.793024838e-01, 1.931174099e-01, 2.662339807e-01, 
            3.838312626e-01, -1.036097407e-01, -3.354420885e-02, 
            1.446374953e-01, 2.398337871e-01, -1.665255241e-02, 
            1.250851750e-01, -4.980545640e-01, -2.117543668e-01, 
            -3.550295234e-01, -8.671830297e-01, 4.263718128e-01, 
            1.574584246e-01, 2.656931281e-01, 2.510772645e-01, 
            -2.810979486e-01, -1.285145581e-01, 4.148041308e-01, 
            -3.095481396e-01, 3.900189325e-02, 3.261064291e-01, 
            -1.484520920e-02, 1.073471531e-01, 1.485804021e-01, 
            4.418787733e-02, 1.765717864e-01, -1.245436296e-01, 
            -1.312595129e+00, 3.662120998e-01, 8.077260107e-02, 
            -4.994591773e-01, 4.738531634e-02, -3.840520084e-01, 
            5.740856007e-02, 1.603275090e-01, -2.604482770e-01, 
            4.088433087e-02, -1.404859871e-01, 2.988794148e-01, 
            5.952287931e-03, 2.730657756e-01, 1.927353740e-01, 
            3.825015575e-02, 3.384745717e-01, 6.252335012e-02, 
            -1.242400110e-01, -1.365917474e-01, 1.195688993e-01, 
            3.624507412e-02, 1.749580353e-02, 7.436718792e-03, 
            -1.489088833e-01, 1.670139581e-01, 1.005659178e-01, 
            1.082772091e-01},
        {2.524603903e-01, 2.173262388e-01, 1.739753783e-01, 
            2.106577605e-01, 3.694573641e-01, 3.069097400e-01, 
            -5.990227461e-01, -2.040965110e-01, 4.017237425e-01, 
            -4.512937367e-01, -1.418805718e-01, -1.517261118e-01, 
            -7.200490832e-01, -1.382684857e-01, -1.704103053e-01, 
            -5.020360276e-02, -8.799893409e-02, 7.794556767e-02, 
            -9.417065233e-02, 5.835853890e-02, 2.585433125e-01, 
            1.247246563e-02, 7.642618567e-02, 9.789580852e-02, 
            2.757661641e-01, 1.107472181e-01, -2.561462522e-01, 
            -9.308268130e-02, -1.510148793e-01, 1.993734092e-01, 
            -1.736587733e-01, 3.765543923e-02, 2.222558707e-01, 
            -5.565197393e-02, -2.103621662e-01, -9.011219442e-02, 
            -6.881081313e-02, -1.556623131e-01, -8.221570402e-02, 
            4.475333691e-01, -1.203193739e-01, 1.352099180e-01, 
            1.087273359e-01, -2.835477889e-01, 2.405845933e-02, 
            1.363397092e-01, 1.561435461e-01, 2.031467706e-01, 
            3.827979043e-02, -5.302042887e-02, -4.741570652e-01, 
            2.514230013e-01, 9.857484698e-02, 4.785893857e-01, 
            -4.533410370e-01, 2.222631685e-02, -1.158196330e-01, 
            1.678981781e-01, -2.459704131e-01, 2.031545341e-01, 
            -2.015139610e-01, -1.120128334e-01, -1.333028674e-01, 
            2.909698784e-01, 3.524112999e-01, 3.018318117e-01, 
            7.279396057e-02, 2.018708177e-02, 1.081789136e-01, 
            2.213564366e-01, -1.630633175e-01, 2.249399722e-01, 
            -5.432547331e-01, -1.258510649e-01, 7.610474527e-02, 
            -2.958825231e-01, 1.448489279e-01, -9.280694276e-02, 
            1.043539122e-01, -2.740934193e-01, -2.273941636e-01, 
            6.702257693e-02, -1.311187148e-01, -2.579554915e-01, 
            2.211294770e-01, -2.643353641e-01, 2.794521451e-01, 
            8.340795338e-02, -2.794657052e-01, 2.629671693e-01, 
            -1.376244873e-01, 2.122609019e-01, -4.648311138e-01, 
            1.850580126e-01, -9.735126793e-02, -7.665744424e-02, 
            -2.719509900e-01, 3.888692334e-02, 1.714495197e-02, 
            2.238618881e-01},
        {2.585888207e-01, -2.722419798e-01, 1.472995728e-01, 
            2.007435262e-01, -2.826891541e-01, -8.633804321e-01, 
            -3.214949369e-01, 2.631531954e-01, 6.883918494e-02, 
            1.519395709e-01, 6.136401892e-01, -5.368863940e-01, 
            1.930671036e-01, -5.218924284e-01, -1.035687327e-01, 
            -5.222758651e-01, -6.775526702e-02, -8.288138360e-02, 
            -6.392735243e-02, 1.436091810e-01, -1.016482413e-01, 
            2.138715386e-01, -1.897712350e-01, 3.581372797e-01, 
            -6.738662124e-01, 2.104022205e-01, -4.390554428e-01, 
            -3.916491941e-02, 1.466940045e-01, -7.290382385e-01, 
            -2.645882368e-01, -1.443297863e+00, 4.197851121e-01, 
            1.961662769e-01, -7.764804959e-01, -5.854710937e-01, 
            6.574233174e-01, -6.484657526e-02, -1.393256038e-01, 
            1.256926656e-01, 3.207790852e-01, -3.992803991e-01, 
            -1.173729181e+00, 6.264712811e-01, 2.769446075e-01, 
            7.739381194e-01, -1.707513481e-01, -3.252692223e-01, 
            1.878087521e-01, -6.476995945e-01, 4.451861084e-01, 
            -9.049291909e-02, -4.810251296e-01, -4.079809412e-02, 
            4.035491347e-01, -8.796282411e-01, -4.320019782e-01, 
            -3.181540072e-01, 3.295792937e-01, 3.539849520e-01, 
            -1.628057659e-01, -6.086519733e-02, -9.541095495e-01, 
            -4.114491045e-01, -1.551076770e-01, 4.014235139e-01, 
            -4.959136993e-02, 1.792961210e-01, -1.073711753e+00, 
            -1.852358431e-01, -3.967633843e-01, -4.504546225e-01, 
            -4.755326807e-01, 3.975427449e-01, -1.013554811e+00, 
            -2.009707689e-02, -4.432021081e-01, -3.929979205e-01, 
            1.241555139e-01, 9.709870815e-02, 8.129261434e-02, 
            -5.654465556e-01, -6.999951005e-01, -5.685012341e-01, 
            -4.680272341e-01, -1.004153639e-01, -1.994252652e-01, 
            -9.052344561e-01, 4.740462899e-01, -8.732112646e-01, 
            -9.275328368e-02, -4.705093801e-01, 3.792834282e-01, 
            4.227988720e-01, -4.724270701e-01, 3.034057021e-01, 
            2.155686170e-01, 2.553621531e-01, -1.178825855e+00, 
            7.457055151e-02},
        {-9.989563376e-02, 2.376162410e-01, 1.219218522e-01, 
            4.539866745e-01, 1.397536397e-01, 7.576313615e-02, 
            -6.885234714e-01, -4.806930125e-01, 3.625143170e-01, 
            -1.642674953e-01, 2.125151306e-01, -2.476721853e-01, 
            -8.083288670e-01, -3.125761449e-01, -2.246023566e-01, 
            -2.818878507e-03, -1.577681005e-01, -8.026400954e-02, 
            -4.037822187e-01, 1.017955542e-01, -3.188461810e-02, 
            -1.425239593e-01, 1.682075113e-01, 1.851839572e-01, 
            1.665139794e-01, -1.092398241e-01, -7.845666260e-02, 
            -2.025891095e-01, 1.569841206e-01, -2.492917925e-01, 
            -6.781709939e-02, 1.008565798e-01, 1.413246393e-01, 
            2.819112875e-02, -3.186503351e-01, 8.380902559e-02, 
            -1.248971280e-02, -8.399140090e-02, -3.111036420e-01, 
            3.297519088e-01, 1.491215974e-01, -8.181887679e-03, 
            1.255705208e-01, 4.243069142e-02, 3.355045021e-01, 
            1.740172356e-01, -5.199953914e-03, 4.831694663e-01, 
            5.137113333e-01, 5.494839326e-02, -3.069510460e-01, 
            2.458685338e-01, -4.304389060e-01, 2.143518329e-01, 
            -2.377728224e-01, 1.151876897e-01, -7.988061756e-02, 
            -1.923948377e-01, 2.965591475e-02, 4.813815355e-01, 
            -3.396489322e-01, -3.134179711e-01, -1.220782176e-01, 
            2.854445279e-01, 2.676050365e-01, 3.818712831e-01, 
            1.630520970e-01, 2.080238760e-01, -2.014650404e-01, 
            -1.530704349e-01, -1.140952930e-01, -3.667435050e-01, 
            -3.311268091e-01, -9.933791310e-02, -1.099532172e-01, 
            -2.527461648e-01, -3.213428557e-01, -2.879612148e-01, 
            3.896124065e-01, -5.921871588e-02, -6.581873894e-01, 
            -1.865887344e-01, -2.076501846e-01, -3.705490828e-01, 
            -1.913973689e-02, -3.049820364e-01, 1.346578747e-01, 
            -7.840853930e-02, 2.313389070e-02, -1.555429548e-01, 
            -3.371136785e-01, 2.991590500e-01, -2.624051869e-01, 
            2.065799534e-01, -2.696067095e-01, 1.287144423e-01, 
            -4.833787382e-01, 2.523748577e-01, -6.023608521e-02, 
            7.706657052e-03},
        {-8.251588792e-03, -7.903157175e-02, -6.009584293e-02, 
            -2.592153847e-01, 6.303680688e-02, 2.647684216e-01, 
            8.370038122e-02, 1.514540017e-01, -1.754293740e-01, 
            -3.889236450e-01, -6.414939165e-01, 1.902479082e-01, 
            5.795965716e-02, 3.489807844e-01, -9.916620255e-01, 
            -3.519640118e-02, 2.008904666e-01, -4.934940040e-01, 
            2.120870501e-01, -8.006016910e-02, 2.942107916e-01, 
            -1.753177792e-01, -1.698495299e-01, -4.287590981e-01, 
            -2.268041074e-01, -1.983147711e-01, -2.467328869e-02, 
            1.066252664e-01, -5.211999416e-01, 4.505099058e-01, 
            6.321998686e-02, 1.319484264e-01, -3.879584074e-01, 
            -2.861694805e-02, 1.630159765e-01, 3.205543756e-01, 
            3.338647187e-01, -5.193907022e-01, -2.859103307e-02, 
            -6.592022777e-01, -4.162846208e-01, -4.154117107e-01, 
            2.227831483e-01, -1.388614029e-01, -4.401926398e-01, 
            -1.569627374e-01, 7.074352354e-02, -4.214743078e-01, 
            -6.595318913e-01, 4.273400083e-02, -1.776296347e-01, 
            1.828363091e-01, 1.363540590e-01, -3.181019723e-01, 
            -4.957517609e-02, -2.537273765e-01, -6.380802020e-03, 
            3.040580153e-01, 5.798210949e-02, -3.320413828e-01, 
            -1.603461355e-01, 1.339888126e-01, 1.540701091e-01, 
            -4.614056051e-01, 2.503579296e-02, -8.049854636e-01, 
            1.812794656e-01, 1.298612356e-01, 2.064606845e-01, 
            -7.764213718e-03, -1.684616953e-01, 3.424727023e-01, 
            4.849622026e-02, -1.566421986e-01, -4.495289642e-03, 
            -6.928204745e-02, -8.915930986e-03, 2.686517872e-02, 
            -6.502602100e-01, 5.731360614e-02, 1.585406959e-01, 
            3.248172402e-01, 2.219689488e-01, 9.434922040e-02, 
            3.889457881e-01, 1.814214326e-02, 4.516691342e-02, 
            9.422381222e-02, -2.933616936e-01, 1.617275178e-01, 
            1.843689531e-01, -4.616186395e-02, 3.984826431e-02, 
            -2.807585895e-01, 1.086121202e-01, 1.422211826e-01, 
            -5.570740253e-02, 6.251963973e-02, 3.934284672e-02, 
            2.559615076e-01},
        {-9.638212621e-02, -7.428281475e-03, 3.483735323e-01, 
            4.555023909e-01, -2.390975654e-01, -6.578437984e-02, 
            -2.594745159e-01, -7.365002632e-01, 1.379378736e-01, 
            -2.407004833e-01, -4.072718695e-02, 3.930849209e-02, 
            -3.599873483e-01, -5.307124555e-02, -3.253437281e-01, 
            -5.181576610e-01, -2.098242044e-01, 4.055079818e-01, 
            -7.008973360e-01, 3.049486876e-01, 2.167573273e-01, 
            -9.751686454e-02, 1.227461398e-01, -2.599879168e-03, 
            -1.009922996e-01, 8.456174284e-02, -4.059062302e-01, 
            -6.088057756e-01, 3.547161818e-01, -4.520211369e-02, 
            -5.902172327e-01, -3.720425665e-01, 1.842284808e-03, 
            -3.459213972e-01, -4.239587188e-01, -4.040483758e-02, 
            -8.452797681e-02, -1.619748920e-01, 6.840780843e-03, 
            6.265013814e-01, -2.954961658e-01, 4.845137894e-01, 
            -4.199738801e-01, 1.831284761e-01, -9.400156140e-02, 
            1.302349865e-01, -2.339742035e-01, 3.192395866e-01, 
            3.126243353e-01, 9.529840946e-02, -3.601517081e-01, 
            1.596655548e-01, -4.797886610e-01, 2.108780742e-01, 
            -1.861651540e-01, 5.774921775e-01, -7.247557640e-01, 
            7.459218800e-02, -5.301340818e-01, 1.692760438e-01, 
            -2.315388471e-01, -2.489247322e-01, -8.224120736e-01, 
            2.279668152e-01, 2.455181926e-01, 1.824553013e-01, 
            -4.366382062e-01, 4.575064778e-02, -3.051613867e-01, 
            1.336138546e-01, -5.381163955e-01, -9.579485655e-01, 
            3.565810621e-02, -3.410467505e-01, 6.146713160e-03, 
            -2.351778150e-01, 2.556955516e-01, -3.984318674e-01, 
            3.836873770e-01, -1.263059080e-01, 2.251473367e-01, 
            -7.347038481e-03, 2.573494613e-01, -5.600376129e-01, 
            2.042407542e-02, -6.520222425e-01, 1.579675078e-01, 
            -2.474860549e-01, 1.444876939e-01, 2.289787829e-01, 
            -6.592778862e-02, 1.064157784e-01, -6.750478148e-01, 
            3.632898927e-01, 3.029597923e-02, 1.101901829e-01, 
            -2.762358189e-01, -2.943951171e-03, -6.231477261e-01, 
            5.010423064e-02},
        {-5.710772872e-01, 2.228158154e-02, -1.733377576e-01, 
            -1.457460970e-01, 2.679827996e-02, 4.318166152e-02, 
            7.244288921e-02, -6.346769631e-02, -1.828204468e-02, 
            -2.302003205e-01, -5.250434950e-02, -4.578031600e-02, 
            4.639823921e-03, -1.297487468e-01, 1.340015829e-01, 
            3.759835362e-01, 1.785753220e-01, -9.683011472e-02, 
            -5.618939549e-02, 6.706774235e-02, 1.786696464e-01, 
            -2.388408482e-01, -5.402342081e-01, 1.462024599e-01, 
            5.000319481e-01, 4.432428163e-03, 1.865243763e-01, 
            3.467955291e-01, 1.399243157e-02, 4.180952534e-02, 
            3.650245368e-01, 1.846592426e-01, 2.903725803e-01, 
            -8.849707246e-02, 7.160884887e-02, 3.517419100e-02, 
            -3.982122540e-01, 8.285392821e-02, 1.891179569e-02, 
            -3.940470815e-01, 3.881395757e-01, -1.678223722e-02, 
            9.113664925e-02, -2.816510797e-01, 5.010168627e-02, 
            -3.847883642e-01, -5.996609107e-02, -3.362127244e-01, 
            -1.643742323e-01, -2.070544474e-02, -2.805117965e-01, 
            -1.393806338e-01, -5.569798946e-01, -3.036918342e-01, 
            -2.338361144e-01, -5.607265234e-01, 1.872684360e-01, 
            1.143875122e-01, 4.272927046e-01, -4.411257803e-02, 
            -5.734530091e-02, -1.640071534e-02, 5.214630961e-01, 
            4.070663452e-02, 1.463191956e-01, -1.426663548e-01, 
            -3.312102333e-02, -1.043712273e-01, 1.288418025e-01, 
            -6.983007770e-03, 1.008989960e-01, -1.983815283e-01, 
            -2.141912133e-01, 2.813555002e-01, -2.638552571e-03, 
            3.043449670e-02, -5.344147235e-02, -2.567902505e-01, 
            9.308102727e-02, 1.646589488e-01, 6.995665375e-03, 
            -1.012948602e-01, -4.267596006e-01, 1.907479763e-01, 
            1.346231103e-01, 2.171760052e-01, 3.024704522e-03, 
            -1.835806072e-01, 1.454860903e-02, -1.692143455e-02, 
            -1.364933699e-01, -3.622237444e-01, 2.289311737e-01, 
            -2.571702898e-01, 2.428903431e-01, -6.981228292e-02, 
            -3.153849244e-01, 3.913076222e-02, 3.214818537e-01, 
            -2.599626966e-02},
        {2.614745796e-01, -2.476909012e-02, -1.293273121e-01, 
            -2.271363884e-01, -1.414219439e-01, 9.707722813e-02, 
            -2.050435990e-01, 3.437087238e-01, -7.821230590e-02, 
            2.372208089e-01, -3.335497379e-01, 3.956355453e-01, 
            -2.250251174e-02, 2.998218536e-01, 8.766026795e-02, 
            1.055150703e-01, 4.514001310e-02, -3.581998050e-01, 
            5.196902156e-01, -1.844373792e-01, 2.744425237e-01, 
            -4.021154344e-02, 3.142397851e-02, 1.262456272e-02, 
            -2.082472295e-01, -2.197206318e-01, 2.570798099e-01, 
            -4.100862890e-02, -2.123577446e-01, 2.093864679e-01, 
            -1.502813995e-01, 9.889506549e-02, -3.012878597e-01, 
            -3.451136872e-02, 3.269953430e-01, 4.385979176e-01, 
            -2.599189579e-01, 1.187415421e-01, 9.271521866e-02, 
            -5.475181937e-01, -2.894192040e-01, -3.081673384e-01, 
            2.936285436e-01, -1.063097194e-01, -2.013229579e-01, 
            -3.713774979e-01, 2.488799095e-01, -2.248795182e-01, 
            -5.201780796e-01, 1.720037460e-01, 1.598343551e-01, 
            2.640381157e-01, 8.759751916e-02, -5.838153362e-01, 
            5.162595771e-03, -6.736762524e-01, 2.938259542e-01, 
            4.111725986e-01, -2.662986517e-01, -2.457344681e-01, 
            3.263802230e-01, 3.275028169e-01, -2.425201796e-02, 
            -3.309081495e-02, -1.121353656e-01, -5.198373199e-01, 
            1.771686375e-01, 8.154144138e-02, 7.896549255e-02, 
            1.417871863e-01, 3.086230457e-01, 5.489904284e-01, 
            -4.377719164e-01, -3.647912145e-01, 1.101943627e-01, 
            -1.062268391e-02, 1.285202522e-02, 4.727791846e-01, 
            -4.712498486e-01, -1.696861088e-01, 4.505230486e-01, 
            4.140921533e-01, 8.655684441e-02, 2.380454093e-01, 
            3.461513519e-01, 3.148698509e-01, 1.253209710e-01, 
            1.870549768e-01, -2.845563293e-01, 2.249009907e-01, 
            1.576444358e-01, -1.678080708e-01, 1.239748672e-01, 
            -4.059062600e-01, 6.883643568e-03, -2.134965062e-01, 
            1.783459634e-01, -7.617639750e-02, 1.410467327e-01, 
            4.469966888e-02},
        {-2.731166780e-01, -8.357645571e-02, -1.267510355e-01, 
            -2.924056947e-01, 5.428124219e-02, 1.508265436e-01, 
            -8.209180087e-03, -6.862487644e-02, 8.672336489e-02, 
            -4.252147079e-01, -3.206538558e-01, -6.927661598e-02, 
            9.209705144e-02, -1.411278248e-01, -2.023745030e-01, 
            4.545443058e-01, -2.368433028e-02, -3.423322141e-01, 
            -1.333771348e-01, 7.506341487e-02, 6.558748335e-02, 
            -3.120121360e-01, -9.644005895e-01, -1.813048571e-01, 
            4.020653665e-01, 5.345324427e-02, 3.025429845e-01, 
            4.890829325e-01, -5.481189489e-01, 1.287382394e-01, 
            4.663113058e-01, 5.486382246e-01, -1.110166311e-01, 
            -1.726475060e-01, 6.616871059e-02, 1.937298924e-01, 
            -1.681294739e-01, -4.481201172e-01, 5.334504694e-02, 
            -6.365504116e-02, -1.329087764e-01, 1.235568002e-01, 
            2.625607550e-01, -3.045464456e-01, -1.793362945e-01, 
            -1.977831721e-01, -1.257952899e-01, -3.376496136e-01, 
            -4.052988887e-01, 2.156644315e-02, -1.030077562e-01, 
            4.964047298e-02, -7.748911381e-01, 6.669430435e-02, 
            -6.848312616e-01, -9.749545902e-02, 2.766042352e-01, 
            1.045436934e-01, 7.624763995e-02, -1.364829987e-01, 
            7.819461636e-03, -3.436761200e-01, 3.474734128e-01, 
            -2.654626966e-01, 1.238099337e-01, -2.692988329e-02, 
            -2.910324372e-02, 2.120506465e-01, 2.278390825e-01, 
            -5.856856238e-03, 2.482644022e-01, -3.160359263e-01, 
            -8.362863213e-02, -1.132003665e-01, -4.785519093e-02, 
            1.205338910e-01, 6.421457231e-02, -4.798613489e-01, 
            -2.991372347e-01, 3.128286898e-01, -8.908923715e-02, 
            1.340018511e-01, -7.736274600e-02, 1.737445444e-01, 
            -7.837689668e-02, 1.401655823e-01, 2.711450756e-01, 
            -2.086196244e-01, -4.687004536e-02, 7.758342475e-02, 
            -2.104075253e-02, 7.449932396e-02, 2.150930762e-01, 
            -1.500373054e-02, -1.206952184e-01, -1.268564016e-01, 
            -8.022169769e-02, -1.753019989e-01, 4.576318264e-01, 
            -2.682243101e-02},
        {2.432553470e-01, -2.186838686e-01, -2.217216790e-01, 
            2.559298277e-01, -2.602486610e-01, -6.354679167e-02, 
            3.111471832e-01, -1.096823253e-02, -2.949267812e-02, 
            8.074621670e-03, 5.197171569e-01, -6.120814681e-01, 
            -2.151562721e-01, -5.636979342e-01, 1.421325505e-01, 
            3.626175970e-02, 3.265311420e-01, -1.836639345e-01, 
            -2.257120982e-02, -4.941764474e-02, -3.080294430e-01, 
            -7.301591337e-02, -8.574461192e-02, 2.344376147e-01, 
            -6.448209286e-02, -7.120884955e-02, -1.757708639e-01, 
            1.562234163e-01, 4.989993200e-02, -6.059685349e-02, 
            3.054292798e-01, -1.603159159e-01, 2.912133038e-01, 
            2.301279008e-01, -2.200659066e-01, -1.012809053e-01, 
            3.567020297e-01, -2.129498720e-01, -2.112196237e-01, 
            2.359353937e-02, 6.033679470e-02, 4.910750687e-02, 
